2996 64
C0004096 1.45446 0.5458674 0.35408965 0.28982422 1.133907 0.81396276 -1.7469331 0.16866499 -1.434532 2.1821105 1.6545173 -1.3744321 0.9421808 -2.7879107 0.3221948 -1.7054306 0.15494314 -1.0021772 -0.77659214 1.4484674 -2.4895446 -0.74877644 -0.24065864 0.18658954 0.008909449 0.36909822 0.87577456 -1.2820184 0.60238343 1.4470547 1.9724696 1.8421236 0.43651584 1.1121081 0.6176584 -0.30784523 1.1183398 2.9196744 0.23262045 -0.67185044 -1.531244 -0.6159805 1.2665921 0.7866188 1.0159045 -1.7135396 -2.3666751 -0.67285514 -0.9444035 -1.5019457 -0.29820237 0.4738115 1.2853118 -0.13002536 0.20269425 -0.5083402 1.6228814 1.5456344 -0.15939732 -1.378367 -0.035881896 0.065843016 -1.4012831 -0.92499465
C0027051 -0.9772754 -0.37806463 2.9800816 0.21349582 -2.6998773 -1.807707 -2.067538 -0.9655825 -0.40436786 -0.7233306 1.1374587 -0.35371915 0.46036577 -2.0348477 -2.4554496 0.6700869 0.77507323 0.3677626 -0.76767653 2.229193 1.9708186 -2.0882516 1.0351461 -2.3179505 2.4501936 -1.3163317 -1.1696341 -0.21569829 0.5221209 -1.2473261 -0.6411242 -0.71348214 -1.2363926 -1.2597457 1.2550169 -0.014881093 1.0019923 2.2503755 1.7584926 3.3676925 0.9689255 0.42838648 -1.7909025 0.95333433 0.44207132 -2.724568 3.0354288 1.4385736 -1.1582943 0.91892684 0.47563106 -2.4112628 -1.0834981 1.2524151 -1.9062564 -1.1190522 0.20114943 0.89432466 -1.1186955 -2.901766 1.2333076 0.6643508 1.5178815 -3.3256104
C0003467 3.1068451 -5.1173687 0.60034007 -1.7669276 0.9877153 1.717711 -0.7981019 -3.1910167 -0.84999526 3.2378647 -2.2242281 4.515533 -0.81255245 0.72988683 -1.3153137 1.3587009 -4.5010653 -1.8483248 -1.238956 0.3893801 4.533047 5.4681296 -2.7059238 3.3564963 4.1241064 -0.7677722 -1.0653251 -3.368924 -1.4555252 2.910019 -2.9149077 -4.2696476 5.213523 -1.0718396 -0.22061335 -1.6738662 -1.864819 1.6356677 -4.7960663 -1.1231561 2.2613993 -0.8707674 -2.9867659 -2.6742702 -4.48493 -0.9368309 -3.1744673 1.6080049 3.1454363 -0.77612 -3.0193696 -0.90598506 -2.0494757 -0.17811152 -1.8218384 1.5840268 -0.506563 -0.46821767 3.8954237 -2.0719078 -0.2560501 -1.5946264 -0.9446775 0.68738717
C0271650 -3.5645306 -0.99524176 0.41727433 4.7841177 0.4459846 -3.427989 -1.3789755 0.45963687 4.1073384 -2.2636037 -4.7810597 2.3086102 -0.27346343 -4.4479895 4.0011992 -3.0242386 -2.2758975 -0.076928966 0.72990966 2.6626403 2.5570047 0.8860559 -3.7076213 -3.1454463 -2.5178273 -1.6535925 1.2381768 -4.531518 -0.6266572 0.5511171 2.2562654 2.6086466 5.054157 -0.41656598 -1.8379606 3.5193362 -0.42414117 0.101794295 -1.160196 1.173019 0.018944224 4.5981236 1.2193441 -5.9783707 0.085134804 -2.0556338 5.7819247 -1.3610333 -0.20224914 1.4203495 2.4423943 -0.17815527 2.9878976 2.6039958 -1.0241686 -2.4587684 2.09105 -0.4491419 2.9941497 1.336979 -2.9871411 -2.1329587 4.3491507 -1.0070909
C0007785 -2.1773093 0.74362737 -0.9321249 -1.9139497 -2.131239 -1.4240605 -0.5910298 4.946485 2.811809 -0.78279465 0.54390955 -0.9216587 1.6196332 3.7926989 0.3312833 -1.7030926 -0.55253905 7.4867716 -2.408569 -0.6490376 -1.8859701 3.8568892 -1.511331 3.5307336 -5.8113313 -0.1666918 -3.5018334 0.35267714 4.663051 -0.86995065 -3.049168 1.4971949 1.0579393 4.624573 2.5320506 -0.8865678 -1.0482306 -0.062100645 0.020832546 0.53540725 2.5551307 6.404076 -2.9951668 -0.72426975 -2.7456784 2.3353727 -2.8901796 2.883288 -2.1404061 1.6733528 3.472513 -1.5367883 -0.8299996 -0.0067909313 -0.23876749 -1.4186178 -7.590502 1.6251796 -1.9448171 3.1948528 4.986982 -3.8664641 -3.1495008 2.7027097
C0262584 4.5065746 -0.279657 -0.97459173 0.13557416 -0.07402632 0.019374277 -1.3994279 -2.698042 -0.57260454 1.2470597 -2.5579824 -0.81289995 -3.6356864 -0.68305784 -0.27054068 -1.4597651 -0.9404956 1.7889166 0.7261847 0.13468501 2.1012504 0.20125811 4.0541124 -0.421031 0.3966047 3.6617246 1.7209249 -0.15214321 0.9785125 0.5427979 -0.15596884 0.13598117 -5.1379213 -4.0114126 0.9327164 -0.120513804 0.9614629 0.8507397 -4.1493726 -1.1727834 -1.2483948 10.528171 4.629665 -1.9160125 -0.7920492 -4.6250772 -2.9665473 -0.28726274 6.9079647 -5.1787024 -5.433582 2.1973104 -1.9604573 2.19363 -4.399496 0.85442877 -0.49383077 2.9277556 -4.9874563 3.5964055 -1.6668496 -2.295076 -0.44017658 -2.9147272
C0028756 -3.0361574 -0.12118186 -2.9406748 4.8756003 -2.5221586 1.9470581 1.6214098 -0.78417647 0.9245175 2.8581338 -0.57636964 2.2209628 3.9851573 -5.9131236 2.9965098 -6.475603 -0.68681586 0.24046981 -1.2005183 2.4669344 0.5740006 6.5338078 0.9481566 -3.371252 9.091097 -4.95165 -1.2822161 -2.3133028 1.9848663 -5.3045835 -0.6419109 -1.7466142 1.8177247 -4.6211085 -0.44158617 2.2445889 -0.30561203 -4.0772734 -6.203482 3.028505 2.0383146 0.6870756 -1.8781135 3.5788305 -2.0388153 -1.6593918 0.098317 0.45113018 -0.66642606 0.5589788 2.1572978 2.1898043 5.694779 5.9362936 -1.3132781 0.5573273 0.9796616 -0.09677219 3.0235305 4.1693816 -0.41590342 -0.8792659 0.77658445 -0.799126
C0030319 1.0832211 -2.9273 4.79508 -2.972316 -0.0037455412 2.1791515 -0.16946788 -3.1736631 8.53859 2.590258 -0.19793509 2.9486241 -0.94514334 -3.135659 -6.7030306 -4.5650287 -5.5716715 -3.1374218 1.1779431 -1.0407567 3.5657792 4.9427667 -1.4237174 3.398064 6.197463 2.0925677 4.1445494 -3.9417827 -3.6822255 -2.0727568 1.8517075 -1.5261244 -2.0649407 1.8981016 2.8160784 3.4890816 0.10591151 -0.08808079 -2.0366187 -0.042306907 3.2822254 -1.9209868 -1.4446831 -3.4091914 -2.3882568 3.7350912 -6.152587 -0.74845743 2.7031918 -4.1233687 -1.6229789 -4.2413692 3.5046334 1.21999 -2.0925624 -1.6081524 -1.1703594 -3.7433126 0.4834783 -0.6871268 -0.59324026 -2.8847861 -2.1657906 3.4944503
C0032463 -1.922445 0.21820843 -3.4189444 6.0006137 4.2785325 0.9975646 0.422186 1.6131165 1.1004789 0.023990478 -6.448398 -6.341413 -5.4038243 4.525149 -2.16157 2.1258082 -0.23850259 -5.1058645 2.0569935 -2.6809077 1.4688125 4.749609 0.8102075 2.262303 -7.194085 -2.0580459 -0.69614214 4.2400384 -3.4658754 -4.8560658 2.0133803 -5.2126784 -4.914934 -3.7454503 -6.1956635 0.41066617 -4.4281454 -3.441931 1.8866781 5.074053 -0.77597404 -5.649902 -2.003857 0.32721505 6.1774726 -1.1165828 0.0035972951 -4.61145 -2.0594866 -1.0221419 0.1092415 2.653994 -4.309795 -3.9820397 0.84269994 4.909538 -2.7974234 0.9334981 -1.6962339 0.8470382 -3.5501387 1.51065 0.18234466 -0.013321296
C0028768 -1.0533947 0.74122655 -0.4097395 -0.4099106 4.14624 8.540113 -0.17352009 -3.2249448 2.518037 1.8875687 -3.749862 0.64393437 3.102299 1.2299045 0.5948498 -2.7462156 -5.9853296 -0.9887164 3.389807 1.2181919 6.0051055 -0.44310173 1.4541726 2.0819807 3.4639347 -3.1371334 1.193513 -1.0530487 2.5795007 -1.1287508 -3.941961 -1.0619998 -0.31547096 0.94100326 2.018903 1.4646062 3.950745 -0.12821369 -2.2107575 -1.2354032 3.414338 -1.8561184 -1.1835407 -3.3539717 -1.955764 0.52056587 -5.3390837 4.0814447 0.8571821 -2.6375716 -1.7105192 -3.104487 -5.164552 5.7113824 -1.6565868 -3.8274486 0.15324555 -2.1704397 3.4171727 -2.5599465 -5.252422 1.7815427 -3.467159 0.78942233
C0030312 2.7777324 3.5870926 7.758878 -0.859908 -0.63092047 3.6761916 0.55983144 -0.32456428 -3.379987 1.637489 -0.8813736 0.894598 -2.1376412 -0.555513 4.874983 -3.680013 -2.2842805 0.9989197 -3.5564532 -0.18693067 -0.85035956 -1.6392382 1.9420447 2.0972624 -2.2888036 -6.525565 3.406729 -4.0634418 -0.5800251 2.1442072 0.4416906 -0.2847479 0.49457783 -0.61289024 -0.70836556 -0.93268573 -0.10059188 -5.2589016 1.463155 0.61816317 1.7608598 -2.2723958 -3.1511376 -1.5041811 0.82292974 -5.9649477 3.4111714 -0.18026759 5.5711236 -1.9848697 -1.442664 -1.6508379 4.870212 0.9732598 1.1425648 2.480107 -4.40309 1.8244838 -2.8794882 -0.15697001 1.4411184 6.44688 2.970516 3.6933415
C0085207 3.965598 6.3856897 2.0079107 1.6003345 -3.8508906 4.1211147 -1.3769718 -6.356005 6.3558135 -0.99092114 0.3407945 -3.7684348 1.073986 1.6417114 4.2309256 -3.9563177 -10.144115 -4.989542 -2.8532553 -1.530798 -2.4361656 6.851218 -1.5564169 -3.3063498 2.5068796 4.2067237 -0.9686279 4.392013 3.9540043 2.3351035 3.803361 1.1566322 -0.59239453 4.7479477 0.92776346 3.6520786 -0.42571893 -0.33349526 -3.8499248 2.9136062 -2.3572588 2.7776735 -1.6428902 -0.99062276 -0.88468343 -1.2819443 8.171736 2.16074 -0.6109792 -2.1817355 0.79204834 0.07722228 0.85685444 -0.8216806 -1.4751462 -0.40774053 -0.22214603 -0.80394 4.6482 -1.8874656 2.6637049 -0.59478027 7.5650697 -5.0825047
C2931384 3.2541132 1.7801862 5.035528 0.901563 -1.3514642 1.0101736 -1.6797203 -2.24316 -2.5470295 -0.38756448 0.6060352 1.6439651 2.7633646 3.0283346 -1.5711666 -5.143284 -2.0604942 1.1957198 -1.2215378 -0.17964798 0.20132172 -2.765219 0.37087435 -1.6107907 3.859139 1.7321386 4.040194 2.4079945 -4.5861187 -0.87682223 4.505575 4.258431 1.5830256 -1.8787183 -2.3475986 -2.8506918 -2.8881829 2.3032222 -1.2228619 4.9460926 5.159279 0.0173149 1.0410284 -0.84445316 1.4258847 4.1981874 -1.8502821 1.901641 1.0320251 2.482492 -1.3681874 -2.2578897 -2.170056 -2.2992747 -2.7590091 0.4680219 1.3426796 0.117752306 4.378689 2.0568354 1.2163115 -1.9927853 -0.76002544 -0.2753839
C0020474 1.1614077 -2.9821806 -0.874969 2.0129602 -1.0679747 -4.6199822 7.846257 -0.470061 -1.9294577 3.1111548 4.5849004 -2.7200198 -3.5974443 8.820648 0.9891266 -1.2376798 -1.279353 -2.8789878 -4.052884 -6.03823 2.8843517 1.5243665 -0.66417354 -2.0456607 8.778855 -0.7388077 -3.6055982 -4.578803 5.0356545 0.24169366 2.518298 0.67203856 6.852691 0.3965217 3.7109756 4.487024 1.8694968 -4.054845 -1.6683018 4.530447 -1.4432054 2.936897 3.7419703 -1.727566 5.4735303 -0.04982529 7.1650634 -2.9608233 -5.9257226 -1.6124808 -6.626515 -2.3454103 -1.755671 2.3142655 -4.317579 -2.5766597 5.3420277 -2.923562 -1.6803982 1.3979199 -3.5264337 3.1890173 2.1149418 10.804601
C0025193 -0.5300733 -0.14613469 5.929487 4.036258 -1.9660691 -1.0088384 -3.889143 -2.4255111 3.526527 -0.8794489 3.8197908 5.3465695 3.119521 2.1603453 0.98067826 -3.750107 -2.341601 -6.3214335 -2.6331413 0.18283755 2.8707075 7.0426183 2.30092 1.2538707 -0.20360616 -0.93202204 0.8173172 -1.7485617 -1.5287877 1.3686553 -5.5985417 -2.9129305 -6.1323814 -5.638303 2.7684572 0.6840572 4.394399 5.6532645 -0.9298296 1.5658771 2.0919504 2.4764662 0.17730798 -1.6396387 -3.4418092 -0.48919553 -0.20267645 2.3940687 0.71240425 -3.8764982 -2.1660142 -0.6546626 1.7012314 -1.7761134 -0.036903556 1.9095273 1.7079837 2.1356814 6.1131124 4.566252 -1.8921152 4.4763775 -2.0279813 5.6603966
C0740302 2.21691 1.9953502 -0.99025995 0.04942702 0.5420605 2.4003186 2.209599 -1.9928463 0.73116636 -1.1899741 -1.2502968 -0.335802 1.3764253 2.4247034 -2.139796 -2.4426157 0.08907345 4.7144938 -2.6065764 1.2435501 -0.27587846 0.052074637 -4.1531262 -5.0017214 -1.1686686 1.5024905 6.150868 -4.6276407 0.1322908 5.200036 0.15990883 -5.0998473 -3.0604043 -0.51102173 2.7553315 -3.5834117 3.6719036 -1.1365137 -2.8796442 0.16017774 0.47787863 -2.7233813 -4.308824 1.8548912 5.4737105 -4.472076 0.03439048 3.1318328 1.8140845 1.5816036 1.397446 -4.4380393 1.8474368 2.948708 1.5613716 4.0246263 4.6753235 2.320209 -1.2823701 -1.6720247 -3.4000742 -2.0127442 -1.5402184 2.4580762
C0751848 0.8879743 -1.2909981 8.601785 -0.6783776 1.4941775 3.0337124 6.419236 -1.3541483 1.2281561 1.1363695 1.6163367 1.9566646 2.495759 0.27499175 -0.47462896 1.5655206 -4.722062 -3.9780169 -6.5070715 6.511582 -3.858201 1.8614393 0.06934758 -4.4794474 -3.0228727 4.687838 1.0559623 -5.450976 1.9966918 -5.2209687 -3.0635626 4.7511816 3.315547 -4.955207 8.345352 4.642784 -1.077427 0.82849365 -2.1025794 3.257703 -0.17207205 -2.241234 2.1738892 0.95241445 2.3908107 -1.6681551 -2.364022 -3.7419724 1.616066 2.2030537 -0.5956631 1.9147462 -4.8725777 1.4119483 1.3736562 2.220312 -2.9217856 2.7284868 0.17049296 -2.0106351 0.86755216 -0.28699586 0.13530843 -4.349127
C0162316 5.809712 -1.482539 5.5188622 -1.5780419 1.8382206 -3.432365 5.1796474 0.704608 0.69324726 1.8569793 -5.54119 4.752909 3.8753798 -1.0668259 6.8407874 -2.6826127 -1.3369292 -0.055014167 0.08887163 -2.528309 -3.6046834 2.7474484 -1.3336942 -4.192912 -0.51191473 -4.560247 4.1344123 4.685069 -3.0388184 -0.93372124 0.57700545 -2.6323931 -3.1643066 -0.4041698 3.484229 -0.20058303 3.9406288 -0.94104046 -3.7716222 6.531469 -0.45113966 2.4261088 -1.179642 -0.67087555 -0.68458736 -1.5651367 1.1199207 -0.8147887 -3.672973 1.2168947 -2.5162964 -0.6332285 -0.40383124 1.8720145 0.63405395 -3.8943512 2.124664 -5.713848 3.3681853 -1.1761292 1.9013023 0.5794656 1.166028 -0.3115767
C0152264 1.8661433 3.368342 -0.774535 1.8892328 1.9619207 -3.549614 -1.3919997 3.0832076 -0.6125936 0.69747746 -5.3782244 4.844545 -0.88505393 -0.13421093 6.038722 2.688398 -1.2630688 1.9557978 1.4006988 1.5425153 4.089128 0.79843014 1.9165543 -6.756719 -0.69840115 0.47179535 2.1794639 -0.61547667 -0.34227216 3.2599056 -1.6006343 -3.76015 -0.42832056 -1.3288951 -0.018869642 0.10873043 2.5693092 -0.17399217 -2.5804045 6.432496 3.7746904 -0.33523312 2.6268368 4.297829 3.722341 1.0378808 0.015457385 -0.043167926 -0.2173218 0.7210839 -1.1081308 -3.1161056 6.969936 -2.7318988 4.0031285 1.0841948 -3.4927614 -8.135751 -3.5960245 -2.9087276 4.4394994 3.2948637 -1.1722308 -2.6267245
C0265110 0.49683645 4.0552435 5.9558845 -3.9610636 3.5074515 0.25084573 2.6508303 -1.5447351 -3.5958862 -3.0583339 1.0667272 -3.5926678 0.7253593 -0.8495195 2.096863 -2.7732291 -2.1713893 0.73263735 3.0264964 9.420982 0.44201392 1.4902695 -2.2539406 -3.4744587 0.91197526 3.3185298 4.760276 -2.4016953 -3.504751 0.15628648 -4.299892 1.3630471 -1.4433753 2.5572407 -1.9588611 -1.332972 3.772942 -2.2407715 -4.2115197 -2.942476 3.171446 -0.9811115 2.5780895 -3.5118163 1.9206411 1.0456729 -0.6517149 1.8239247 -5.508518 1.6621633 -0.017855117 0.82969964 1.6376878 0.41330814 -12.511812 5.0094876 -3.7919567 4.1913686 -1.9058284 -3.0361981 -1.3884686 2.6452422 1.1358826 3.062597
C0349231 3.2000656 -2.5654514 1.0042435 1.5952048 7.8851404 5.407559 -1.491246 1.7424784 2.7005818 -3.7870448 0.3998377 4.1960435 -2.8664758 0.34199533 2.3831806 -1.5333413 -4.5922623 -3.9864328 -0.44661427 2.6944437 5.000819 2.2690911 0.2175976 -3.3384864 4.955969 -1.6216072 2.4762225 -6.58716 -2.2198822 -4.771851 -1.4899776 -0.4566172 -3.0947113 -2.4990366 0.6042824 1.345907 -3.926492 1.8473059 1.0501347 0.48990262 -1.6646734 1.6343846 -0.7303344 1.840522 -7.329722 -3.159061 -4.263276 5.2311916 -2.197687 -6.452557 6.762489 -1.1184478 2.4309373 0.82893914 -2.2457306 -2.4269426 1.1344483 0.07151172 1.7807696 -2.4177642 1.2168069 -0.98561746 -4.2284884 3.9530873
7124 2.5387504 1.1325152 0.5025919 1.9255717 -5.1105533 4.7735806 3.582735 0.8436773 0.1389984 -0.73527294 -1.0770996 -2.560886 0.61488104 1.8168168 4.584668 1.7760558 1.0427701 -3.4219613 -2.417308 5.0525246 1.968353 -0.66296273 -2.3589184 -1.4738035 -0.723873 -3.683181 4.4796267 -5.9738946 -3.3900435 -2.5820563 -3.2274404 -2.883013 1.0391406 2.4589875 -4.9990854 -0.47589698 4.800511 2.653458 -6.286482 0.16660838 3.8149834 -3.5370157 -0.55340064 -0.6504687 -1.9787302 0.20681779 -0.9704715 -1.0428904 3.7893307 -2.7971323 1.704946 0.45196584 1.6069919 1.8614542 -1.307815 -10.818116 1.9615109 -0.79417855 0.122884534 3.8457804 5.549422 0.68911546 1.5449281 -3.4498496
C0948480 6.1846933 -2.2278678 -2.2347333 4.338569 -1.2064756 -1.2232243 1.0788453 -3.8430746 -0.081371844 -1.8933836 -0.48483515 5.762291 4.396331 -2.0297055 -1.2565734 -9.462324 -7.308712 2.3520794 3.1654234 -6.1129584 -4.6321144 -0.6741569 2.8713434 -6.0473733 0.9201693 -3.95271 0.5546886 -3.62289 0.008365846 -5.2274513 0.99129385 2.158908 -1.5461787 -3.7082348 -2.1233118 -0.87713224 -0.15883929 5.3634105 -3.5128808 -2.2897387 1.1065414 -3.1443822 -4.377524 -2.992213 0.14993979 1.2218245 3.6258757 -0.947511 -3.2122736 -2.931449 -5.3753967 -4.9343715 0.70108175 0.18804057 -0.5641845 1.720867 -3.4465168 5.488086 -2.998368 -2.0456274 -1.0634178 -3.1669354 1.5360173 -0.029085193
C1266144 1.6466662 -3.1963887 -1.3436302 -2.0185466 1.1415806 0.5331102 2.0716565 -4.6866603 2.8240438 1.1530118 1.798116 1.9515171 -0.7856717 1.555887 -2.1251137 -4.1302223 4.3471956 -1.9609053 1.677927 -0.21711566 1.2586886 -1.5222968 1.605473 -2.8385122 1.2405223 -0.022432154 0.5285919 -2.7423284 4.372023 5.539715 -3.2997377 -0.15610746 -2.2503893 -4.4362326 -1.698341 -2.0990572 -4.797589 2.0946248 -1.8609552 0.9717131 -2.3056796 1.2184299 -0.24190159 -1.2310612 1.9489573 0.084951885 2.8642735 -0.94021404 5.754346 0.13606821 0.58506304 0.090547584 3.682334 2.2040074 -0.76145905 -0.037808824 -4.879651 0.7440332 2.7386224 -0.02605675 -1.3013009 0.45718807 -4.9302406 1.0828979
C0014761 0.9570026 3.7515335 -1.4022427 4.2612133 0.42469606 6.0191197 1.4112644 2.7842312 3.0190063 1.2493025 -2.7754364 3.6254575 -2.6196995 -2.3142016 -2.8571413 -1.6364999 -1.4895172 2.057389 -1.2318735 0.22410049 3.5776324 -2.8256295 2.2266371 -1.1395833 -0.95093596 1.9088811 1.7927601 -1.3281267 0.24525312 1.4389977 -0.562569 -0.42840534 -2.7272213 3.3938584 -1.6774273 0.09216343 -1.3810083 2.7174492 -0.22263765 -0.9027045 -1.3540351 0.7580764 -1.496589 0.33807594 -0.16178764 3.9832494 -2.345318 -2.9919286 -1.973911 2.770495 -3.59197 1.1782779 1.2352952 0.93522495 0.2068267 1.2123535 2.3964043 1.2501067 4.1616015 -3.274945 2.9967797 7.2183266 -3.7504544 -1.1504796
C0001818 -1.9181855 -4.2847643 -1.7260156 -1.3006034 -0.29200503 0.9148257 1.6414983 -4.3770456 9.174061 1.1776979 2.1663985 7.4806724 -2.4631593 3.07785 -1.0623691 -0.7673427 -6.729689 -6.4054465 -0.7728467 -1.1301402 -0.172772 0.23676229 -0.66032165 0.049011968 -0.97098994 -3.954387 1.7285362 -2.1584365 -7.156611 -1.2597497 -3.1293528 2.6261497 2.1705759 2.399353 1.657653 1.2347981 -4.0841074 1.7596585 0.05238052 -2.560145 9.444294 -0.7150809 4.3969007 1.3747545 -3.0661573 -6.039834 -0.86192465 8.757767 -6.2838883 -9.676293 -0.62881124 -2.1052408 6.2379003 4.5762606 -2.0110097 2.584884 -0.23260729 -1.9210193 2.5284696 2.4528856 -3.8243945 0.22366473 -4.7570424 -1.9634444
C1135191 0.8460494 -2.0934129 -4.876818 0.5389164 2.4621754 5.1492295 5.1194453 -1.8775711 -3.7489502 2.3918617 0.57020736 -0.19657084 1.470586 1.9995787 -6.554565 -6.1616406 -5.4335594 0.97755903 3.160562 7.1155972 -1.6665231 -0.55446815 -3.3855617 4.087167 1.9121177 1.2273396 -2.7436044 -3.3663511 -6.5324693 1.715212 -3.2189317 2.3540595 -2.1992116 -2.9788458 1.7552339 2.5845554 3.1558807 2.9068232 0.0787445 4.390386 1.5469726 5.7679567 -1.6662222 -3.6548645 -2.3893654 0.5722506 2.0857232 1.4555188 -1.3302511 1.7350168 -2.3368082 -5.220377 5.9663744 -0.040382184 -0.2442628 -2.033108 -3.1852694 -1.8714112 0.1630918 0.28645146 -3.9757593 3.418982 1.5396333 -8.621419
C0011880 8.872221 -0.108129196 3.8770366 6.5215325 3.1048796 4.534833 1.255704 -4.4484477 5.3201766 1.7754778 6.2815356 -5.703107 -2.3294299 -1.6698742 -3.8955975 2.7552075 -3.3664277 1.6308627 2.4732685 5.83735 1.682532 -3.1095896 0.20631157 -0.44208083 1.067699 1.4732053 2.4532387 -0.09438055 -2.9559236 4.494058 0.97649753 6.8328476 3.1322591 -8.269089 -1.946656 -0.47172877 3.3568869 -0.8992128 -1.9850953 1.3080904 3.6517973 2.7460017 -6.8447165 -3.6421666 -5.4865966 -0.3621551 4.8006296 0.86753774 -0.97885674 2.7624955 -2.3246372 9.413156 1.7240111 3.1995704 3.3019388 1.0743077 0.46446306 -4.7535286 -2.5753229 -1.2469054 0.8968617 -2.7608273 5.0996046 6.654791
C0020479 5.1646566 -3.374175 -2.395054 0.31097767 0.95334053 -3.405241 -2.4325333 -3.3228323 -1.0575244 1.1723571 3.905253 1.6535342 -3.79229 4.758349 -0.9199623 -7.2258945 2.833459 2.8926976 4.7798424 -1.4669241 2.648962 -2.2694604 6.590705 -5.456605 -1.2104472 -0.20594382 3.998774 -1.2555038 -1.0084918 -3.470938 2.3759751 2.0679805 1.5706202 2.5680108 1.989867 9.395131 2.9394138 -2.746873 -3.9268608 -2.2140584 1.8396027 0.62299633 0.89196396 -1.4782809 0.60248435 -3.6199377 3.414232 -0.032372802 -0.3465814 2.5744662 3.339539 1.2256805 -2.2025893 2.1606927 -3.3345902 -0.018870259 0.66782796 1.542019 6.8185434 -2.7319422 2.411419 0.84084696 2.6751518 0.84459853
C1135196 -2.3267772 -5.313547 -1.0199195 -2.396863 2.432773 6.8464303 -3.2140002 0.80946326 0.50418633 -3.7674584 -1.3881004 -0.3129442 3.503586 0.68544734 -5.4662995 -7.7203727 -6.371161 0.44599366 -4.2781615 -0.017800985 -4.014504 5.9775233 4.857637 -2.1060932 0.60388905 -2.5790584 2.3991704 -4.929685 -5.7472224 0.01167512 -0.3591765 -2.490331 5.233682 -1.1501516 0.70146537 -3.2561667 2.2305872 5.4983544 -0.50324565 -0.66732097 -3.379835 2.1081247 2.4188628 1.6763266 0.82801217 -3.6842113 5.904812 -0.0421282 -2.4958324 4.4390764 -2.9693756 -2.7626507 -1.5202724 3.503819 1.4253623 0.14145225 -1.1462853 -4.7707047 -2.0520148 1.7064168 0.4251633 3.1440344 1.363282 1.045623
C0013415 -0.6805034 -1.6846626 2.6123562 0.14664544 0.65405464 -0.33538118 -0.23968332 -0.23722436 4.2038884 1.341492 0.8204379 1.1494046 -2.6403725 0.5540365 -0.9695568 -6.6633697 -6.621105 -3.5529404 -1.2058281 2.7701519 3.853439 -1.3663411 -2.9665072 2.6116214 5.7637773 0.0440411 3.858056 -5.7954926 0.41373408 3.3402443 -2.9389946 -2.5775807 -5.8749804 -2.5607831 -0.5410358 -4.5285273 2.4480567 -3.24941 3.4202046 -0.7633023 1.4891547 0.009544687 2.2744668 -2.6086757 -5.153458 -1.7261002 0.5120406 0.80217403 -2.1513968 -6.2766504 0.40949643 1.7286443 -5.487055 4.91347 1.1119941 -1.2585411 -0.04829283 0.51063955 4.8492393 2.2176812 2.795906 -4.62694 -4.708867 -3.4213233
C0031190 -0.092829645 0.007684926 0.42789912 -3.9986725 -0.75763017 3.7652426 -2.0290036 -3.2331798 0.29306856 -1.5615671 1.8723478 0.90777767 -1.6701554 -1.5777968 -4.9057317 -0.5532458 -3.0027523 -1.7630389 3.6867676 2.0408683 0.19999073 0.19193396 0.1011725 -2.4201095 4.41318 -1.3925644 -1.7426271 -5.090235 -0.14653595 0.8204191 -1.634865 0.4320213 1.233877 2.4797263 -2.1338432 0.64954966 0.021000963 -0.48182628 -1.811953 1.9480959 0.36472172 0.007690664 5.449074 -5.581064 -1.8605266 5.5897236 0.43236038 -0.59085417 0.8290346 -1.1952652 -0.27826154 0.34144038 2.5007994 -1.670336 0.4505231 2.1874604 -1.357833 -0.238831 2.0228083 -1.1522155 1.2042489 -0.25312614 0.42725727 -2.7196581
C0022610 2.1969092 0.6973806 2.3035727 -5.1840982 1.9542989 -0.12350013 0.7064566 2.1645849 0.760003 -3.0991218 2.1409986 2.2462862 -3.9584816 2.4214292 0.9226381 -2.7348719 -1.0442904 0.43685836 -1.1489712 -0.8259033 -0.7438076 2.7918732 2.7350147 -1.979147 1.6218851 -2.4918191 1.102513 0.34714922 1.7204535 0.13098149 2.332371 -1.0560979 1.0695765 -5.5045567 -2.490918 -2.3071527 4.062551 0.9566965 1.8118972 2.9624693 0.12120639 1.1220734 1.7256905 3.156945 -8.792416 -3.444128 -1.8888359 1.3547105 2.724131 -1.5550488 0.44651774 1.1983565 1.2902299 -0.6872294 -3.2347348 0.07528955 -0.5206929 -0.6422871 -2.5647943 -4.8784795 -6.6562037 -2.0852294 1.5360328 -3.9899695
C0034902 1.1881741 -2.4166179 5.4775577 2.7666264 4.3430305 -1.9067155 -0.18301637 2.6165192 4.636963 2.2971501 -0.28063443 1.1890516 -1.4734223 -4.5301514 3.6153183 -2.1153119 -2.7890809 2.457786 -4.719261 0.93477106 -1.0054193 -4.4596486 2.2814624 2.192717 1.1292654 -0.03635046 3.851759 1.7029766 0.7311661 -2.033172 -0.6599822 -1.0113821 -1.5360821 1.0211756 -1.8030686 1.7931483 -0.41438845 -3.20594 -2.7441204 2.4847085 -0.61347294 -3.811644 -2.9287515 -4.628251 -2.9911458 1.7755808 -2.7448947 1.0540854 1.1552354 6.6635065 -3.9715717 2.3617077 1.4935579 7.602199 3.2060583 2.3769712 0.36013654 -2.8263886 -1.711099 1.4723468 0.43470237 9.300238 0.27598283 -2.5965312
1636 5.5265946 -1.2731054 1.821129 -0.4638165 -3.3530877 -0.39633635 -0.49243098 -3.5335865 2.0871365 3.8623598 -3.421007 -3.1346357 1.7080618 -0.93088865 1.8848608 0.053756468 3.8797483 -1.8460722 -6.204324 8.181677 5.7999263 2.355271 0.7911836 -3.8765316 3.655263 -7.480828 -0.90686053 -4.120334 -2.3513968 0.49205348 3.275381 -3.4669893 -2.4682145 2.2016528 -0.26317438 2.1252315 1.3941745 2.8135617 0.17851928 -1.82995 -0.49039882 -3.217331 2.8885918 -1.6130956 -1.1911265 6.7152524 -0.90036035 -1.996789 2.7422926 2.0528712 2.0971065 1.6484526 1.4308443 0.93219346 -0.94200593 -5.1689353 -2.4496214 -0.15783568 2.5567367 1.9936043 -0.29095894 -5.973121 0.06270624 1.3170745
3569 -0.8220087 1.2326304 1.3383113 -2.1002426 -4.0439506 -2.9101343 4.774929 -2.2299955 -2.255305 3.1773763 -0.11405507 -2.4667299 -0.64848256 -2.5886986 1.5162115 1.6401227 -1.5859666 0.22636347 -0.81525713 -0.7689699 2.0370893 0.82160866 -0.9592091 -1.5448096 1.0581484 -0.9074887 3.1976695 -4.3930635 -1.9557261 -2.7431421 -1.1611538 0.065232724 -1.707096 1.4401184 -5.305233 -1.0598408 0.7287092 3.4410174 -6.294384 2.6714811 -0.17104174 -1.1556003 -0.76502424 -0.8783463 -1.9626447 -3.5766242 2.2239306 2.229237 3.1015563 -0.60662866 4.703935 3.087132 2.9417956 -2.593946 3.3237803 -4.5312486 -0.9657956 2.985438 4.1175547 1.8218093 2.0976634 4.5633616 0.004429737 -1.4791769
C0006277 4.792924 8.717899 -4.246443 -0.60756767 3.5141416 -2.6268678 -9.135722 3.9205775 4.0742674 1.1457506 -3.00862 -0.16774373 -3.1039972 -4.946094 -1.9415597 -4.1861224 3.3984923 -0.68496674 -8.172425 0.8395545 -6.216503 -1.2994034 -0.6682538 0.53036374 6.359018 0.30592063 4.8636794 -8.223991 2.1635072 2.4262373 -1.4632173 3.3059316 -0.3964214 -4.0174437 -5.2082 6.8431406 4.8769093 -1.7872416 -2.2286856 -1.559921 2.0862234 -4.0175943 -0.03555224 -2.2783291 2.1584258 -1.8603616 1.2609681 11.401875 1.694775 -1.1441307 -2.286489 1.9126006 -9.135812 -5.080856 -4.0639954 5.359922 1.6886703 -4.244245 -0.66276765 1.0003812 0.6281446 2.381612 -0.8965642 -2.719479
6532 -0.03782537 4.294753 3.777417 0.6925646 3.8651087 0.5951687 0.12623094 -7.1216855 1.9795607 -0.61752665 -3.4854233 -5.878287 3.0917685 -1.802632 -0.12206707 -1.2068421 -3.5528045 -2.5351963 0.43249953 -1.6807551 1.115702 -1.0751231 4.876654 0.12135461 5.2596073 -0.955403 0.6546242 -6.371106 -0.2731195 -1.1001642 -4.0324864 -4.546935 0.2782848 5.4191923 4.736867 0.08353158 -2.1232486 4.051724 -0.8174311 2.8602424 0.38449323 -0.9125421 -3.1016545 -1.9282143 -3.875488 0.92104834 -2.9829378 -1.2148755 3.0172913 3.673721 -5.1089883 -0.8393627 1.4650095 -5.0009704 -0.9345449 -3.0967505 1.484754 -0.73678875 2.2931323 1.7706484 -1.76734 -1.4381542 -3.236183 -0.36337414
7157 -1.3028578 -2.761373 0.63659793 3.298641 -1.83971 3.7229297 3.7399497 1.8133034 -1.9189609 0.7470893 0.2574886 -0.11980979 -0.5680702 0.7342683 3.3625784 -2.6814096 4.998238 -2.0691042 -0.4148076 1.5210257 4.6326365 2.875329 0.5542697 -0.2707746 -0.2235636 -1.0660379 2.5061238 -2.4576678 1.715252 1.7388988 3.7951853 -0.7447471 -1.4345698 -0.32871288 -1.6030985 -2.5389178 1.4053694 -0.24909101 -1.0557909 -3.3619502 -0.83063686 1.9892718 1.0583606 -0.82257426 1.2460836 -4.0074525 -0.46438572 1.5673524 5.1441593 0.43901828 -0.5809764 -1.5825701 2.1428218 3.483444 -2.1738784 2.7049556 -2.775516 -1.4864389 0.65028656 1.1124917 2.6057174 0.57055676 1.5740931 -3.90196
C0025637 -0.77617854 1.4546 1.1624471 -0.79470307 4.0561805 0.8856049 1.586219 -2.0057204 -1.7871834 2.3146093 -1.7564552 4.15281 -0.6851675 0.9909152 2.7596283 0.45334056 -0.85774946 0.91221803 -1.018064 -5.7563305 0.85488236 -1.5125577 -1.6224551 -2.4118214 -2.1245234 -4.715084 -2.0121007 -4.8920965 -0.37365776 1.516946 -3.191926 -0.5149325 -1.3565848 -2.449691 -3.048012 1.2462612 4.5504785 -1.8507482 -0.58091277 4.1884904 0.706082 -2.7303414 3.6764586 0.7281562 -4.326071 -0.83194435 -1.1620234 0.48436812 2.249784 0.83892363 3.1431758 -0.85386944 3.87506 -0.8707058 -1.5142902 1.4570404 -0.05200414 -5.161232 -0.87999845 -1.1314 3.0772698 -1.2252285 5.3048887 -1.3944162
348 3.0938578 -1.3181634 1.3196338 -2.6944776 3.9370508 -0.9412917 -3.4095962 3.1166131 -0.084502846 1.7118734 1.9343743 3.8603034 1.7554272 -1.2700838 -2.6889436 2.1459577 -1.7197888 -2.09099 -2.7045507 -1.2490942 1.0441613 1.7347383 2.7266243 1.4730852 2.8321626 2.024661 2.3269713 0.2293991 0.5466211 -1.9802829 2.4002333 0.40333685 1.2961774 -0.13647556 0.7514073 -1.6203479 -1.324722 0.72047627 -1.600455 1.3154583 5.247433 -0.5240221 0.28590047 -5.542821 0.016013553 4.148039 4.3091583 -2.632376 0.5960427 0.5044395 2.3922448 -4.9504056 3.3782868 2.3670664 -0.5553729 -0.36614347 2.0296013 0.41588682 2.0048625 0.29441327 -2.8189921 -3.9272718 -4.365824 -1.8549837
C1864041 -0.1324742 0.9400345 -0.9999374 -0.88918424 -1.1463249 -2.8848484 5.953148 -2.9950483 -2.854274 -0.6496588 -1.8292868 2.624277 4.2540636 -3.6544013 -3.6997652 0.69210124 -3.034977 0.45335844 3.1843529 -1.6418498 1.3183316 -1.5942012 5.9401336 1.0554072 0.22559258 4.1919937 1.6113575 0.060658637 -0.62826234 2.2092419 -1.9176725 -1.7335018 3.7683809 0.8476334 -2.541158 -0.49114138 -2.3403502 -5.922525 -0.56335473 -4.8963284 3.9646366 -0.89146733 -1.7583045 2.248976 -1.9600809 2.6501253 -0.44311795 2.062721 0.88792616 5.0656934 0.47578946 1.1344589 0.11562738 1.7436928 1.560546 1.7789673 1.5078346 -4.257132 -2.0807118 -1.2218934 -2.5181265 4.4062495 0.836743 -1.4114423
627 -2.0995789 2.876631 -1.0063473 1.0040547 -1.6564848 0.8096535 4.747985 -0.312471 1.3025638 1.0893952 2.4402196 -0.5596065 4.7211614 -5.117832 -0.64956355 -2.7852325 -2.1141942 0.8623106 2.464861 -0.8175048 2.411281 -1.9929644 3.7964668 0.9391069 4.4090195 -2.8776777 -0.9806566 -0.29590037 -0.7939111 -0.4314121 -2.5777738 -7.7369537 3.0143301 1.4123676 4.957371 3.0091627 -1.9322153 3.2298698 -2.3292449 2.9690082 0.84906745 -1.4895933 -0.71865106 -2.5141122 -2.1946156 1.7487085 -2.514708 0.30986318 3.3624096 -1.5511278 -1.4902334 -0.42553806 -0.08323839 -2.1968215 -1.4408718 0.9609176 -1.3287927 -2.2374055 3.330062 0.63341296 -2.8988202 -1.2751681 -3.4687066 1.025011
C0151814 3.553362 4.704401 2.2572486 -0.674638 2.465416 -0.7049228 -2.5661113 1.0045573 6.915086 8.528777 1.1837586 4.0808573 7.810889 2.3954923 3.8051333 0.32014054 -3.98898 0.9138042 -2.8840833 -0.9779906 -0.22512965 1.3883464 -1.6620935 -1.2460921 0.3615645 1.2725487 4.3112254 -1.421371 -4.168897 -5.2998905 2.246287 -3.0756762 4.507112 -3.1215765 -1.6806525 0.6154779 2.1933923 0.4134279 2.071794 2.6699078 -5.741012 3.518833 -3.8318315 2.2801306 7.1926184 -3.883017 4.3484464 -0.38392076 1.7452266 -0.0062751975 -4.179178 0.22391856 -4.2868934 4.5133777 -2.6441538 1.7894139 -6.7387624 -3.2959368 -1.4358364 1.8914876 1.1129496 2.1943443 0.5903294 -0.41611627
C0338495 0.53792584 -1.1852201 0.055097546 0.9282258 -1.9909738 -3.1908293 4.5276318 3.3880537 2.3797016 -2.8005931 -2.3596168 8.678024 -1.8656626 1.9813604 -5.3500075 -10.082766 -2.6552284 -3.1212378 -3.5164828 6.864691 -4.331745 4.807054 5.04807 2.804124 0.3140411 4.019776 -3.8836112 -0.36523104 -0.88226783 -3.9466925 0.09283827 5.748109 0.01772511 -2.3159943 0.7409935 -4.3754435 1.5102549 0.6191032 -1.5226696 3.9933095 6.5377707 -1.3319519 1.0319774 -1.7663295 -0.2781186 -5.010845 -0.90978634 0.18018578 4.455436 0.45979878 -0.23836699 1.7291979 -1.8689619 -2.693869 2.950525 -3.9145699 2.248356 -4.577851 1.590885 -7.8695207 0.04780092 0.6936053 2.4128318 0.103189744
4524 1.7930381 2.3593874 0.6096002 1.8590357 3.231206 -1.8801255 1.587322 -0.10407792 -2.2898886 -1.1163777 1.8350848 1.1815299 -0.17925802 2.4957178 -3.1624768 0.14548682 0.73003197 -2.6241744 -0.44003576 -1.9275461 3.4987729 2.2121317 2.4510977 -1.1497513 0.3286275 1.7551862 -2.226905 1.3751496 -2.8778608 1.7338787 4.2054257 -1.1857511 -1.3074026 -1.3602225 -0.31192547 -1.6848103 0.89266336 1.4134448 1.3630872 0.24185617 -1.5400096 -1.2545294 4.389625 -3.9302208 -0.30141646 -2.2162995 -4.738601 4.0348 3.6598 1.2231773 -3.9018905 0.76903254 0.040422577 3.0331926 -5.033208 -1.9160974 -3.1723318 3.1216207 2.878359 3.7541275 5.198425 -2.1798193 -2.8206413 -2.4226913
3553 1.961724 1.8569766 3.389206 -4.6404114 -4.0060725 2.309553 -2.7904856 -1.2014456 -1.9420727 2.3024044 3.0369384 -1.0435641 3.8354836 2.1875007 4.2267394 1.9543768 -4.505357 -0.15557005 -2.101461 -3.9916391 3.2924705 2.1634226 0.30220452 -5.222256 1.2800711 0.6588836 -1.3635621 -1.6023153 -7.957357 -0.5805309 1.0535003 0.708371 0.24750276 -0.56101525 -3.0983167 -0.77438813 -1.2469096 -1.4725931 -1.2429894 0.013545086 2.2364054 0.72292376 0.9258964 -3.6092799 -0.29265296 -1.2442137 -2.5499694 0.23092277 -3.506841 4.703389 -0.7108038 -0.19133925 0.35844266 -3.2295218 1.8530182 -4.475169 2.6285355 4.0955787 0.9053544 -2.7564697 -0.40562353 -2.6784573 -3.5214055 -3.7876792
1437 -0.3846177 2.0577464 1.3380088 0.30832887 1.705773 9.885294 3.13104 -3.246566 -1.6713572 -1.7260928 -0.9039483 3.5952082 0.33137584 -0.5557833 2.4627929 1.8589259 0.7922018 1.13672 0.020341143 -0.025009919 2.5895336 -2.9469998 0.65470326 2.9396012 1.1187898 -1.6627849 1.648265 0.88511425 4.383891 -2.02785 0.08175068 0.009635475 -0.38174754 3.1605504 1.1563998 -7.3295326 3.9880967 2.8840134 0.8302465 2.2343998 1.8526192 -1.5815852 -0.98354006 -2.1747508 2.1034722 -3.310118 1.82551 -2.6182783 1.8990353 -3.2268143 2.9364603 -5.895168 0.98015076 0.37143332 3.7414317 2.0272913 -1.7378204 -2.1629887 -1.5886911 2.4691224 -2.9758823 2.0248835 -1.7794077 -0.16330247
4852 -0.74248433 -0.26812676 1.3266163 1.9151926 -0.49255016 -3.6927385 0.85452443 -0.83916694 2.1193671 1.7077829 -1.4548235 -3.8205328 0.9211574 -3.777035 -1.4594994 -0.97469425 -1.9593247 -0.4196911 1.5687573 1.9636197 2.1267827 2.072047 2.81183 0.21020442 5.3028016 -4.0118284 -0.030637233 -2.6645536 1.3515645 -1.1245282 2.1556382 -1.9066641 -0.36911952 0.45777816 3.8887203 1.0755539 0.21409738 3.370061 -2.1970725 0.86488587 -1.5784457 -1.2104106 0.48063314 -1.3224993 -3.939015 1.6472081 -0.48163453 0.18009591 3.586187 3.722168 0.6322743 -0.21419233 2.9221947 -0.8826372 0.009033978 1.1240225 -1.9858632 -0.72569275 5.5910683 0.047894116 -0.3688395 -2.6135588 -0.3776098 1.7515582
4846 6.2877936 0.81288326 -0.23187368 -4.376558 -1.0238137 0.8713194 -3.9918742 -1.3078452 1.3940603 -1.6578376 -1.6216755 0.9363057 0.54595107 -0.46434805 0.8343558 1.4451734 3.9253938 -2.3033483 -1.4979334 4.53114 -0.96133137 0.32802096 1.3444198 -6.2682056 -0.2770576 -1.3843979 -2.3146827 -4.0028725 2.6780717 -3.1967213 0.780086 1.6857542 2.6715884 4.909557 -2.9341042 -0.07518881 0.13520528 -0.30861014 5.127646 3.428807 0.16283983 1.1921896 -0.13362662 -3.6698332 -1.8410841 1.3934911 3.1051974 -4.9210963 -1.4630287 -2.3377368 1.2808936 -0.18780099 -0.8736234 -1.2029592 3.205854 -1.3713421 2.3292603 -0.3459424 2.7339134 6.7344446 0.8697098 -0.45146105 2.52266 -1.7826438
C1838260 0.76120687 0.8751504 2.0721357 1.259578 -0.5226474 0.95274025 -0.53443295 -0.1516147 -5.1854744 1.1131616 -1.2044824 1.5522969 6.0244823 0.5941903 1.1288239 -0.2930366 0.14785531 -1.7053936 2.954638 -1.3455287 1.3437699 0.15290783 3.0551612 1.197119 2.9929497 1.1908174 2.289402 1.2994075 -1.9025503 -3.5713012 0.32757673 4.733999 -2.4101498 1.7178314 -5.274844 -4.808147 4.790923 -2.6505084 -1.912262 -1.219593 1.2135427 3.9147637 0.3924689 2.7066386 -4.1436076 1.599139 3.6494424 -2.1823297 -2.2669346 3.1853921 3.3606727 4.104963 -0.013001162 -0.28441003 1.2917507 -0.69834673 -2.9658008 -0.5140502 0.58224154 -2.0839062 -2.4153304 0.6835638 1.5396575 -2.8236766
C0340293 -5.528195 0.9760997 -3.4442546 -3.0411577 -1.2392712 -1.7509693 -0.5599113 -7.0671372 1.335314 0.37663126 -2.5871835 1.3087834 2.6353047 4.6870937 -0.5200835 -4.702248 -4.4771767 6.0747943 2.3714113 1.839849 -7.466444 4.150084 1.6461112 2.230404 2.8397074 -2.7013679 -2.3112967 -4.593835 -3.3306348 -5.3982654 1.5917021 2.2879598 -1.142295 1.7385396 -2.2227237 -0.93168616 5.0039053 -0.92096174 -3.4169812 5.1078925 -2.3366907 -0.790299 0.15839021 -2.6090355 -0.319736 -0.20573597 5.741901 3.3356335 -2.924075 -1.5131128 -9.309411 -0.30379063 4.3663435 4.2852387 0.3901457 3.7299387 1.5854452 -1.5107272 -2.5358055 -7.7067494 0.83008003 0.31622815 -4.275133 -0.037343994
2056 -2.785016 -1.1280636 2.7867587 2.0715911 -2.4807737 0.5615778 0.9047091 4.10989 -1.6472256 -3.4137604 -0.9476394 2.1648896 -4.947748 2.4465103 1.782107 2.340897 -4.1556525 1.7453038 -0.45687366 -0.57084733 0.14388877 -4.1474032 -3.033953 -3.014474 0.1628752 -2.6099591 2.6179993 1.0973059 -1.9792509 -2.689482 0.45646486 -2.351451 0.081361674 0.116850555 -1.3578856 1.2819155 6.290168 -0.97037065 -4.0440283 -2.4095461 0.5131013 -1.7542461 -3.4158552 -3.6852016 1.1206771 -5.07554 -0.9993413 -1.1397997 -1.7997133 -1.8812568 3.4480503 -0.06480638 4.0367184 -3.210321 3.7035847 -1.5946641 -2.0828395 0.54539883 -1.0456321 2.7328548 3.5919914 1.8027964 5.2964234 -1.3833117
C0038218 0.6342216 -0.6221189 -6.3172 -3.2369509 8.291253 -3.660214 4.358893 -4.2534823 6.079939 2.007738 -1.3969544 0.21200965 -1.1203693 -4.89749 0.4423096 -7.089873 4.8007793 2.1747284 -5.1792994 1.8580005 0.7396757 -0.952159 -3.0753872 -4.521292 -0.9721914 6.481669 2.623574 -0.14667282 1.6990392 2.784882 1.5273169 -0.44027597 0.5268037 -0.93584484 -0.8439834 -1.2380122 0.50267667 -2.0215492 2.7813811 -0.8245372 3.98746 -2.710554 -6.4067655 4.075687 2.7216918 -3.446409 1.4972037 5.394896 4.9253006 -0.7847069 -1.1597152 3.6566515 -1.7376064 2.0228844 -5.9100385 -0.96562964 -3.450397 3.1039164 3.8826835 0.89265734 -4.3697433 2.4509907 -2.621669 4.1454086
C2674218 6.7343216 -1.5632466 -1.0940679 -2.040079 -0.15722251 -1.1673055 4.6466074 -2.1037428 3.6368911 1.1388052 -0.07807274 1.3876885 3.4134204 0.07453129 -1.4873371 -4.944793 -0.53361344 -0.5683832 2.7954252 2.4469686 -5.794554 -4.9207044 -0.5241493 3.6936824 2.548486 -4.110942 -0.49871483 -3.115907 3.4500349 -1.4687468 0.52591026 -2.5508714 -1.8770875 -5.487161 -1.0782366 0.21580783 -3.1142657 2.898204 -0.28098828 -2.9137394 0.6362106 5.202291 1.5717909 -5.33262 5.9055996 -5.3986783 -1.4082528 3.0565045 0.7479679 5.2080874 4.243856 2.0917668 0.24674644 -4.2137866 -1.9234005 1.8313468 7.3654566 0.9991755 -0.19003852 -3.9603224 4.189658 0.78230655 1.173725 -2.9664903
5054 1.5408946 -3.7359114 -2.424673 1.1111118 -1.8759091 0.7719317 -1.3594688 2.1359057 0.07698368 1.0522552 0.23934303 -0.47703752 1.7150905 -0.8925314 1.4398665 1.2934264 4.210038 0.20332305 -1.9121269 3.9293392 -0.24967709 2.2391233 -3.2888315 -2.9679034 1.8680623 -2.5865426 -0.31447977 -2.7218351 -0.7531282 -1.0652226 -1.3714844 -0.15849406 0.3155311 1.3769171 0.8400391 -0.24526057 -2.3483944 -0.96408427 -1.2762653 0.81728894 0.4976003 -0.7660438 0.7878682 -1.7066116 -2.2155428 1.2828778 0.9028221 -1.7728549 2.7593927 -1.2021464 0.7000638 0.7935522 0.489848 2.068455 -1.231508 -1.5474336 -0.02166269 -1.2297716 4.349957 0.24894363 0.39269823 -1.2819031 2.4628491 -0.5348695
847 2.331957 2.170557 -0.18483515 -1.2721131 -3.5261912 1.8536447 2.975324 0.94113266 1.448602 -1.1564641 4.98586 1.8041509 0.16700073 -1.7114502 0.6253988 0.6106456 0.037233356 0.052926533 1.8243117 1.4129697 0.33736187 -1.5214026 -1.4767721 5.468845 -0.033634484 -1.1469022 -1.1592213 -4.0704856 -1.8883398 4.983489 2.792671 -6.94261 1.0383995 -1.2121731 -1.0459388 5.58439 -1.9216058 3.621422 -3.5878901 1.7166489 4.3284774 -1.4271308 3.2019844 4.7791796 -1.6903071 0.68590033 0.31055534 -1.6164066 1.4662178 0.8733053 -2.6007264 -1.4935102 -4.991624 0.43214068 -0.23236658 -1.6672391 -0.12374146 -0.8219953 -0.47092012 -1.869125 -2.499363 -2.1298828 -0.60599965 0.91310745
C1306856 0.7069274 1.7043644 -0.84284073 0.24518445 0.15722327 -1.4139273 -2.259608 -1.9252541 -3.6482134 -1.9937912 2.6563087 0.18809511 -3.59891 -3.1508238 1.7375275 0.9404347 -1.4596506 2.3706045 -1.2668171 -0.74167675 -3.8237097 -2.6162536 -1.6840124 -3.2184627 3.7356155 2.388275 0.911134 -0.6559427 -0.7307505 -0.6886725 -2.052646 1.6599497 -2.206923 1.6404532 0.33482626 -0.05624652 0.64494026 -0.48791158 1.2480677 2.443054 0.049623903 -0.15209831 0.2020539 1.4812177 -2.3599517 -0.48018914 -1.044491 -0.41557592 1.0911149 -0.28654334 0.118398175 0.47519782 -0.81320584 2.0630467 3.1278577 -1.8720223 -0.8452497 0.71859664 1.3255154 -3.296242 -2.6971347 1.2793432 2.9517603 2.169349
3458 -3.0663233 -0.47308385 0.96127737 0.9878353 0.6146503 -0.5662306 2.004591 -1.5842919 -2.1437569 -0.4995145 1.1307219 0.68689525 -7.678112 1.566313 1.5811223 2.050467 -0.9806892 -0.435701 -0.73702216 1.1081604 -1.5949178 -0.31425315 -3.1985219 2.6015065 -0.7239538 -3.6834679 4.524695 -1.3532505 -0.5914885 -0.9794643 -0.7211534 0.30037996 2.0403824 -1.734771 -2.57712 -1.4917853 2.8750086 1.0256121 -4.1681857 -1.844953 0.8369811 -1.7104738 -2.6025155 -0.8756893 -1.5014762 -1.2100353 1.9327332 -2.434184 2.7317834 -0.7689818 1.647955 -2.0049686 1.6499522 -2.8341117 -0.3405915 -4.064607 0.18763226 0.13994618 1.4941835 -0.0477156 2.30833 2.379081 1.0118957 -2.2935126
2099 -0.13295554 1.2351542 -2.794228 1.2337974 -2.6580496 2.6066256 4.218772 1.008073 2.3896635 0.9105703 2.8906794 0.16829969 3.6027431 -3.9330385 1.0622871 0.07931811 0.38242444 1.4032973 1.8567159 2.15602 1.6293378 -0.091334306 0.9931047 1.0376058 3.2566447 -3.1522334 -1.8779218 1.096335 0.9478353 2.0862513 -2.6207476 -4.577188 2.6713326 -0.72624695 2.2098718 0.33515826 -2.011213 -1.0185649 -2.4675288 1.2701938 2.593806 -0.46532947 0.697735 -0.9099041 -0.86576176 2.703095 -2.7545583 1.6070974 1.7372872 -0.83494914 -1.3017967 -1.5478544 -3.9009006 1.2145792 0.3059444 -0.95648324 0.05478019 -0.9726479 1.1124744 -0.9211345 -1.5913455 0.5396445 -1.0984377 0.6617168
3630 -1.5191349 -3.4365385 4.357756 -3.9688532 -0.41318458 -3.2047064 -0.7973447 -2.757903 5.4732566 -1.6468792 -0.14358225 -1.8457652 -3.032234 -0.8445783 3.7250426 -2.1257238 -3.19834 -4.5733438 2.203644 2.938307 2.016729 1.452024 -0.08527924 -1.489148 2.4315865 1.743733 1.2750363 -2.0735781 0.16456947 -2.2681777 -0.8562108 2.2862349 3.6882963 -1.7034763 -1.1293654 2.435838 5.2792797 2.1155064 -2.0061064 1.7384994 2.927447 0.51229143 -5.2039447 0.694633 0.40797707 5.0260034 0.7697876 -1.0036347 1.6855704 -1.0813317 -1.2864655 -2.4286306 3.5322526 -1.7721144 -0.03844948 -2.537118 3.8199863 0.28984973 0.19777042 3.0803223 0.0392765 -4.258415 0.65736425 -4.1998405
4023 1.4020836 0.18479414 2.301322 0.024269179 -1.4759121 -1.159145 1.0055737 6.4422255 1.5742188 0.11355197 -1.8112488 -2.214829 3.7681205 -3.4944396 -0.42267767 -0.88557 -0.46020326 -0.61165047 0.9641592 0.99562955 1.4336085 4.445837 1.6419495 -4.6531205 3.7132359 0.98049945 1.049344 1.3092431 1.0924488 -1.2803909 -3.730865 1.109545 2.1627715 1.159292 -3.6553981 2.6437929 -1.5197384 -1.3536375 -1.470801 0.3386653 2.9960394 3.0704827 -0.4024443 0.79365104 -0.78479207 -0.33348706 7.0338273 -0.79380083 0.9641307 -0.9109864 0.8753294 -0.94628286 3.0114527 2.4365587 2.2577853 -2.8601153 1.0094528 2.6467726 3.4127157 1.8470032 -1.1922534 0.7140549 -0.99192953 -3.455064
5468 0.060995493 -2.714764 -2.8590746 0.7707439 -1.3100532 -0.27683896 1.0103714 2.9520645 -0.3859304 1.0763948 -3.2005475 -2.9495387 0.9473936 -3.5111065 -1.3802414 -1.2163626 0.020966046 1.144022 -0.67512316 -0.36212748 -0.41406566 -0.029650258 2.4195073 -3.8151302 0.79038566 0.8756137 -0.30100274 0.010533326 1.0882517 -1.127041 -0.38520125 0.5380403 -0.90115845 -0.8588294 1.881392 0.17120355 -0.8351759 -3.4902287 0.2301195 0.05178759 -0.2016901 4.197659 3.5786293 0.6977409 -0.5813952 -1.8054582 -0.26653865 0.51974916 2.7858179 -2.9880095 1.5816861 1.2290692 2.0014942 4.3377743 -1.8856382 0.06786355 0.61952317 0.91937673 1.6139253 0.44363672 0.56960285 -2.6027389 3.3778424 -1.3089052
C0600228 2.5013413 1.8746269 0.3967046 -3.104542 -3.5155098 0.7202013 -0.120707825 -0.07659637 1.7081383 4.2429247 1.686223 -2.4127026 2.3376245 -2.9775777 0.50067484 -1.1595395 -5.0288806 0.563263 3.3251867 0.05068331 -3.539315 2.8404167 3.3550682 -0.3721215 -2.428599 -3.466149 2.1023405 -1.7633429 -1.5812496 -3.575101 0.4600761 1.4212819 4.158824 -5.8650513 -1.7612067 -4.7819333 4.005319 -2.6108274 2.9734669 -1.0892211 -7.8917766 -0.6401686 -6.3722134 -0.59272605 -1.0143046 1.3037916 3.0813618 -0.061890714 2.1248217 -0.6574237 -0.8989754 -1.7291211 0.5574455 4.256405 -5.108783 -1.8594764 0.3931114 -3.3486376 2.8914764 -0.607254 -1.8093922 -1.6018689 -1.0521591 0.93438035
1401 -1.2133961 0.06256675 -0.10245401 0.18402039 -0.5190351 -0.2699169 2.1206858 0.19018169 -0.39503425 -0.6740478 -0.5365297 -3.3255832 0.3531274 -2.3954217 2.9919248 -2.3276198 -0.4272326 -1.7235378 -0.44724262 1.3694503 -0.027528064 -0.35655886 -1.2820283 -2.3037777 -1.4324313 -1.9849131 1.1448145 -0.1954073 2.1167796 -3.7051163 -0.3610444 1.0353885 0.60567415 1.3021225 -4.777355 1.1692187 0.6266575 -2.7926197 -0.90320444 0.9339945 1.2181239 0.9708281 -1.4621948 1.4631122 -1.5020188 -3.0609314 3.14995 -0.78009003 3.5185375 0.06895742 1.0307796 -2.1124995 3.4259915 -1.22355 3.4584708 0.51444393 0.9748064 -0.1322284 1.9494346 2.0435715 3.4910133 2.0895944 1.0263385 -0.92206347
C0342277 1.3543869 4.871628 6.124411 1.6546855 -1.5360014 2.2815318 1.5720837 -3.2924252 1.528307 -2.9745178 -0.83622736 -2.2104144 -0.73105216 -0.6891361 -1.7539363 0.2987689 1.1691061 -2.458943 1.8201435 -1.022718 -2.0776541 0.6101577 2.6777163 -4.112922 0.019426562 -1.6128421 -3.1373248 5.4627886 -4.196061 5.8274174 0.6434717 5.5576916 4.002926 0.6610792 0.42896345 2.6386888 2.7485988 0.17449088 -7.466311 0.9803656 -5.1553073 1.4363894 0.04404588 -4.3318086 -2.6484687 -3.1656647 3.7083554 3.3351765 3.8150315 -3.6626625 5.594611 -2.279685 -0.03251556 1.5283923 -0.7116947 1.6837112 2.6889412 -6.9482603 -1.6138422 0.0132143395 -1.5898826 -3.6411977 1.3909594 -0.40351444
185 0.06856942 -2.2652183 -1.3133116 0.920026 -2.5021048 -2.2352948 0.11848935 -2.5926092 -2.851538 1.427805 -2.1851542 1.26333 -1.4740925 -1.4045324 1.3270156 2.4103231 0.17204987 -3.928384 -1.2105366 0.39190993 0.5714406 0.041796044 -1.0337515 1.1107315 0.47908828 -0.10460087 0.96752995 -1.0084034 -0.51295775 1.5982599 -2.3536143 -0.6205507 -0.46954054 1.5620961 -2.319802 3.562223 -1.7336819 2.617828 -1.6676545 -1.4553559 0.35441905 1.5177523 1.0876778 -2.1691995 0.7125926 3.8616395 0.59688014 2.9723608 -0.4153822 2.5189974 3.9455981 -0.17961319 -1.1765032 3.2697089 2.0292618 -1.3683964 -1.0704569 0.30997407 -0.07527958 -2.4306374 1.1964175 -1.2424593 -0.44541532 1.5819513
6774 -3.178585 -2.1358223 1.5220194 -2.2511983 -4.9020295 0.76140016 1.9835476 2.2496839 -2.0531573 3.8595426 -1.4754462 -1.0885369 -0.6893317 -3.0346959 3.8127544 -2.9833868 -0.30943564 2.8112671 -3.894695 1.2256122 1.6015955 -2.3469436 -1.1055629 -4.911558 -0.049994223 -3.0954385 0.016115556 -1.3598117 1.0498537 -0.53959394 4.213214 1.679022 0.0131282825 -3.4261372 -3.916158 1.6953142 1.5768971 -0.26127598 -5.1180716 2.2868264 -0.7041348 0.2296504 -2.3674598 -2.1955314 0.6309441 -4.9575047 0.94886833 -0.18410873 -1.1387886 -3.7875826 4.470515 0.5375735 4.034009 -1.1117644 3.094927 2.0876706 -2.039457 -0.022123432 1.6460278 -1.707147 0.29538903 4.6875534 2.0083654 -0.48996553
C1863512 2.157723 0.6135086 -1.6612144 -0.48152432 -3.8829424 -1.8029827 -1.9811317 1.9354088 -0.44763458 0.5301031 2.7497556 1.4862571 0.91087353 -1.2600068 -2.429867 4.702551 4.252586 -1.8550111 4.3184276 -2.0342202 -7.086116 -3.8448265 0.06579903 -5.6825876 1.3824775 2.7772079 -2.8069992 -4.3628907 0.15603977 -5.293856 1.9328597 0.6268603 0.34588316 1.0964735 -1.726305 1.9004514 1.6279559 -1.1309706 -2.7945118 -3.2305171 1.486794 1.2311796 1.8142709 1.0676565 4.032155 -0.8485406 -0.66566306 -3.2653477 6.4609337 3.5883744 1.0207422 -4.0787277 -0.06982656 1.4343696 -2.8769996 -4.8712125 2.357065 0.25424817 1.3838162 -4.7467217 -5.4357085 7.5613084 3.1915457 4.978289
183 3.1367717 -0.043263458 -0.33307546 -1.5703311 -2.1861088 -2.7867439 0.2334556 -4.0667324 -0.7812698 2.323114 -3.6740918 2.864749 -3.1172078 -1.0979068 0.29572913 3.5076542 0.53187954 -1.2304164 -3.1440532 4.1073427 -0.03514723 1.1318121 -1.2877755 -0.8224461 0.2666936 -1.8984166 -0.3409773 -0.8990298 -0.1698924 0.45227146 -0.57289827 -2.63165 0.8973593 2.42216 -3.564504 1.8602358 0.24983965 2.464993 1.6438365 -1.2157625 -0.57037437 0.9825365 2.2168965 -1.0850923 -1.2061384 4.4123855 0.8170525 1.0045428 0.25140402 0.7786682 4.929154 1.0897813 -2.0926583 2.2934988 0.5243616 -2.2998013 0.30357718 1.3472675 0.95969427 -0.4280057 -0.2885292 -1.4588684 0.29873914 2.6597486
6927 -1.6671209 0.38859373 2.4970238 0.5163999 2.9327939 -0.5900855 -0.53340673 -1.3363332 2.4945374 -0.32362238 0.9902857 -1.4558936 2.1209471 -0.23195237 0.40456107 0.69101834 1.7778362 -3.8202333 0.19317865 0.9375097 -0.3424902 -1.9880674 1.00398 -2.9927995 0.21750328 1.1288196 -1.797482 -1.1454715 -0.6073667 -0.16793546 -1.6462988 2.9100633 2.1158319 3.256853 -4.2793703 0.46306512 1.2538104 -1.537317 0.17775491 -1.0282359 0.3164364 4.220826 -4.830676 -0.11157787 -0.2750329 0.17029798 3.2194672 3.0525246 0.3191975 -0.056647774 -2.2696521 4.2956214 1.6782098 -2.2223666 2.998834 -0.073355064 5.5972495 -0.8113786 0.24958666 -0.046180278 -0.051993478 -1.3306726 1.7952368 -1.2163764
2944 -0.9960845 -1.712933 1.0047257 0.31783703 1.6739705 0.3834693 -0.20035462 -0.49931112 -4.342086 0.9339117 -1.1052074 1.7806404 -5.3742847 -0.849405 0.14750272 0.47047922 -1.4202152 -2.136524 -1.0766027 0.59376913 -0.11294952 -1.7839555 -0.3702607 0.66806155 -3.5971608 -0.9656733 1.6066746 -1.0010033 1.6733947 0.3658088 1.8287886 -2.1622064 -1.188865 -1.2160562 -1.2828434 -0.39603364 0.6657131 -1.7134742 -1.2087022 -2.2222462 -0.6097962 3.877072 0.033252675 -0.56509364 0.20224638 -4.0157523 -0.016143052 -0.10646326 4.1006427 -0.35221043 -1.4334514 -0.9998705 0.8092365 1.2445567 -1.5891118 0.5820339 -1.2748091 0.14585024 0.7835556 0.8745758 1.0352235 0.048806597 1.4785972 -0.7495958
C1833104 -2.9742606 3.0493107 0.9919315 -0.0040115677 -2.5544527 -0.96757364 -1.5081728 -6.1862726 -2.5403755 -3.0810947 4.476417 -0.23064487 -1.2687118 -6.021225 0.7759432 -5.792159 -2.5512486 -4.294585 0.21745864 2.4071405 -0.78775316 1.2575829 1.0147702 -12.145489 -7.000307 1.1250484 -1.1066201 4.636895 -6.2456937 5.8402367 2.7821681 2.4588783 4.6486673 -0.13625556 2.627399 1.3993874 -0.14818352 -3.3338866 -0.73275495 0.24641705 -7.8019896 0.6100964 -2.953944 -2.200571 -3.8772984 -1.4814531 -1.0354598 2.8392496 3.395775 -2.1011343 1.5927255 -5.3790684 -2.4525003 2.9001396 -1.6323779 0.8293026 -0.43935746 -10.458025 0.98176736 -2.5847971 1.7988228 -1.2616405 0.27781686 -0.21471494
3576 0.06228092 -0.5629204 1.0031015 -0.5149592 0.17707047 0.6778647 0.8295757 -0.25363296 -1.8681921 1.7010392 -0.6841876 0.96210146 -2.61918 0.16159311 -0.92356414 2.7089722 -2.4454343 -0.5769396 0.11382772 -0.14430371 1.6548012 -0.19755965 0.197006 -0.027266782 0.3642738 1.7059678 -3.4423401 1.7834858 0.21153945 1.0347177 -1.2138689 1.517834 -3.5767014 -0.7828133 -0.952322 -2.9074454 -2.2242959 0.24086204 -0.98242885 -2.542337 -4.307731 2.019891 0.91692215 2.0177615 -0.81125623 -2.5626357 -3.8128083 0.15860593 1.4616472 1.2095968 -2.438673 -0.61606205 -0.48536074 1.4579068 -1.9131044 0.8334213 -1.7769085 -0.7230961 -0.030402185 1.5934 -1.5195386 -3.1575131 -0.6713174 0.39867568
5444 1.9241885 1.2174339 1.8155195 0.20601228 -0.15477578 -4.608398 -0.8904393 -1.2820985 -1.246994 -0.6803745 -0.25080413 -1.1690984 0.89038146 -0.8668105 -1.0131173 0.21489899 -2.276379 -2.7467155 4.186323 -1.7970641 0.19907436 2.4778626 -1.1663607 -1.6114467 0.62252927 1.570272 0.15326473 -4.172849 0.19452915 -1.5102233 -2.9373274 0.051455222 2.2670348 3.4720426 -0.6034047 0.7229108 -1.4130762 2.4681222 0.7017715 3.1334374 -1.7087876 0.44438988 -0.22084655 -1.3812141 -1.9929204 -2.2028437 1.4528326 2.0712292 3.0034618 1.5754842 -1.1745164 2.062866 2.509144 -0.47928548 0.2241034 -3.0479226 1.4658638 0.7229701 5.381326 0.5520689 -0.3144555 0.7494338 -1.0543255 -2.011341
C0020480 4.5389404 2.3107638 -2.054291 3.2336864 -1.5889821 -0.87973005 0.62182313 -2.2804437 4.711342 4.384478 4.9572043 3.16629 -3.6087217 6.2638097 -1.8830067 -0.9332853 0.63966787 1.1268938 1.4510057 -0.6354184 6.916226 -4.1222982 2.0942636 -3.6522193 -0.8819334 -1.5320742 0.18060873 -2.710941 2.4610548 -2.6789753 -1.8877072 3.3905296 0.37630168 -1.8737346 -0.17256844 5.1852145 2.9273524 -3.4092624 -1.2331679 -1.5703709 -4.10533 3.351826 0.7696267 1.4996037 2.3920007 -2.050767 4.680488 -3.5425167 -1.942648 2.5741787 0.7906186 -0.1578528 0.49580145 0.25860295 -1.6112609 -0.3002814 -0.926405 -2.6201556 7.47347 -0.45905903 2.8107924 1.733015 -3.507419 3.2867053
1392 -0.37370273 3.711746 0.91082114 -0.4544224 -0.084632896 -1.721575 3.1122053 -0.7542957 -0.3170064 2.0321734 3.3816838 1.1443778 1.6778904 -3.4429479 -1.7485324 -3.1247513 -2.4909768 -1.258189 2.8365486 -3.5699122 1.6372359 -1.5845801 3.6902232 3.8475063 2.5806975 -0.97201043 0.18427466 -2.7853856 -3.5471606 1.3576964 -0.44324487 -7.2239394 2.8331225 3.1642969 5.4667096 3.7559278 -2.4913855 4.577386 -2.2542706 2.139937 -1.149087 -1.237068 -1.6297615 -2.699381 -1.423703 1.871811 -2.7927713 -0.83388585 4.667137 -0.87631565 -2.506609 0.59912664 0.5486751 -4.2285438 -1.0369754 2.9037087 -1.7968669 -0.26516476 3.0735366 -0.14845489 -4.357763 -2.441341 -3.9931188 0.38489017
7422 -1.2241153 2.993254 1.1562886 -0.7402499 2.3049614 0.4852637 1.896996 -0.030557696 2.4942727 -3.3448625 3.0723271 -1.1461171 -1.2121042 2.5453928 -0.083950445 1.0800838 -1.7218001 -1.2443926 0.10309636 -3.8275788 0.11359964 -1.6750997 -2.5493715 -2.2909853 2.303243 1.2090147 -0.43945122 3.9712813 -4.7067075 -2.2214336 -2.4164784 3.5602157 0.38221595 1.5512528 -4.740156 -3.1252518 0.4334976 1.7822157 -1.5243187 1.9122894 0.22801906 -0.8556979 -0.40259022 0.09807048 -0.08748336 -0.069055356 0.42895165 -2.3557673 0.50323766 2.2177875 0.23656869 -1.5360402 2.1073391 -1.99845 1.3536646 -3.944257 1.9059155 5.2258782 1.3133304 2.3372805 2.6634545 -1.245733 -1.429432 -2.9269042
2908 -1.9089514 0.75849205 -0.33172384 0.9117589 0.666961 -4.2208323 1.4889998 -1.8606513 -1.9841466 -1.3023226 0.13751966 0.7851991 -0.45230335 -0.52900356 -1.6755358 2.39142 -1.2448218 -0.83986795 2.9044538 -0.28738678 0.27024752 1.2300665 -0.16581436 1.5078177 -0.53161216 -0.16554081 0.62063766 -0.7749174 -0.31186068 0.27721384 0.7662595 -1.6859647 0.82832074 0.87129307 0.2041299 0.7870707 -1.4412045 2.2472 1.3084872 0.6160676 -2.4835587 -0.8511856 0.620953 -2.6526873 -1.7752818 -1.9321721 -0.045986354 2.0192926 0.9210547 1.753806 -0.35943094 1.2488098 1.1161885 0.17995438 0.46303037 0.068402 -1.4767793 -0.31181917 4.698999 0.503766 0.111932285 -1.0273117 -0.89231515 1.0529872
1312 -4.059173 -1.0035022 2.0324893 1.0517972 2.1634176 2.4440112 -1.1048098 -3.136023 1.4155378 0.22034624 -2.2471747 1.0297207 -0.034553487 -1.970177 -0.74308014 -1.0248034 -3.1366522 -0.21102636 -0.7729585 0.5483185 2.7181304 -2.0765395 0.6903446 -0.58325434 1.9670696 -1.8555168 2.4012003 -1.0456052 1.2150427 -1.6666062 -4.1748166 -4.7280593 3.362566 1.7878739 2.2298002 3.9927413 -2.2388883 2.5908568 -1.0051215 0.7453279 1.3084178 0.73029184 -3.334129 -5.194528 -1.121413 2.7019002 -1.4539671 -0.9331864 1.0877339 -1.1171526 -1.1833864 -2.9106107 1.2243496 -1.9955792 -3.6827915 -1.4933629 1.1242965 -4.077739 1.3438587 -2.4990282 -4.798281 -4.1004343 -1.7581297 -0.32917646
929 -3.8800375 1.277348 -0.23429966 2.4322958 -0.7720862 2.9927645 1.6456599 1.201742 0.3907213 -2.4000309 0.53464574 1.9119579 -4.0450916 1.8794117 0.656688 1.7578992 3.3094335 3.8195632 2.1236796 -0.8027701 1.2504197 2.6481204 -4.1590843 -1.2587435 3.9303114 -1.7300376 4.6759915 -0.47647426 0.7378591 -1.0704926 -1.279037 4.120486 0.97526824 2.6189942 0.7251004 -3.4887724 3.6834822 6.717417 1.172026 0.12714086 -0.33570218 1.0407313 1.3385857 -1.3102314 2.1080065 -0.5205202 2.7740057 -2.316289 0.94093835 1.3111649 4.3385696 0.26934814 1.7211796 -1.7547389 2.3016524 0.32007095 0.03414245 1.0362206 -1.5676577 0.5579688 -1.3151733 -0.8957982 2.7569125 -2.9042463
3479 -6.8289824 -1.3832256 1.8416257 -1.0431936 -0.09328945 -0.16437525 1.8110512 -0.52470356 0.838872 2.1147492 1.2031918 2.0109577 -3.3203344 0.51995355 -1.9813482 4.4148774 0.12665804 4.346602 -0.57012576 -0.26223916 1.4084439 1.7720655 -1.5255375 -0.9906649 1.5139587 -0.7004836 3.0425081 -1.0149935 -1.3514758 0.75285834 0.049231548 1.4017692 -0.6030476 -0.7467931 -4.772214 -0.9349325 -1.1082957 1.4807612 -5.199435 -1.2588893 0.042646814 0.49756458 -2.1516483 -3.4803166 -1.9739088 -0.6927926 0.80179954 1.0941103 -1.4387448 -0.45879185 1.2645496 2.0447474 -1.3415858 -4.6504073 1.451021 -3.4360347 0.91126525 0.7932333 2.509587 -0.5781568 -2.1989007 -0.23849358 2.4077158 -1.6976086
135 3.3160446 2.736071 2.1421306 0.42358774 -0.345288 -3.2155106 1.7773193 -0.49951312 2.4041245 1.6589454 0.5986669 -1.1750556 0.8028622 -2.9639878 -2.2388778 -1.121524 -1.9233744 -1.9751401 3.640909 0.13891909 2.1079392 -0.025168737 5.5572476 5.585661 4.46133 -3.3604429 0.56472695 -4.4929366 -0.5596832 3.7642055 3.3486843 -5.3859644 0.9399323 0.9462477 6.442922 1.0007541 0.649069 3.9801073 -3.3231459 2.0494773 -1.9579363 -1.5870535 -0.18254198 -2.1124723 -2.4020975 3.6601834 -2.7278059 0.5186799 4.9023933 3.2389379 -2.3996172 0.14934681 -0.978804 -3.8008792 0.94376457 0.21757907 -2.6022227 0.8910564 3.6262803 -0.11562887 -3.9043088 -2.1088269 -1.5570421 1.2689537
2100 0.007545704 2.3427289 -1.5081692 1.4213992 -0.49564677 0.98793584 1.5639117 -0.6937 1.8112997 -1.0005794 1.8488774 2.8518558 0.74343985 -2.9063563 0.26213345 0.7307397 -0.604993 -0.8462378 2.3427494 1.6001524 0.6249635 -1.4153186 -0.52550405 1.3379934 1.0243653 -3.7116776 1.3901592 -0.7264416 1.7307783 3.3373024 -1.6232072 -4.4979286 4.6700716 -0.041232694 1.4692173 1.4666939 -1.9003915 1.2605883 -0.4339757 1.4381387 1.7026873 1.6932677 -0.39323822 -3.7683241 0.5483512 2.535686 -1.4720539 2.0070245 0.31045637 -0.2902603 -1.8902985 -1.2659647 -4.2331443 0.7916938 0.6301666 -3.1069593 0.5819771 -1.4242321 0.8970744 -2.2517877 -4.791425 -0.20806025 0.6016638 -0.4631753
C0206146 1.0079365 -4.312808 3.1648042 -3.9476504 3.44737 5.421491 0.40001574 5.1510963 0.18798074 -1.1882434 -1.3269145 -0.08768203 0.4658317 -0.8739941 -0.68332577 -3.733997 -4.066067 1.19238 3.3604944 -2.4740212 -2.6325672 2.1134646 3.961005 -3.7651463 2.6171522 -3.221392 3.2346647 -3.6179104 -1.5996675 -2.1884134 2.1777332 -2.6680508 3.7147238 -1.5699189 -3.3322492 -3.7748415 4.576157 4.103696 5.1974645 2.9555595 -2.8583615 3.869451 -1.5148317 2.8617826 -2.7307277 3.4543848 2.1168346 1.8054918 -2.969267 -0.4475756 -2.6821456 3.6823745 -2.8256326 2.4206364 -0.74518234 0.20666985 -3.6865437 -0.2277952 2.2284138 -5.6130433 2.1395018 0.88573885 4.1765337 3.2746356
2539 -1.9242582 0.10169837 2.3504148 1.043752 0.7136782 0.46809912 0.37053278 0.50425524 -0.5961996 -1.8787755 -0.09957182 -0.14445369 0.29239836 -0.07885613 1.3613892 -0.82087326 -1.5043534 1.0239346 -1.0783143 -0.3908167 0.78643084 -2.2804847 -2.5329764 -0.3480056 -4.4810667 -1.4550796 2.0496528 -0.49106032 3.7217715 -0.42613584 1.7173697 -3.1833622 -1.4052659 -0.7250043 -4.822765 3.531072 1.813442 -1.812699 1.6218817 -0.47288767 3.510989 -0.86226326 1.6504029 -0.76039964 -2.170755 -5.4306207 3.0022817 -2.6288118 1.8683634 2.5034144 1.3886042 -2.4930596 2.8637474 -0.7199039 1.3257397 -0.45180878 -3.7146022 -1.8196138 0.11258218 0.4558159 0.4740215 0.28353024 3.9181178 0.6597925
C0002876 3.7240703 -2.2245972 -1.4413307 -1.3487204 -5.813803 2.4025555 0.9983628 -3.5842717 -2.397864 0.609744 2.1457002 -1.1255779 -1.8021758 -6.755407 -1.1624446 2.049682 2.6270823 0.94883335 6.0199237 -4.7777805 -4.152317 -0.5398651 -4.363924 -3.2431312 -3.2127419 -2.4747994 9.023122 3.9282403 3.3425696 2.4571831 -1.7270514 -2.3302584 0.30096608 0.95297396 2.668141 2.3755636 2.5093906 -0.9759997 0.87246233 -1.8900557 4.3363147 -0.023293972 5.0967793 -5.1090302 2.1272047 2.3740346 3.0920691 0.034611825 1.0615872 1.244751 -1.8098716 3.8257158 0.010369278 1.462154 1.313819 6.3104415 2.519764 -0.7876274 4.5348787 -0.806884 2.3686013 1.0926164 -3.97351 -6.1129646
51738 -1.0122069 2.3702273 -0.6619249 1.3383325 -2.7516797 -3.8661478 0.1144458 -1.7586576 -2.2664464 0.89439744 1.0784872 -4.1372085 5.289769 -4.868046 1.9732844 -0.6168839 -1.0036765 0.37287438 0.707228 0.69027436 4.161238 2.8696742 -0.14037344 -5.4979343 1.3836485 -4.8604875 -1.2997822 -0.67364013 -1.3824092 -2.1461935 1.6649005 -0.5477077 0.37487468 -2.1952987 2.4674115 1.6385938 -0.5802953 2.1324437 1.8066406 0.951436 -0.38179374 -0.027394686 3.4194224 -1.0221915 0.60483146 -3.2178268 1.5928652 0.29389173 0.6228869 0.10133055 1.2543702 4.354573 4.3954763 0.7320835 0.7584662 -0.5989154 -2.6838012 0.63798237 5.8612456 0.21431966 -1.0024875 -2.9729078 -1.8753624 0.8980634
3586 0.29849228 -0.50811255 1.7216572 -4.0363774 0.72782665 2.1148822 -3.9048553 -2.0207238 0.7283372 1.5031118 3.3543456 -0.68210983 2.7120056 -0.965971 0.30270457 -0.7705514 -2.8597138 -0.6010589 -2.309273 -2.6304195 4.496454 -1.3712738 -0.31943393 -2.1253371 2.6273859 -1.2557845 -0.13328764 1.9216951 -4.375372 -1.76617 3.4581678 1.1495974 -1.8338429 -2.2872975 2.3805895 1.1740043 1.3437577 0.8210366 2.406968 -0.38102674 3.381152 -2.0077386 1.5321349 -1.8892782 1.6997447 4.6668725 -0.7136903 -0.105264075 0.47167212 3.5975337 -0.41030815 -0.90846574 3.9119284 -2.9098287 -1.695519 -1.9314029 -1.700765 2.4255054 -1.1903217 -0.98557127 0.31679416 -6.1934285 -5.782761 0.87912446
154 -2.023084 -0.14170463 -0.42245635 2.8243454 -1.1305165 2.2405472 0.99671024 -1.2874744 -1.7044051 1.6846057 -0.60693437 0.71465814 -0.36909094 -2.3203886 -0.43986732 0.4508437 2.103884 1.1213164 0.61300755 0.7399436 1.9579964 5.8604174 -4.0427194 -1.1816627 3.6830351 -5.5799737 0.19112556 0.31715444 0.80200064 -0.8647418 -1.5989729 2.3728914 1.836478 -0.38962713 1.4582279 -2.19443 -1.3845261 2.13596 -1.869152 0.79067093 -0.44817933 2.7547836 2.0706491 0.119363666 -1.0990595 -0.02089005 2.1993754 -3.2295485 1.3576626 -0.15020119 3.176541 -2.860863 -0.14901328 0.96763897 -0.30502096 2.924835 -0.044439964 -1.3407162 2.8685746 -2.2457783 -0.64610785 -1.007893 1.6821651 -0.7768659
672 0.55086863 -2.4362197 4.605819 0.7530262 -2.3474462 2.936961 -0.23520255 -1.3444036 -5.417908 -0.47609687 -2.891854 2.0345395 -4.7045546 -0.04794904 -1.6468409 0.42877918 -0.4161032 0.33035105 -3.5968676 -0.78607696 -0.45729578 0.55642694 -2.0344796 0.6699808 -1.2343876 -3.1394176 0.37845197 -1.8131478 1.258752 1.4535338 0.08617428 0.32539067 -0.5795472 -1.3070083 0.87341416 0.47820738 1.2183647 -2.3777306 -1.3184063 0.6032427 1.4922571 -3.1318521 -4.2437897 1.3407285 -3.8751223 -2.8879707 1.78752 1.2224523 2.4961932 0.0555716 -3.2424464 -3.178647 0.18795651 -0.31950095 1.1611241 -1.4283212 -2.1161764 -2.590052 1.2652097 0.018052561 1.4318485 1.4535629 -2.318714 1.5787231
9370 0.061450686 -1.2078682 1.4985144 2.0514793 -2.4462645 -1.9395654 2.1380568 2.9310925 2.8799977 0.42685297 -0.29996255 -3.7128043 3.9980466 0.46872795 1.8982445 -2.1640127 3.1940286 -1.3189428 -0.6317467 3.0044894 2.4667873 4.131292 -0.8043864 -5.755704 0.24225731 -0.1146479 -0.1366099 -1.9696561 1.549432 -1.9918352 -2.2707565 1.5816516 0.5054178 2.7201397 -4.664117 1.1112591 -0.7837995 -1.0384604 0.5945465 0.48717976 0.4136489 -0.34677115 1.2316749 0.5688656 -1.0302914 0.33338958 1.3859751 2.0551212 3.3196933 0.6603896 0.13797513 0.056034826 3.2520974 2.4757705 -1.6136175 -4.639985 2.631913 -1.690945 2.1673062 3.3363838 3.4161773 0.18187751 1.782483 -4.738304
217 -1.8105502 -1.3345757 1.3911942 0.7275992 0.021174852 -0.56813616 -0.18552524 -0.46793184 -3.23645 1.2265362 -0.4311378 1.3945334 -2.8587072 0.18169864 1.9985287 0.8922625 -0.85204965 -0.95904523 -1.2254063 0.86268294 -1.756278 -0.83704317 -2.6797519 1.4492483 -2.3170955 -1.7708342 1.3189124 -1.4069716 1.6257033 0.51699215 1.743178 -1.094596 1.300511 0.40219858 -1.7278426 0.582288 -0.8796596 -0.91931117 -0.090224996 -1.2230409 1.5917325 0.59148777 -1.9168537 -2.1413412 -2.7460487 -1.956677 2.7336314 0.54177535 2.9281793 0.90031934 1.2173481 -2.077752 1.4508748 -0.14734486 0.3634589 0.7841467 -1.191045 -1.3599868 0.45944127 -1.4766711 1.0143017 1.2759284 -0.7410256 0.9629506
134 -1.0462393 -0.99465215 1.6041042 -5.100846 -3.5961227 1.0565137 -2.0277767 -3.2518349 -2.664941 5.285191 2.0433185 0.42933527 1.1674601 -0.67477363 2.797017 2.806395 -0.38658962 3.0812168 -1.5188228 -1.7671171 3.3400333 2.4937956 -0.46443075 -2.3623111 0.30566695 -1.3691517 -1.6883465 -1.3320767 -3.321736 3.4029183 1.8670954 0.07259137 -1.9230332 -1.5041727 -0.17257044 -1.191392 -2.701094 -0.087877885 -0.12384935 -1.4438924 0.09935033 -1.3714101 0.46208358 -1.1163533 -0.5375635 -0.9366101 -0.5659134 0.7712017 -2.109111 2.333234 0.07173441 1.6231353 -1.2503335 -2.6533608 0.49825022 -2.8267243 -2.1983206 1.612955 0.48885873 -2.24494 -3.3421144 -1.1485696 -3.8721988 0.39735466
C1838100 -1.091071 2.6064517 5.2756224 -0.15877992 5.855232 -1.6182557 -5.072354 -3.7392507 1.8595777 -1.7682364 0.28869465 3.8711839 5.7080774 1.3806332 -1.8396065 0.98347497 0.6108352 -1.2433531 4.3470573 2.088672 0.0036742254 0.2605494 -0.92762804 -6.805463 1.4842604 -0.7799667 0.86856145 -2.9915898 -2.1056678 1.8820677 4.0914392 1.1799917 6.4069543 -1.1096377 0.4852803 2.7127209 -0.14797911 -2.7584543 -4.3298626 0.19635764 -1.2941728 1.824621 1.9871812 2.216759 -2.7042782 -6.10796 4.510428 0.16495779 5.037882 -2.7934728 1.3255228 1.1712518 -3.903054 2.146478 2.7845774 1.6762838 -1.3182218 -4.6323676 -4.6830735 -0.82502586 1.7652035 -5.29476 -1.1622609 -3.985909
5465 -1.3714684 -2.164644 -0.8194104 3.1939933 -1.2102838 -3.5585408 -0.23086846 1.1979151 -0.30197564 1.5405909 0.35936576 -1.7509925 3.8653018 -0.9817584 1.0445429 -2.3498206 -0.7279737 2.0202024 0.7695445 3.5183382 0.43949425 -0.07159469 -1.4458005 -3.2263987 0.8011379 -1.0412177 0.18609062 0.3788708 2.094445 -2.3739965 -1.0336735 -0.2037803 0.67975736 -0.294092 0.103516825 -0.8271652 -2.7435777 0.3138341 -0.5746912 0.48554552 0.5370633 0.756414 0.9958688 2.4243546 -0.06084851 0.07246292 1.4129119 -3.681131 1.0544996 -2.2492104 3.567698 0.34645486 3.4528596 3.5095048 -0.22031102 -0.12753868 1.7117038 -1.4058423 1.7118092 -0.99342877 -0.77102304 2.006825 3.8824127 -1.1386553
6647 0.5459257 2.4060378 1.2061546 1.3676653 -2.768094 -2.3382473 -0.12980603 0.804245 -4.3265924 0.061373442 1.7672374 0.9220822 0.9139995 1.4212757 -0.6026257 4.386021 -3.858957 0.26233247 3.6140947 -1.1762152 0.5481039 1.5954028 1.8322376 1.6045576 0.18471524 0.16002682 -1.3783913 -1.8101141 -3.8214302 -0.72154486 -0.412014 -4.145472 0.34361508 1.9511514 2.5698662 -0.14089878 0.5747165 2.4071004 -0.23823683 0.2255946 -1.0454124 -2.5393677 -0.39308757 -2.2216244 -3.5466118 -2.7485743 -3.536953 1.5265467 -0.28926325 1.2309918 -0.6580481 2.1646655 0.6388042 0.3607354 1.1295711 0.19117813 1.0757757 -0.5419856 1.8929714 0.58659124 2.2742283 -0.9116009 -2.00517 0.4859823
C1838261 0.8108393 -2.1657128 1.5629659 -2.002302 -2.1183002 -3.2980244 1.018204 1.6590563 4.657166 -2.5715055 1.069229 -3.2128644 -2.2336402 -3.2505517 0.97386926 -0.72275436 -6.127422 -0.5066657 0.4290376 3.252081 0.41276693 -1.222466 0.38137457 -2.4324555 0.46918458 1.7385736 2.1543555 -0.061324224 0.9724635 0.32408115 3.2067122 0.66329634 2.065675 -0.5024939 -0.49314818 -0.7100478 0.61786187 -0.81434757 -1.7179034 -1.564008 -2.838978 -0.8498446 -3.2625816 -2.4860086 -1.9689534 4.007427 -0.30706206 0.73142344 1.1377864 -0.0009961874 -3.129822 -0.9735482 2.6895003 2.7472084 1.2861347 0.36672232 2.2362905 -1.0618309 1.6641158 0.14494137 -1.7992362 3.394972 -1.1349496 -1.9533434
2247 1.4766083 3.44694 3.209005 -1.7196066 -0.5534578 -2.0757747 1.5216928 -1.5854936 -2.8508153 -1.5263709 0.5492639 -4.000048 0.2379515 0.19014846 2.1040142 -0.96431386 -2.2280824 -2.683997 2.9377544 -2.0060976 -1.120675 -1.3553597 0.70669395 -0.615312 -2.051878 0.27543995 0.15152428 -2.4700072 1.1904144 -2.0106087 0.04850318 -0.6674519 -0.0028337354 2.9721339 -1.4634229 0.86755216 1.4361516 1.3124976 1.9493513 2.5130618 0.28986636 -1.1809883 -2.8826318 0.7458503 -2.390954 -6.1160617 3.1872244 2.1499388 4.458165 1.0945114 -0.44333825 0.5191497 3.724591 -3.000659 3.0164864 -0.8259245 -0.92633253 1.5183635 1.4989998 3.3745112 4.31785 3.9815278 -3.532004 0.7021043
57817 0.69826555 -2.1645982 -0.3531427 2.0576844 -5.6397853 1.8871278 1.8532052 3.4757335 -1.094415 -2.5755262 -1.3957808 -0.13189366 1.843751 -1.776502 1.9933652 1.0907253 -1.0993416 2.5655627 -1.1581458 1.1877018 3.7656207 0.5883268 1.4625072 -3.501768 1.4043002 -2.5469077 -4.0648155 3.4746153 -4.0832148 -5.874438 1.1736186 -2.2006528 0.4626395 -1.5687374 -1.504383 4.5187893 3.1498299 0.07528247 -5.6789722 2.659758 0.111290224 -3.0762808 -1.3365822 1.6608403 2.302765 -3.135941 -4.180781 0.8865122 -3.326476 -2.675137 -0.30774984 1.957209 3.6048894 1.062948 1.611212 3.0446596 1.3379188 -0.4251195 0.717432 1.3348562 2.6171486 0.2185812 4.7131305 -0.8935462
23411 -1.8467647 -1.5311083 -2.3894317 1.8717052 -1.6871023 -1.7533989 1.1010565 0.6559823 -0.16756968 1.890192 0.30177566 -0.4009803 0.45203725 -2.282029 1.1723155 0.059904996 0.49688035 0.86265767 0.37338448 1.8323764 0.035308544 3.067229 -1.8969771 -1.8669271 1.4693445 -2.4573667 -0.5244606 0.14296137 0.23497172 -0.6599244 -0.54238963 -0.037683852 1.7730364 -0.12519085 -0.8256122 0.31332016 -2.4256399 -0.60397184 -1.7376387 -0.38944057 0.3396539 1.0158743 1.0381455 -0.7737161 -2.4308875 0.59352076 0.3194221 0.026051514 1.3266909 0.8101799 1.7211578 -0.6333725 0.06934008 2.00211 0.015050418 1.5677481 0.53994095 -1.0220125 2.7078052 -1.3993936 1.1452743 -0.68648 0.8031615 0.41663542
7133 -0.48697188 -0.23224823 -0.7537022 4.2866354 -4.126078 -1.864181 -1.0440685 5.320703 -1.9661365 -0.34574908 0.6512527 -1.4694377 3.494419 -2.3610404 1.3100396 0.8204738 -1.3277597 1.9539204 -0.036157303 1.0809437 0.105379686 0.42148402 -0.265798 -2.6405673 1.4448258 -2.6384473 0.07824881 -1.2598187 -1.997611 -4.1425185 -0.69181406 -0.77963495 1.0980575 0.4509602 0.25491437 1.1838363 0.24661899 -1.079658 -2.4594605 0.08971828 0.31253684 0.27407327 2.0094013 -0.031417023 -0.45735472 -0.3379432 -0.09680736 -1.5734756 -0.89124787 -1.3932937 2.3415265 0.946626 3.155485 2.816114 0.7647834 -0.13377993 4.3351264 -1.4025244 1.5264609 -1.3562014 0.7741789 -0.052409608 4.3045907 -1.8208658
4760 -0.6442812 -2.1318166 -1.1597599 1.1189787 -3.1589043 -0.35025686 1.5080525 0.26348323 0.28046268 -0.34057224 2.7911985 -1.6532519 3.5792809 -4.1917396 0.18881977 -4.369108 0.24654333 -0.03796803 -0.52150345 2.5435987 -0.20141777 0.942776 -5.578937 -0.9301499 1.171409 -4.2498 1.05099 1.387878 0.6007125 -4.0948925 3.2092657 2.1944528 1.1401254 0.6129769 -1.2861503 1.7309508 -0.68160236 -0.31065166 -1.5724288 0.3840118 -1.6766151 3.269311 1.61232 -1.2882224 -1.7593887 -1.1270347 0.48860586 0.6955662 1.224144 -1.8934457 3.6048937 1.189048 0.005417894 3.8752632 1.4889513 0.9793952 2.4521496 0.5013375 2.2136416 1.8768538 -2.8070931 -0.4768805 2.422681 1.1186835
3091 -2.0599751 -2.0096824 -1.2882243 3.3996775 -0.34677336 -2.3571477 0.76443845 2.6962993 0.8016064 0.9515841 0.5459838 -1.8943301 1.5915903 -3.5635285 1.8041854 -1.4561385 -0.3592773 1.3107457 1.2188535 0.34528658 -0.77786005 0.8422067 -1.8879931 -4.842398 3.2262638 -3.0717702 -0.6316278 0.9062127 -0.18537366 -0.8933855 -0.9214411 0.55335164 0.4794617 -0.99627584 1.9541688 0.019218318 1.1686281 -3.6601894 0.6109504 -2.1228034 -0.01293671 1.6463257 0.8824382 -0.71419543 0.50235176 0.5526321 -0.29637665 0.6083068 -0.96375716 0.85913885 2.903322 -0.63688743 0.44803652 -1.161912 2.3823545 1.4147583 -1.5150476 -0.6695033 1.8678259 1.3175898 1.7817419 0.023743026 4.0411105 -0.24122952
3952 2.005925 -1.7704059 -1.0282474 0.9432534 -1.341331 -1.2985969 -0.04918831 0.9335525 0.8002075 2.178152 -0.3933664 -1.961981 2.1389527 -2.7548118 1.5983171 -1.8213483 -0.4806614 -2.329969 1.1715323 0.3045616 0.42652142 4.772382 -2.853736 -2.9252975 1.4997494 -0.7687748 -0.27026382 -3.074092 0.489215 -2.1418347 -4.007452 1.1737398 3.0473306 2.9163105 -3.1498525 0.009899717 -2.6061997 -1.8785019 -3.6700003 1.4078631 -0.18709956 1.8193308 1.1960787 1.0272113 -2.2353997 0.13655604 0.9089728 -0.075888686 3.3514276 0.38776305 0.058284715 -0.04142488 1.6721314 0.9959716 0.73429126 -1.1602764 3.473739 -0.37441596 4.71285 -0.4939931 -0.7095172 0.9392135 0.84614724 -2.5220091
367 2.866523 -0.40036732 0.17647405 -2.6665137 0.8480514 0.85359997 -1.5433897 -1.4815649 -0.3745892 0.42342114 -0.013929741 -0.9769415 -3.0327117 -0.44678777 -0.81033415 -1.1160924 -1.5375755 -3.4613256 2.1096609 -1.5344715 0.81956637 2.088117 1.1992968 -1.3533807 -0.8870151 2.3095582 -1.4492186 -0.700779 -0.5629584 0.30239508 -3.423525 -0.12946273 -1.0950462 2.160498 -2.7032273 -0.90378964 -2.1799326 -1.3867382 -0.5962523 0.2963885 -1.1718025 3.3936033 0.29271084 2.407243 0.15649262 -3.127304 -2.3395007 0.34864336 2.1270366 1.055549 -4.647329 0.028125899 -2.6590822 0.45908958 -1.2941133 -1.4314866 2.2061298 1.9272654 1.0183691 2.3611643 0.41263294 -1.319856 0.8217615 -3.2682958
706 -0.868597 -1.5351089 1.3777943 -1.1776214 1.6237314 3.6361275 -1.2866521 -3.8930354 1.8493496 1.3729717 0.079501845 1.3631289 -0.33873096 -1.888617 -2.6663647 -0.021882176 -3.0366404 -0.4519051 1.1526482 1.082156 2.4103193 -1.0556407 -0.226898 2.3671012 2.1015978 -1.2394019 0.48341313 -0.19307524 1.6800884 -0.20547019 -2.4486527 -2.6607397 1.076639 0.8601963 2.6282425 -0.10249002 0.46873584 1.8540459 -0.9791241 0.38348827 2.0866497 -2.86854 -1.271199 -1.3430092 -0.1752181 3.003326 -3.544214 1.5346674 0.41613382 -0.44226202 -1.903195 -0.42905512 -0.89091223 -0.5635413 -2.0477047 -1.5489007 2.2523797 -2.1960847 -1.749416 -2.245932 -1.156608 -0.33917412 -3.5612886 0.8476775
7040 0.924448 0.7737331 2.5335045 -2.5334623 0.83367467 1.2008264 -0.9861862 0.32297534 1.3244294 0.5307033 0.934646 -0.9951049 -0.6390415 0.7612919 1.2264625 -0.859453 0.05994488 -2.342043 2.5439873 -1.1965244 -0.77233815 -2.7614267 2.0598779 -2.3113248 0.8603172 2.9299777 -3.0659122 2.31591 -0.065583535 0.78650916 -4.5030565 3.431999 -1.6672007 2.4601429 -3.5984552 -1.2299821 0.2794922 0.022230053 0.6516938 -0.6670658 -0.8994235 5.3387995 -1.3804641 2.5808055 0.30207846 -1.7530183 0.5116455 0.39970672 3.452311 0.49383417 -4.129569 2.3498268 0.35335368 0.8718569 0.45381945 -0.3792448 1.5569116 2.4855096 -1.7421119 3.2265582 -0.3479695 -3.065396 0.81720126 -2.0912807
C1835817 1.0959162 -0.92771703 2.3861363 0.06102758 -2.6274133 1.7396495 0.17731932 -1.0221796 -4.2444725 1.5897627 -1.792128 3.805205 -2.8202422 0.22564107 -0.09014031 0.1957779 -0.04065539 -0.2744515 -0.74495083 -1.0335859 2.3362448 -0.3212904 0.86174846 0.17053582 0.6102636 -2.6455226 3.498342 -2.6213517 -0.48607734 2.371729 -0.22021261 0.31296578 0.39796057 1.003088 1.1122688 0.6699738 0.0010635777 -0.76214254 -0.6252883 -0.2978671 0.96069634 -3.2033644 -4.5195365 3.3366299 -3.2014916 -0.90246964 1.0480665 0.7595535 3.7116652 -0.2904557 -3.2047331 -0.8181891 -0.3186755 0.14290556 2.2482603 0.1891696 -1.4546682 -3.429622 0.44471762 2.0672343 -1.7771101 0.9575923 -0.11274059 -0.12729177
213 -2.1554873 1.1187946 3.263499 2.5064924 -1.1875404 -3.7537358 1.0623001 3.5908453 -0.84054714 -4.3925915 -1.5118486 0.29008675 4.1863465 -1.155342 -3.4308007 1.4661111 0.062778875 -2.2439644 4.564526 -2.007674 3.6005378 1.5564781 1.1107563 -1.4194378 2.5612118 1.963251 3.76508 -1.2880948 1.1575164 1.8572025 1.3471236 -0.2998453 1.0049807 -1.16436 2.788499 2.3005788 -1.513097 3.1384299 -0.55616903 1.6098307 -0.971625 2.1388252 -1.0710425 -2.3109455 0.9908097 -3.1438844 5.383219 2.1589174 -0.43563038 -0.8261609 -0.7291147 2.0676908 5.815377 1.2525749 -1.4646034 -3.1457667 -3.552171 1.4523842 5.4821754 -0.05575011 -1.2091911 2.6701093 -1.1065302 -0.8591127
4128 -0.31298336 -0.07088338 3.5932386 1.4197057 2.5072722 4.2276783 -0.47545585 -3.4117966 2.6334374 1.3231752 -4.1324396 -1.2349635 1.3524805 -0.8814392 -0.9275783 -1.8091004 -2.765607 0.08423217 -1.7118485 0.733243 2.0363455 -3.0555637 5.5834913 0.6510163 5.913098 -2.313399 2.3520129 -3.8102093 0.34451044 0.34845775 -2.8509958 -6.9646335 1.7324243 2.0393379 3.4922528 0.72897184 -0.3152689 3.449381 -4.5932217 -0.365588 -0.37861916 -0.8341148 -3.034572 -3.156875 -3.6170218 4.4475193 -4.671654 -3.0507455 3.9631333 1.6406459 -3.0691054 -3.7986479 -0.24332078 -4.7761555 -2.7056332 -1.5627397 -1.6803595 -2.0385077 3.0015152 -2.0019326 -5.0164948 -2.8839495 -2.713645 1.2480533
5328 -2.4950488 0.6350481 2.0374088 -1.8043665 -4.1120477 -0.94053084 0.29339328 -0.12030298 -1.3074768 3.9961588 0.52349573 -0.39465594 0.9198384 -1.1550478 1.3786814 1.9634298 -2.67516 3.1983619 -1.6008034 -0.21118674 0.1851298 -1.4230313 0.24926908 -1.5877155 0.89410734 2.5367599 -1.790468 -0.93723655 0.5456085 0.40534955 0.7963636 3.4355094 -3.904828 -1.2401948 -3.2633727 -2.0070786 -3.4455655 0.73466027 1.1529258 -0.7119065 -3.30653 1.1266857 -0.47525555 0.78161776 0.09543109 -0.28195554 -2.2072823 3.2934067 -4.256444 0.10997029 1.6709865 0.41507375 0.20873924 -3.804815 2.1290233 0.68983346 -1.0493641 -3.1151197 -1.8501033 -0.7977506 -3.5469983 0.79884875 -2.2796054 1.0408992
121278 1.3267817 1.4108275 4.283718 1.507455 2.2793944 0.7880415 0.3895433 -4.612464 2.7757776 0.894959 -3.5828104 -1.8474859 1.9787279 -1.8598711 -3.0904431 0.4946819 -4.841043 -1.7159275 2.1362026 1.9003804 4.2959704 -0.30354634 5.3671217 2.666985 4.918161 -3.0043848 1.840566 -4.1188793 2.705512 0.14560841 0.31821102 -6.0276895 0.34402865 0.47644806 5.0862937 -1.3659301 2.4933064 5.0714025 -2.7907884 1.914061 -0.62198037 -3.0687041 -1.0916113 -3.6783857 -3.7399378 1.6219102 -4.6302047 1.6410416 4.297601 3.1311574 -2.2887595 -0.66817826 1.5314933 -2.0426974 -1.5229417 -3.0410547 -2.8150065 -1.1461512 5.006884 0.04721607 -2.808262 -0.75225765 -3.7009592 3.1022615
6285 2.6685033 -1.3638287 1.252574 -2.075175 1.852539 1.5531121 -1.0873407 -1.9190983 -4.9666686 1.9780731 1.864427 2.7515311 -1.9365546 -0.40955535 0.7861278 2.3752787 0.29487908 -1.0982088 -2.6489122 0.36258548 -1.6872529 -1.5907712 0.9134978 2.8963492 -1.4130607 -1.4681522 -1.3008604 -2.9456573 2.583388 -0.5084843 2.8944242 -2.3714445 -0.1643345 0.05896368 -0.24342652 -3.9909866 -0.8360493 -0.679143 -1.8112582 1.285512 2.6675828 -1.4305542 -3.4500918 -1.3965809 -2.1837611 -3.6820474 2.320074 -1.611986 1.8493298 -1.700171 1.265739 -5.1163363 -0.4959363 0.54116094 1.9427612 2.0555286 0.09917879 -3.0328715 0.46076593 0.84580666 1.5649142 3.1477163 -2.2738628 0.16897558
6347 -2.6374247 1.5919411 1.4683875 -5.52021 -2.736717 0.09435533 1.6671023 0.007818409 2.3377554 1.8140136 2.6615558 -2.6537395 -2.166943 0.4235054 0.6574846 1.3641146 -0.61064 2.663157 1.0790881 -2.9664285 -0.0068127224 0.4018936 -1.1904444 -4.6469555 1.5489682 1.7922217 1.5579607 -1.5292704 -1.1336753 0.26588485 -2.7487674 4.511419 -1.409401 2.3864343 -4.0920906 -1.5129691 -0.48899528 2.8115692 -3.0326579 1.2730294 -0.1053839 -0.0055024475 -2.7198498 0.5440116 -0.6801507 -1.8287985 0.33532745 -0.42053476 -2.473544 0.7010479 0.8001579 1.8161978 -0.73106694 -5.982546 3.3831706 -5.0328927 2.9944472 2.5934403 -0.65231717 2.1153603 0.911329 3.4388456 0.22065598 -4.3385553
4318 -2.7740974 -0.6738687 0.18368585 -6.7107687 -0.25855708 -0.89063054 -2.0841177 -0.2137759 -2.0336807 2.9458754 1.0339943 2.1118674 2.9185665 -1.257456 1.4740019 2.1972287 1.62044 2.0884652 -0.9224806 -0.20946158 -1.7779738 -0.46690893 4.0904136 -1.36167 -1.0705365 2.2995129 -2.0058599 -1.9133203 1.2607524 1.7810438 4.216932 1.3407551 -1.6166731 -0.39855406 -0.9086832 -3.9426413 -0.8021235 1.2000709 -0.55298245 3.192579 0.97440016 -1.5137879 -1.9914052 -1.787222 -0.00012481965 -0.23086955 0.35474238 0.4299173 -2.7485719 -4.156237 4.01022 -1.4763675 -2.8249412 -1.6455418 3.7542982 0.40974838 0.7777799 -0.87746555 -0.318436 2.7980623 -2.6680675 1.248022 -0.026354888 -2.1798782
387129 2.7299035 0.32335594 1.5572486 -2.3086846 1.5863088 3.868489 -1.1985147 -5.150238 3.0599787 3.590959 -2.385881 3.6049373 -1.0275761 -1.8763214 -3.3488307 -1.1290975 -4.073382 -0.021222351 -1.5535779 3.7069964 2.0178835 1.4553816 0.41566393 -0.07083281 1.8620863 -3.7863057 0.26706877 0.38301414 1.7820942 -0.6942773 -1.5800986 -4.7925572 3.3163865 3.1856694 0.36439565 -0.3709322 2.3616996 1.1311575 0.89501876 -1.3355215 0.37075004 -2.2166526 0.8391556 -1.6170374 -2.1394129 5.2051644 -4.980015 0.38850364 1.3554268 -2.6638472 -0.5508331 -0.010358216 -1.7869135 -1.3285106 -0.83155686 -1.250888 3.4447212 -0.43631256 -0.43553674 -0.428994 -2.6257987 -0.4675196 -3.6526024 2.524298
335 0.002154574 0.84784335 2.0066855 1.6481209 0.5240575 -2.7283278 -1.1594613 5.8553843 -1.0041667 -0.66158706 -1.5845284 1.0873536 1.1229934 -1.6306973 -3.023021 1.2422333 -0.075253025 -0.1482398 0.37818062 1.0518928 -0.39728072 0.92744887 0.36750802 -1.243241 1.9475622 1.1542362 3.5263648 1.1501906 1.0025523 2.2116225 -0.56790704 1.2400379 1.5066279 0.04584662 -0.45870465 2.2052352 -1.099276 0.80153996 0.8633825 -2.2542489 1.1034269 1.5918386 0.60480183 0.44785538 2.2360625 1.2596071 6.204954 -1.1281211 -1.3905894 -1.5718236 0.29947913 1.1439316 2.8366497 1.6738398 1.5794982 -3.0790963 0.094939604 2.611483 0.7691454 -1.0620972 -2.6107938 1.5132694 -1.0244579 -3.1149275
28 -0.60427237 0.94826645 -0.23245265 -2.1330469 -2.3469121 6.466749 0.13278839 -1.4286596 1.7768857 -1.9568887 -1.8386325 2.4681733 1.050163 0.57703125 -1.0726287 -0.085559405 -0.70868343 0.47775394 -2.1739745 0.84925723 2.9445133 -5.1122284 0.39863977 -0.80634767 0.63629514 0.8328077 -0.26834282 2.8666542 3.780132 -0.7681735 -1.7857851 -0.13309199 2.8195362 -0.505305 -1.2291038 2.0007868 2.3723612 2.9460773 0.25657523 2.2504776 -0.4381594 -3.3427212 -2.7317276 -2.2727628 0.44860223 -1.9729877 -5.100288 0.6364374 -3.813986 -5.8042374 -0.97733945 1.6184231 0.44189835 4.328626 -1.4163872 -1.8333774 0.7591738 0.051685374 -0.7987444 -3.266395 -0.6311962 3.1279125 -2.7633107 0.9154465
55215 -0.5929389 0.8027797 0.1736656 -1.5313778 1.9176333 -0.73629344 -1.0720812 0.2521096 -2.1762397 -4.2643795 0.22562157 -0.7725368 0.91685176 0.045677446 2.5351696 3.7688515 1.1851977 0.35770702 -0.5938803 -2.5909672 1.027133 -4.1980257 1.63899 0.3770372 1.8908383 -0.16072431 -0.8745278 -1.4848605 -0.48769262 1.7235827 1.1716362 1.0158917 0.16286385 -0.17450741 -1.381257 -1.1282092 1.0270189 -1.2771348 0.9657746 -0.26914817 -1.1772133 -0.97012126 1.0704018 0.31905413 -2.41951 1.7196776 0.14164302 -0.9038828 2.285934 0.7623703 1.7423956 -1.2268903 1.4175836 -2.190463 0.7685555 0.03429548 -1.8437774 0.7373808 1.2722125 4.2144527 0.047349732 -0.63655674 -2.0256858 0.17452525
C1836861 -0.19130011 1.0339586 0.29578337 -1.4204319 1.7166331 -0.6281546 -0.89535755 0.1731203 -2.0386384 -4.2397738 0.23144065 -0.6021223 1.0667539 0.20418231 2.3663275 3.4718788 1.2861251 0.3749737 -0.6353901 -2.5950127 0.9221265 -4.017196 1.5747869 0.3771913 1.8151696 0.0012451304 -0.69708544 -1.3794188 -0.7418862 1.5997707 1.256797 0.95206505 0.0819996 -0.28616056 -1.3293712 -1.1725152 1.0246634 -1.2486149 0.94724894 -0.4988604 -1.0199025 -0.8614999 1.1258907 0.23253308 -2.2061412 1.7169275 0.11119019 -0.9847412 2.042426 0.70733035 1.647069 -1.1221192 1.3965354 -2.0625956 0.9034405 0.13873422 -1.8669355 0.7381673 1.3050039 4.104529 -0.017031446 -0.51463914 -1.831989 0.14300539
C1857775 0.42670283 -1.6449176 2.1313584 -0.08492369 -1.8283112 -1.1794704 1.5886215 -1.3216197 0.1446929 -0.58086514 -1.8572761 3.6132548 -1.3321942 -0.8616067 -1.1720724 3.438774 0.6031324 -0.6997557 0.78715026 -2.7304957 1.899529 -3.179969 -1.7124238 -3.309912 -0.46343687 -1.3650599 0.20203216 0.8643386 0.5471583 1.4109021 0.89358425 0.3536382 -3.0749295 1.6564069 0.3584559 0.119965374 -0.11356905 -2.1520987 -1.340702 -0.62679744 0.9735326 -0.61710024 -0.094241574 3.1491678 -1.4010922 0.7030198 -2.6018806 -1.4779792 1.3729284 -1.35495 1.3585703 1.8176961 0.6433861 -2.5757897 -0.036972433 1.2162982 1.6229293 1.0564357 0.36975756 0.19300805 -1.6145238 1.5315057 -1.4246114 0.6689059
169792 0.26305068 -1.8419 2.3052018 -0.049619894 -1.9785867 -1.3115228 1.538308 -1.5482442 0.21787842 -0.30231315 -1.8338891 3.7437084 -1.5880784 -1.161696 -1.2260604 3.6028914 0.5723021 -0.8759034 0.82072055 -2.580433 1.9971614 -3.3418555 -1.9580986 -3.6039069 -0.49237922 -1.4890181 0.008087162 0.8663632 0.78447354 1.4483968 0.89834595 0.30295214 -3.0896268 1.8237765 0.54237807 0.15626156 -0.23118624 -2.0479653 -1.52781 -0.5044832 1.0783604 -0.62896997 -0.030163199 3.1543975 -1.5100806 0.66777563 -2.7103438 -1.4293365 1.4822031 -1.4065325 1.3501174 1.7395504 0.7167512 -2.6994245 -0.12000391 1.1195036 1.9604206 1.1327425 0.47525185 0.0517248 -1.5788965 1.4307231 -1.4423547 0.72312635
C2677132 -1.13431 -1.385017 2.8886905 -2.003354 -1.8165306 -1.2291683 0.5387428 -0.58030045 -2.2824466 0.81904304 1.6044035 3.9744165 1.0062264 -0.20581757 3.5406091 1.2081598 2.41885 -1.9402205 1.9547414 -1.6982588 1.5863712 -3.215908 -0.576157 0.26164567 -0.65331393 -1.034001 -0.80027336 0.96736044 0.39649108 1.132421 -0.09992436 0.47973555 -1.4233397 0.54099554 -1.4037048 0.530324 -1.3505567 -2.1374848 0.43751955 -1.668795 0.3907686 -1.420422 2.156968 2.389523 0.09623753 1.5845187 -2.8808494 -0.31375992 -1.1497258 -0.58102745 1.0670016 2.9750233 -2.8516374 1.0070155 -1.3966334 4.2028666 -1.8255427 -3.3406491 1.2184098 4.4977384 -1.5279907 -0.4789899 -1.4070535 -2.3794482
5078 -1.324875 -1.4442468 3.2192175 -2.177981 -1.7635261 -1.1658132 0.46424204 -0.6870407 -2.4150689 1.2757835 1.721216 4.211504 0.8079539 -0.5324115 3.861249 1.2484566 2.4829457 -2.2330158 2.1573136 -1.6009612 1.8086231 -3.372354 -0.7391424 0.21203859 -0.51485085 -1.0574915 -0.8883743 1.0051247 0.5680531 1.08354 -0.2596945 0.42101243 -1.2431135 0.5075448 -1.3173636 0.68577 -1.4789273 -1.9683292 0.3464441 -1.6348995 0.31267416 -1.344656 2.242947 2.2984416 0.017165143 1.6471488 -2.7055428 -0.06675405 -1.1509913 -0.6005628 1.0128045 2.877866 -3.001584 1.1110342 -1.5719689 4.3795233 -1.8025961 -3.6092408 1.4293453 4.714895 -1.5861903 -0.58783317 -1.339714 -2.4749227
C0043019 -0.9012426 0.78391993 -1.8965478 -1.6533792 0.27102068 0.44394046 0.9824973 1.6728723 1.9774213 -1.2446048 0.5318517 1.224105 2.315149 -0.082056 -0.491624 1.4139993 2.7214746 2.300071 -0.15605053 0.18245618 -0.4099599 -0.61603755 4.4664927 -0.8385864 -0.39426586 -0.6694115 1.6639621 0.4716258 -1.6853982 1.8106713 2.4297166 -0.35790864 -1.8379266 -2.485692 0.30083168 -0.75380284 3.2148042 0.48630613 -0.7875149 -3.000587 2.093739 -1.0923802 -1.7587354 1.2977979 -1.9817717 0.7254747 -2.5635066 -2.8943276 1.1953888 -1.1967609 -1.3348678 -0.31562608 1.6773578 -0.08318786 -0.5140012 4.200667 1.5453854 -1.2208338 -0.9313308 0.27869824 1.0217078 1.6012483 3.4182248 -2.282696
2488 -1.4980822 0.74376464 -2.036153 -1.7686828 0.32871526 0.43535712 0.90327704 1.8060099 2.2851264 -0.86287946 0.6497934 1.1876479 2.2416673 -0.28610334 -0.6624089 1.4768095 2.8608623 2.3764598 -0.30842665 0.5253452 -0.30656627 -0.4904022 4.708623 -0.97559625 -0.40908372 -0.8066616 1.5397664 0.4034148 -1.578926 1.9328264 2.4734073 -0.5355967 -1.7659464 -2.6715195 0.46663332 -0.9069632 3.4109783 0.84905434 -1.0683732 -3.138943 2.2168286 -1.0897502 -1.9147671 1.1142659 -2.3040118 0.66865176 -2.6108954 -2.9955463 1.3557705 -1.3532776 -1.6867111 -0.5135841 1.8554868 -0.020831713 -0.70730317 4.3581176 2.0059507 -1.303137 -0.81302714 0.062864065 1.332664 1.5832856 3.8948176 -2.5448265
6005 0.4186647 1.3465551 -4.2733088 -3.0548868 -0.61928177 -0.60043555 -2.705916 -0.6505341 -0.23356883 -3.8899403 -0.29456806 4.4287877 1.545568 1.261308 -2.2055445 -1.4621793 -1.0752388 -2.1715765 1.103826 -4.6317983 2.2016988 -3.145867 -0.2952268 -2.9982483 0.670454 -0.2775558 0.1237266 3.3162901 -1.2752012 -0.24525104 -0.12075862 -1.2467271 2.9101171 0.3550527 0.54546916 1.6905085 0.84162766 -2.5778873 4.182015 -0.30384555 -0.97547585 0.2580842 -1.0180528 -0.38907972 0.03739638 -0.40692908 -0.27357504 -1.5572504 4.068971 -1.7705244 -0.7700536 -1.0469556 2.2131917 1.7116827 1.7809681 1.8120402 2.8767698 0.005432425 0.642288 1.8480246 1.1689568 1.0803084 -2.4428186 -0.5887638
C0272052 0.6527179 1.282567 -4.005373 -2.842086 -0.4418341 -0.6080204 -2.3769226 -0.539674 -0.07925752 -3.9555535 -0.3261411 4.077158 1.5817416 1.4503553 -1.9531742 -1.2038422 -0.88153446 -1.7658668 0.9816976 -4.594986 2.0525758 -3.1904867 -0.1743159 -2.600712 0.4340991 -0.07984024 0.23314176 3.319503 -1.3868757 -0.073235154 0.05359368 -1.0432391 2.425957 0.4365475 0.3461236 1.4473643 1.0300823 -2.5826027 3.9331315 -0.2828926 -0.9332306 0.24320792 -1.0929105 -0.21041633 0.21534845 -0.13719603 -0.51186633 -1.6422584 3.619905 -1.5795207 -0.57621664 -1.0055541 2.0467157 1.5278805 1.7080059 1.9755536 2.4504838 0.18669467 0.6419736 1.9324899 0.9902464 1.0493459 -2.5651073 -0.4965741
C2675512 1.9641534 1.2061043 -0.10588304 -0.54469675 -0.45886213 0.04512049 1.2029375 -0.18978919 -0.35060775 -2.360967 -0.50116885 1.2709161 1.6914281 1.1359043 0.37406564 0.55648816 0.62318516 0.98971856 0.20975278 -1.9403615 -0.52749914 -1.3268317 1.2238257 -0.41784087 0.44322366 1.0396799 1.8375671 0.57043016 -1.897715 0.50928 0.6856902 0.51562375 -1.3691704 -0.81365365 -1.1736977 0.10139397 0.66469955 -1.5369492 0.8180574 -1.4059836 0.010265502 -0.9300004 -0.13817918 0.83824843 -0.030062973 0.341354 -0.99814993 -1.2309082 -0.005775626 -0.06917679 0.7730481 0.9967619 0.17772676 -0.55078506 1.1980456 1.3184888 -1.0108495 -0.50415754 -0.47947726 1.4945494 -0.51684165 1.0718201 0.2662222 -0.17262724
6135 1.8343434 1.1680673 -0.09113373 -0.48104978 -0.43331853 -0.00035724844 1.1235993 -0.23317367 -0.267518 -2.2206643 -0.4796345 1.2410023 1.5984472 1.0763733 0.3292655 0.53980285 0.59559447 0.967728 0.16449066 -1.8926901 -0.49041086 -1.2606674 1.194788 -0.4349413 0.49238807 1.0062115 1.7198857 0.5681314 -1.7821571 0.5151676 0.6710867 0.470292 -1.306642 -0.7397619 -1.1425223 0.14059968 0.60880005 -1.4861859 0.7360986 -1.335255 0.0064670322 -0.90736616 -0.15218326 0.7812671 -0.015592615 0.32444113 -0.9954198 -1.2037889 -0.0027925787 -0.044544406 0.72827154 0.9854233 0.18267053 -0.5765747 1.1684932 1.2358351 -0.9076687 -0.49347752 -0.46206215 1.441246 -0.47469378 1.0079623 0.25809398 -0.118143745
C1843687 3.4920135 -0.82591754 -0.8281895 -0.12241599 0.025702909 -1.8691447 1.4164257 0.7821323 0.12125116 0.73499185 -0.83644056 -0.31693473 -0.45739052 -0.30781287 0.33668882 1.5477675 0.48742923 1.4664209 -0.5740979 -2.9720993 2.8278513 -0.8000247 1.8304079 -1.8763915 0.7230068 -0.5104515 0.6731378 0.08757231 -2.7311227 3.230558 2.7776802 0.62657 -2.3635778 1.8039132 -0.80595267 -2.2481933 -1.7605768 -0.06879236 2.3550446 -1.0884827 -2.0943213 1.8485497 -2.1398706 1.7957262 0.696851 0.305789 0.5307746 0.572249 -0.43023133 -1.2609218 -1.3909407 1.8522327 -0.66417813 2.2775862 3.1462877 0.43698114 -0.14430721 -2.641193 2.157872 -0.013888692 -2.480983 -1.1802067 0.6826613 -1.3495231
4635 3.374809 -0.6175476 -0.805983 -0.19664818 -0.017462917 -1.796387 1.6121002 0.83267546 0.111431286 0.27756128 -0.82705814 -0.21208514 -0.36036074 0.039756324 0.33031118 1.6443605 0.565899 1.5560467 -0.56443906 -2.9925256 2.563313 -0.8285883 1.8282208 -1.6503682 0.5251629 -0.44572628 0.71861005 0.15092668 -2.7219462 3.2090695 2.638868 0.66970444 -2.415147 1.7022486 -0.8570577 -2.1308699 -1.665017 -0.24989326 2.2138245 -1.1395098 -1.9749941 1.7067647 -2.0699272 1.8695093 0.7297141 0.46305192 0.40146655 0.33738428 -0.38504726 -1.1982094 -1.1365749 1.944021 -0.84352934 1.9941249 3.1275942 0.5249331 -0.37056163 -2.560878 1.9716895 0.3049534 -2.4505663 -1.0109824 0.6192943 -1.3215384
5443 0.4425267 0.30211607 -2.8490498 3.236953 -0.22672279 -1.571493 0.6469241 -0.38357857 -2.296398 3.0069149 1.2506763 -1.9643012 -0.7299745 -4.902685 -3.1000865 0.4105156 -2.3075337 -0.15392594 1.532135 -1.3579835 5.330494 4.348436 1.3173707 -2.8923237 3.4426777 -0.074836336 -1.6307192 -2.3614516 -0.61782664 -0.4564703 0.94960064 -4.3777966 -0.66323245 -0.92979306 2.3739312 -1.2820003 1.7915249 1.7661206 -4.9987345 1.8696841 -2.1169853 3.2578206 2.5580308 -0.27045754 -5.123517 -4.666583 -3.32585 1.9707522 5.5956516 -1.8109752 -3.0477338 1.1675864 1.1010025 6.2346206 -4.1114683 3.54209 -4.152691 2.2186499 6.3579955 5.7274027 1.3399355 -0.2652566 -0.06637103 -0.85901713
7048 0.50607985 0.27231628 -2.36997 -1.631152 1.309545 0.81130624 -0.8787203 1.9712677 -2.3067915 -1.9867029 -0.03120816 1.1255356 -0.41699722 -1.389063 -1.6445104 0.41259518 0.7056117 -0.2817131 0.697431 -0.611398 0.66548544 0.14850935 2.4725046 -0.75679094 -1.4294754 2.0016468 -1.1791807 2.5019183 1.5473031 0.19761959 -0.6369254 -0.40850186 -4.77064 -1.7075796 1.0564544 -0.19113375 0.9654417 -1.2366768 0.7974848 -1.9373448 -2.927992 1.4287944 0.18331996 -0.09054085 0.68177015 -0.5564681 -0.682678 -1.4098169 2.407656 0.55583215 -1.7112614 2.3431764 -1.7514799 -0.26285335 -1.1934592 0.09431061 -0.4220094 1.5245429 -2.773881 1.6663215 1.0817896 -1.9029418 1.5293667 -0.50282997
10891 -2.3642144 -4.409153 0.5473874 4.0137196 -1.6412188 -2.8140028 1.0867358 -2.4613075 -0.6355703 2.5498111 0.91532874 -0.8971019 1.6628194 -0.8847768 0.6413568 -1.864898 -0.98855203 0.9112983 1.0289083 4.1969695 3.1512742 3.6263897 -2.291185 -1.9822848 1.3641673 -2.2130618 -0.51479745 0.10647843 0.22987482 -1.2680637 -1.8057494 -2.694607 2.2764277 -0.698581 -0.34509057 -1.6317494 -3.341362 0.61564064 -2.278647 0.72502047 1.9457836 2.0129042 0.0010128892 0.59729743 -2.7771423 -0.74456733 0.38494885 -3.003773 2.0868597 -0.21907675 2.0665367 -1.2830263 0.6336306 4.7456017 -1.0539135 0.17155753 0.42012835 -2.798495 3.0897784 -1.6763672 -0.7830878 -0.26215425 3.3110628 -0.23111005
79068 -1.1703653 -1.7405698 -1.575167 2.8215947 -1.0541065 -1.725401 0.42123 -0.23749587 -0.5774967 1.563193 0.6685068 -0.39666495 0.09360665 -3.0688357 0.52661616 -0.3396071 0.7740964 -0.065765075 -0.054207496 1.8873819 0.57310545 3.4167352 -2.684232 -1.0501785 1.8469902 -3.4898126 -1.2883229 -0.53822494 0.4803395 -0.5900706 -1.0793661 -0.10859713 2.0736067 -0.96275765 -0.6977874 0.9005836 -1.8433502 -0.037849043 -2.1405256 0.17833702 0.0070253196 1.570194 1.0887341 0.1100529 -1.7603512 0.4202518 0.39718652 0.32795128 1.2002707 0.06345017 1.3845068 -0.91584605 0.6418448 2.157531 -0.25304204 1.4410787 1.3182855 -1.8519679 3.3704681 -2.7430677 0.35717756 -0.52092767 1.0630627 -0.1108297
1029 1.1655974 -2.1247766 2.3044987 -4.3160353 1.6080768 0.025623884 -2.6021657 -2.34464 -0.85621333 -0.33260575 -1.1746135 -0.51471907 -2.8228292 -0.3511927 -0.61116636 -1.0495257 -1.5874882 -4.255073 3.06257 -1.6437631 0.569768 2.9905927 1.6606351 -2.5712311 -0.8405341 2.759927 -2.7915452 -0.1341183 -1.2308891 0.5571679 -3.5217216 -2.1988175 -0.7856348 1.3176543 -3.850491 -0.016509548 -1.4156092 -2.0390394 -2.3362515 1.9820408 -0.09111894 2.8174071 -0.4509948 1.9435095 0.35068527 -2.4032624 -1.8040588 1.5020782 3.9315643 -0.94074553 -4.3926406 -0.8265012 -3.3400357 1.5232264 -2.2258239 -2.3530934 1.0598118 2.6437335 1.0534347 3.7410057 0.26799566 -2.9952154 1.4213369 -4.4907455
1565 3.1771228 0.32222554 1.8843981 -1.0230802 0.79092264 4.244293 -1.6789031 -3.9765065 0.101265386 1.8465215 -3.732092 3.4607015 -2.9633915 -1.1642349 -3.3580503 1.4131432 -2.0255291 1.055253 -2.0776603 3.0540404 2.3721943 0.11009837 2.113548 -4.0034 1.5095935 -1.3462318 -2.6213863 1.6871932 2.007644 0.8969323 -3.207067 -6.3468547 -0.55951416 0.47632417 -0.00017704869 -1.4815246 1.9580984 -0.17924663 1.779269 -1.9918343 0.035748832 3.7400706 2.256776 -1.8965994 -1.5530468 -0.6336449 -5.4973664 1.2099787 1.9776087 -3.3372338 -3.0937088 -0.44699037 -5.0680065 3.59503 -4.6919293 -3.0929585 1.8328124 1.0409279 0.47573254 2.148862 -2.1380353 -0.69303226 -0.5018858 0.5477875
1906 -0.5849848 -0.7695932 2.0950656 -5.308536 -2.9014487 1.4741402 -2.3561418 -4.434252 -3.1076727 5.893544 1.8174446 0.076391146 0.62654394 -1.4849626 2.4013536 2.487926 -0.67827547 3.135489 -1.6925815 -1.4454293 3.702109 2.3892508 -0.63420725 -2.4550495 1.0401446 -1.5340515 -1.83134 -2.9086256 -3.6774032 3.2624776 2.0360808 -0.077810064 -1.842396 -1.6151344 0.0736851 -1.2921666 -2.7070625 0.3459228 -0.5053946 -1.169232 0.08265988 -1.317333 0.5514835 -0.90906864 0.609116 -0.82890224 -0.62443423 0.18540612 -3.0512662 1.6930867 -0.4425088 2.4738755 -1.5585581 -2.8106806 0.06609268 -3.5654972 -1.9396821 0.90621376 0.70773804 -3.6143343 -3.8165052 -1.240843 -3.9468026 -1.1786724
596 -2.7067 0.60115623 -1.812474 -1.673119 0.7095517 0.42217404 0.54285157 2.2354436 0.008573778 -1.4698292 1.0597081 0.4538762 -5.111949 1.1709771 -3.0338073 2.3395002 -0.06892838 1.6292908 0.8013481 -0.68958056 -0.7339833 -1.5798924 -0.21551245 -0.6438987 0.8636701 0.24908775 1.5005568 3.054724 -0.23209071 0.12677744 -1.5079672 0.24747664 -3.9284594 -0.16910432 -0.28735685 -2.520263 0.6324321 1.7977535 -1.9540861 -2.4190624 -1.2242357 1.3397156 1.0251887 1.1463417 0.8095216 -2.342786 -2.274532 -1.5995113 1.2370872 -0.6425484 -1.6707045 2.6452897 -1.1377645 -1.4420704 -1.7861803 -2.3937564 0.09508945 2.8696425 -1.7667255 4.5757294 1.6992528 -0.45542136 1.9810776 -2.1924682
3308 3.5186727 -1.5282226 -2.1655047 0.04134252 -3.473126 4.9146442 -1.2422311 1.7350215 0.63532364 -3.3766866 1.6216655 0.6931556 -0.4633902 0.94721377 4.362857 0.47137427 6.7313914 0.04866126 -0.5900858 2.4463038 0.0019949593 -2.0919006 -1.5403327 -0.6835175 0.95864934 0.82816297 0.29475358 -3.1521523 -2.322872 -0.5733632 -0.5892944 0.46915662 -1.6499633 3.8164625 3.0452647 -2.9528491 2.571738 2.8661637 5.041917 0.4199047 0.20307812 -1.4159623 -1.2739159 -0.06880163 2.132138 0.3178527 0.27330402 -1.4249276 1.489474 1.512764 -0.5213408 0.965099 -0.2989474 1.0155407 0.5009847 3.1009328 -1.7172924 -0.45487118 1.2990863 0.4371698 0.03507125 -3.1405663 0.79170555 -0.7175222
5291 -0.7636802 -0.089829534 -1.7409198 -0.41723177 -0.2418188 -1.2726066 -1.3772174 1.9974061 -0.36386743 0.32871863 -1.7205304 0.7749118 -2.5468996 -0.47341707 -0.4916147 0.15624323 -0.08834263 -0.58870536 0.5942866 0.41004276 -0.6122667 -1.6256921 0.9449633 -2.3184135 -1.385521 0.76753974 0.19938703 1.4420725 2.0783582 1.1893854 0.106580906 1.6711668 -1.7744225 -0.4737015 0.6530191 0.34858233 -0.28468978 0.5844848 1.9069008 -1.8007368 -0.48779896 5.566493 1.5676053 -1.3139731 0.4499982 -1.4261204 -0.44006416 0.1642712 1.5096031 -0.4223353 -1.0009011 1.3195087 0.10628811 1.9627784 -2.6145895 0.2286096 -0.14944795 0.74283344 -0.87020093 1.7026646 -0.543765 -2.289185 2.6673138 -0.4202859
5294 -1.3675065 0.10961702 -1.638967 -0.2559018 -0.17377298 -1.59088 -1.4035348 2.1271832 -0.8503688 -0.51395416 -1.442764 0.5367265 -2.0983298 -0.5459395 -0.59236115 -0.07865391 -0.20979661 -0.6071107 0.70260125 0.28557697 -0.54614514 -1.5394392 0.7565769 -2.848372 -1.2637811 0.5465643 0.71537304 0.74872947 2.694574 1.203274 0.574999 1.47824 -1.79234 -1.0403345 0.77031046 0.6693599 -0.3229151 0.37907773 1.8465276 -1.7273037 -0.8266127 5.5054126 1.5961349 -1.1422287 0.20976046 -1.7065408 0.00063639134 -0.6561209 1.3376436 0.049156487 -1.3554657 1.6155552 0.33137512 2.0268915 -1.9603255 0.07764514 0.14305063 0.7751648 -1.0102149 1.884076 -0.012100778 -3.0892105 2.967639 -0.63243204
1958 1.9125899 -3.2233272 0.6180348 1.7141677 -1.2629416 1.5301118 -0.19691207 -0.54051733 -1.6371453 0.764907 1.6974199 1.9449205 -1.8304937 1.3996607 1.1776197 1.473391 2.4367921 1.7953421 1.3686545 -1.1548526 0.8039299 2.6038544 -1.1959023 2.1066973 2.9257696 3.04422 -0.08845147 -3.7126698 -0.761782 0.41110188 -2.1437943 -1.058266 0.92101586 2.6582477 0.76001364 -3.134667 0.39574784 1.8336707 1.7236044 -0.46148685 -0.568804 -2.3803122 1.0621715 0.85687965 1.7409127 0.73553264 0.24380267 2.0358498 2.3505328 0.29607642 0.19550477 -0.47317162 -0.06882893 1.8035342 -1.097886 1.361169 0.18275249 -0.5330533 0.6579654 -3.2867174 -2.5901847 0.83485824 -0.90121984 -2.3878236
4878 -0.58856696 -1.9380671 0.2703298 -3.440126 0.04532851 1.5182565 -2.076572 1.385265 1.8228297 1.8401686 0.343414 0.31876475 -2.777841 -1.8665433 -3.2106504 -1.9199384 -2.5015519 -0.6099482 1.0397202 -0.45887938 2.27046 -0.5004413 2.4170787 0.266651 1.006466 1.1251986 -0.1821454 1.1321223 0.74246055 -0.3191782 0.5849882 0.19649045 -4.163322 -0.055920143 3.1444223 0.7832476 1.0328143 1.7184237 0.7999902 -1.4645745 0.6154258 1.9885786 0.49532625 0.29173657 0.3230222 1.4859619 -2.550183 0.020302849 2.816209 -0.3871269 -2.4596016 0.5392212 0.9180104 -0.31982428 -3.2479875 1.8422244 0.34372237 0.75451374 -3.2971392 2.673398 0.63011825 -3.3442683 0.051863912 0.10421059
