2996 64
C0004096 -0.58134085 -1.2904832 -1.1770027 0.06831105 -0.37469798 -0.70140964 -1.171574 -0.7694266 0.62327385 0.6126921 -1.7496283 -0.97268766 -0.21535116 -0.59318954 -0.76623005 -1.54039 -0.7201959 -0.6675984 -0.6738153 1.0737989 0.24555011 -1.0302312 -0.5999331 -0.2788218 0.6293022 0.22856693 -0.29473928 -0.08770332 1.8019512 0.42314672 -0.141859 -0.24905229 -1.1591208 -0.027589003 1.5335937 2.2055874 0.94956356 -0.5260501 -0.58481 -0.36309204 -0.07312362 -1.7462069 -0.95471483 0.25217006 0.10264745 0.71934605 -1.0156995 -1.831127 2.0446336 -0.7097213 1.5927627 -0.25231877 1.2171061 1.1146457 1.1605339 1.7567711 -0.34412 1.6445774 0.37762964 -0.76629514 -1.2897601 -1.7820841 -0.40448818 0.995495
C0027051 -0.2503924 0.07810342 -0.3808156 1.6337543 -0.825651 -1.4998231 -0.8688593 -2.000853 -0.5436201 -0.28163454 -1.8069465 -1.3659511 -1.270972 1.0806906 -0.52316993 -0.4676933 0.17668048 0.039039448 -0.613757 2.4199026 0.45422518 -2.9138188 -0.020693451 -0.62590367 2.124704 0.017375225 0.1516779 -0.15418337 1.027661 1.5639688 -1.6356672 -1.2645956 0.024843423 -1.5242136 -0.96563244 0.83961624 2.5863616 0.801892 -2.3319378 0.042433586 -0.33796632 -2.2554097 -1.0926713 1.4384553 -0.61588156 1.5487326 0.2603744 -1.8457358 0.3050632 0.36404496 2.2566316 -1.3407372 1.5036337 -0.5364013 0.66107386 0.3932325 0.42164236 0.83706135 0.5686855 -2.7504635 1.0285549 -0.44542462 -0.28383785 -0.4423148
C0003467 -3.1800373 0.31560886 2.079137 1.6517808 -3.3295894 -2.4643967 -3.0482533 -3.6068833 -1.3189633 0.56503814 0.31824484 -5.6509056 -0.61745155 -0.6006641 0.81090957 1.0551848 -4.108319 0.78310597 2.8171556 1.531973 -1.0797052 -1.736995 0.5787099 -3.2094152 0.22650509 -1.0134115 1.0484773 1.451017 5.2207804 1.4823499 -0.9009679 -0.4235512 2.935969 -5.045942 1.3454602 -4.0758076 2.245272 -1.4534227 3.324988 1.5478977 -0.079927035 -3.0006986 0.32328516 0.6175987 -1.0710778 2.9556513 -1.2467507 -0.46382362 1.9301968 0.6030207 1.0169448 -0.9447404 4.014869 -0.8374648 2.4836814 0.8965015 -0.6125489 0.4856983 2.7815516 0.25506637 3.046559 0.14057148 6.6810493 -1.8503486
C0271650 -3.8891413 1.5632045 0.52148974 2.3494308 -1.9254254 -3.8854833 -3.7563243 -2.934465 -0.67670643 2.2507706 -1.4923875 -2.030895 -1.1589125 -4.6336026 1.8088869 0.29618612 -1.696336 1.3736267 2.192265 -1.2085752 2.4480014 -3.6866448 -1.5594313 2.0701647 -1.4228823 -2.187325 2.58466 -2.8754876 0.5185119 -2.659725 -6.7178698 1.7544514 -2.6752052 -4.239952 -2.7817428 1.1417463 2.971498 1.9619874 -1.2664455 0.6957174 -1.2480007 -3.4296384 1.34909 0.45460913 -1.5148536 1.1214359 -2.8060815 1.6970863 4.8641686 2.5703268 5.33975 0.61982965 0.017908514 0.6623252 5.86198 1.7071153 -2.2909832 0.9975459 -0.5237399 -0.3688755 5.336446 3.0123076 -0.23696968 1.1762581
C0007785 -1.3372881 -1.6272792 4.4896364 -1.9826515 -1.4602774 -4.027143 -2.859443 -1.8432401 2.4589744 -2.202626 -4.9432473 -1.2356051 0.16046628 0.3536308 4.2543507 0.35967395 2.4263718 -3.950876 2.1142583 -1.1748315 -0.0757684 -4.9915023 4.873952 -1.9126558 4.074647 1.6068637 2.4271197 -0.95892113 0.9816657 -0.47765872 -1.6978716 1.1068294 2.0122519 -3.2412663 0.8960626 2.0434744 8.140101 2.828042 -0.39528096 0.647497 -0.20702441 -3.3870423 2.5103235 2.545797 1.4988804 -1.6457455 -0.87380064 -3.3064926 3.73142 -1.2528532 1.2422296 0.6355767 -1.5327096 -0.018470954 7.644148 0.65095353 -3.6064506 3.406292 -0.09372855 -1.3857346 1.860628 1.0198265 4.1799536 -2.1277351
C0032463 -1.7382772 3.6323204 5.3525977 3.5247762 -1.9929746 -2.1206648 -2.2961674 3.6624057 -2.1668582 0.9050354 -1.660556 -3.9239092 -0.21619594 0.9760124 0.76211214 -3.1183171 -3.99057 0.6149888 -0.34962282 2.3922322 2.583472 -3.0174015 -3.8685741 -0.0013794982 6.7271643 1.8345628 3.4692578 4.51678 -1.6886896 -0.17646807 -1.747249 2.371674 0.6695647 -5.7526965 3.2167702 0.64617544 0.7301049 2.8477638 1.1915407 1.3525442 -4.515145 -3.575491 -0.003847378 0.22157025 -0.83119136 -5.00235 -1.1202432 -3.1924012 1.6592784 -2.0278537 2.3162303 -0.4877991 1.9597855 0.6440182 3.2559075 -0.40569982 -2.6553934 2.4417784 1.287076 1.1102772 1.0481542 3.2325795 0.4229178 0.98400337
C0028756 -0.30905834 2.5075324 1.3173453 3.4630356 -3.0040152 -4.3269897 1.4129496 -6.6183677 -3.43083 -2.4139068 -3.9144998 -1.3795214 -1.7964896 -5.3158097 2.106786 -0.4564314 -2.765585 1.1174567 4.217787 -0.49571642 -0.89144766 -4.1676393 1.417051 2.7424161 -0.67802435 -2.0689425 1.690616 -2.033536 -1.3101332 -2.4721642 -7.432524 -0.04401376 3.1082768 -6.8792386 1.0831995 0.6962828 4.748474 0.94318813 3.8588276 2.1349509 -0.37178612 -4.367566 -2.1726131 2.5793245 1.0586909 -1.5101107 -0.6876881 -0.6780341 2.2243767 2.069606 1.7130284 -2.4265504 1.5109754 -0.34306514 0.63824594 3.7184374 -1.2643132 -0.27804026 -0.39027217 2.8700483 3.02645 -1.000104 2.031362 1.8138555
C0262584 0.42235446 2.5301886 3.5778825 1.814502 -1.1448661 -1.6154509 -2.845034 3.581474 0.92214304 1.6561013 -0.081443466 -3.781666 1.6817837 -0.051806636 0.28294423 0.55994767 -3.1808436 1.0692393 2.4786427 -1.6305983 2.7155807 -0.9119396 2.065057 -4.176845 1.7405752 -1.4716848 -0.9731899 -1.962715 -0.6092283 1.3496283 -5.1611695 2.663052 -0.27822244 -5.0623 -1.686221 -1.6954231 3.4290714 -0.1678726 3.3992467 -1.7944474 -3.1946983 -5.854109 3.4352808 -3.63435 2.9643157 0.9243587 1.5857263 -6.3756413 2.1463969 -0.5542153 4.7012367 -1.3568835 1.171739 0.6007718 0.6586256 1.713319 -0.8805683 0.7369275 2.0654826 -1.4520297 0.0909978 0.39752266 3.1829367 -2.0102992
C0030319 -1.2971585 1.9697852 3.3081381 1.5625782 -0.02460901 -2.3604357 -1.457954 -3.589162 1.2167623 -1.8984327 2.6283915 -4.43527 0.935738 0.06263409 -1.9837978 0.09099561 -3.56663 0.24876516 4.130281 1.4508909 -1.2646273 -3.1368146 0.9939208 0.5536309 -1.1537395 -4.1011715 -0.85798764 -0.7581276 3.3396854 2.2362232 1.8368133 3.7482903 2.779077 -2.5949557 -0.38866648 -3.246566 6.6540995 -3.5397706 2.0262682 -0.96275735 -1.5377351 -5.6873736 -1.1325217 1.8907794 -0.64268684 -0.15719505 1.7354145 2.3557324 3.4280572 1.5634503 1.1099854 -2.9507155 6.6185627 -1.3088948 2.341222 -1.9319715 -0.2914125 4.0664754 -0.03634993 1.7853303 2.4201276 -0.19773497 4.424191 -0.8211262
C0028768 -5.836941 0.8623444 0.4448206 1.314267 -2.7465851 -1.4000255 -4.550649 -1.0900462 -0.17628117 -1.446398 -0.58284295 -5.102997 -0.42198685 -1.1257844 -2.3527567 0.8902615 -1.6115276 2.9020185 3.1222258 0.59300697 -4.0483603 -1.4332944 0.027754437 -1.3193171 1.693742 -2.9174223 0.710204 0.18198869 3.4984152 1.7512031 -2.5683908 2.42261 5.00119 -3.5039585 -1.2200394 0.37145337 8.295129 -4.715785 2.9500237 3.1560233 0.01133546 -1.2363703 2.6538346 1.2552866 0.30938345 1.6653931 4.2392 0.35322878 2.119592 -1.3017895 0.98398554 -2.754224 1.5434895 0.018277846 0.375521 0.45737213 0.79163516 0.05558528 -1.0194578 1.7385956 2.096403 0.05553978 5.5296054 0.8371862
C0030312 -2.2125552 -1.1694791 5.2891183 3.3844984 -2.2100215 -1.4261212 0.37898007 -1.2232665 -0.8572807 0.9297972 0.9180297 -5.1255836 -3.019416 -2.2202055 1.090096 -5.320066 -2.2020874 -2.1657102 3.8441546 -1.4179493 2.6351054 -1.9005715 -3.2896554 1.8926233 0.7624616 2.3363886 -0.020003632 3.557808 1.2932674 1.238488 -5.074881 2.9516554 2.1412244 -4.435311 -0.4681315 2.4884698 -0.43812755 -1.4367019 0.022805585 0.14895086 -2.3665931 -2.9450855 2.268161 1.0491916 -3.9643226 -2.745318 -0.8327611 -4.97955 -2.0159633 -1.2372223 0.09495061 -3.5272913 -0.033206392 3.070797 3.9238865 -0.23437072 0.5106812 2.6067193 -0.92020166 0.43033564 3.3658788 3.0741997 2.3785026 -1.4914948
C0020474 -1.6191186 1.5882487 0.24775231 0.7293867 -1.8942608 -3.88969 -2.8610697 -2.7485485 -3.6588035 -4.4692774 -6.0131865 -5.3436627 3.7553885 -4.1412897 2.0197313 -3.292806 -5.123532 0.9593315 4.450469 -2.095067 0.27387816 0.08379389 2.0947762 2.7988641 1.4028257 0.28558066 1.6622214 -0.8870607 -0.5270754 -1.3344026 -1.9852304 -0.686157 -4.208452 -4.6770144 -0.44039533 -1.6491302 2.2778902 1.7287675 1.8030841 -0.20590107 -2.5848067 0.7084483 0.67384934 1.5236322 -1.3484542 3.4309864 -0.60442585 1.9553586 1.2617724 6.5196476 1.3757608 -4.75573 -2.230089 2.913038 2.0930269 2.7160406 -0.98606646 0.54139024 1.3791921 0.1322818 2.0020368 2.1699529 0.24476665 -2.5332003
C2931384 -1.8636572 -1.7417952 2.9348562 1.973604 1.6495901 -1.4319929 -1.2830579 -1.8036574 1.1048208 -2.9771647 0.34123912 -3.9716146 -0.40143126 0.44808534 0.7379118 1.5333374 -3.7833655 2.842749 4.7843995 -1.0397166 2.053477 1.9630148 1.1641102 -0.67957723 1.5723054 1.8697356 -1.4076781 -0.6333981 0.117706925 -2.9838498 1.1897935 1.6959981 1.2361783 -3.6285572 -0.0417522 -1.4778794 4.048083 0.48603263 -1.3368293 2.0969553 -3.291565 0.2405376 -0.5730501 0.96066403 -0.5892745 -1.5466198 0.2955589 -1.5704741 3.0042174 -1.6347353 0.11518339 -1.5306315 4.087711 -1.6894457 4.3056116 -0.2850089 -3.829791 -1.5106834 0.7526784 -0.60501194 -0.7724855 3.8812704 3.1558564 1.5293657
C0085207 -2.24639 -2.0208533 6.3264847 -0.38161412 0.3636308 -1.7567185 -0.3633036 -4.41537 0.5451365 -1.8278192 -0.10645363 -6.358689 1.6072156 -2.0368042 -4.9854517 -0.7790692 -0.9024335 0.5382188 -1.7664785 -0.9637805 0.7622794 -4.9174857 2.9491544 0.18187986 1.7074295 -1.49609 2.6893363 -3.5132678 -1.4781135 0.12710686 -6.9926314 2.0121808 0.7571881 -7.3190656 -3.4988782 1.4468545 2.5467002 -0.60932094 5.0378923 0.07843471 -1.9040529 2.0265672 -6.68513 -0.92786545 -2.9671702 -1.3127568 -0.8284074 -1.2176673 4.0855184 3.453776 2.3308809 -1.2800753 -0.04461454 3.3510249 5.6426888 1.4838597 -5.3188696 1.2161901 2.4010637 -1.5762584 2.961044 4.295483 -1.3685774 -0.15276098
C0025193 -1.0154499 -1.2176906 3.7333162 3.219394 -2.0226412 -4.8600035 -1.1417103 -0.9751881 2.7258933 0.26598933 0.41641137 -6.026818 3.4805408 2.7471333 0.3325891 -3.3754623 -1.9449509 2.4379761 6.991146 1.7309397 -2.7568765 1.205783 3.345233 1.0976434 -0.32616374 -0.8447697 1.8167464 0.04397733 4.4784846 1.3778507 -2.5531118 1.355737 -0.9198188 -7.0091515 2.2546492 -1.3354514 5.048041 -0.7913747 2.1150095 1.4197816 -3.3811011 -4.6225123 -3.2629216 0.8549103 -0.23203413 -0.77804226 -0.662877 -2.404111 0.40723962 0.9936402 1.695973 0.903752 -2.930812 -1.4856322 2.6475325 -2.5369534 2.25189 1.5137737 1.9995768 0.082265116 6.5160875 -1.7465849 1.6358049 2.3019104
C0740302 0.24763182 -0.46450666 1.5877974 -2.746467 -0.23403578 1.6567605 -3.6114779 2.197891 -0.8952574 1.261041 -3.6616745 -1.0693598 -0.8367241 -4.1320744 -2.2472258 -1.785255 -5.358899 2.6667933 3.07339 2.4835327 0.6410371 -1.7567399 1.8581555 0.9761929 1.326827 3.6992776 2.271239 1.3655547 0.29485533 -1.1221219 -2.2755458 1.2305976 3.5817754 -3.9049728 0.053800855 2.0883958 2.0998614 -1.7861695 1.4963458 3.6566129 -1.3128746 -4.0815754 5.0177526 -1.8912358 -2.0454998 -1.2173107 -2.9252968 -1.7749197 -2.904616 -2.9244196 -0.81363815 -1.7075652 3.3910336 0.2433903 3.042226 -2.2386773 2.81002 4.101162 2.0018659 -0.5570707 3.7655764 7.071791 0.74435395 -0.744976
C0162316 1.1794298 1.3466662 3.6562364 1.2100908 -1.598416 -2.2809782 2.1831017 -1.0320578 -1.8444924 -2.954608 -4.1233788 -4.2850676 -2.7455838 2.301345 0.8169104 -1.5069145 2.6445954 -1.2241926 4.3828955 -3.9263048 -2.7713819 -1.4633209 -3.6056979 0.1445887 0.25103277 -0.7461452 2.920331 0.009928854 0.8977433 -5.6704783 -1.0160968 -1.0380965 -2.1741629 -7.879168 -2.150142 0.7376359 2.4625764 -1.0802716 1.0408263 4.759033 -2.461909 -4.3826985 3.0580866 -2.5551832 -2.1629217 0.75983775 -0.48034796 -2.2161114 2.1939096 3.2680418 -0.34257323 -1.8089035 3.3093507 2.3831074 4.329226 2.6888177 -5.109615 1.0756717 1.8807104 1.1818855 5.4199004 2.6451926 -1.1420325 1.4464163
C0152264 -0.27543676 0.538069 1.0061406 4.018195 0.27246177 -1.6321832 0.5466234 2.7105117 -2.1525488 3.102928 -1.3371856 -2.5071967 -2.2113445 -1.2533152 2.3889194 -3.9908593 -0.7290682 -2.828765 0.014516668 -2.25182 -2.5274632 0.14091021 -3.7072585 1.0422009 3.2795188 -0.66203344 1.541993 1.847405 -2.1042652 -3.4787145 -2.187016 -0.68235993 0.5576704 -7.8096895 0.5993677 -1.0726511 3.2667418 -1.3471255 -1.7668545 5.717649 0.36450756 -5.4707813 1.6676942 -0.11515265 1.0828195 -5.5860114 -2.144939 -1.2689009 -1.1948519 -0.9821434 -0.67458653 2.2813082 0.8632789 3.9668078 2.324918 -0.5410466 -4.5852036 3.985479 1.998682 -1.1836113 0.9603794 5.2209682 -0.041045446 -1.7022566
C0221018 -4.1542273 0.046094067 3.9340792 -2.2498937 -0.89614856 1.0838885 0.89573765 4.777388 -0.7643818 -1.3935717 -1.82536 -2.3901505 0.43028632 -2.3835163 1.9720981 -0.8965632 -1.7028893 0.30814505 0.38622227 -1.8102809 2.1357892 0.36464736 -2.246561 0.036791425 -0.40838468 2.9927616 2.394699 -1.3156478 -0.054014385 -5.317484 -1.659333 1.7220038 2.4739397 -3.0198855 -1.2119571 -0.3444787 3.159843 -0.85657704 1.5878884 2.5960808 -1.5801475 -3.2555785 -1.3292143 2.1349142 0.2501766 0.90057856 -0.22690836 -1.1964116 -0.75545615 1.7918463 2.2988193 -0.94350106 2.3901708 -1.4041787 2.1567078 -0.4571584 -3.5884612 2.3508263 0.7682149 -1.644368 5.8113112 3.6959503 -3.520384 1.9602505
C0002876 -1.0231082 3.5639882 4.8299174 -4.701575 -1.1445287 -1.3233854 2.315528 4.900691 -2.1854753 2.0808537 0.73733205 -7.582877 -0.32918885 -2.0747175 -2.7785776 1.0148746 -1.7928193 2.308403 -2.5006478 -0.29796866 1.4057685 2.4522324 1.4921582 3.0323296 4.0719376 0.70800465 2.3566685 -1.754076 0.059135534 -5.384262 1.4168879 2.8428583 2.9587548 -2.071717 -1.0687165 1.2663206 0.37440622 -0.27163112 -0.02626876 2.0006912 -3.0760524 -3.0305302 3.147545 -1.5634705 -0.03143577 -1.4797673 -3.4171915 -4.054821 -1.6770346 2.5386493 3.6177075 -1.2299447 2.399144 -1.3228652 0.8303661 -0.23264582 -0.40885624 -0.23620346 -0.21478747 1.3178695 4.2225947 3.4732885 0.06905516 0.66585875
C0031190 -1.2467446 -0.30399257 2.6477501 -1.9410154 0.8943569 -2.0544517 -2.2227473 -2.16395 -3.754286 -0.2011821 2.4188094 -6.8831916 -2.169249 -2.9745724 -1.8950617 2.2623415 -0.9041409 -0.87338454 -0.3464087 -0.55190563 -0.045130417 2.747219 3.4368293 0.23429099 1.5468097 -3.583451 1.4414424 -2.2886832 0.18628234 -4.1072855 1.0942632 1.9633093 2.000525 -3.9076746 0.33024544 -1.6614779 3.2963536 -2.8055866 -1.3930103 0.39161375 -4.3958755 -1.797404 0.88445395 -1.2138114 0.4923961 -0.938322 -2.6767912 -0.17368937 1.2386488 0.14768572 2.774979 -0.31677034 1.3794613 0.21893011 1.206998 -0.44577253 2.4843764 2.0028217 -3.0914738 1.4870764 4.148694 3.3575425 6.14153 -1.4899713
C0751848 -1.6742395 0.26625365 7.8313527 -1.0116113 -2.023091 -2.118981 -1.6841811 -0.5095234 -3.0593503 -4.376518 -0.9987349 -0.70999 0.93827975 5.3295665 1.5039393 -0.8227594 -4.945013 0.9503064 0.23390062 -2.3636432 -1.3664546 -2.6090941 4.261608 -6.156309 -1.5396439 1.7751029 4.218775 -0.7546772 3.963485 -2.9145696 -5.5506287 1.3700302 0.023698132 -0.8073325 1.6649183 -0.70971394 3.2870126 -2.0085313 -5.7694855 0.11689042 -2.0223348 -2.4296677 -1.2450063 -1.7943918 -3.2261112 -2.3479965 -1.575558 -1.0843562 1.433688 -0.95163983 2.829275 -3.3997295 2.1461809 4.8494825 4.1788435 3.4848058 0.615306 -1.4087164 1.5622188 4.1924014 0.15914316 3.091246 0.13605285 -1.3194424
C1864041 0.82377326 1.9711267 2.1881077 -0.37483957 -0.055971045 4.871635 3.4580429 4.627321 5.7328157 -2.84781 -0.97790694 5.029997 -2.6544814 1.6407045 -0.1941112 -2.0490217 -3.0543854 1.9217302 2.513005 -3.2354057 3.0360456 1.0916806 1.7414653 2.5042698 -2.1821032 -3.4817004 -1.0985767 -3.4513576 0.6390936 -3.279727 -2.2450998 -2.5647638 -2.7593677 -3.2708611 3.2460659 -0.6323839 1.3932054 3.4872792 1.4026507 -0.81636524 0.9266927 -0.0047092014 -5.426514 0.18522581 3.139741 0.38271636 3.740116 1.6528467 -2.0569375 1.1167512 -1.7712694 -5.7468076 1.1335233 2.590297 0.5297278 -5.3015847 1.5017583 -5.1686435 0.76832837 0.32884207 1.3662088 -0.39836583 2.2950165 -1.9827999
C0006277 -1.1187742 1.8575467 3.3743122 1.002632 2.9555018 2.0483172 1.35921 5.953355 2.1236277 1.331897 -2.9844937 -2.8013988 -2.1938403 0.44698107 1.5205169 -2.114459 -1.0841352 3.6136658 0.34706864 0.10997788 -1.3133143 -2.248221 1.5081095 -2.0275452 0.13110304 3.346648 -0.94330525 -1.2167554 -2.9707775 -0.7602094 0.59975165 4.0116153 2.4478009 -1.4730003 -0.6077134 3.804647 1.8147271 -0.3746804 2.8544238 1.0979086 -3.6605008 -5.154508 -1.4273142 0.3715464 0.08421828 3.8950586 -1.150237 0.391839 -0.37958625 -1.5602015 3.1795294 -4.9458847 -0.14616473 -1.2537773 3.6566963 4.2771378 -4.4048142 2.2458363 -2.0460467 -0.2538514 1.8100097 7.183321 3.8785992 -1.3976475
C1266144 -0.31194782 0.68796873 2.5252912 0.15376571 -0.044431534 -2.0431874 -4.1249375 1.1933919 -1.0866582 2.2306137 -1.782847 -4.4191246 1.3174495 -1.1107228 -0.84009314 -2.5480275 -4.230062 -1.0202316 3.7890503 -2.5094042 0.20106487 -2.0985613 3.777366 -1.2646084 0.10308835 1.1862676 -0.5096937 0.5242045 -1.3797851 -1.7729768 -3.6899996 -1.6320657 1.9567919 -2.7223482 0.46922925 -1.0913401 -2.3992336 -2.1783178 1.9441789 -1.6625662 -0.80822176 -2.626918 3.103471 1.3475491 4.1193137 0.5178731 1.0060034 -0.398772 3.0048635 1.015411 -0.5123287 -1.4890984 -0.1775443 -3.4004722 2.5522776 -0.7341076 1.699177 1.9438126 0.08861006 -2.369204 4.9994235 3.5108492 2.7322505 2.5780532
C2674218 1.9148345 -0.8300713 2.9878728 1.5062871 2.8348427 -2.7696006 -1.488284 2.9582236 0.1376127 -2.1558473 -1.1897746 -3.483509 -2.8119347 -1.8809873 0.7789771 1.4183353 -1.9996282 0.41385862 2.2391543 -3.1578653 1.2093875 0.6619417 -0.43956932 -3.1463418 -2.3504105 0.71714747 4.3419957 -1.1698744 -3.7682402 1.5334454 -1.3106569 0.08598251 1.7838355 -0.9372023 -0.76684254 1.1738209 1.5672439 -2.5877361 0.61409307 1.92086 -2.4833288 -3.23211 -0.07482951 -1.6811697 1.518706 -0.54370666 -3.2768738 -2.8919458 4.2956114 0.56094426 1.2418698 -4.8712835 2.728935 -1.9134086 3.8865213 1.0071027 2.4538596 -2.4182563 -0.10518134 -1.2684139 2.656553 3.0856566 1.8324834 1.4907899
C0349231 0.07818803 1.9027658 -1.0164381 0.5464743 -1.5426815 0.40493858 -0.22057343 -2.6757271 2.6213815 0.70351326 -0.40260467 -3.5356433 -1.7486374 -4.344788 -4.477839 1.4929308 -2.6732874 1.2407379 6.394288 0.85480464 -3.4464488 -2.158693 2.4750192 -2.4455519 1.6553035 3.0100398 1.7381185 2.416556 4.96102 -0.025469186 -3.6008136 0.63522196 0.72600883 -1.4957576 0.38505822 -3.2793887 4.5185275 -4.350097 2.173769 2.463453 -3.1602376 -4.5210385 -0.14956534 3.2938557 -1.6142182 -2.5886676 1.8967108 0.98966503 1.7625496 4.7530255 6.7804937 -0.7924224 -0.52826285 -2.9188397 2.0115113 -2.920344 -3.1129098 -1.9468371 -1.7396182 4.9517984 3.374342 -1.8400558 4.431907 -0.15228043
C0014761 -2.2100275 3.5316744 0.8768433 0.840705 -0.8424827 -0.68703574 2.4396863 6.4730678 0.61144 -1.3465887 1.6355424 -4.2569966 -1.4653511 -0.34840477 2.7734387 -0.9108503 -5.023688 1.1876953 0.024651838 -1.5335013 -1.8181325 -0.6999341 -1.4862044 0.67244416 1.5053196 2.8877575 3.1501005 4.0731883 1.5835484 -0.8239069 -0.48983103 0.9113771 5.450712 -2.9837887 -0.34822235 1.950703 1.9966544 -0.48737684 1.147107 2.1721559 -1.3931073 0.84334314 -0.11816955 -0.4913195 1.0588702 -0.505743 1.8669499 -0.36508566 0.9261131 -1.2397586 0.9724698 -1.1422068 1.4656214 -2.2998767 -1.7191133 0.3629032 -3.354548 3.6844242 -0.0031055962 1.2983344 1.0359831 3.5587757 -0.046250932 2.7365918
C1863512 -3.5346744 3.8887024 3.5053403 3.5292554 -1.0903937 0.27069885 -2.8527083 1.3725209 -0.8825061 0.17029119 -1.5832092 -3.776068 -0.23665127 -3.7623284 1.8923548 -3.4462264 -1.5929393 0.9075514 -0.68974775 -3.9406977 1.5528469 1.7161872 3.735932 2.7814932 1.0504687 -1.5282475 1.7782011 3.0126274 -2.61599 -2.078306 1.1638372 -2.6140192 0.29972696 -3.7334533 0.658896 -0.42461887 -0.5416371 0.08030328 -1.8438115 -0.4711966 -3.4017632 2.1900582 1.0547302 -0.5269174 0.65611595 1.032274 -0.85245794 1.3905866 -2.0422766 1.0121968 2.340896 -1.7617184 1.3551785 -0.7005662 1.269271 -1.6262964 -1.5798409 0.80960226 0.9071705 1.2753536 -0.43108794 -0.2576405 -2.5947871 0.9675225
C1838260 -1.6512475 1.4020638 0.9598634 -4.9984484 1.3301346 2.5094714 0.8124609 -0.7610215 2.9143302 4.6686273 -5.604615 3.0813448 -1.6681484 -2.5202532 -2.4461386 -0.24264565 1.633991 -1.2614046 0.71258324 -1.9330847 5.1914263 -1.6046915 -1.9785496 -4.6327753 1.4774609 -0.2733309 0.48642826 -1.3242363 -2.5561402 -1.0267029 1.8944004 0.8481155 0.9015222 -1.2042933 -2.5109165 -2.2809875 -1.8406415 -3.6311018 -0.16404797 3.0755997 0.73305875 -1.5108289 1.2480131 1.7191844 -0.789879 -1.9895443 5.7258296 1.9712905 -2.048677 3.9913487 -5.7200637 -2.1520512 1.8440441 1.8470372 -1.4513462 -0.56057036 1.5610127 -3.893801 2.2011063 1.1862036 -4.224144 2.1805854 -1.5809472 -1.5856979
C0001818 -3.662666 -0.017307872 -2.002585 0.7465618 -2.4598536 -5.677431 5.035489 -3.9978304 3.0527356 -0.5898317 1.8514911 -4.370466 0.6473524 -4.5728993 -4.16055 -1.6732581 -4.4407215 0.23338702 2.5284414 1.3885775 1.2333765 -5.7959824 1.3609387 -5.399522 1.4011602 -1.3607688 1.0934781 3.1775792 1.4641182 -1.4887946 2.4189854 4.9991527 0.6005442 -2.0478642 -2.9762044 -1.31671 7.4275756 -1.4268795 -0.45466056 1.9423063 -1.7621176 -5.4551253 0.27616847 1.6876694 3.2161617 3.1812744 1.2875984 2.8944702 2.0995152 0.80996937 2.865958 -0.060952123 -1.65964 1.7810487 3.9562922 -3.7565303 3.0835335 -2.2725196 2.6375067 3.6425807 4.5703278 -1.18655 2.5217452 2.9069736
C0025637 -2.7257466 0.57952434 3.531247 1.5537189 -1.6803534 -0.62566787 0.85103667 -0.15666643 -4.211932 2.327412 0.3684964 -5.396763 -4.9472227 1.0945467 1.6696615 -0.9912237 -0.72398764 -1.7322633 2.3633049 -4.271152 0.5793321 -2.471837 -1.6137801 0.2171463 1.4587166 2.071332 -0.9750267 0.32883707 -2.067142 3.9719684 -4.0405016 -0.88681966 -0.24842267 -4.2139726 0.378621 0.9942346 1.9798185 2.778062 0.23649819 4.910983 -0.576248 -2.3929536 3.2259874 1.6108347 0.43422756 -2.8653512 -2.573632 0.88499534 0.6557088 0.74968016 -0.55342764 1.4384739 1.4517632 2.5201435 4.0853367 0.082431175 -3.3984852 4.0621758 3.396545 2.8805308 1.0245929 0.84827125 2.311089 -0.37434965
7124 -0.6314377 -2.6449971 2.6295028 3.2966967 -2.5630195 -2.3492172 -0.64986974 -2.3210375 -0.01643999 -6.365198 -0.343958 -4.34689 -5.695626 -2.5968962 -1.8337047 -5.5128183 -2.1473467 1.9021132 2.232833 1.1831355 -1.234703 0.46391094 0.57793254 -0.30006525 0.27354056 1.260167 3.5837672 -1.3690518 -0.60423917 -2.821686 -4.590014 -1.7937707 -1.5431972 -2.737736 -3.2357044 0.45429465 2.4845097 -0.53585905 2.8802364 0.7279918 -0.7237026 0.6190293 4.868847 2.119703 -1.0348493 2.4562337 1.8619956 -1.5704781 2.5956938 0.55372494 -2.282471 3.2529655 2.5476005 1.2684433 3.1093476 1.9358333 -0.16836004 2.1788533 -4.4136467 2.2798858 3.1042824 -0.19110036 1.1257479 -3.1164117
C0013415 -7.41463 3.0105267 0.005444058 3.2154882 3.919753 -3.5102878 2.3425353 -0.42942354 -0.9627667 1.4624071 0.51104367 -5.0148053 2.6576686 2.0517535 -2.5922976 -0.6892815 -2.9244013 0.7116544 4.476057 -1.1742276 -4.462671 -0.94875735 3.561043 -4.073038 1.450756 -0.3281341 -0.36187777 -3.7271605 1.675077 1.0279194 -2.4696 0.33308333 0.18101159 -0.82479244 1.6575134 -1.6501843 4.663128 -3.1358356 2.7421782 0.012485446 1.5506257 -5.154172 1.0008731 0.7751398 -0.5851805 -0.8063719 2.9353 -0.053772934 -0.49151462 -1.006939 4.036178 1.6866609 0.59508497 -0.7254186 2.0098598 -1.6626276 -1.8513144 0.43619907 -1.0358061 0.9866881 3.4100604 0.030159943 5.4554076 0.28230095
C0265110 -1.6727241 -5.0646434 0.1850971 -0.43562996 -0.37270507 -0.18810557 -4.121683 2.7830684 -1.090668 -0.1297817 4.0130653 -1.7113785 -1.2860972 -0.7845268 2.5794756 -0.9114478 -0.3740105 -0.6963189 4.730579 -0.24948333 0.07975777 -0.17270024 5.7726507 -2.5978916 4.0939474 2.0302944 -2.4438198 2.822051 -0.7213124 -3.2822392 -4.11827 5.486466 -1.3727392 -4.5936646 -3.3477583 3.33921 3.5625422 -0.39740965 -2.9949512 1.4393485 -0.6742356 -1.7957577 0.15587918 -0.2615958 -0.7188615 -1.9633096 0.71864176 1.6442083 0.7514406 -1.3214614 -1.3043443 -4.6976547 4.7028956 1.384464 4.2356806 2.8817244 3.4426777 1.0380312 -0.9418377 1.6809578 1.0931671 3.4388726 4.042595 -0.323113
C0034902 -0.9896422 4.166625 4.676729 2.1681826 -4.4221673 -2.0360677 2.3568351 -0.054263584 2.401272 -0.6252975 1.3324362 0.7294202 -3.4137778 0.84988356 2.2184892 -4.473732 -3.1365561 -1.3849617 1.2248442 1.28984 -3.4140363 -0.3069223 -2.7419734 1.8419139 -1.4530729 -1.2156062 0.19003652 3.6568687 -1.170949 -2.3990624 -3.6449163 1.5595105 2.7804146 -3.0273135 -1.9067792 5.043509 3.547051 -1.5532169 -0.8673864 0.059041884 -1.5212299 -3.6604626 2.8427162 0.48408428 -2.3429556 -1.8021197 0.48771536 -0.6096889 1.9659469 -0.52518755 0.50660104 -5.200757 0.038128454 1.6974069 2.2531257 1.9079136 -4.486551 2.5992782 4.2156243 1.7548037 3.9501684 4.325658 2.1741345 0.5026002
C0011880 -4.9796762 -3.506393 1.9669853 -1.3052799 -0.43191767 -3.7276156 -2.51459 1.391032 2.5092344 -1.0206518 3.9002469 -1.3216174 -2.5570877 -1.83226 -0.8623921 -0.749863 -2.2457795 0.41277662 2.1261783 -1.421744 1.9884605 -0.78496766 -0.71409047 1.2995269 -0.99174625 -2.304716 0.4683534 -0.92846173 -1.1116179 -2.6989553 -3.7453153 -0.4702983 1.2453077 -2.9319582 -3.9099853 -3.5733097 0.19350293 4.3113856 -2.6595278 -3.228725 -2.7837656 -4.8046165 -0.19091812 3.2276342 -2.1870701 -2.4718888 0.7420303 -0.16968916 -0.58325875 -4.0453253 -0.61346906 -5.0522223 -0.36214593 1.9305434 2.9520748 3.3822103 -6.053407 1.3553045 5.290954 3.4606473 3.6397982 2.702858 0.005916733 -3.7286007
6532 -0.3394698 -2.6893492 2.7321887 3.0358715 -0.45322254 2.420991 -1.654206 -3.3896782 -0.96718895 2.374528 -0.15964472 -4.0207367 2.6674514 2.126071 0.5331604 -0.09131782 -3.4713619 0.009857899 2.2863905 -1.2782226 -4.9612317 -0.11187448 1.1608255 1.1102263 2.8556108 -4.409536 2.2372608 -1.3359916 2.9906273 3.779679 -0.23555605 0.9613433 1.9326595 -0.04746945 -2.414113 -0.74648446 4.015812 -2.1349027 3.9282458 -2.0078316 -1.9455768 0.18743156 -2.4057004 -0.455999 -0.8637289 3.0504918 0.7660549 -1.7014165 2.8177464 -1.2582966 0.6122749 1.0306816 3.159178 -2.2743957 -0.073228985 -0.8714887 -1.3131347 -1.117305 -1.4578198 6.20182 4.6761293 4.8078914 2.8662043 -0.033923622
7157 -0.30480868 2.4745355 2.194655 2.1161976 1.4366086 -3.5707335 -0.58419496 0.005981397 -0.48623943 1.4936678 -2.271579 -3.1969655 0.9032672 -1.9897254 0.64971113 -2.1022267 -2.0462565 1.3656844 0.03448184 0.88475186 1.5056269 0.915889 -1.068969 -1.3988854 1.2128401 2.2114267 -1.4202229 1.5739504 -1.9005752 -0.49666232 -7.396864 1.0101546 2.2200506 0.1281856 1.1215131 0.747161 -2.6323776 -0.7246443 -0.029503264 2.074859 1.098799 -4.1057935 2.4381025 0.8539054 3.6798668 -1.6337578 -1.4175371 -3.053248 0.28115803 -0.8357993 -0.5083564 -0.82584834 1.8948516 -1.2009258 4.973166 2.9528456 0.8578225 2.3999026 -0.8678222 -0.9433438 3.3294034 -0.4044599 0.5732498 -2.0961263
C0948480 5.330713 1.0812308 4.6187444 0.52656686 2.0995502 -3.6241074 -2.1269703 -1.2949617 -1.7977343 -1.231404 1.4032156 -5.790574 0.69292414 -5.3756666 3.5636446 2.256124 -2.2968063 3.1870687 5.069847 0.6008282 4.8505063 -3.1993718 -2.0525641 -1.3182888 3.0379975 -1.563323 0.6057416 -0.049534224 -0.5040901 -0.37312627 -3.7743514 0.74728745 0.27429885 -2.5395067 1.2084603 -0.20637067 4.5847363 -4.9825363 -0.32214475 2.5216737 -4.3540263 -1.1606086 -0.74004346 3.0458887 -1.3861903 2.640339 0.8233517 0.562613 3.5327508 -2.1599152 -1.8445253 0.48522538 0.981807 2.329783 2.110035 -0.75865525 -2.1017537 2.354116 0.54839134 -1.1251428 1.1503347 3.2318552 -0.48402798 3.4789786
3569 -0.30154523 -2.476427 3.808004 2.6510558 -3.1890588 -0.61945087 -0.6459251 -1.3367811 -1.7657493 -2.4196305 -1.7067492 -2.5477564 0.0061629983 -1.388446 1.5718935 -8.920192 -4.2447457 1.2041252 0.692811 -2.1868362 0.33240885 -0.129662 1.7630478 0.36113912 0.8506685 0.733943 2.0922167 -1.444647 0.755011 -0.7556097 -3.0642695 -1.0326546 1.985497 -2.3636024 -1.2582242 0.48955017 -0.4742268 3.0322123 -0.4864402 1.2753215 -2.7433593 -1.2476617 -0.4643924 2.1743045 -2.576249 -2.203487 -2.7271867 -0.00603757 3.0974631 0.56700015 0.52803665 2.9124227 0.1170067 0.93243164 -0.24628645 -0.40920874 -0.40733224 0.31102115 -1.5004513 0.30322123 1.8506157 0.14909765 2.145668 -2.3975685
C0034091 -1.6827441 -2.0061097 2.532746 0.3599081 0.49868965 -2.8667152 0.8471327 0.101380005 2.520188 0.00042755663 -2.657055 -3.601043 4.0038652 0.90227926 2.1740334 1.208122 -1.128467 0.6572009 0.58737594 -0.9361937 -0.74056065 -0.6066719 3.912523 -1.2550122 3.5761795 -2.5576022 -2.8808851 0.72564834 1.3689848 1.7800225 -3.3322861 0.7035662 1.0093608 -1.2006352 -2.5253513 -0.933827 1.6235173 -2.8296933 1.6759363 -1.3071615 -0.18750203 -3.3959692 1.0733168 -2.146114 3.092182 0.39976034 0.57170796 -0.5948438 1.7012064 -0.81965935 2.6585426 1.061987 1.5228317 -0.2865945 -0.08659821 -1.8168031 -1.2072347 -1.7793057 -2.8854382 3.6660008 2.6003547 2.3778212 4.5152335 -0.29025537
C1135191 0.30970135 -2.747355 2.2468667 1.5104944 3.0431938 -4.8600693 -2.7740874 2.2168512 1.7228893 0.24990892 -1.3584721 -0.8600653 -0.1311848 -6.0821943 -1.8544525 2.7265987 0.75501806 -2.7213495 -0.5978828 -0.90443045 -0.74070865 2.6388986 -1.2597408 -5.292944 -1.2227033 -0.14659505 0.7368159 -0.93773353 1.0040593 1.7890481 -3.3404803 1.426366 1.2534709 -4.3659883 -0.22834684 -3.5599344 6.3001094 1.0888257 -1.7985089 -3.1053445 -2.0415404 -0.38228524 0.88002473 2.0725906 -1.596997 1.5788155 -0.033539213 3.3497157 2.4356048 -2.2857897 1.2536633 -1.8713546 3.0933278 -0.66110355 -0.58523285 1.45985 0.7771641 2.116499 -0.1549434 3.270507 5.387323 1.936207 5.0413384 1.8415462
1636 -0.5402651 2.9529366 4.231811 -0.41297764 2.0751238 -2.564578 -5.047057 -4.7886343 -0.90148145 -0.8470127 0.74938464 -0.995758 -1.8183547 -1.7988847 -1.6646408 1.4525061 -1.5170695 -0.66939086 3.3913963 -0.5208333 -2.8204627 1.3282948 0.012218319 -0.7066065 -2.5521722 -0.21931346 -1.3401077 1.0619999 -1.694217 -0.62957376 -1.0956056 0.16872254 2.5912113 -1.1318961 1.441591 -1.3891084 4.9372597 2.605975 -0.99924815 1.1405318 1.675426 -1.3779426 -2.2746646 3.0996525 1.5520849 2.550146 -1.684994 -3.66056 2.8550248 1.3920804 0.3947677 3.581516 3.589926 0.097588 -0.14303182 1.661455 -1.6911484 0.48354357 -4.9766064 2.0233216 4.4241796 0.7543512 -0.36060223 -1.8257389
C0022610 -1.7286907 2.036293 3.7173707 2.2407725 1.9006239 3.3552918 -3.1109338 0.422685 1.0805418 0.9746237 1.5047524 -3.439387 -1.9147209 1.1953858 0.847478 1.2997419 -1.0297912 -1.9417499 1.5133361 -1.2858258 1.7418138 -0.43678027 0.9652434 -0.13124435 1.8482434 4.087202 -0.051566053 1.4993387 2.9944677 1.6503168 -3.2617784 1.5721198 2.2621763 -0.939919 -3.511643 -3.5470405 0.14080116 0.8910261 1.8286883 3.6366992 0.33767098 -6.8021364 1.9535764 -1.2040124 2.7014308 1.0592357 -1.7158444 -2.7498598 4.3058686 1.431663 1.9624 -1.2652853 -0.6950675 0.19703735 -1.7445177 -1.5909373 0.46707708 -1.0404036 2.8526416 3.6384158 -0.813195 -0.3734095 1.0913905 0.0039284015
C2675512 0.52145827 3.5241668 -2.9247115 -0.9429442 -0.28907138 3.4276597 -0.9621277 4.199677 4.379823 -1.2389654 -2.615774 -2.695504 -1.992375 -0.38192296 -0.14489603 2.594319 -1.5665039 -1.4817518 3.4487665 1.9296992 -0.43833244 -0.418636 -1.9525455 1.3582968 1.2480907 -0.68325824 -4.4962277 -1.1658769 0.5330902 1.7677705 -1.5294353 0.078790165 1.3155267 -2.4772685 1.3130095 1.0915112 -0.32434937 0.58584017 -2.435321 -1.4581773 1.2091881 -0.022564674 -0.7092216 -1.9526975 -1.2259365 2.0390525 0.83764654 1.5300845 0.7426438 -3.8093004 -2.4941216 -1.7362179 1.7544916 2.280484 -0.23288754 -0.46792227 -0.49331474 -1.513587 0.5037115 2.2885785 0.0066399486 1.0958172 0.40263247 0.7616401
6135 0.93527305 2.841214 -3.3952186 -1.6407902 0.2976522 3.3043857 0.5561566 3.801241 4.1433883 -0.22628759 -2.1195798 -1.3918868 -2.3787127 -0.033082075 -1.0899402 1.2369869 -0.32990378 -1.160281 3.0780377 1.9002814 -0.16764061 0.22259502 -2.128266 0.82483053 1.7578388 -0.80855906 -4.31142 -1.6091516 0.3776195 1.6933944 -0.60751534 -0.20627123 0.3476937 -1.1805154 1.3651634 0.6278569 -0.32075477 0.23591417 -2.8229995 -0.61369365 2.2456834 0.4875525 -1.5666652 -2.0918584 -1.7881109 2.1660006 1.7595474 0.84491724 0.11888037 -2.8305168 -2.2904515 -2.643302 1.4094082 1.6599513 -1.0813768 -0.9306533 0.48327416 -1.3623245 0.8310633 2.4415576 -1.133615 0.84717363 -0.69009376 1.0312015
C0272052 -0.18726826 -1.4199767 -3.2218432 -1.3635763 -1.3961444 0.6466328 1.5795956 1.0628991 0.75972956 1.2228649 -2.0174537 -5.5470824 -1.6108776 -4.839951 1.6982034 3.1932259 0.59073305 1.3604393 0.3138855 -0.25799325 0.7821192 1.9343033 -0.75570667 -3.24582 0.9254287 -0.1547958 -1.6742091 -0.6714119 2.9562762 0.397796 -0.5133113 0.6992082 -0.43604392 -2.1601288 -1.1044197 -1.3456551 0.90826184 0.5915306 -1.01127 2.9929419 -1.4268088 -1.1194594 -2.9678338 -2.5696201 -1.5273836 -2.5654352 0.47315645 1.935486 0.3761599 0.6171542 -1.3228244 -4.180213 -2.2311869 -1.8013457 -0.9554893 -2.766891 1.9615294 0.9846059 2.2110167 1.6606252 -0.3167711 -0.5608917 -3.738413 -0.21811488
6005 0.42028126 -1.0599929 -3.7658103 -2.0424514 -0.32451713 1.2304736 2.4899004 1.3426158 1.5488201 1.7403774 -1.8361363 -3.6939743 -1.9993787 -3.2771204 0.22491197 1.7780921 1.1803432 0.7845706 0.7132724 0.43712807 0.7357357 1.9782336 -1.2650399 -2.0314724 1.4047644 -0.30566812 -2.173872 -1.1624874 2.1160998 0.6878234 0.071932934 0.16167021 -1.2735271 -1.1387407 -0.33784467 -1.3244821 0.46009904 0.69717795 -1.8283173 2.3727708 0.2627406 -0.32532656 -3.2517974 -2.6468716 -1.9502873 -1.0704525 1.4182936 1.1536032 -0.19704305 0.7451577 -1.434206 -4.3045287 -1.6466013 -1.3667159 -1.4912542 -2.6556103 2.3389184 0.47810906 2.1199179 1.8551843 -1.3782526 -0.5500353 -4.057856 0.55440974
C1857775 -1.7584708 1.6632864 -1.6398585 -1.6065153 2.2203207 1.3325359 2.2302525 2.9972546 3.9477582 3.262858 -3.1779006 0.3514795 -2.2357264 2.1068835 -0.66419923 -1.5446879 -0.7469047 -0.049190067 1.5779902 0.18033981 -1.3853264 -1.3422236 -2.6911712 -0.62420076 0.2622929 -2.746596 -0.70715624 -0.5986709 -0.07115547 1.3009496 2.8332298 1.1329376 0.9531668 -0.47414675 3.0723155 -1.1232356 1.4929281 1.7819843 -1.3162402 1.4363502 2.723483 1.3692142 -1.8904688 -1.9987757 -2.5109417 0.18220145 2.0767102 -2.867586 0.3473854 -2.1388903 -2.649069 -2.7800956 -1.9080971 -0.21886809 -0.9312895 -2.8427672 4.27184 -0.66072106 -0.14946644 3.638395 -1.3572453 2.4782422 -2.9165292 -0.74524814
169792 -3.4071925 1.9450283 -1.2173347 -0.8412613 2.0949287 0.9192137 1.1461838 2.942965 3.5364227 3.5874763 -3.6245358 0.00076533854 -1.937759 2.3586197 0.42840722 -0.9434282 -2.0180197 0.20643985 1.1984288 -0.615011 -2.1690164 -2.5350668 -2.65558 -0.8266887 -0.83241844 -3.4423199 0.093946934 -0.1643684 -0.10405244 1.2057141 3.124408 1.6473967 2.3477938 -1.1274071 3.3958018 -1.2664702 1.9875106 2.1549942 -0.5826451 1.1760402 1.9237279 1.2072093 -0.9957616 -1.6358609 -2.3388925 -0.3136866 1.0273575 -3.0533812 0.9167606 -2.6976473 -2.8270779 -2.0272975 -2.701754 -0.31406623 -0.44050825 -2.8693244 4.830266 -0.57307315 -0.99935025 3.7857533 -0.66498417 2.938752 -2.4386945 -1.7434057
2488 -2.1761372 0.33350945 0.9202124 1.6272438 3.3070266 -1.443745 2.9066093 -1.2999659 -1.772939 2.6236908 2.211069 -3.0938215 -1.535294 -2.2193985 0.74695337 0.81342494 4.8680916 0.8818882 1.5956695 2.3221054 -0.5455679 1.8409697 -1.4309846 0.8238668 -0.32809776 -0.36208972 -3.7663264 -2.2715368 -2.3369827 -1.2426006 -0.77315867 1.3285433 -4.167134 -2.2172458 1.7117652 -1.016016 2.2139094 -0.9965215 0.38790005 1.3698454 2.3191776 2.8898447 0.7978819 -2.0844955 1.8654188 -1.0851619 3.0018144 -1.1132886 -1.2465249 2.0944417 1.292589 -1.9118755 2.076973 0.046861824 -1.2974375 -2.2038233 -2.3388433 -1.1453979 2.5025032 2.666909 -2.1443522 0.97971106 -1.3146677 1.2538224
C0043019 -0.8736533 0.6197824 -0.20848384 0.47393727 3.1717927 -0.49152723 3.4628725 -0.4031872 -0.27080446 2.597635 1.386974 -1.942324 -1.9417784 -1.5905883 -0.40571198 -0.12498288 4.2967525 0.57505417 1.6569165 2.3035798 -0.18620862 1.8764447 -1.5016634 1.1051611 0.26741204 -0.69570315 -3.7594955 -2.3849251 -1.9602959 -0.8106024 -0.15921094 0.6365892 -4.004118 -1.4345425 1.5813576 -0.94505227 1.5072105 -0.6198081 -0.5068665 1.3394873 2.9122741 2.6373203 -0.31048504 -2.3890977 0.84337455 -0.35066423 3.375286 -1.2911054 -1.3735303 1.671754 0.6271464 -2.6907072 1.6191689 0.14990859 -1.4688797 -2.2469344 -1.1359223 -0.98446876 2.3387103 2.7737505 -2.5751874 0.76146454 -2.2037554 1.3825916
4635 -0.40150863 3.0296102 -1.9244969 -2.1162112 1.5518578 2.5468514 1.6892227 1.1942872 2.8432205 1.0024796 -1.4107845 0.24938525 -1.1504366 -0.032300223 0.69984794 -0.90630656 0.3453185 -0.7459912 0.35439664 -1.7553608 2.8980165 1.7874389 -1.8084811 0.26043156 3.2107596 0.6267298 -2.795123 -2.917671 -4.0123324 -1.4949486 1.4781353 -2.5672429 -0.43723586 -2.8444762 2.1460445 -1.406804 -2.0287414 -1.7674111 -1.710877 2.647135 3.2664287 -0.93096346 -0.87593365 -1.9250659 -2.2540534 -0.03823285 1.7495697 -1.3016964 -1.272711 1.16319 0.16518685 -0.9046063 0.25346178 -2.5386674 -0.9213112 -0.057451993 1.7764994 -0.908401 2.8236582 1.2172862 -1.431319 -1.231368 -0.3581657 1.1119411
C1843687 -1.3989085 3.7265007 -1.3971169 -1.8267121 1.729492 2.6039073 0.4469586 0.7320592 2.7592497 0.45077673 -0.9457651 -0.044144906 -0.5539184 -0.5496633 1.9368299 -0.54224247 -0.29672286 -0.5541637 -0.019164752 -3.0728958 3.418172 2.031038 -1.7348039 0.31869003 3.459737 1.0214858 -2.7258875 -3.0484438 -5.2762065 -2.220322 1.5641882 -3.13744 0.24334666 -4.0771694 2.3697875 -1.4454747 -2.607139 -2.889401 -1.1215271 2.9880145 2.9668753 -1.5768839 0.13567397 -1.5351883 -2.3397832 -0.64658177 1.1591592 -1.0212953 -1.288285 1.4483846 0.91904086 0.15393753 0.36892268 -3.4818783 -0.51834387 0.6495152 1.531024 -1.005214 3.0528133 0.90906465 -0.7318042 -1.818364 0.9197535 1.1024795
55215 0.59359974 -0.008321078 0.28271237 -2.6763158 -1.1797692 2.3535182 1.9925177 2.568164 3.6186788 1.6239152 -1.0485348 -2.7913222 -2.8098657 1.7384672 -2.57549 0.44007346 -0.5728273 -1.454793 2.8130422 1.9914027 0.5240018 -0.07450011 -0.7579489 3.665613 -0.104862764 -1.1651629 -0.8750027 0.75088865 0.046914034 0.2144963 0.96190894 1.3701928 -2.7334085 1.1525873 -1.4833047 -2.0763268 0.75709474 -0.14878593 -3.5201442 -2.0009377 4.6627913 2.0860162 -1.4008378 -2.6854932 -1.268396 0.9148337 2.029977 -1.129459 -0.51518166 0.06635546 0.05058896 -3.7999277 -0.89383966 0.29729477 -2.5069146 1.4712124 0.367037 1.6630543 1.0806384 3.1553488 -3.4965959 0.935301 -1.815001 0.62193525
C1836861 -0.21197279 -0.22803369 1.8569839 -2.238239 -2.4901161 2.101876 0.77148217 2.467487 3.2617044 1.3056386 -0.9889717 -4.2605495 -2.7326639 1.9230778 -2.1827838 1.6862633 -1.8134787 -1.372981 3.1303794 1.7877707 0.29813448 -0.80726796 -0.108202875 4.5600467 -0.92366517 -1.1717534 0.06582856 1.9225844 0.30743492 -0.24243216 0.56736803 2.3168375 -2.4125998 0.87917876 -2.5644436 -2.5909467 1.2713766 -0.16855918 -3.3354108 -3.2095003 4.598562 2.0808914 -0.5531168 -2.5036256 -0.70959896 0.5451578 1.168522 -0.85203207 0.0479011 -0.23096149 0.8689722 -3.0848033 -1.3664904 0.16798088 -2.103819 2.9200702 -0.2735241 2.463136 0.53534085 3.3013465 -3.0661974 1.2283121 -0.6318517 0.29670197
C2677132 0.29388285 2.7850153 -2.1162736 -0.12748237 -0.4673077 -0.14016877 1.5258598 0.6787133 1.7606217 4.2951245 -1.8042513 0.504313 0.60380065 1.1678047 1.2375178 -3.4113085 -0.45480666 -2.1734397 0.6951787 -2.081616 -1.8500576 1.7953331 -2.641232 0.65331984 1.6123965 1.5696634 -2.3238184 -4.3588443 -0.8982577 0.04124006 3.0372128 1.6080186 0.6825687 -1.2167251 -0.4046025 0.5079883 -2.013674 0.15683286 -1.6939641 1.4163728 0.7984615 1.5397828 0.91858816 -0.4381423 -2.0457947 -3.4194157 2.886973 -2.364543 -1.4346784 4.1444616 -2.0428383 -0.8750864 0.30637923 -4.01269 -2.1314344 -3.2170286 1.8812138 -2.019992 2.509741 4.318503 -1.485369 1.8106376 -0.27329302 1.2431016
5078 0.6842724 2.3914473 -2.3247173 -0.7568486 0.22603962 0.6268953 2.4634497 1.2231187 2.3044496 3.8603616 -1.6833436 0.5871464 -0.04703091 1.1984613 0.3409078 -3.369427 0.35297042 -1.8722193 1.0273179 -0.9890099 -1.3767089 1.5993792 -2.5502295 0.9144754 2.1155255 1.1222898 -2.5893104 -3.9524736 -0.8664022 0.3564402 2.5705998 0.839536 -0.18535778 -0.5700889 0.10770561 0.3052877 -1.814796 0.050578717 -2.0862162 1.1744941 1.5517997 1.423543 -0.37690964 -0.9354996 -2.0734882 -2.1261249 3.2174137 -2.2083907 -1.7017012 3.0672615 -1.9988244 -1.6412652 0.17877704 -2.8759582 -2.292356 -3.016849 1.9982183 -1.6914836 2.2067878 3.8714356 -1.8745475 1.5328953 -1.3292016 1.3621151
C0151814 -1.6107352 0.69582117 8.731312 0.24780084 3.5721755 -6.578113 1.7433435 1.990816 -3.3547187 -3.3431108 -1.6860118 -2.2642262 3.987845 1.730496 -0.05202368 -3.8483264 -0.31281036 1.8590393 2.2177448 -0.6791914 -0.22271445 -4.056595 -2.1687405 -0.79764587 0.87921214 -2.9861705 -0.030071838 -1.2929378 3.8431072 -2.3611062 -4.865571 -1.2281437 -0.47175735 -7.080819 3.3802614 3.9286883 1.1144359 2.4314408 1.6052599 0.028596187 0.93249065 0.7184392 4.8497143 -0.56556845 -3.4003642 1.012151 -1.4109172 -1.2165881 0.37555945 -1.4738712 2.309023 -2.3227854 -0.42653862 3.242502 3.5857453 1.9661527 0.2892634 0.08290624 0.9190349 -2.3807113 -1.3762592 7.3821 1.6528115 0.2970445
627 1.4137065 0.22552875 0.14447862 2.37884 -0.3930501 -0.5758615 -2.047002 -3.869886 -0.5551195 0.70385045 0.43614018 -1.524914 1.1533296 1.2158644 1.7780864 -0.7235289 -0.28614485 0.08169755 3.776643 -0.32949123 -4.008025 -1.3078263 1.290302 0.23541042 2.2855961 1.0784765 0.11016801 -1.7754505 3.8010967 0.23233749 0.9204402 -1.4723886 6.515554 -1.3239836 -0.3068399 -0.23920557 5.535622 -0.3562317 3.472081 -1.551051 -0.8915989 -1.3871928 -0.47598615 -0.20706491 2.6347554 -0.701426 0.37284216 2.504575 1.8284701 -2.605172 1.0376841 -2.2775 1.1470401 0.54954976 -0.52924365 0.07651684 -1.2910147 -0.83679265 -2.2838304 1.7734327 4.937111 -2.3140962 1.7935135 0.08310815
348 -3.7131505 0.17573808 -0.35162622 -1.9791428 -1.118523 -0.6859877 -2.3571112 -2.6041036 -1.7764733 -4.3766227 1.5537822 -1.192155 1.3818833 -1.5129519 3.5380754 1.4537084 -1.8809415 2.5154552 4.235187 -0.23479944 -3.6241598 -1.3031884 0.9126429 0.21909095 -0.58347493 0.8092717 -3.9011958 0.67333466 -0.1415728 -1.5208148 1.9265106 1.2967911 -2.491163 -4.802668 -2.069906 -1.7995312 2.0835059 -0.009513495 -1.1994401 -0.86196274 -0.7202383 -0.88804674 -2.535309 0.4334999 0.12178169 -0.9108061 -0.95614696 -0.4831669 2.1935666 0.097645685 1.9600666 -1.8377168 2.5356724 0.12259022 4.9827275 -2.347365 -1.4014962 1.4213663 -1.0995998 -2.0184956 -1.5247015 1.3461896 3.070098 -1.2875589
4524 0.6217102 0.3930816 2.2266545 -1.5732454 1.9655716 -1.7186399 -1.9079797 -0.1376003 0.80642456 1.2252059 -0.12802696 -3.2552998 2.7890906 2.9121943 3.3396711 -0.8236413 -3.139185 3.362662 -0.12132664 -1.5220354 1.8629549 3.1743495 2.1223426 -2.415715 3.8819914 1.0076729 -1.9000015 3.766711 0.22373801 -0.40494397 -0.8863888 -0.23393753 -1.6307257 -1.9881815 -0.04377551 0.42666304 2.0742204 3.1430652 2.4957204 1.5804032 -2.963116 -4.857938 -0.5376436 0.50186944 0.23335488 -1.2464579 2.473081 -2.8231769 1.3176514 -4.8360295 -0.10028944 0.8595772 2.0213861 -1.3151909 2.8213124 -0.97681123 -1.3916036 -2.1242282 0.276693 -3.5311038 1.7110624 -2.537188 2.850994 1.536102
3553 0.98219293 -2.641005 3.387983 -0.8023051 -1.1579479 -1.2998085 1.8707241 -0.52075064 1.3684278 -5.053431 -0.6662835 -1.1215615 -0.9517175 2.3534665 -0.65233296 0.6929492 -3.11344 -1.3082631 2.717749 -3.594331 -0.17231047 -0.19542876 -0.70247734 -0.39330298 1.6457037 -0.74642706 0.9084171 -2.2586434 -2.5769248 -0.9676279 2.022915 0.7006274 -1.7433469 -1.9051503 0.34343547 -3.2622967 2.4882717 -3.3703005 -2.2546537 4.8361826 1.0653727 1.3001729 -1.8948698 -2.065364 -4.0056934 -0.2533022 -1.2708807 -2.310058 5.251189 -2.2777042 0.17765798 1.1818632 1.397007 -3.636319 2.6521096 3.2173312 -2.6339066 -3.1522834 -0.4876837 -3.69205 2.0353794 0.6102141 3.9075565 -2.2690723
C1306856 -2.2386048 3.6409442 1.629706 0.41356614 -1.5060358 4.199998 -0.4765647 0.32017118 1.1712042 2.1243725 -1.8163003 0.60880834 -2.3643596 -1.5081512 0.32291317 -0.25291017 0.14986213 -0.29584405 0.50888175 -2.1170745 -1.2935172 3.0440383 0.5417136 1.9992763 0.43165085 -4.3893123 -1.3460646 1.3295436 -3.0061638 -1.2986528 4.6397123 -2.3279293 -0.28787315 1.200331 0.48775598 -1.5104529 -2.7809064 -2.5126097 -1.944421 0.8425303 -1.3773452 2.9760566 -2.015791 0.23437299 1.14058 -0.24290493 2.1724448 1.7542926 -3.6112242 2.391388 -0.9360015 -0.35068786 -0.8288376 0.41016984 0.937793 -3.0578437 1.3713317 -0.07702483 2.9199493 2.203635 1.108198 -1.05383 -1.2725378 -1.8004667
C0020479 -0.37991753 5.3601437 2.2420712 -1.002688 -1.662026 -1.234119 -2.2229583 1.6666524 -1.6342562 -0.7541949 0.5984491 -5.7103915 2.2614582 -6.338485 6.527258 1.4318268 -5.948458 2.756018 -0.025040021 -4.5227213 -2.9026482 0.04566196 0.9193959 2.3706896 5.0294766 -0.58503234 -2.1399798 -3.4356167 1.0075972 -1.5643545 -2.567107 1.5694386 -2.1810963 -9.1029 -4.614833 -4.040721 1.1122661 1.5519058 -4.9558306 0.29225382 0.0037861383 3.3320036 1.8211278 4.6736684 4.0725117 2.8547385 -1.9323424 -2.0681448 3.145787 2.2038498 0.8487525 -4.67207 1.1672076 2.137525 4.971486 -1.1924775 1.676236 0.6178287 -0.80028826 0.52269495 1.718015 -0.6952987 -1.2027328 1.7424494
2056 1.1171958 -0.47338355 2.8624437 2.4823654 -4.91725 -3.1256642 3.3948772 2.4896457 0.13608532 1.0656399 -0.2028407 -0.0120243225 -4.9030886 -2.0393453 2.4997592 -4.876139 1.4267889 -2.5986078 -0.05827769 0.9811282 0.5054761 1.0968697 -1.2237239 3.0276847 1.9245701 1.992602 3.164161 0.6474581 1.3089007 -0.714271 -1.9352227 0.35709593 -0.79175895 -0.00040367802 0.30077338 0.8493012 0.05672007 -0.35966018 -1.1040502 2.203476 -3.6826937 0.34825054 4.932032 1.9488363 -0.95184267 -4.2589593 1.2520912 -1.8717769 2.1195462 0.89454085 1.7729576 2.6733649 3.0944364 4.1011243 4.3106756 1.4002185 -2.9298468 1.8261974 0.73733693 -2.3381917 1.3337342 5.0911202 -0.2966012 -1.7009436
4852 1.0944378 -1.4886799 2.4962144 1.023369 -0.94028 -0.6744893 -3.6927483 -4.426525 -2.384812 0.59818196 -0.33052754 0.52875 1.3428829 0.14246416 1.7870356 0.75273305 -0.92541885 0.0033712147 2.3000386 -1.1713077 -2.7109911 -0.3248827 0.60695904 1.7747463 -2.4037144 -1.8896687 -2.6253855 -1.0572613 1.0407158 0.9352059 -0.21995075 -1.859368 3.5090816 -0.59801257 3.2098238 -0.19564307 3.193485 2.187686 1.3091806 0.13892783 -0.6347824 -2.255287 -1.0352306 2.1821012 2.7749395 0.8581973 0.06262863 -0.11487608 3.1530435 1.1038154 2.6565762 1.4711773 1.0723947 -0.100415766 1.2179186 -0.87132746 -1.827702 -0.35310626 -1.892106 1.8260545 4.899395 1.2213465 0.684471 -0.2778477
1437 -3.818645 -1.653132 0.00678963 1.6675647 1.8059267 0.04506473 1.113281 4.081269 -2.673067 2.889889 -1.7378433 0.5688357 -1.3920509 0.099191755 -0.33724073 -1.5622084 1.3748925 2.5434582 1.8986107 4.2991095 -0.4725292 -0.49919617 1.1483601 0.2698051 2.9876707 3.804577 -1.3495351 4.1163216 0.1228527 0.37646613 -0.8322111 3.7897708 6.0556035 -2.9697294 -2.0987132 4.028114 1.9521557 -3.1476445 0.9684018 0.15852179 -0.98834646 -0.04280458 4.609962 1.2928177 -3.8809423 -3.0073152 1.0105395 -2.2863288 0.15982746 -1.2348714 -0.15797602 -0.43968308 0.4687057 0.43145806 2.843396 1.063143 1.4017979 3.2541373 -0.34362668 2.069846 0.66125387 0.23389769 1.0016541 -2.3911989
4846 -0.4064503 0.26170963 -1.621333 -2.3259912 3.1267402 -1.049634 -3.3047 0.47916207 0.50282097 -2.6876836 1.6182615 0.46096143 -2.8702033 -2.0570517 -1.7802826 -0.5111335 2.0356796 -2.8004186 -1.260079 -1.3447688 -0.71884894 -0.66364324 0.96610016 0.18733567 0.7422594 0.24194157 1.4717869 -0.3042788 -1.049373 -4.280633 -3.1698513 3.080011 -0.97025347 -2.482428 -1.5981072 2.5064514 3.2218835 1.7849227 -1.5266867 -2.4974499 -0.289377 1.9879 -1.539813 -1.4301369 -1.28504 0.8438533 -2.4771392 -3.3460684 1.4435294 2.9606724 0.7440251 3.1260602 -0.5294222 -2.0934317 0.71379405 0.93258584 1.191046 -0.46830797 -1.6313366 1.5931586 3.2635548 2.4945266 1.2198745 -3.9784198
387082 0.017950915 0.5122642 -0.7302825 -2.9891691 1.2112142 1.6567965 1.7661755 0.3262847 1.9732641 2.378046 -2.7459652 1.8331283 -1.5021057 -0.7731459 -2.00969 -0.88693166 1.5189868 -0.9167778 0.44570336 0.027599227 2.4335587 -0.34710485 -1.4525164 -1.7222209 1.2967899 -0.23622532 -0.6924594 -1.1449788 -1.2378982 0.026069814 1.1134529 -0.068119295 -0.3658139 0.11407623 -0.72655624 -0.8992576 -1.0608563 -1.3376474 -1.0844451 1.6315671 1.4323035 -0.40795925 -0.53030324 -0.087336764 -1.0365881 -0.14680095 3.4186027 0.12947564 -1.1484044 1.7581803 -2.9717398 -1.9958316 0.73584676 0.8467988 -1.2681679 -0.62952954 1.3383168 -1.719968 1.277528 0.8172855 -2.8572438 0.8990386 -2.0749123 -0.4512087
23118 0.055168524 0.5281974 -0.68636954 -2.9667647 1.1910292 1.599331 1.6753486 0.28178263 1.9876733 2.31827 -2.8063886 1.8195674 -1.5451903 -0.7207051 -1.9596585 -0.8973703 1.4796817 -0.8304029 0.5520145 -0.020824147 2.3697824 -0.27410674 -1.4267454 -1.7508664 1.3019357 -0.22724827 -0.70963776 -1.1352453 -1.1532513 0.0253022 1.1077393 0.009447309 -0.35445017 0.08390489 -0.6423653 -1.0189406 -1.0033203 -1.3063534 -1.0020332 1.6020865 1.5095037 -0.37459978 -0.5638268 -0.110015504 -1.0239768 -0.1699309 3.4181364 0.11953309 -1.1585906 1.7686538 -2.9528115 -2.0073235 0.8102456 0.81579596 -1.1292443 -0.65223306 1.2811602 -1.7313552 1.3101724 0.82379514 -2.8676975 0.89697605 -2.0239675 -0.4207573
3077 0.13387275 -2.5967271 1.1898746 -0.6174332 -5.4361944 2.5477123 1.7887257 1.0062954 -1.9872983 -2.0291061 -1.1905619 -2.1655185 0.2381885 -2.0121553 -2.405971 0.20820254 0.8468265 0.6606094 -1.3796797 -2.743374 1.7763842 -1.2885696 -3.4095218 2.829182 -0.85498554 -1.2862011 5.0866103 -6.353419 -1.7189933 -4.959101 -1.9067068 1.2853554 -2.8618026 -1.6865441 -1.390459 -2.2519944 1.3670485 -1.3288673 -0.12805054 0.31405434 0.25127256 -0.92093766 -0.40611625 -1.9593055 -2.0431683 2.3715205 1.9875914 -2.5894349 1.2410713 1.9092507 0.8816049 3.0377758 0.59011084 -1.9323148 3.2967246 -0.5788616 -2.4570549 1.3938243 -1.5292351 0.038092606 3.3183 4.075343 -0.795904 0.8607074
C0338495 0.76205957 -0.33477065 3.7980645 -0.71662337 0.061478455 -2.3743722 0.7326839 -4.7544703 1.0772581 -4.199351 -1.4209305 -2.715757 -3.0919788 -0.57354534 -1.1744126 0.8308726 0.17405124 2.850544 1.6322795 -0.62580466 -2.343441 -1.8710773 0.76013994 -0.6180599 -2.48415 4.497876 0.75172156 -1.3843449 2.070443 2.4807656 -0.68621844 3.2843103 -0.33303127 -2.8722825 1.8370271 -7.0751905 6.0126343 -0.7604616 -3.2058163 0.04004177 -1.5191038 -4.663 1.0618479 -0.5035209 -0.88965625 -0.006270383 -4.356077 2.0104644 5.569755 -2.3958883 -0.25665188 0.75001943 2.1363556 2.263566 0.28920612 3.1367388 0.7061089 -6.298407 2.2572906 -0.09736403 1.7086817 3.8206167 -1.5004182 0.4588539
3458 -2.2864878 -0.4402217 2.5338817 2.6952786 -1.5219326 0.38528508 0.2191333 1.2753544 -0.57248807 -0.98957443 0.36601233 -3.6175547 -4.0454655 -2.7337453 1.8943791 -4.16761 -2.414819 -0.54170936 -0.41786933 3.6287324 1.0965364 -0.33211565 -0.48007372 -0.1370662 -0.91248435 -1.6775674 0.30926844 1.0349048 3.7494247 1.4809331 -1.5211682 0.5772686 0.21394973 -0.9171591 -0.74832994 -0.32686436 -4.6740847 2.0013487 1.0855932 1.6093056 -3.1184497 -0.64760965 3.1505938 2.1359556 -0.48297876 -2.7257426 -0.23455036 0.2338951 -0.59461695 -1.2675515 -0.18199833 3.1726043 2.1485708 1.3119121 3.7099357 0.4532217 0.79939157 0.013876543 -1.4541069 -0.6793029 -0.20417301 0.73838764 0.12584803 -1.3033011
1401 -1.2983319 -1.3037357 2.025852 2.6713831 -0.08942865 0.5547893 1.342267 -0.8677126 -0.9966956 -0.806041 -1.0627679 -0.5087265 -1.4221588 -2.2673712 2.1853259 -3.2356653 0.17131336 -0.0932898 -2.3009727 -0.95417047 1.9149508 -2.3237975 -1.1316651 2.675704 0.8050344 2.5374868 1.8607887 -0.46361694 -0.74487174 -1.5321947 -5.487127 1.3225188 2.4425008 -1.7143115 0.71874005 2.725301 0.22633001 0.54101735 -1.656596 -1.0512437 -1.9853204 0.52530617 0.37132153 1.1570524 0.2816819 -3.3142586 -2.3185306 -1.9330837 0.28247678 1.9097202 -1.6482784 2.004637 0.053974435 0.27756023 2.1107464 0.9461223 -1.9095519 0.75262195 -1.228726 1.3621058 1.5142168 -0.10426486 0.24754186 -1.3698267
11235 1.207797 0.67177427 -0.5462226 -1.1249397 0.5290102 1.9772537 2.3737836 1.9390553 2.7612305 -0.19284171 -0.6672068 1.8741236 -1.4554384 0.70785207 -1.1119932 -1.6264063 0.002806683 0.37347305 1.4379237 0.09974602 1.2048893 0.5738211 0.015109057 0.9814481 0.10445202 -1.0597064 -1.2515721 -1.7100439 0.055175446 -0.6213091 -0.32224175 -1.0332617 -1.6297209 -0.1948179 1.3216242 -0.4617849 0.34693503 1.4369614 -0.41920334 0.19163582 1.6948783 0.47351098 -2.969499 -0.78699845 0.0031669696 0.892224 2.3160741 -0.4295269 -0.9757239 0.31432983 -1.0031952 -3.0493379 0.2615095 0.9019646 -0.38894248 -1.9470866 1.1086657 -1.6298732 0.7343601 0.60194063 -0.70902365 -0.061155967 -0.84076464 -0.18930794
889 1.2898575 0.674573 -0.53674936 -1.1415609 0.4887275 1.9752616 2.3447595 1.9545027 2.7290277 -0.19457375 -0.662456 1.9876775 -1.4752905 0.76092947 -1.120686 -1.6896156 0.017158007 0.35438722 1.4363055 0.20065235 1.2517877 0.54900354 0.007967267 1.0127054 0.15404776 -1.0296732 -1.2320879 -1.6201371 0.12714449 -0.6031677 -0.40133578 -1.0307475 -1.650617 -0.077717684 1.3807062 -0.41889653 0.3506062 1.4980412 -0.47990292 0.18943343 1.7135824 0.4763103 -3.0807612 -0.7353908 -0.027865417 0.90649223 2.3951123 -0.45019177 -1.0222633 0.2770036 -1.021652 -3.085387 0.24045071 0.8864734 -0.34947762 -1.9048498 1.210288 -1.646302 0.74254894 0.49025452 -0.7326712 -0.07036345 -0.8873613 -0.20106621
5468 -1.6497757 1.547164 -0.47739655 -1.4189029 -1.5328873 -3.9601295 -0.92832524 -1.3634024 -1.0398428 -1.2793808 -2.6582172 1.366611 0.91086054 0.005454589 1.4980648 0.66864187 -0.46003053 0.4636689 0.38789546 -2.2690623 2.176028 1.0610508 2.708449 0.014256656 -0.82317024 2.0894816 -0.7771332 -1.8679886 -2.085604 -2.2934408 -5.428215 -1.7228069 -1.948219 -0.76532716 -1.1911793 0.30392274 1.8889434 2.580153 1.3716499 -1.5888057 -2.043755 -1.9362497 1.1711383 -0.20945092 5.1566777 0.55620503 -2.0788653 -1.5792342 1.3737448 2.9761295 1.962162 -1.7931165 0.43818307 1.7554882 -1.1359159 -1.0835524 -1.3129647 1.5763232 -0.755016 0.23273805 -1.5205468 -0.22897369 1.5144472 0.62773854
57817 3.729605 1.8687413 2.356199 4.3526235 -6.089914 -3.2017343 3.102032 0.5867025 -0.7168393 -1.219547 -0.64601636 -1.2184463 -2.3502214 0.027267702 -0.45843887 -0.072327144 -0.4557645 0.99131936 -1.5158064 1.3946903 2.121361 1.9976977 -0.30014423 2.5660331 2.7904673 -0.6995173 1.5586463 3.0594306 -2.802659 -4.025657 -3.2865398 -1.0730027 1.9959396 -2.7313604 4.6234026 0.14878114 1.3687129 -0.010672577 -0.027342308 2.979189 0.004914446 -2.2576137 1.5159601 -0.18988585 -0.54943985 -4.89509 0.1758066 -0.69558114 1.6860229 4.6705317 -1.2397361 -0.40236226 1.6037915 0.37133986 -1.4689679 3.498873 -3.6013536 1.6726657 -0.7284906 -0.61924803 1.5284979 1.3771182 -0.6614671 3.7027218
83605 1.1417574 0.48973718 -0.41649684 -1.0836436 0.46967643 1.9977908 2.1450088 1.9337466 2.5207582 -0.29226094 -0.46358538 2.092266 -1.3821298 0.75253785 -0.98805857 -1.5647424 -0.1480045 0.38081387 1.1845317 0.096000105 1.1607039 0.5569178 0.11045029 1.0337672 0.06982611 -1.0733275 -1.0767 -1.5498519 0.08911553 -0.501622 -0.3655715 -1.0873797 -1.4192823 -0.00067066384 1.3563741 -0.41998407 0.23389322 1.5025557 -0.40113032 -0.038555305 1.4751562 0.4280952 -2.923885 -0.6805226 0.11737096 1.1010948 2.2040064 -0.31353837 -1.0561641 0.41438925 -0.9364272 -2.8783255 0.29919034 0.86760944 -0.31018263 -1.9578525 1.1513137 -1.6898739 0.47746056 0.21642596 -0.5444253 -0.2412065 -0.64556694 -0.20604615
1312 -2.0034654 2.5515873 -1.1394228 2.1996367 -1.7152965 -0.49914607 -4.100931 -2.8289611 -1.4491444 1.3270041 0.9544448 -2.9949458 -0.37681887 -1.3727998 -0.57902336 2.2816954 -0.8836357 -0.92887664 2.4931502 1.0582881 -3.6802807 -1.1242138 -0.915366 -0.09838621 -1.1746328 -1.0650405 1.9328434 -2.2194946 3.933166 1.4026022 0.5221161 1.7927146 3.0297098 -0.54176694 -3.164982 -0.32703328 2.5368211 -3.0157628 0.5844619 -1.9397657 -2.4174683 -1.462057 0.08562312 -0.94822127 0.94069624 2.726957 0.63869005 2.6836991 0.76830643 -2.1375744 2.5332158 0.41530347 1.8372597 -0.527395 1.972297 1.6471714 -0.50339776 0.32655516 -0.58325315 2.121532 1.2868301 2.7639174 2.3309727 1.2797298
2539 -1.7707244 2.2428343 1.3129277 0.32140172 0.26637778 2.052497 -0.13761519 1.262339 -0.72054464 0.71609247 -1.9146929 -2.6126807 -3.7817025 0.3535644 3.1022644 -2.7792492 2.092104 -2.424829 -0.15281549 -0.6060123 4.936941 -1.1832836 -0.78348374 3.5051022 0.80121344 4.836294 0.7250587 2.5560637 0.7574552 2.296394 -3.7418234 1.4808097 0.8762146 -1.2938461 -1.1558361 0.077637486 0.11767559 1.0568529 -1.1908342 0.518774 -1.6027602 -1.2416071 2.1998847 0.50078046 0.25999126 -3.8130758 -1.7586426 -1.2328243 2.0904827 -0.5213452 1.6098427 2.4782903 -0.6502711 2.1494484 4.587689 -1.4804267 1.1315912 1.8189731 0.88810897 1.7176152 0.40336654 0.5667012 -1.5322058 -0.75313944
2099 -0.08361245 -0.74785966 -0.98614246 1.6736734 -0.69720674 -1.2289499 -1.1049654 -1.2931615 1.4036862 0.074192874 -1.2317048 -0.6071234 -1.4973816 1.3541812 0.6814735 0.76155734 -0.24988191 0.037461944 1.5859011 0.46071634 -3.242251 -2.9997468 0.653206 -0.19983104 1.4552807 0.72797966 0.6582726 -0.8495184 0.20645913 -1.765234 -2.0637598 -0.77872056 5.919736 -0.57563573 0.8342227 -0.62508553 4.415813 0.080531225 3.1986437 0.8419198 1.7161653 1.5344465 2.0368733 -0.14596562 3.036731 -0.1148194 -1.4863431 2.8967345 1.2324045 -1.2456871 0.5275754 -2.424316 0.9194811 1.4260652 -0.8383724 1.1541415 -0.53563523 -1.5662315 -2.8796067 0.208224 1.396122 -3.9161816 2.0151339 -1.4533674
135 1.8595285 -2.4416192 2.1885428 1.2875955 0.7259654 2.9774811 -3.1622033 -2.3310907 -1.3696294 2.1249714 2.6060796 -2.5130334 2.0025268 3.0341692 0.40056932 -1.2845045 -2.0413258 0.71864265 5.3545704 -0.16155438 -3.7396736 0.93742085 0.3932432 0.122077025 -0.70580965 -5.0763273 -0.9006236 1.1339155 3.992072 2.8276756 1.7584527 -0.8235223 2.8053694 -0.16430122 2.6965618 -3.8586595 2.9724379 2.0694976 2.6488347 0.27373838 -0.7727414 -0.37916273 -0.68263596 0.3732268 2.4029653 1.1233385 -1.0628909 -0.6263803 2.254945 -0.5727606 3.5287638 -1.4259894 2.4406748 0.41829085 -1.2251561 -1.8952276 -1.8126291 -0.5037742 -1.3304464 0.022649044 5.2505293 1.3119385 -0.2519447 -0.83417577
4023 -1.3900521 0.6743799 0.6160205 -0.33087528 -1.6623223 -0.5876574 -0.7714603 -2.2756662 -0.24207701 -2.844898 -1.3834795 0.6748673 0.7584924 -2.989427 2.3909404 -2.1772509 -2.077839 1.9285539 -0.81105125 -2.8626497 -2.9571722 -3.0201457 1.1690462 2.8510337 0.62038565 1.8774468 0.9723847 -2.9746406 -2.5360773 -4.4007583 -2.9432583 -2.3701334 -0.7401842 -4.270041 -0.7694002 -0.23851706 2.1499634 1.0863822 -0.33178216 -1.4161308 -1.4348773 1.1161786 -0.70434356 1.4146649 1.498041 1.0427337 -2.949936 -1.1923571 2.513495 3.573897 1.148842 0.09797572 -1.0850167 -1.4797622 3.6981585 0.9909277 -1.2207546 1.864807 -1.5936016 1.437115 -1.5557103 0.6754142 1.385527 -0.41088444
1392 1.1175404 0.16673833 0.6765633 1.8974817 0.3561435 2.8660932 -1.8971795 -3.8177607 -1.122112 1.6196623 2.7849765 -3.9671478 2.497565 1.6477041 2.2708793 -2.815743 -1.3523587 -0.18760113 5.037103 0.02785339 -2.626476 -0.016908338 0.8081733 -0.86854845 1.6990948 -1.6494554 -0.21220714 -1.2848533 5.4455376 2.2457674 2.476642 0.18756537 3.5196884 -0.8677884 0.121661134 -1.9490886 2.6611316 0.26795307 2.6440809 -2.5445483 -1.19883 -1.8475425 -2.0087938 -1.317448 1.7576793 -0.47680318 -0.93428534 2.6177988 0.39101058 -3.5066001 2.3724144 -2.6357346 1.0184355 -0.12937376 -0.97170943 -0.2103554 -1.0800041 -0.8527216 0.2387236 -0.45924184 5.54431 -0.8132739 1.4796417 0.4178994
3479 -3.3341005 1.6215454 3.591582 0.37708783 -3.918757 -1.6304008 -2.1945677 2.2788296 0.7403342 -0.3679511 -2.314787 -1.5725653 -1.6097803 -0.38230836 2.127333 -1.6904187 -2.713451 -2.777388 0.94398755 1.4328462 0.8221367 -1.7807529 1.4210016 -1.1032627 1.3841342 -0.19317651 0.56323266 -0.24966551 1.9221277 -1.3656665 -0.10340389 0.4475898 2.0438762 -0.49321437 0.64075965 0.069041714 -1.1224576 0.9434634 -0.8643508 3.1439486 -3.6273253 -1.4311978 -0.5859013 0.8520202 -1.890289 -0.9019447 -1.3929198 3.0822155 2.966598 -2.4082952 2.894729 4.3568764 1.2090465 0.030425804 0.8245211 1.1434748 -0.35409 0.02153794 0.21924016 -1.8806366 -1.5986062 1.0649796 0.6837441 -2.8405292
C1135196 4.058771 -3.1139066 3.5511017 -6.50943 1.8263795 -6.9862943 -2.7904842 -5.402029 -3.4026372 -1.0895089 -1.6264589 -5.434674 2.5208101 -1.1981331 2.1911838 -1.5560031 -2.3063803 -0.952956 2.650108 5.3296256 2.8529973 -1.9595271 -5.536698 -5.082221 -2.9567535 3.1746597 5.226705 -1.124546 -1.0143665 0.78906447 -2.8517907 3.2978487 2.0788271 -6.5047245 -0.83474857 0.81010795 2.0839143 0.788308 -1.2074554 1.6298542 2.008548 -0.84967846 4.2001066 1.5567179 -3.719139 -1.8995433 1.7436376 2.5629385 1.7288897 -1.7868562 4.1964736 1.2066878 -1.5798526 -1.0270363 -1.2823952 1.2393875 -1.1134192 0.15147227 0.15459798 3.5168633 0.7851361 1.1555281 3.5980163 -0.20625028
2944 -1.2422978 1.4343727 1.2488003 2.1984222 -0.7691468 0.46863127 -0.7873779 1.4586278 -0.3194477 1.9650102 0.84671384 -3.8242075 -0.20738512 -0.34339496 1.1099633 -1.5810457 -2.3092308 0.011359719 -1.1177276 0.6129694 3.1324139 1.1790296 -0.6642661 -0.60219264 -0.9526828 0.3769069 0.50842476 2.5012457 0.44241107 2.318843 -4.502179 3.2465703 0.051852044 -1.7138397 -0.13313772 -0.14097324 -3.5407202 0.55488026 -0.5311565 -0.29080933 -1.49679 -3.219296 2.613222 -0.49449232 1.1101032 -1.1463991 -0.4082552 -2.0280364 -1.7693365 -0.6084381 1.5036252 1.1346401 1.5154757 2.0969095 1.8147179 2.0116098 -0.1879517 -0.009388136 -0.1491638 -2.0601726 -0.06524914 0.21757485 2.2239444 0.9247594
3576 -0.19687568 2.2207296 2.348361 0.22632198 0.21235752 -0.08651982 -0.4198249 5.533372 -1.2000458 1.3894223 -1.980298 -1.0125322 0.790405 1.6706328 1.703133 1.5232079 -1.8961133 -0.2775997 -2.1108763 1.9032872 4.105985 0.38792732 2.4501069 -3.701713 0.7624007 0.77414197 -0.08850876 2.838337 0.489012 0.6927769 0.21104106 -0.23277639 1.3230956 -2.4140782 0.13247728 0.8370207 1.7507219 -0.8641154 0.8216278 -1.3858813 0.37192428 -3.7918417 0.3978991 -0.39147192 0.40716562 -0.3157655 0.8724522 -0.98670805 0.17487031 0.5231955 1.5153848 1.9977498 -0.083774105 -0.40867367 2.1337583 1.9977044 -2.0207465 0.03625763 0.42445529 -0.55337584 -0.5174647 -1.1007545 4.2181225 -0.52531177
847 -0.79267544 -1.1844476 1.0625966 0.602478 0.7835191 4.034519 -2.2408051 -2.8271167 0.44207823 -0.16495273 1.414939 -4.4114885 -1.7563426 1.976676 1.2366513 -1.1172214 0.022317372 -1.3693105 2.8132334 3.4425523 1.0388831 -0.27285272 -0.4200426 -0.19364348 -0.08613666 -0.14086396 1.2619872 0.104474835 0.115075655 0.21841286 -0.2226622 0.19435439 2.6372287 0.78367364 -0.27984148 -4.3833017 -0.040437054 -0.93829924 3.9740908 1.9994142 2.2608578 -0.9486641 0.61769986 -0.4961397 2.3278763 0.84526104 -1.77092 2.8217418 1.1885529 -0.9916104 1.3261997 -2.8790956 -0.65099484 -0.08429518 -1.5734593 -1.0667567 0.15615517 -2.2082314 0.06507004 0.84483933 0.085869566 -1.8697112 0.84579444 -1.8707976
3630 -2.503997 -1.1140871 0.5437244 0.38521212 0.5130662 -1.4924293 -4.620268 -2.0114412 1.4300808 -3.2726064 4.936015 -3.2321305 -1.0754201 -2.7615867 -0.42021272 -0.6513038 -2.511901 0.16246498 0.8300623 0.54781026 1.1806138 -4.6541953 -1.6157527 2.2009192 -1.482189 -5.81249 0.75137645 -4.2848344 1.9701314 0.049095523 -0.107639514 -1.1032419 -1.5542105 -0.4725382 -2.4267435 -1.1951392 2.3438003 0.2186829 -0.05480015 -1.66379 -3.8244116 -1.4442644 -1.6171494 -1.2261891 0.55900973 -2.6163173 1.1334271 -1.613813 0.41578004 3.29394 -1.0031332 2.6977713 1.2561187 -1.2295755 3.002878 1.7183751 -3.7626388 0.6201262 0.46524203 4.131089 2.0179842 3.0969887 2.3084626 -0.54040056
7422 -1.6377107 -1.9805627 4.893475 0.389744 1.7888321 0.72075295 3.06682 2.810828 1.0746158 -1.133555 -0.39932063 1.192159 -1.3867694 0.19879505 2.4235568 -2.8069112 -2.6635227 2.5402079 -1.3586577 2.1971567 2.825532 0.9881486 0.74484175 0.25955483 2.8370676 1.6321293 1.1898038 -0.45331264 -0.2624127 -1.7586036 2.0219865 0.35718557 -2.6237705 -2.2948163 -2.470812 1.96286 3.9106386 1.0008572 0.97290486 2.6005392 -2.639222 2.3107839 -2.5390437 0.17296456 -3.4524543 -3.5391407 -0.4229599 -0.8150607 1.4381745 -1.635974 0.9240285 2.4944425 0.7916217 -3.2739372 2.739124 1.6035746 -3.9106808 -1.8041877 -0.47105527 -1.0476805 -3.506918 1.0529368 0.589606 -2.9062014
5054 -1.1294556 1.7177323 0.30913976 0.51447576 -1.2336364 -2.250833 -3.5980585 -2.8444307 -0.7412397 -4.633359 -2.231278 -0.29164502 -2.393875 -1.5213828 0.9874326 -0.59340465 -1.4430857 0.026312545 0.26318488 -0.26446134 -1.0061632 0.12373928 1.723429 -0.8151341 -1.8712202 2.3077166 -1.106913 -0.021988157 -1.3205309 -3.92958 -1.5954098 -2.5293417 0.4015194 -2.321808 0.5285907 -0.4381987 1.5727135 1.7984399 1.269129 -1.7997872 1.6235175 -0.063710846 -0.32154837 0.7777128 2.2538505 2.7050078 -2.5019803 0.8478764 0.26935005 2.1449692 1.6423863 1.8022258 -0.5251848 1.7273067 0.46414557 0.82816195 0.3008869 1.609916 -1.6658044 -0.2183231 2.5654125 -0.4834118 1.5121489 -0.9437093
3039 0.93299127 0.82331055 -0.16541104 -0.4261902 -3.421359 -3.2382789 0.16102856 3.1574988 -1.2211677 0.1614136 -2.6773863 -0.9981898 -5.1505313 1.7957445 1.5321927 -0.10079884 1.1574425 -2.5102487 -1.0478814 -3.9561772 2.2002127 -1.1210393 -1.071339 2.0065439 3.2740145 2.1741905 3.639379 0.67948544 -1.250314 -1.2887399 0.06925182 0.332796 -2.9374747 -2.7535787 2.9110675 -1.1767786 3.2074993 -0.46189642 -0.73388475 2.0221834 -2.9077597 -1.2985075 2.2504394 2.4301517 -1.2929438 -4.1846 -0.19408114 0.008265217 2.3096128 1.0936207 4.248202 3.826244 1.5823244 1.221874 5.4729533 0.88047135 -2.181156 3.6431055 1.7281488 -1.3319992 1.4175307 3.4056191 -1.8936126 0.724994
C1838100 -8.233528 0.4214683 3.572583 2.894739 0.5291598 -0.25684646 -0.72455716 0.88697934 -1.4538019 0.26165345 2.8422487 -2.1656318 0.77625245 0.7823097 -0.115515545 4.3968663 -4.438055 -2.040688 1.3304999 -2.0084918 3.8060687 -0.320231 1.9977292 -0.5665755 0.8640103 -1.4436412 6.5450273 0.14016642 0.77953297 -2.4335763 -4.100634 -1.1290649 1.0733008 -6.159401 2.7432053 1.5388752 -0.48951337 4.46163 -0.64164597 0.7065628 -0.6341995 -5.9138064 1.6862327 -2.157289 0.015717793 1.8283846 1.8469222 1.7519565 5.474893 -0.46988165 1.499293 -1.8293155 0.7387213 -0.796353 -0.03813629 -0.637524 -0.61757475 -0.15362726 2.2135923 0.6038965 -0.98384017 2.9400043 -2.7249944 -4.74095
C0342277 -4.2342935 0.30977055 -0.22585239 1.1543291 1.7569213 1.6838417 0.28580874 -0.68542606 3.6609552 0.40894684 -0.7786034 -1.8792928 -1.5062495 0.023404703 -2.2415242 3.0964153 -4.4675846 -1.2338874 2.4666233 -2.3662362 4.266966 0.24223033 1.6816676 -1.2643726 0.9564081 -2.5607631 2.7748039 -4.4554615 -0.47852257 -1.6740644 -4.100296 -0.59895426 2.132107 -7.055528 -0.53271747 2.1531973 -0.33264425 3.4056706 1.6985669 -0.84030855 -3.359549 -3.2594395 0.37918216 -0.12206717 -1.8821416 -0.043465264 1.5200843 1.1920977 1.582878 0.41476145 0.7615816 -0.6857026 -3.953383 0.8456338 4.1612864 0.2554725 -4.2252183 2.0372317 0.20877379 -1.0472134 2.439029 3.2582104 -1.7702897 -6.997519
C0600228 0.09283504 -0.45323113 1.0375216 -0.6521154 4.599205 -3.9572809 -2.4393754 -0.3110608 -0.9012892 -5.373797 -0.04454278 -0.7471265 -1.9381466 -2.8334012 -0.7367154 -1.0370237 -1.8713254 -2.4989123 1.9516746 1.3058966 1.1903088 -3.9355602 -1.7709855 -1.1469897 0.71837616 -5.0444646 -0.7311281 -2.29384 3.310212 0.07501129 -2.204758 -4.6336513 1.8501935 -4.2830415 -0.56564915 -0.22721761 -0.51923525 0.25418264 3.3799415 -0.008934315 -1.7103164 -0.11816307 3.8390958 3.3756669 -2.2567923 -2.9920938 -0.62615573 -2.450169 -1.0723406 -0.09442935 -0.34318364 -0.87696594 -1.805617 1.1467394 6.5078454 -0.67073655 -1.6216222 -0.9793644 -1.519043 3.7462056 1.3435637 1.0000838 -0.18506433 0.45050603
5444 -0.5681979 -3.2478635 -0.09842699 0.84753484 -1.5792103 1.844816 -2.5109506 -2.6295326 -1.1521308 -2.4301963 -0.1758505 -2.5932515 1.8950901 -0.6013896 0.07889837 -3.5046031 -3.263968 2.325228 -0.26222733 -4.679018 -1.0599743 1.1209403 0.69288015 0.17680982 -0.60283923 -2.0306656 1.4031757 0.08393676 1.0637798 -0.44254026 -1.3498936 -1.7341101 -2.3407602 -2.3731656 -1.6082879 -0.9691449 0.83227473 1.7920023 1.4904368 -2.8648362 -1.3467281 -0.727598 -1.4103281 0.20257595 -1.8385823 2.3753424 -1.8364329 2.4437795 1.952196 1.6899117 0.9231752 0.83919555 -2.0020254 -1.9880093 0.6289771 -0.8643356 0.71143425 -0.23626934 1.6687307 -0.8073295 2.4968138 1.9985994 1.8079308 0.40473562
9370 -0.88595587 0.14808173 2.192562 1.1014662 0.2421424 -1.6782786 -2.03475 -4.435721 0.6996545 -4.4510107 -2.169287 -0.53084224 0.61202496 -3.7901554 1.2134432 -1.6401963 -1.3001814 2.0856555 -0.052855097 -3.3803298 -0.3128255 -0.8847364 0.16308595 0.63841754 1.7730187 1.8007222 1.0081329 -1.300531 -3.1614702 -4.162918 -5.200061 -3.5755262 -1.8164334 -0.9499338 -1.2399131 1.9147706 3.536565 1.1624364 0.3286087 -1.2741814 -1.9031497 -0.5543436 -1.6935284 0.6698947 1.6840664 2.0126865 -2.4719398 -0.06822581 2.4433465 2.1435368 -0.91441625 1.4720676 -1.006801 -1.3312483 2.4926283 0.53829205 -1.8300965 1.1990544 -1.6696924 1.0539817 0.9723469 -0.53001684 0.11437073 -1.8691213
2908 0.10310779 0.14236142 0.85838187 -1.0075576 -1.3622001 -0.354539 -3.0802093 0.43804002 -0.81451225 1.639375 -1.2709447 -1.8797094 0.2429357 1.3408415 3.070404 -1.3423084 -1.1453607 0.2917599 -1.6599486 -0.88842434 0.07775837 -0.13067384 -0.23010857 -0.81931674 0.45403105 -0.51809293 0.47408178 2.6781569 2.8400288 0.21004425 0.58349764 -0.407819 1.6513191 -1.4261826 1.3258702 0.3325177 0.6197857 2.1796377 0.21207795 -1.1121007 -2.5056636 -1.9255155 -0.90205085 1.8705667 -0.4268673 -2.0614834 -0.047667872 1.7038317 2.1328874 -1.7301756 2.2008119 2.6249697 -1.1733497 -1.4775461 2.1745343 -0.8823476 0.62017477 -1.1912937 1.5705023 -1.3292164 3.1907454 0.25634277 0.41398087 1.1841336
4128 -1.4658071 0.8368832 2.0094442 2.3968053 -0.78316414 1.7590137 -3.988772 -3.0956478 -2.2180884 1.6481723 0.33069345 -2.6358082 0.3328398 1.290433 -0.8858657 2.6794844 -1.4083743 -1.5326965 6.477124 1.3810027 -5.0915985 -0.05567732 0.59712934 -0.098546654 1.1310394 -1.8982106 0.75714415 -0.72334826 3.1927824 3.5488575 2.2554662 0.984973 4.1832266 -1.1171734 -0.13738224 -0.73770714 4.0161157 -2.3999796 2.598932 -1.7219805 -1.3034487 0.33150455 1.2975144 0.87478757 1.338818 4.3040366 2.0266716 -1.4607183 0.5301545 -2.4043038 1.6809305 -0.038957246 4.657986 0.7939411 0.15810288 0.6095593 -1.3057523 0.73025906 -0.9505763 4.1364684 3.4446433 3.352883 3.486391 1.7348572
C0340293 1.7079157 -1.3719878 0.061210733 -4.746032 2.1725035 -1.2601264 0.55838513 0.011122543 -2.8258946 -3.5903234 -1.9023025 -3.3416631 -0.5293672 -3.796843 2.4661481 -1.9096446 0.8931786 -1.5679141 0.043538246 4.926305 4.497711 -1.0272956 -0.21838419 -2.3479748 -1.0842172 -1.4009826 -0.62913924 -1.2988248 1.7124524 -3.4435608 -1.4291413 3.3633773 3.5707204 -5.742485 -0.40902567 -3.6649659 5.57303 -1.3060354 0.19691154 0.61969703 -0.3251505 2.4035435 0.20864 2.5994942 1.640072 2.5715232 -0.84331846 0.9611318 0.8695431 -0.26777667 -2.8411198 -0.35852015 -3.858653 4.9378448 0.25339168 4.9728847 1.5186272 3.2572272 -0.8217897 -0.4085638 5.2363124 3.6247127 1.8717849 3.4451811
2100 -2.1130307 -0.11929597 -2.6859791 1.3341948 -1.4004682 0.51065475 -2.4761167 -0.44853312 1.1576138 1.3915364 0.8912135 -2.8506758 -2.1955695 0.57878935 -0.12374773 0.48016614 -0.068869196 0.93865037 1.2745405 0.5242999 -2.6210065 -1.3184826 -1.8377929 0.33771703 -1.362388 -1.980164 1.821586 0.4359908 2.1210074 -0.4078914 -3.0490804 1.395118 2.620982 -0.92936397 -0.64047 -0.89221174 1.5360442 -0.6735822 2.0128229 0.550143 -0.16108674 1.7040805 1.9711653 -0.21309647 1.7855562 2.6034205 -2.0916412 5.1669445 0.3994109 -2.0472922 2.7273202 -1.440312 0.6389681 0.58909476 0.10154862 -0.36611527 -0.40366992 -1.628097 -1.5698426 -1.5314664 0.817805 -0.32529944 0.55491215 -0.2586209
6774 0.35248372 1.718739 0.24409464 4.118235 -3.9577398 -1.9326266 2.0431082 -1.4798506 -1.182538 -1.76948 0.58741355 2.1155696 -1.8526906 -3.089877 0.9940953 -3.427685 -0.70500946 -0.7562971 1.8749071 -0.31412724 1.6370797 0.49811676 0.3416899 1.9138583 -2.7794776 0.59186816 -1.401761 -2.398563 -0.5698372 0.9044076 -5.8471437 0.8317485 3.2799032 1.0981923 0.8378943 3.1121163 -2.089991 -0.0075639626 -4.1701684 2.0494752 -1.0896742 -0.61050206 1.2192055 -0.3757267 -1.173309 -0.80778253 -3.2778032 -0.4026465 0.66613805 1.2453381 -0.6439976 -0.5148411 -0.10852733 3.4403024 -0.48868936 0.6362946 -3.162985 -1.8109802 -1.2391421 0.3352528 2.331504 0.82780063 1.0623336 0.6703909
6927 -4.215261 -0.046803974 -0.5805088 0.45613635 -0.8656603 1.0189677 1.0854512 -1.4119549 1.8148353 0.57361096 0.8266464 -1.6450492 -0.11538249 -2.1680427 -0.1553251 1.1136199 -1.9080914 -1.1949998 0.57251793 -1.504278 2.850051 -0.7593685 -0.45559594 0.8990194 -1.0465102 -1.7087525 2.453491 -2.6888342 -0.6093911 -1.2426107 -3.3905084 0.1198654 -1.1613929 -2.0155616 1.6796625 1.9323909 0.3172228 0.0864927 -0.10107272 0.15538105 -3.2577589 0.7608966 -1.2190163 -2.7390482 -1.2153791 1.6086465 0.5106354 1.7972187 1.6297345 1.7108856 -1.757409 2.2990084 -1.3778615 -2.559845 0.0064238315 0.44031104 -0.78706783 -0.5694565 0.36130434 0.4089511 -0.77927876 3.2157598 -0.11782821 -2.6388526
3172 -7.13062 -0.6045622 -2.3679745 -1.4756151 -2.1825655 -3.1296203 -0.9246466 -1.666046 0.36469105 -1.0287715 -1.1926156 -3.9142013 -0.40243882 -2.4233956 0.83904 1.1396519 -2.0445845 0.7038041 3.8727794 -1.6700042 2.6399627 0.34378222 1.2325332 2.036421 -2.004498 -0.7104818 2.0238178 -2.1323485 -3.009557 -2.1336622 -4.7946224 -2.548473 -2.4141955 -1.502204 2.4514627 -0.3313918 0.95586103 3.1038895 -0.45209968 -1.8882836 -5.1848354 -0.7748632 1.0719174 -0.6860258 -0.9963933 0.8882753 -1.5405663 1.092748 1.2754635 1.4873806 -0.23522238 -1.7502289 -0.7415518 0.7277972 -1.0096412 -1.0960664 -2.5207691 2.2548294 2.6657395 0.7944716 -1.1512932 4.119641 0.7690268 -2.7881815
121278 -0.4853803 -2.1693935 1.9898628 1.3397549 -1.7142353 0.31025025 -4.562644 -1.9191434 -3.22742 2.709522 0.7358587 -2.3218324 0.62125856 3.5883627 -1.502999 0.7159686 -2.7776167 0.7086807 5.1476364 -0.19118486 -5.347598 0.65416926 0.73967975 0.7210335 -0.6493527 -4.025549 0.094029605 1.9674973 4.2890425 5.04505 1.4335607 -0.73762584 4.275052 -2.7063847 0.45302016 -1.7042897 4.44298 -0.3676128 3.7417545 0.03325141 -2.4131715 -1.226194 1.0896552 2.2628405 0.86815405 2.0683482 2.5180993 -0.97278905 3.2772408 -1.4773319 1.186233 -0.91750413 2.5009885 -0.14164919 -0.3735267 -1.3818328 -0.18420951 0.75430065 -1.9325454 3.2402887 4.696 2.0750206 2.3026175 0.94328123
C1833104 -2.3548203 1.9705907 -0.65961933 -0.43606403 2.53498 -0.20370688 -1.778999 -2.5254304 5.38556 -0.84447044 0.1831364 0.429149 -0.9260146 -0.24441618 -0.45326445 2.6432881 -4.291013 -1.0217794 2.29757 -2.2073195 3.372353 -0.57476526 -1.8382674 1.3676533 1.3780591 -3.928632 2.1263595 -7.9068637 0.87171894 -1.2478744 -1.5902287 1.9681444 2.8165097 -7.111466 -3.5910256 1.5790979 -0.60427123 4.0508227 1.7145528 -0.6973982 0.35184488 -1.9614531 0.26906908 0.89652455 -0.5753459 -2.4645727 1.017003 1.2155771 -0.2762488 2.7612526 -0.20451245 1.2739776 -0.19302624 2.027084 1.9187859 -0.19985063 -1.0750605 2.0301855 0.38048884 1.7684175 1.4014289 6.0479727 0.98923576 -3.2844238
3308 -1.1309347 0.86589056 1.0900707 -4.9127126 1.953134 0.16158898 -1.0300387 1.4866275 0.45727977 -1.7588229 -2.7558188 2.3062937 -0.60315484 0.06606176 -0.15770794 -0.6710948 0.37725016 -0.85908496 0.21575528 2.2703767 0.38501793 0.23438841 0.22530779 -0.3769988 0.22158241 3.9733741 -1.0624355 -1.5305574 -1.2564454 -4.8237567 1.4333128 1.1409672 2.3065276 2.391756 -1.9272538 -0.82427794 2.5551379 -0.99314404 1.1272988 0.44345388 4.010607 1.7658395 1.295847 0.13840605 1.0755687 0.6574465 -1.2653888 -3.2782917 -3.5046065 -0.3605875 -0.106024355 1.0000031 0.75527173 -1.019285 1.0997944 -0.7109806 1.7800919 4.086773 0.64804846 -0.35481957 3.7900398 -0.33821726 -2.3775308 -1.4056498
5443 1.8539462 1.1394753 1.8954383 2.299147 -2.5813208 -1.4568065 -0.8006056 -1.6778747 -0.89366734 -0.2937436 1.6971122 -3.5675824 2.6758013 0.18717861 3.6084146 0.564814 -4.223236 3.2032666 -1.0365543 -2.033253 -0.16175392 3.5180256 3.1592462 -0.5477321 -0.2717763 -0.53664064 -1.9462296 -2.3039434 1.9649704 1.3012749 -5.5766907 -1.3602012 2.7157867 -3.3431091 0.88952494 1.0415243 1.478602 2.534146 5.4602194 0.28791693 -0.9847153 -8.504354 -0.39239386 -0.852945 0.6859106 0.9590565 0.2543873 -2.7962823 1.9207839 2.0160105 2.9614458 -1.3009125 0.52446043 -0.5360305 -0.681197 3.0152664 0.30017278 -1.6924229 -0.8721152 0.08970198 3.551782 -3.7711327 2.5174909 1.2288194
185 -0.36439615 -0.061256126 0.17759456 -3.1150463 -1.6538694 -1.5486968 -2.946416 -1.7091684 -0.6139079 0.9845289 -1.0095519 -2.8110359 -0.48953333 -0.53508717 2.6187804 0.9674062 -1.6268611 -1.3182603 -0.91233927 0.561866 -1.3562312 -1.0209032 0.67683274 -1.2343885 -3.803396 1.1828624 0.20851515 -0.6840367 -1.0077071 -0.37389335 -0.378692 0.38267642 0.98286957 -1.4035356 -0.16677453 0.37195098 -0.011432695 1.5482273 -1.4046639 -0.4036083 2.2316942 0.29874402 0.8658553 -0.22024116 -0.6012797 0.86175644 1.6048671 1.6836752 1.0637262 -1.8926599 2.3701725 3.7727675 0.21211086 -1.0363864 1.7520494 -1.0333309 -1.3065631 0.39807037 -0.38354537 -0.45383173 1.2622283 -0.21615377 2.1969786 -2.3666086
C0038218 -2.358676 0.64902043 4.305311 -1.6158526 0.9751601 1.5230684 -2.1192946 1.469247 -2.678746 2.2265627 -2.3433359 1.0006577 -2.128383 -2.192105 -4.0820127 -0.75400347 1.1666551 6.0414586 3.00828 -0.8122913 0.13229467 -3.4635942 2.585867 -1.6815193 0.47181863 2.6878312 -3.9493656 1.4507054 1.7774168 -2.2175555 -2.467508 -0.214419 0.36051232 -4.2121134 0.5327599 3.4401753 -1.71095 3.2389967 -0.1508056 3.585065 -2.5812187 -3.776423 3.044268 -1.741881 0.627618 -0.6982413 0.9200357 -0.59171957 -1.832406 -0.5150141 1.4868116 -0.5525682 -0.2197823 -1.6205379 -0.24045242 4.6998773 1.7314346 3.5077057 0.67143494 0.3084563 1.5560565 4.0856934 3.7311254 3.0778172
1394 0.34312537 1.4614971 1.2262323 0.85562456 0.23131104 -0.64432555 -1.0463382 -4.936252 -1.580671 0.32183245 2.778467 -3.1772025 -1.6149176 -0.41137242 -2.3763478 2.5709963 -0.7086245 -0.035951335 1.0272423 2.038339 -2.309998 0.56442237 1.2655505 -0.65587103 -0.3966961 -3.0305815 -0.4100235 0.9007207 3.627502 1.4266042 3.4915695 -0.45001644 0.064320914 -1.3067986 2.3168128 -2.786124 1.2781099 -2.061941 0.6020237 -0.9184593 1.0210271 -1.1220704 -0.99314785 -2.0073729 1.5277545 -0.8993086 0.09842937 0.21900336 0.65291524 0.3773146 -0.28535825 -1.431141 0.8467925 -0.40222305 -0.00903373 -0.1283516 1.959182 2.614886 -0.09942163 1.1370213 1.2443752 0.743288 4.3282433 -2.2127678
929 -1.6411476 -2.0866897 3.3736014 -1.235901 0.33451378 -1.297353 -1.4432945 -0.42542255 -0.92454034 1.257663 -1.997132 2.962254 -1.0683283 -2.9072204 1.1374627 -0.6078418 0.94454783 0.9880602 -0.2752759 1.835312 -0.9807667 0.504221 2.0391924 1.8917464 0.7598698 1.9003855 -2.8888128 -2.44484 1.0701498 -3.4490402 0.13117626 0.47660357 1.4519908 1.0923533 -2.4637938 1.6135621 -1.6323363 -0.38102648 0.23830125 2.8454018 -1.4018453 0.43488514 2.6901758 1.3006228 1.0325626 0.1625908 0.3058821 1.8831921 0.81919163 -0.5768766 3.9138324 3.0247858 0.13040353 -1.821326 2.1525395 1.7189018 1.56988 3.0767794 1.3562255 -0.44223076 -0.07964083 1.8819935 -2.2911646 -4.031388
1029 -2.1005423 -1.3953196 2.5389729 0.52170664 -0.14990366 -0.1821274 -2.237127 3.10138 0.12780714 1.1891145 2.0834665 -5.2079816 1.6905931 0.9925609 -1.4914477 -0.27710438 -4.360229 0.9874888 -2.645106 0.07774869 2.8667076 -1.2321776 0.9408895 -0.8751904 3.2049296 -2.5233085 2.7335613 0.64546704 -1.7948028 0.4136928 -2.9042306 1.3574239 -1.274298 -0.5458289 0.34278232 -1.3514395 -0.1297585 1.0989124 1.6191051 -1.3140224 -2.492644 -3.7114568 -0.29452792 -1.019233 -0.40861475 -0.91937375 -1.1687702 -3.1242385 -2.4010758 0.06546701 0.039752413 1.0561595 1.8983748 -3.1362398 -0.4068882 4.3257174 -1.8529718 0.42069986 2.1663604 -0.57939434 -0.9678856 -0.2392368 4.443828 0.60752326
3952 -1.8006196 -1.3286319 0.8244139 3.138517 -2.2272 -0.3198976 -1.7665347 -4.45023 -2.0843058 -3.9461346 -1.3222606 -1.9927303 0.03151448 -3.2287655 -0.24577703 -1.3208796 -4.034885 2.2733867 -0.8850784 -2.530249 -0.8094762 -0.819869 -0.22261722 0.21664847 -0.5602077 -0.48964116 1.4253751 -2.034391 -1.1667818 -3.0472317 -3.5600479 -1.4418976 -1.8463745 -3.118062 0.019815061 -0.013255315 1.0789603 1.1694391 1.56945 -1.432359 0.13504742 -0.617052 -1.5452772 0.57700485 0.6612187 2.658318 -4.0943966 2.1037004 0.53190553 3.5252357 0.77755463 0.1396565 -0.5282987 -0.92663974 0.042957947 1.2228901 -1.2303562 0.4651023 -0.6201241 0.27962762 0.43135363 0.58427656 2.3627295 -0.88042915
183 -0.2403659 -1.229303 0.6183985 -1.010053 0.31893033 -2.6357296 -4.524813 -0.3480084 0.5403581 -0.31223112 -1.2649385 -1.4887649 -1.0283633 -1.5791914 0.21063477 1.980764 -0.5720023 -3.186697 -0.7210545 -1.7282808 -1.0763565 0.18966284 -0.55272365 -1.602262 -3.7596118 1.2103581 1.2550107 0.7327098 0.41795394 -1.3658351 -0.17921112 0.68552023 1.211377 -0.9850593 -0.38763604 0.45321074 0.39126152 2.452211 -2.0001595 0.04654138 1.2095178 -0.5638227 -0.54124933 1.1517566 -0.80977273 1.3634357 0.22242174 0.84019226 0.47118264 0.83721286 1.7333155 3.327488 1.190027 -0.6812704 1.1679305 -0.24418958 -0.37888125 -0.28168085 -0.46175233 -0.47183043 0.6318963 -0.365911 1.7481796 -1.629763
6647 3.5634568 -4.1736984 0.8594097 -0.3800037 -2.6586766 -0.53707 1.1977705 -0.29504168 -0.017448707 -1.3873947 -0.724604 -1.1962379 0.13757417 2.646983 1.7104856 -0.51100767 0.49379477 -1.321848 0.1818114 -2.740222 -2.1988318 1.2201368 1.1163713 -0.30467686 1.4094204 0.23942512 -0.38176674 0.48162517 1.9508418 -0.8701189 3.5042188 -3.1392386 1.0901351 -1.0400311 1.9246234 -1.4285135 0.79383653 -0.7936868 1.6906898 0.055424154 1.3171527 -1.7221422 1.9187758 0.20293318 -1.6858135 -0.08809044 3.5586035 0.48539394 2.7167857 -0.24914055 1.4873682 2.657261 -0.5411745 -0.90189624 1.5549834 -0.29592538 0.041877832 -0.74977124 1.114478 -1.8884367 5.552576 -0.6567376 1.6927619 0.031032743
C0011859 -3.8782308 1.5110197 -0.23153134 -0.60123336 1.2921469 -2.7300696 1.3485259 -2.1145089 -5.240781 1.2283437 -3.8006082 -1.8491012 -2.0651233 -0.12886581 -1.8657783 3.0007627 -2.4339406 -1.1243055 1.8594195 -1.2701541 0.5641957 -0.08426779 1.8547789 -0.246155 -3.576123 -3.6541808 -0.9695538 -2.0127902 -1.1365738 -1.8289956 -6.851289 0.058168992 0.7539307 -2.1121786 -1.1317147 -0.613793 1.9337999 4.59601 1.0264812 0.09308789 -3.8862462 -0.8621042 1.1003854 2.1632326 0.4322474 -0.6442732 -2.660566 -1.4121636 3.1477804 0.43532002 -0.3616016 -3.199092 -2.2103138 -0.46784523 1.2383072 -2.8786786 -2.7921011 1.8992739 3.3774827 0.79636335 0.09979149 -1.0268766 2.4175453 -1.5607579
387129 -1.2217314 0.6095161 -0.51352036 1.9630905 -0.2024896 -2.9478185 -3.7169862 -0.64432657 0.24365707 0.7205566 -0.037474237 -2.096163 -1.2767444 -1.4753816 -3.304443 3.616183 -2.2665913 -0.8591331 1.7431009 0.1409511 -3.8811402 1.1262978 -0.59789985 -2.102902 -1.045635 -2.0646064 1.7002285 2.2579749 4.095665 2.338326 2.0906217 1.6208757 3.5874114 -2.3253574 -1.3134465 -1.1921171 3.1874576 -1.5416222 0.9910139 -0.99364454 -0.36127922 -0.58573914 -0.84477264 1.1268733 -0.6475604 0.4647759 0.49039635 0.11404164 -0.5596574 -0.14333655 -1.7729329 -1.4343712 2.854264 -0.372438 -1.6186329 0.06730195 0.3115128 1.2751915 -2.1540742 1.4787846 0.68194246 -0.10001373 2.8134 -0.093590915
C0020480 -2.2644987 4.1789303 1.6018084 -0.21411331 -0.66537994 -2.7592893 -2.1177752 3.316956 -1.3519104 -0.63998204 0.1969435 -2.7313309 0.76923406 -1.282826 4.6528425 -1.1048777 -7.2295303 1.3589469 2.3492544 -2.575576 -4.562883 -1.6098291 2.961033 5.128911 0.61966836 0.9727847 -0.93323964 0.023733763 3.2947288 -1.7698486 -2.229593 -3.4079158 -1.9282209 -6.846374 -1.6341066 0.8070857 -0.12134972 2.5993085 -1.5156856 0.17541574 2.5460062 4.0786147 -0.34741873 3.1452522 2.861515 1.1778959 0.77921826 -0.3024567 0.6830787 3.0664282 0.7770187 -3.3895314 -1.0951477 -2.2188544 1.855181 0.794421 -2.0496294 1.2795149 -1.0397792 -0.10269102 1.562366 2.7817545 -1.9815012 1.9295105
213 -0.75914025 0.8481598 -1.9319017 -0.5005513 -2.7876253 -1.962514 -2.9084623 -0.40249497 -0.47456813 0.7399098 -1.1288391 -1.7763155 3.4487667 -1.3462512 2.350383 -6.557649 0.041752487 3.9008536 1.4609143 -3.4303164 -3.4146514 0.73837644 1.900586 1.1208425 -1.988298 -0.90912473 0.77703077 0.24284181 -0.29273403 -0.7688331 -2.1138008 -3.7271042 -2.4149046 -1.9745865 0.085702375 -1.8283471 -1.2689418 2.356607 -0.60100263 -2.6752992 -2.26922 -1.5198768 -1.2493935 1.1013085 0.5409059 1.5046217 0.5134237 1.7881713 4.434554 2.2418396 2.0024526 -1.6760416 -2.577086 -1.2090175 2.3956623 -1.9629945 0.95740765 0.5482327 -0.83479846 -0.7404546 3.3502963 3.5847018 -0.08864248 1.875631
367 -0.108532116 0.11068916 3.7011807 0.6787641 0.42014638 2.009547 -0.4779386 1.9668529 -0.68047523 1.670364 1.3036373 -3.4394104 1.9556644 1.3851092 -1.4574652 -0.36512482 -3.8315244 -0.15380031 -2.926335 -0.32088435 2.8836513 0.26952523 0.7957144 -1.853291 2.5998306 -1.9461037 2.3009634 0.9929635 -0.2470534 0.12844242 -2.580563 2.0993512 -1.6544499 -1.7387656 -0.5892568 -0.8798807 -0.10465297 0.35985184 2.3319244 -0.71930414 -1.4154277 -1.8711693 -0.57721436 -1.3216741 0.45528847 -0.42863393 -1.4056984 -2.3663352 -0.86713123 1.2605816 -0.005649227 1.5803246 1.0134645 -3.304748 -0.8189829 3.1645443 -0.8272223 -0.20962127 0.43198502 -1.3165984 -1.8404264 -0.7947408 3.1643984 1.2689813
C0340968 3.0218167 1.5541923 2.4501567 1.8100342 -2.5403106 -0.62394226 2.4537463 0.6504703 1.6373957 0.1477348 -0.914634 0.35329106 -3.0236049 1.5167019 -0.67182267 0.055491388 -0.7490895 -1.1396996 -1.0286765 -1.7183193 0.67641735 0.8298312 -2.1577592 3.7864032 0.9396448 -2.9552941 0.6559964 4.796799 -0.4456053 -3.8032289 -3.7543962 0.57185525 0.18508436 -4.8198366 1.9294207 -1.682901 0.87382984 -0.6669131 0.013365625 3.436073 -0.9630817 -1.9965004 0.6589539 0.62928194 1.5812948 -3.0760837 -0.28224772 1.2487892 -0.0029531638 2.7339041 -2.3166344 -2.0134163 0.26613373 1.422558 -1.758423 -0.23746084 -2.077258 1.1816914 1.0626632 -0.010113323 -1.8732872 0.6227334 0.042515077 0.3095837
154 -1.3771813 0.031582538 0.9454793 2.551313 -1.619706 -0.50118136 -1.8715053 -3.7642622 -2.558033 1.0538938 -0.13942206 0.17757809 -1.496044 -2.8032162 -1.4679759 1.5185117 -0.92040354 2.488039 -0.708837 0.911575 -1.5169477 -1.1939385 0.3470318 0.29376233 -2.4570365 0.983138 -3.330852 -2.2799904 0.022898234 -2.545214 -1.7108998 0.19463447 2.4472673 -2.4725494 1.7747722 0.6195757 -2.1758976 1.7485747 0.55287474 2.0160983 0.20699894 -2.4786255 0.91033494 0.9070768 0.5998038 2.1603003 -0.5298409 2.5389643 -0.18905638 1.4469576 1.509861 1.3033999 -0.978068 -0.8197262 0.6731687 2.1984172 0.36657208 0.59678006 0.2085777 0.86930937 0.8513967 -0.28973028 1.3001548 -0.020859852
353 -0.77465993 -0.20042133 0.43919525 -0.72566915 -3.1539001 -3.300692 0.24293327 -4.263835 -2.831049 -1.2663946 -3.1694424 -2.6229734 -3.16145 2.2602437 0.71972656 2.6103816 -3.00347 -2.0167453 0.77279705 -1.3792369 0.2320567 -2.5195196 2.226203 0.33286542 -0.082891405 2.8082423 -2.604924 -1.5010215 -0.061352767 -1.5994829 -4.2196555 -0.9042732 2.3210227 -1.3993982 2.5717928 -1.1999 5.2401333 2.4812121 3.1374135 1.2052975 1.5905037 -1.8833405 0.16856037 1.5198988 1.8238482 -1.1918364 -3.5688915 0.3224287 0.97105163 0.48385185 -0.65439665 0.33379894 1.487305 0.3788696 1.4695395 -0.2657562 -1.4711506 1.6552583 1.2088314 1.3315328 2.5555115 -2.8129892 4.354319 -1.2631831
3717 0.96853817 1.6270804 0.28667003 1.1473722 1.5606719 -1.2964222 0.9381069 1.8899182 -1.4169863 4.243032 -1.4655335 0.35832646 0.009126511 0.19181377 -0.51697725 -2.111881 -2.1003609 0.6535394 -3.5942838 0.64378566 -0.1675666 1.6922573 -1.081575 -0.022018343 4.7214975 1.6466452 3.0674593 2.8427024 -1.051086 -1.4468814 -0.033258405 2.992928 1.7557952 -0.19399595 1.1984057 -0.75544655 0.20225316 -1.9043716 1.9817573 4.6153603 -1.829186 -2.3180485 1.5546465 1.2195644 -1.5577666 -3.98885 -1.5152556 0.14193298 -3.3126857 0.5694012 1.8689854 -0.95551693 1.4909499 -1.0102563 1.1464067 -0.5300733 0.819738 3.5553713 3.822023 -0.8354267 -0.37513196 3.9728992 -2.2465286 0.7799995
7133 0.47403228 -0.55651945 -1.7151208 2.4416614 -4.2826314 -2.2001975 0.8415281 -2.464421 -2.3394663 -4.0631394 -2.3571289 -0.16024435 -1.0434264 -2.4009233 1.5812341 0.07018713 0.40600786 2.3656003 1.04878 -2.4451013 -0.7811232 1.8092396 -0.22895479 0.527667 -1.1108462 0.40144837 1.0813788 -2.7419307 -3.7879977 -2.5165837 -1.9369205 -2.7199495 -1.547904 -2.7329628 1.8191813 -0.6779853 -1.3570422 -0.5466488 0.35169813 0.14967346 0.3379493 -0.18891902 1.6625386 -0.10970073 0.05073548 0.90850645 -0.33136392 1.6041783 1.3462408 4.271002 1.8158497 0.029781224 -0.407666 0.88976043 -0.79057586 1.3462559 -0.7743455 1.6907005 -2.3203554 0.63522506 1.24196 1.900298 -2.048953 1.9435179
10891 -0.52956057 0.9773722 0.71029514 2.4245965 -4.2074695 -2.4588566 -2.4873917 -2.4944947 -1.2518743 -0.08064196 -0.73313 -2.5809164 0.036585238 -1.559522 0.3483367 1.0792193 -1.7442579 1.2249342 0.8597383 -0.18406598 -0.6549378 -0.10260478 -1.9228342 0.3817642 -2.0571837 -0.9499276 -0.030269144 -2.003481 -0.69383997 -1.9615389 -3.0681813 -1.882564 3.8719027 -1.9311761 1.1526874 1.0169348 0.76184666 0.91226566 1.3032577 -0.49533492 2.725898 -2.8037755 -0.3734615 2.0817344 1.0305485 0.87971574 -2.8527386 2.9493253 0.22950077 3.4818783 0.77447724 1.3849449 1.2748486 -0.2857288 2.4293861 1.4496038 -0.16370599 -1.9068825 0.601238 0.5657208 -0.47233936 -0.35984096 0.6975165 -0.5262804
3586 -2.1430507 0.6531774 3.8098428 -2.8812337 2.027393 -1.7821522 0.26714703 -3.365679 1.3343381 -2.345485 1.528921 1.1924903 0.28453222 1.11288 0.3904631 2.3339622 -0.3425546 -0.025779331 3.2682538 -1.0643575 -0.6727853 0.59196454 -0.29028276 0.4912339 -0.59045655 1.163507 -2.6069312 0.49099275 0.47586268 0.74874467 4.867047 0.8670504 0.2029123 -0.57101697 -0.8843236 -2.3200767 5.5087624 -1.4768189 -2.8482318 0.9529892 -0.09162667 -0.72528225 -2.2113602 -0.5598886 -0.23222737 -3.811655 0.44137666 -1.6001679 3.2915049 -2.0328598 -0.33844692 -0.14155652 1.295085 -1.26803 1.06857 0.064879894 -2.0596323 -1.283211 -1.9082654 -1.8447695 -0.52520525 0.38788098 1.640329 -1.0228235
23411 -0.26103577 0.049081556 0.9901054 0.58546185 -1.6708449 -2.175012 -1.4230735 -2.7584283 -0.074505925 -1.07661 -1.6505673 -0.07882459 -1.2459325 -1.2012739 1.5798783 1.5836493 -1.0519542 -0.6838897 -1.5800897 -0.49236664 -0.71994734 -1.0936148 0.34120172 0.00011527341 -1.593921 1.3552967 -1.3962091 -1.6642609 -0.35277602 -2.1952891 -2.010237 -1.2639203 2.2330554 -0.57995635 1.4223061 0.42400745 0.3768559 0.7762422 0.5818826 0.8566397 1.3604119 -1.1347524 -0.58164495 0.9195606 2.2567933 0.64408153 -1.5155953 1.4776212 0.72025824 0.93682075 1.5107374 1.7620435 -0.4591996 -0.3230576 1.5446345 0.5012255 -0.7445815 -0.6842862 -0.11668288 -0.09604868 1.6168584 -1.1957726 1.6255984 -0.76441604
5465 -0.38101327 1.051201 -0.48264858 1.747007 -3.2757294 -2.0472443 -1.3055663 -1.2775402 -1.044687 -1.6393749 -1.1657028 0.036610756 1.438047 -2.93331 0.4545476 -0.99581504 -0.70178795 2.764158 2.5492857 -1.4728053 0.17017253 1.2146021 -1.097123 1.083117 -0.64472616 -0.10183375 1.0861087 -2.2305412 -2.7620497 -1.639226 -2.6898286 -2.86929 1.0947422 -1.1606851 -0.13543952 1.5554903 0.4386171 0.7432809 0.25732568 -2.3604023 1.8367413 -0.5837567 0.07717014 1.9647907 1.6161188 1.2412097 -2.956169 2.802234 -0.3072684 4.2535853 0.71420413 0.13563542 -1.0147753 1.6746745 0.0037627905 -0.8900178 0.20083421 -0.22125207 -0.09427473 1.9242158 -2.0551527 1.4955716 -2.1811736 -0.11753776
7040 -0.8105727 -2.0869029 2.3861291 -0.061009903 2.998911 0.98518664 2.2952566 2.5052533 1.4979788 1.0320529 0.13152678 1.6078739 1.7466629 0.09981771 -0.14772409 0.8403269 -1.4870439 -0.9849761 -0.9928959 -0.5618579 4.274852 -0.39053112 3.2739222 -1.4432261 0.19073097 0.2460312 1.211176 -1.5959287 -1.0395695 0.54965425 -1.5247552 -1.0517752 -0.89891136 -1.1921302 -2.066934 3.3856258 3.811545 -1.1207509 1.4714705 -0.64226407 -0.70824224 -0.7414223 0.33454418 -3.3589761 1.0275083 1.3580726 0.87852305 -3.1178641 0.55896133 2.1906188 0.9586149 1.9890391 -2.797823 -2.4453597 0.97723716 2.1019535 -2.573416 -0.27321175 1.4857535 0.5680293 -1.2741168 0.6635411 2.7019565 -2.93425
3091 1.2726156 0.11216719 -0.4606485 0.5760876 -0.47965214 -4.0636897 0.043427072 -2.28809 -0.36089554 1.4565938 -0.6314124 3.8469932 -2.4967794 -1.2445828 2.0772142 0.32054046 1.1075065 -1.4770076 -1.9435802 -2.7368155 -1.8591211 -1.7723014 -0.41061872 1.8864903 -0.068663865 2.1319788 0.7079006 -2.4822817 -1.3759149 -3.09036 -2.2604835 -0.42191163 0.714468 -0.5271283 2.3010306 0.07802163 2.3474689 0.45876586 1.1488284 2.8470066 -0.6986084 -1.065814 -0.15504164 2.7001684 2.8055263 -0.73516655 -0.8081209 1.1140492 0.7920876 2.1461124 1.0472231 -0.11937543 -0.12790464 1.6918442 1.7657999 0.19344953 -1.6243342 0.36031532 0.33090883 -0.4143838 0.40553296 1.2354995 -0.68228734 -0.8898321
706 -1.3839648 -0.11191098 -0.45382148 0.95223165 -1.2785788 -0.67642117 -1.0229441 -1.1055962 -0.31371257 0.43150967 0.8297485 -1.1337295 -0.73484933 0.8830159 -1.7857245 2.7616825 -1.7191665 0.34160393 1.784893 1.110493 -3.3407214 0.029869331 -0.05215511 -0.5999652 -0.9409733 -2.513293 -0.22505756 0.6374667 2.7614617 1.9618038 1.8872321 0.16141012 2.5673163 -0.12487356 -1.7023565 -1.3889673 1.7524815 -2.84585 1.6822705 -0.5685992 -0.70015514 -0.05230883 0.09708954 -0.18319933 0.48980132 0.14040877 1.786625 2.0762405 0.18372358 -0.94742787 -1.5812076 -1.1323004 1.1795527 -0.57722396 -0.6227894 0.10640908 0.30644158 0.6558201 -0.7904446 0.8384362 -0.5251828 0.33813775 2.3747683 -0.086663045
217 -1.5820117 -1.7973197 0.6206223 1.0619645 -0.5532845 0.37259394 -0.94851345 -1.3434516 -0.18115962 -0.5909645 -0.9979688 -1.8256938 -1.6577442 -1.5019268 2.0049193 -0.61853 0.6126123 -2.3521795 0.7495377 0.061681617 0.55679625 -0.6863686 -1.1436858 1.072682 -3.031709 1.4135834 0.25645658 1.2310457 1.4901822 0.4805032 -2.3766294 0.8372282 1.4884923 -0.3772726 0.18536234 0.24580437 -1.8163574 -0.08414501 -2.0978167 -0.98052156 0.5295614 -0.24152862 2.2542124 0.88231975 0.31076735 0.18468986 -0.30197734 0.00059383485 -0.13327248 -0.881501 1.2152785 2.3577888 -0.30532393 2.370822 3.8492608 -0.7932925 0.10638445 0.5942996 1.0192462 -1.4150856 1.6317033 -0.64765984 3.2745035 -2.4187744
1565 -0.1999914 1.103791 -0.8460287 1.0042192 -0.33970478 -3.1800957 -3.6916113 2.8557928 2.168577 2.2991507 -0.05514539 -2.2574077 0.9165406 0.25310096 -3.241913 3.3509812 -2.4427788 -0.93920416 -0.4255101 -1.9922787 -1.2760264 2.2052894 1.7563685 -3.672755 -0.31095693 -1.2735926 1.1966087 1.5411003 1.8684287 1.9454808 -3.0373821 1.8227978 2.6028507 -2.661519 -3.2788348 -1.0174403 2.5251348 -0.45104218 2.3831103 -0.5136646 -0.33447266 -2.7572947 2.6265404 -0.53187615 0.7664011 3.416934 2.5628242 -2.2688417 -1.279774 -0.31899202 0.17070895 -1.4413471 2.7265162 0.73214364 -1.410207 2.381673 1.2240875 -0.5906703 -1.1100312 -1.15312 -1.3003907 -1.6954212 5.3987484 0.9961379
51738 1.1839972 0.7808237 -0.07100146 0.6681503 -1.5723191 -1.5197542 0.027214903 -4.6901956 -0.87616575 0.50374854 0.14546894 0.48720855 0.25489742 0.5071106 0.66992015 -2.1029718 -0.18430836 2.4572577 -0.420442 -3.802376 -1.5819134 1.8606986 -0.1581257 1.9129404 -1.934525 0.89633554 -1.967305 -0.9348692 -0.7414417 0.48238537 -2.1509414 0.21129887 2.231236 -2.358274 1.6117609 0.10095725 0.9425585 1.1247525 -0.32785589 1.3478097 -0.823135 -3.3003066 -2.3540516 1.1296103 0.18921342 -0.059472006 -1.4151375 0.83586556 3.9644835 1.4686645 0.19988622 1.3591009 -2.9118237 -0.30437934 -0.9285825 0.7680211 -0.094127044 -4.3801947 -1.8708932 -0.37955004 3.8261 0.30303872 -2.6104262 1.3878396
2247 0.8216429 -5.416511 2.0451882 0.3522674 1.4417913 2.7467391 1.2264556 -1.2462003 -0.3703045 0.016043153 0.7690875 -0.63833135 1.5701236 0.568312 1.1702917 -5.8553157 -0.58265334 -0.6360209 -0.6860199 -3.917858 0.2482062 -0.49975985 1.1876799 2.9889815 0.77080274 1.9360877 0.9018714 0.63589674 2.1739502 1.680302 -2.2771575 -0.5429405 1.2719901 -1.0008731 -1.9519905 1.8712897 1.0738333 1.0597669 -0.26844233 -2.641682 -2.1658003 -0.0669193 -0.44609755 0.30026305 -1.4161026 -1.8699741 0.36029673 -2.6806777 1.9479743 -0.5492657 -1.9225591 2.1555114 -2.447536 -0.5315528 2.9209733 -1.7822745 -0.4019118 -0.8112065 0.33468133 -0.16980088 4.573529 -1.1396911 2.3179731 -2.324599
22 -3.1710854 3.1529574 4.0220327 -1.6210645 -2.342833 2.8335905 1.1646068 4.190666 1.9955982 -0.28210202 -4.2221613 -1.2694688 -0.9813626 -2.3324268 -0.30724505 -0.8279008 -0.8571845 1.6632915 0.4111749 0.10696393 2.915637 -0.889446 -1.6970688 -0.6503087 -1.409429 0.48545983 0.71658427 -2.2378848 -0.8454485 -2.1698377 -0.10381511 -0.54833186 1.2849942 0.69056344 -2.3979542 -1.1714789 0.3723768 -0.08605831 -0.7343394 0.8531859 2.4020886 2.6207418 -0.20137563 -1.1266917 -0.098358884 0.5576919 2.3382776 -1.3393309 -0.32762903 0.36689928 0.5139437 -0.35412967 0.6218354 -1.7719755 0.4303117 0.1186322 -0.91062367 -0.18776515 -0.58784705 2.10654 0.29483467 1.6163943 -2.7413962 1.7551917
596 -0.46576503 1.5726773 4.7799873 -0.9587189 -0.42184913 -1.4441367 0.53055805 4.696899 1.8206427 1.6929296 -0.88310444 0.8912628 0.06682358 0.8685636 1.9855832 -1.0565757 -0.887609 -1.1175228 -1.0840994 1.9030564 2.45182 1.3712666 2.4270463 -1.024617 2.9874372 0.72955954 0.78371805 0.44790396 0.32257342 -0.28820667 -0.07221368 0.42364538 -1.3262798 0.19099648 -2.2674673 1.0878993 0.17089199 1.6346045 2.2111876 0.82950467 -2.1820037 -1.4126701 1.7118123 0.17268142 3.4672935 -2.078928 1.6089314 -1.384373 0.45270702 -0.5213923 2.0819807 2.3888354 1.4957426 0.31322145 -0.34353104 1.975953 0.23542278 0.06446 -0.9681634 -1.9596809 -3.7510724 -0.8328777 -0.37455344 -0.9536676
6530 -0.9548631 -0.43220547 3.1428885 2.3829706 0.43689597 2.9054728 -3.4039733 -3.0729048 -0.9735934 1.4606599 2.1851535 -3.3383276 0.66189814 1.6875825 -0.03480573 0.62309396 -2.2393174 -1.1411207 6.2617593 2.1720266 -3.777655 -0.5193097 -0.28949168 0.43843663 -0.9821692 -4.667685 -1.0435474 0.79826397 2.416804 2.351892 0.2043884 0.5081959 3.5673954 0.17292674 2.499377 -4.2369714 3.2610688 0.5882055 1.9259301 1.3148277 0.629418 1.5071771 -0.41376388 -0.32151794 3.3098679 1.2844032 -2.2125542 -0.03158746 1.3912404 0.016615948 3.6105008 -1.7909527 5.125537 1.0363824 -0.7861803 -0.14255175 -2.543978 0.9264785 -2.138832 0.75034195 3.0138988 1.0663788 1.8040856 -1.7026433
2993 -3.8456514 3.5255265 1.3563285 1.2723833 -1.7578007 0.9976098 3.7204187 8.044459 -1.0797346 1.8576863 -2.165995 -0.7223809 -0.34889904 -0.05229729 2.0782952 -2.5103054 -3.1400356 3.7225528 -0.19632214 3.0371182 4.2591496 -1.3239383 -2.9148388 -1.6294757 1.0606712 3.853623 2.0166357 3.0230825 -0.19570524 0.10121525 2.4933448 -0.609331 1.8657787 -2.3659697 -0.19359548 1.3092539 2.5814912 1.2398728 2.3223004 0.6934301 0.69593537 -0.69209725 -2.3401458 -1.2194923 -1.5893763 -3.0992477 0.70744425 -2.3517156 -0.37196073 -0.7573184 0.4560292 1.1026356 -0.90972567 -2.2931478 0.90720856 1.5237075 -3.1978786 3.4224885 -0.25496438 -0.423846 -0.12134964 1.7760115 -2.0141406 2.5898159
3123 -1.4969765 -1.259099 2.4795716 2.2903152 -1.2665933 -3.060597 0.70416343 -1.7384365 -0.6060924 -0.6769646 4.6453156 -2.3952262 -0.503293 -2.5322738 -1.4303262 -1.9601735 -0.59092104 1.1175822 4.2629094 2.236099 0.22919653 0.56704044 -0.3767084 2.4893491 -2.9672523 -1.7308832 -0.9196923 1.6349118 2.181932 4.652268 0.38116333 0.7491185 2.157377 3.245233 0.5299801 0.44503516 0.99778175 -2.2721176 -3.332465 -3.0829709 -1.8539425 -2.4955862 0.9539712 -0.4148935 -0.95370585 -4.6928797 0.35304722 -1.8777688 -1.7293221 0.7167043 -2.518539 -3.0009892 2.8925202 2.5131576 -0.2723658 0.8907435 -4.306386 2.9289448 1.5773 1.0982095 3.2574105 1.898029 3.4938467 -1.7614413
