2996 64
C0004096 -0.1395049 -0.256211 -0.7859645 0.87874895 -0.51614046 -1.4246833 0.4569817 -0.49451792 0.4389968 -0.1410003 -1.4216101 0.5491444 -0.23496349 0.46077144 -0.64759195 0.16449128 0.38414842 -0.88212055 0.20776117 -0.9636006 0.6341624 0.21619461 -0.25894094 -0.5773862 -0.29108524 0.045042485 0.6467181 -0.34259546 -0.55120283 0.21046905 -0.34169167 1.135773 0.32639572 0.30104023 -0.59184796 -0.30769715 -0.1842458 0.45114714 0.35474327 0.24367061 0.8576726 0.20790668 0.34333363 0.48969802 0.55888385 -0.46981487 -0.3583741 -0.16291942 -0.24035347 -0.30527958 0.37802964 0.048901152 0.63767344 -0.11253679 0.7118668 -0.3191725 -0.09978955 0.24998517 -0.32599038 -0.80230194 0.6898821 -0.007843226 2.0309505 1.1424773
C0027051 -0.55724657 -0.38771188 -0.16911776 -0.1648641 0.49535042 1.4672705 -0.6311928 -0.22280243 -1.2604727 0.13936499 -0.8432837 -0.24824952 0.23852165 -0.56784356 0.23783632 0.41228643 0.07152412 -1.7874949 -0.7939325 0.79741144 0.7491675 0.1823263 0.59686285 -0.42581928 -1.5457793 -0.48856878 0.24979043 -1.2062678 -0.37787473 -0.6540433 1.2455847 -0.9063187 -0.75147444 -0.07121103 0.6163949 -0.53203213 0.79959583 -0.16845174 -0.42789328 -0.44130856 0.5466748 0.7091592 -1.3799865 -0.84342283 -0.81768435 -0.65277475 -0.8361518 -0.84803694 1.0113648 -0.051991213 0.79590875 0.03388222 -0.008458485 -0.63177884 0.59353113 -0.25833234 0.00042906715 -0.1874481 0.03984378 0.12100751 -0.3890651 -0.13582551 1.1673052 0.1204392
C0003467 1.177453 0.87692845 0.21538106 1.5364171 -1.4543605 1.0885466 -0.61177486 0.5519716 -2.031114 -0.5604082 -1.003319 0.8604353 1.0164325 0.8041719 -1.1663166 -1.0640277 -0.29836917 -1.5584807 1.2163604 0.27952573 0.9956058 1.676063 1.1045444 -0.5165325 0.19826998 0.54294825 0.49986112 0.46075487 -0.08927233 -0.8997199 0.95351577 0.61154056 -1.0640013 0.1840011 -0.30813268 0.0014150843 -1.2758332 1.5705776 -0.5104232 -0.51975286 0.5809851 0.9437818 -0.5659877 -0.6693996 -0.9527755 -0.75790125 -1.3449185 -1.980385 0.782376 -0.34691718 -0.9345321 -1.9293113 0.67692745 -0.3417969 0.7540253 1.0848409 -0.36968365 -0.62878704 -0.9368964 0.99860877 0.44283774 -0.06769723 -0.046590455 0.5469702
C0271650 -0.49127895 -3.353561 -1.3509849 1.8383902 0.027221257 1.5109022 -0.4964551 0.31940496 0.34670484 -1.1088426 -0.5812056 -0.08743153 1.2568139 1.218641 0.11433353 -0.6029261 0.46534204 -2.3007245 0.9351005 -0.46060112 1.4569272 -0.20730884 -0.9806815 -1.3781493 1.0315078 1.1574266 0.08999282 -0.61755043 0.9178125 -1.1412661 -0.14958392 -0.16963796 -0.40789935 -1.6771324 -0.7347582 -0.97073126 0.39565125 1.7789793 -2.516949 -0.4587236 -0.061111454 1.4173273 -0.8114703 -0.22141014 -0.50685555 0.44160533 -0.99887174 0.05530498 0.66093683 -1.3343421 -0.052296985 -2.5026412 1.5032835 -0.25907522 -0.31191814 0.7950852 -0.034417156 -0.3511869 -0.95882696 -0.07292313 0.06604839 -0.2856275 0.5495123 1.9139944
C0007785 0.8123997 0.36407718 -1.2557915 2.4586189 1.2257978 1.1007783 -0.77163 0.35546222 -3.2126734 -1.6551279 -2.042484 -0.7394154 0.41771892 1.5084357 0.6575001 0.5959564 -1.4544097 -2.6155996 -0.25984758 -0.61795306 0.44097847 1.7933002 -0.094129615 -0.49305993 -0.57251304 2.193497 0.14206854 0.066222474 0.12714544 -0.28403068 -0.3620943 -1.5091767 0.4697962 -1.5326321 -1.7048706 -0.79172236 -1.0812312 2.2720232 -1.6774037 1.968931 0.9039252 0.45950127 0.011509232 -1.2752268 0.48979953 -0.98271513 -2.496677 -0.2869418 0.2691157 -0.84259754 -0.21446066 -0.11910801 1.7896334 -1.4174123 -1.6006404 -0.032137856 1.8027315 -1.6458919 0.056622654 -0.48762974 -0.63654566 0.7495075 -0.028872473 1.085757
C0032463 -1.4059315 0.22310399 0.33434752 0.5521251 0.22050959 -0.87242275 0.39025038 -2.469136 -1.1440941 -2.3739216 -0.4325698 -0.41924772 0.40993094 0.723492 -0.637033 1.242227 -0.5190074 -2.8766742 -0.094674066 1.1742977 2.045304 1.8977209 -0.5446162 -0.49721152 0.5552666 0.50094104 -0.705999 -1.2426435 0.6663554 -1.5216117 -1.4303079 -0.74142367 -0.9047458 -1.001937 0.48264733 -0.81331336 -0.9281713 1.7848623 -2.0217752 1.0150222 2.241485 -0.24301608 -0.30929103 -2.307033 -0.7913181 -0.7541112 -0.64607894 -0.26014185 -0.86612624 0.08774067 1.4939528 -1.6910635 0.76860195 -0.37355375 -1.1791621 2.596208 -0.5636513 -0.3886678 -0.5542449 0.18973072 1.0702046 -0.33307832 0.03080777 0.5668769
C0262584 -0.106420636 -0.067243844 -1.6842003 1.4013163 0.7768094 1.3545085 -0.44623876 -1.0979983 -0.64523065 -2.4646945 0.5589969 -0.13228272 -0.56820256 0.58413553 -1.4001464 1.604364 -0.3147524 -0.9784935 2.5596087 -1.118831 0.2605879 2.912837 -0.3739447 -2.6962411 0.93710566 -0.27485904 -1.812665 1.0337547 -1.4945933 -1.4691269 0.058056895 -1.7062166 -1.1084839 -1.6810452 0.58376575 0.28695667 -0.72409457 0.9498277 -2.3957894 0.58806425 1.1218553 -1.3806665 0.65732163 -2.816396 -2.9213123 -0.04933114 -2.6456342 -0.76184255 -0.050814707 0.13717972 -1.3194506 -1.2925481 2.9911256 -0.37692824 0.23046087 -0.69355774 0.6434471 -1.6276848 1.1556594 1.5491339 -0.45698693 -0.814854 2.886961 0.70369047
C0028756 -0.46676934 -3.312584 -0.87554836 2.7353518 -1.4127922 0.28305495 -0.88814265 -0.6422689 1.0410411 -2.2771833 0.00015700169 -0.233148 2.0292072 -0.47757247 -0.1845404 -1.1695602 -0.6535128 -3.043133 -0.8756531 0.7889022 1.882359 2.6127272 -0.5903205 -0.9044754 -0.4832293 -0.023232916 0.1576084 0.043823957 -1.9005747 1.1042366 -1.0032909 -1.8245039 -0.1424643 -0.2557422 -1.9632456 0.66496986 -0.21805957 1.8171238 -0.5150652 1.080847 1.8453465 0.48194316 -2.3760753 -2.2008615 0.44528943 -0.17958102 -0.88465536 -3.0422528 -0.80757135 0.5323781 -0.22256842 -0.7736524 3.3708324 0.028444195 0.15332137 -1.5674064 0.5925148 0.06436725 1.1848685 1.2168379 0.3819779 1.009876 -1.7697077 1.9040086
C0030312 -1.4256307 -2.1381934 -1.516362 1.2591947 0.928999 1.723964 -1.0850654 -1.5972761 -0.92631745 -1.2231176 -0.45001817 -1.4587462 -0.2255641 0.575069 1.7765867 2.52257 -0.059158046 -1.3757242 0.28631985 -1.2385459 1.3852162 4.7446737 1.7870585 1.4535769 -1.3435191 0.48920897 -1.2321068 -1.6107196 0.1461523 -0.94471043 -1.2601906 0.25446546 -1.5729171 1.1979139 -0.4218631 1.656553 -2.9858153 1.0028354 -3.5864363 0.13150673 -0.41051736 0.31791702 -1.2126492 1.3347578 0.6279002 0.8201417 -1.7114196 -0.30655953 -0.92566544 -0.82250655 -0.8082235 -2.7001498 2.8542538 -0.52489364 0.5681388 1.6719568 0.66884255 -0.94303596 0.4496877 1.580212 -0.85652333 1.2804176 0.96185094 1.3535094
C0030319 -0.83515215 -0.6366993 -2.2036452 3.0177138 0.4261446 -0.53958553 0.04728954 0.7584801 0.52422786 -1.8518944 -0.19338587 0.36665332 1.0038738 0.6316239 0.18056037 -0.4983501 0.026389541 -0.6243069 1.0625583 0.048490588 2.0807984 1.9526558 0.5824437 0.63920563 -1.8596636 0.8016281 1.4510218 -0.2625621 0.19337071 -1.6227006 3.8170097 0.58626014 0.045877162 -0.30755615 -0.3333935 1.507149 1.0568714 0.046278644 -4.0169396 2.3360355 0.80720776 -0.8687779 -2.5615861 -2.6543775 0.07054818 -3.3378959 -1.5576657 -0.3709476 1.5164841 0.54735386 -1.1240811 -0.85415554 2.6575265 2.649966 -1.9759543 2.0565996 -1.8453422 -1.3746915 0.07220403 -0.66302884 -0.6433107 2.4248388 0.09855117 1.9378712
C0028768 -0.8330008 -0.57969505 1.2344877 1.6801405 1.2739865 2.4742036 0.023853177 -3.575988 0.44557685 -0.21267036 2.0935862 1.5026008 2.2124736 0.61507064 -0.823592 0.5565296 -3.129044 -0.74462634 -0.06850592 -0.7123467 0.19931403 2.0533564 0.42452282 -0.5413198 0.40878138 0.88214356 0.9342887 -0.40462536 -2.632651 -1.1258671 0.1999991 -1.3065993 1.152514 1.0929742 -2.3782742 -0.45153075 0.601689 1.7563437 -2.2686782 2.6106534 0.7040761 0.3825912 -1.1804695 0.26817292 0.64787954 -1.0915968 -4.253304 -0.97303045 0.9432145 -1.3360398 1.9128115 -1.8974223 0.14360283 1.8787439 -0.007741131 0.5814584 0.02378459 -1.390267 -0.3235689 2.439194 0.38290522 0.118230686 0.6566892 2.9831216
C1864041 -3.59338 -0.62067693 0.8184792 0.4033719 -4.572808 0.35022402 5.1739173 2.1687496 0.18637565 -0.14469452 -2.2743554 -2.3212621 -1.0572369 -0.23760588 0.018729486 0.3558291 0.45516658 -2.5173683 -1.5738443 0.1617352 -0.85739124 1.2382212 0.13903601 -0.31234983 -0.50284827 -0.09005101 -0.20028499 -0.817085 -1.4218571 -0.13753977 0.9740484 2.7145765 -0.66294813 0.6314988 3.2378793 -0.7608087 1.3547497 0.21588424 2.6197593 -0.22449067 -0.07774302 0.6457141 2.1761835 1.85967 0.51446897 4.5008593 1.7247535 -0.47179738 1.9749712 2.3925736 -0.6717956 1.8944913 0.82526916 -5.2322206 1.9110692 1.2839308 0.8850594 4.6724315 -2.0323708 1.025481 1.6041479 0.28720543 1.2904961 -4.000375
C0020474 -0.9931076 -0.86202145 0.18954268 3.8827925 0.036055464 -0.17039196 0.6178818 -0.47412723 0.58250695 0.8183512 1.7294141 -0.36115 2.6382546 -0.6171797 -1.3047462 -1.256475 -0.72820055 -1.5119491 0.8028567 -3.1165447 1.4760737 3.4724426 -0.4345823 -0.50348806 -2.751635 -1.2637775 2.5354047 -1.2397076 1.1173793 -0.8104966 -0.8736013 -3.7922263 -2.6988435 0.6296448 0.13828988 0.8685547 0.097646356 3.2426805 -2.306954 -0.06946567 0.9513342 0.6954977 0.9389391 -2.9476764 -0.3289442 0.0047394475 -3.5455518 1.0410357 -0.4399099 -1.096416 0.017264524 -0.7415635 2.7200215 -0.9782881 -0.34580094 1.0166572 0.8074177 -2.4996839 -2.4855592 -0.9414598 0.84493804 1.2390252 0.38675362 1.6275566
C0085207 -0.5601409 0.51502377 -2.0389223 2.249459 -2.017764 1.1899843 -1.5151982 -0.78664684 0.7234085 -3.5848372 -1.593846 2.0466533 3.1969664 0.67100877 -0.122885376 0.08169039 -1.2265265 -1.3503708 2.5024304 -1.4578993 1.2131659 3.4556541 -1.3001022 0.53831565 -1.5954226 3.6280706 1.3058774 -3.0431123 -1.212577 -2.5213528 -1.1143756 -4.1119256 -1.279878 -1.6681168 -0.9473204 0.20380488 -0.99498576 0.20954655 -2.5668654 0.00076404447 0.6190829 1.8518443 -1.8202151 -1.5934185 -0.16402078 -2.7110322 -0.022193627 -2.9151495 1.28344 -0.59330875 2.107244 -1.4757843 5.1602983 -0.9034107 -0.9768409 0.5794676 -0.16309018 -5.394091 0.110595316 0.3623129 -0.809344 -0.22704564 0.9740297 2.9139004
C1838260 0.1650952 0.6200883 1.374598 1.1552398 0.004114112 1.916146 3.7002249 -0.10443627 2.0279083 -1.9293574 -2.694341 -1.7009149 -0.40353385 -0.014630496 1.0909876 3.3751924 2.0169659 -1.6070355 -4.3369975 -0.24120967 -4.6118946 -1.865963 0.45270878 1.9186349 -1.4578463 0.6740831 3.0241106 1.9036171 -0.32965595 -0.8761467 1.0167165 2.0801082 -1.2225773 0.18276803 1.5095284 -0.81127113 -1.3329235 4.332057 0.8016754 -0.14947785 0.75562364 -2.8750443 0.020086443 1.1538898 2.5546036 0.8278975 2.8812451 -0.92579484 -0.97638893 -0.46091798 2.3945315 3.6152768 -1.3995748 0.85705835 4.1828284 0.17453444 -4.0646806 3.0454457 0.89997125 0.6432666 1.1459608 -3.3388176 3.8689904 -1.0490772
C2931384 -1.8836939 -0.24784859 -1.2133473 1.5537564 -2.3283103 0.9458197 2.3008747 0.003649268 -1.7343642 -0.13659799 2.0546257 0.018882433 1.9769993 -0.71745133 3.5627003 -1.1718938 3.1638334 -0.24024957 1.5327873 2.0927885 -0.6950107 4.0542746 -0.8880601 0.6363935 0.80296415 1.1152217 0.30500692 -0.12765893 -2.8405592 -2.7928796 0.6817086 1.0352545 -0.4452221 -1.4998456 -1.4604911 -0.7505993 -2.6108317 1.6909379 -0.5204079 0.3484405 0.45244762 1.6994632 -1.562156 -0.43666363 0.28891578 -1.3372548 -3.432557 0.52149975 -0.6334509 1.4331174 0.96312296 -2.0949123 2.4884753 0.3053515 -1.4507767 0.8007022 3.125339 -1.3576964 -0.71121204 -0.69164264 -0.9873284 1.7534916 1.3791407 1.9350495
C0025193 -0.9161473 -1.4092791 -1.2381184 0.15822642 -1.7605324 2.66535 -0.46205342 -2.3252556 -0.9093785 -0.906526 0.4418863 1.1727889 -1.6715757 2.3872077 -0.18384811 0.65094364 2.0385568 -0.64572895 2.8165195 -0.9010872 1.0026455 1.8454896 0.81335366 0.23856084 -1.3488331 1.0278721 0.9414849 1.2345661 0.38405493 1.3682512 2.229187 -4.4193664 0.49787587 1.3261422 -1.0531744 -2.2228842 1.4989426 -0.97161096 -0.98941225 -0.28133368 3.1987221 0.38754967 0.7869335 -1.9790763 0.31806406 -2.594792 -2.9171937 -3.010463 -3.806073 0.2604902 0.17454745 -4.2764482 3.4029021 0.29798144 -1.7760166 1.2377746 0.68695706 -0.39766535 0.15633614 0.05584644 -0.8522832 1.6455432 0.3039012 2.1144624
C0740302 -2.115048 -1.4674711 -2.87529 2.0388966 -1.2100043 2.9052496 1.5151454 -2.4924698 -1.6029752 -6.1146946 -0.12063993 0.6309958 -0.4015991 3.8263967 0.39832178 -0.81440496 2.195842 1.3339492 -1.2793666 0.3796188 0.33555266 2.331901 1.1523694 -4.2403946 -1.9218353 0.22304028 -1.5370991 0.93297243 0.26702654 -2.257773 -1.5951121 -2.5003276 -1.6703222 0.071008995 0.5305677 1.3246394 -2.5574074 1.2850474 1.4236429 -0.33415952 -1.3047851 1.194577 -0.6158324 -0.10616854 -0.68908757 -1.2211843 -2.418081 -1.2651459 1.010332 -3.2634304 3.405556 0.28256992 1.1446842 1.6618555 -1.2888254 1.3119519 -0.5238644 0.40095016 -0.45629638 -0.41797265 -0.36063942 0.07421711 -1.1580033 0.8607488
C0162316 -1.973784 -2.6343746 -2.0250459 3.3736613 -1.6861956 -0.63639486 0.1586362 -1.9237168 -2.1888194 -1.3776608 -0.60911274 -0.13004126 0.7923071 -0.51679885 1.3556049 2.1093743 0.99963456 0.20469767 1.6759282 -1.1379155 1.971924 0.31588405 1.8115314 -2.0103195 0.16604199 0.16019972 0.5366305 -2.4873216 -4.5005946 -0.824626 -0.7050619 -1.4102048 -0.9171451 0.2200767 2.3533485 -1.9417499 -1.9609599 -0.53624195 -3.7083077 2.8297567 2.9025722 0.506058 -0.886382 -1.032464 0.91303515 -0.3331439 -1.3250445 -2.179442 0.5552871 -3.7008953 -0.62770057 -1.619173 0.7114929 0.7288841 -2.9594347 0.19355671 0.33482692 -2.3205724 -1.4559535 0.30843505 -0.8850529 0.072218545 -1.6887302 2.0997658
C0043019 -1.5716234 -0.91208225 0.3042278 -0.020033365 -1.0731579 -0.73995185 3.4809864 1.5651428 -0.11379178 0.4081628 0.5900291 1.1824312 -1.999438 -0.84351563 -1.027054 2.3286288 1.8352453 -3.4452922 -1.449262 1.0236576 -1.4854934 -1.297944 -0.96073514 -0.22936992 -1.4124678 -0.6336916 0.9959794 1.4250656 -0.9745405 -1.6156628 5.0869713 0.8684437 0.92828125 -0.6888171 0.6605615 -1.9462708 3.1351295 1.294729 -0.30016857 4.0596333 2.6400833 -2.7517326 1.6387229 0.26788506 2.254492 1.4552287 2.5272076 0.26392063 -0.121410355 2.2282383 -0.5435917 0.81280327 1.2963803 -2.9378989 3.1955876 -0.96082205 0.026742503 3.8644142 -0.31972063 2.7484028 1.8802887 -0.69740206 2.5965607 0.075804494
2488 -0.66695076 -0.3274627 -0.40906078 -0.006785356 -0.16068321 -1.1960744 2.2215989 0.296641 0.15555944 0.5415869 2.8765576 1.8615128 -2.3845541 -2.1848147 -0.3107142 1.584463 2.1172266 -3.252438 -0.5368982 1.5889121 -1.0603685 -1.6259294 -1.5268989 -0.30815932 -1.0826825 -1.6716769 0.13531776 1.4979091 -0.11253823 -0.8180586 4.8157177 0.61349636 1.268849 -1.6294253 -0.28562957 -2.2062023 2.9743743 1.0249789 -1.4884542 4.664904 4.344971 -3.8972194 0.68635017 -0.38027167 1.1934366 0.9491574 2.557582 1.4207404 -0.5813656 1.3610485 -0.62627965 -0.24903102 2.5563507 -2.2701664 1.9643937 -2.5313153 0.46555114 3.1354253 0.4372047 2.638713 2.0048285 0.4540448 1.4469475 1.4772772
5078 -1.7062284 0.88722116 1.160072 1.7626715 -1.7248456 -0.0038441268 1.3658028 0.41227067 -1.4680915 0.081672296 -2.4971647 -0.955304 -1.0113094 2.5824957 -3.589403 3.4258926 1.0219954 -1.9456815 -2.1742382 -0.22256996 1.4338691 -0.06452177 0.42342156 0.70330155 -1.1541593 1.7350097 2.8258522 1.4791195 0.8854805 -0.6911988 4.190854 1.132246 1.0399042 0.22995295 1.364485 -1.2783935 0.9738755 0.26626813 -1.1212279 1.4542606 0.87828803 -2.7024648 1.6872923 1.3078538 2.461279 0.80493605 0.73369354 -2.680807 -1.2692093 1.7825111 0.6589421 3.5361059 -1.5018424 -1.6703713 2.4673603 1.6086916 -1.1354885 -0.36645877 -0.9025342 1.6815994 -1.2756081 -1.7836908 4.2333503 -0.7827983
C2677132 -0.5022327 2.5280595 1.0468034 2.349907 -1.105293 -0.3153151 -1.127283 -1.2872715 -1.6909233 -0.10185426 -1.6254635 -0.9740325 -0.9045597 2.9988265 -4.1482005 3.1472123 0.88888276 -0.90964407 -1.2238913 -0.2584091 3.2078934 0.32236093 0.63321054 0.9904074 -0.68152326 1.64281 2.828003 1.521471 2.15778 0.53059465 3.4006326 1.4205713 1.429941 -0.043943204 0.5858534 -0.6196634 -0.39223048 -0.61801064 -2.6475387 0.86204416 1.5394106 -3.7491107 0.8837297 1.21783 1.4836221 -0.040077515 -0.15535447 -3.1757617 -2.3255394 0.6030067 1.1584716 3.7785304 -1.704136 -0.26143917 1.3150592 1.3263137 -1.5787271 -3.0151055 -0.7161256 1.178532 -2.7009463 -1.2528496 3.2950861 -0.1509981
6135 -0.8646476 -2.7871873 1.0119596 -0.29110003 -3.6431522 -1.8578882 2.9180136 1.7001269 -1.2213255 0.008922367 -4.5168266 0.9950886 -0.71656746 -0.01792465 -1.2219565 3.5963006 0.8474911 -3.4631395 0.7700238 1.2837057 -2.109003 -2.1308842 -1.9320896 -1.2841206 1.4492967 -0.2708643 0.2947334 0.8855117 -2.473293 -1.9029535 3.2317579 1.2702646 2.3752725 0.2295579 0.6653104 -1.6727649 2.2847097 -0.10522422 0.06626055 -0.29609197 -1.2791833 -0.65681535 2.489045 -0.45423093 2.682576 1.4830589 1.4299458 -1.8453571 -1.825966 3.7687695 -0.29683194 0.97747815 -1.6149353 -0.8686545 2.6361651 1.3076901 1.4618778 1.5066831 -0.1828352 0.78804123 1.4972374 -3.3879976 0.09463179 -1.1238045
C2675512 0.33728313 -3.1024396 0.9084216 -0.4414396 -4.1112633 -2.7739313 1.7525585 0.88834023 -1.3276609 -0.0972158 -4.8838005 1.6266867 -0.35546598 -0.7623349 -0.78853154 3.156651 0.58559054 -3.3209794 2.864039 1.9460303 -2.2134721 -2.5450091 -2.8994513 -2.028053 3.1956966 -0.796902 -0.82285374 0.7241452 -2.5603905 -1.2567633 2.546615 1.4881335 3.312154 -0.28984505 -0.22797419 -1.521802 1.6723893 -0.68616754 -0.60806113 -1.7013875 -1.7407608 -0.50876206 2.1764472 -1.2450714 2.021171 0.8512759 0.9278365 -1.8786138 -3.1472528 3.789624 -0.4809796 0.07485869 -1.6566811 0.61636055 1.5056589 1.0842564 2.442851 -0.17475006 0.30479813 -0.2700889 1.5987891 -3.7406209 -2.3462286 -0.6463118
C1857775 -0.16870135 -0.7533946 1.5527925 -1.3138962 -0.04170373 2.0810425 -0.67552793 2.3009546 0.75288856 0.40805808 0.9814051 3.7557423 -0.08148337 -0.9029579 -5.038847 1.4043378 -0.33000135 1.8853832 -1.4529505 -2.4899616 1.1089209 -0.46148357 3.4672852 -1.0653574 -3.28595 -1.0667099 4.90193 -0.10581385 1.4052324 0.8173239 0.7438115 1.0634623 -1.0159804 0.71762455 0.52257967 -0.3492261 -0.16415936 -0.36301732 0.81186384 1.6724602 -1.8454983 -0.7523577 0.5717403 3.1904829 3.1472504 1.5091035 2.976865 -2.9029562 2.2191503 0.65966934 0.2786255 0.7334867 -3.1091022 0.17589502 2.9711044 0.5270461 -3.1049426 3.3377678 -3.724651 1.3247714 0.42097715 -2.2970004 0.06331523 0.55177134
169792 -1.3578808 -1.1635073 1.557718 -0.7076231 -0.8775963 1.5232301 1.6250159 2.7684853 0.22513044 0.47889486 -0.7801699 2.3065238 -0.7131322 0.21347709 -4.1676517 2.3835652 0.14229852 -0.1805292 -2.2142315 -1.4831651 -0.088812515 -0.71880037 2.2389874 -0.7462714 -2.8837628 -0.07155963 4.1487045 0.44384018 0.09240116 -0.5525319 2.2901316 1.0666084 -0.4547192 0.7392138 1.253283 -0.8554856 1.2618055 0.37844536 1.1872275 2.0777972 -1.4589776 -0.79739285 1.7485635 2.615728 3.5601518 1.9404719 2.7720215 -2.5159068 1.835015 1.8214421 0.17399399 1.5690472 -2.416773 -1.4468865 3.6048691 1.0973805 -2.310623 3.9055638 -2.9862926 1.8971878 0.8376089 -2.5447042 1.8831605 -0.4735664
C1843687 -3.0972424 -0.8403591 0.83517843 -0.47725537 0.045445226 -1.0758467 5.405228 2.685078 -0.96721876 -0.10876054 -0.73086894 -0.19986047 0.034409106 2.53167 -1.4923948 3.6343384 1.3248104 -1.9549941 -2.9553404 0.32425076 -1.674013 -0.84847224 -0.8828455 -1.399506 -1.1630358 1.1600741 0.24679859 2.783875 -0.35599914 -3.2447002 0.9731373 -1.4431508 2.3427303 0.33580473 0.93610036 -1.0289633 2.2670677 -0.36206713 1.9669703 2.7555087 -0.43922475 0.14960358 3.5423236 -0.02779561 3.7134056 1.7127827 0.503137 0.37789553 0.90165055 1.8424623 -0.91065675 0.36779132 0.8065624 0.1360469 2.2751498 1.7193394 -0.33098108 2.576409 -0.24153079 1.1613537 1.9314396 -1.6011103 3.018819 -0.68381816
4635 -2.7213132 -0.43148044 0.4303334 -1.2704769 1.5220256 -2.259935 5.6397977 2.0139768 -0.7993732 -0.26663566 1.1456215 -0.31868586 0.8464466 2.8340619 -1.0546478 3.2448022 1.0993356 -0.7170544 -2.7044861 0.63946974 -1.4788623 -0.94570583 -1.521123 -1.974019 -0.7041789 0.8540069 -1.0491132 3.5123754 0.7400861 -3.2838118 -1.223274 -2.8646007 3.6667776 0.09415285 -0.09940529 -0.7093599 1.3905253 -1.8452518 1.940687 3.0619004 -0.47101447 0.60222626 3.8017368 -0.6891343 3.6490216 0.7587769 -0.39690316 1.4843383 0.9466574 0.9701872 -1.4713657 -0.9691722 1.9336692 2.4090316 0.6487619 1.6264471 -0.069402486 1.4230283 0.27990425 0.21231675 2.2383566 -1.0732181 2.067385 0.11917887
55215 -1.1868299 -1.8655791 0.13862386 0.5513029 -1.7490572 1.395309 3.0553436 3.6405516 1.2003889 0.8362437 -2.362318 -1.3699969 -0.7286639 1.1986793 -0.92503583 0.8758836 -1.4351999 -1.8332359 0.22680166 -0.047416475 -0.45337963 1.1063949 -1.6691335 0.79271686 -0.51828873 2.6457663 2.794824 0.943594 -4.173261 -3.1972718 4.3500543 1.1564465 -0.2979398 1.667328 1.4928218 1.1547381 2.732711 1.6986122 1.4749689 0.40769914 -1.9723672 1.2594278 2.383685 1.8233978 1.1491084 0.06031123 0.50986516 1.707586 0.22826493 2.483559 -1.87561 1.8471606 -0.4346139 -3.6388679 3.9686112 1.1177733 -0.30628517 3.238355 -0.49359444 1.4942694 0.30945224 -0.5067379 4.226521 -2.5620878
C1836861 0.120137505 -1.532131 -0.76532114 0.67448545 -0.8933268 1.8829415 1.5257535 3.6149802 2.19855 1.1994872 -1.4031307 -2.0408156 -0.44539136 0.7849494 -0.07731931 -0.94329953 -2.8048055 -0.7007384 2.0210276 -0.0134303365 0.50251186 2.2166352 -2.4520023 1.190216 0.41688317 3.299775 2.528831 0.8216385 -4.9896827 -3.0998538 3.8631876 0.7993158 -0.5194486 1.9375832 0.71214396 2.6555648 2.249179 1.5380367 1.4123229 -0.64415 -2.4636703 2.3164601 1.9163121 1.7800584 -0.329217 -1.5866301 -0.5520357 3.5562708 -0.103160694 1.7905197 -2.751727 1.2214345 0.13781388 -3.3213198 3.1234353 0.4998598 0.051529467 2.2657998 0.1969841 0.6753065 -0.3912815 0.55304486 3.7172682 -2.6178625
C0272052 -2.8764675 -1.8045684 1.5733701 0.118510544 1.4658242 1.5735224 -0.09963799 1.3827931 -1.3464224 2.005417 -3.2616212 0.2250613 -0.7578035 3.6160827 0.3669573 -0.3681069 0.23033604 -1.0434529 -1.7478075 -1.7941166 -2.0755596 -2.6911738 1.0757828 0.6615993 -2.30523 2.8549924 -1.0676574 -1.1704847 -2.33116 -2.672043 0.8961134 0.17822544 -4.245612 0.17268841 4.044478 1.4531978 5.1115623 -0.074727975 1.6226802 0.42421696 -2.7471323 1.6960126 -0.5042522 0.1697046 2.0348892 1.4638029 1.3224428 -0.14405 -0.37959653 0.6458109 0.7147538 -0.21551606 -2.7142606 -4.0505557 -0.55230427 3.3850157 1.9136944 -1.4040934 -3.6446254 0.21865831 -0.5745643 -1.2933836 -1.1671047 0.20547216
6005 -3.1812565 -2.1275234 1.5857781 0.3865649 -0.0065584965 1.2672063 1.9604819 2.2358766 -1.3027973 1.4576907 -3.5548997 -0.0072164265 -1.0623072 3.0108895 -0.6185843 1.0409428 0.47782317 -2.0615556 -2.3608613 -1.1288553 -2.2101529 -2.137302 0.63915604 0.38622412 -2.3151026 2.48503 0.20934081 -0.5000748 -2.3859477 -2.9427807 2.3818424 0.3853236 -2.90106 0.41845593 3.7037857 0.43527645 4.776324 0.538175 1.7444382 1.2669705 -1.9624814 1.1221067 0.62324446 0.48745486 2.7580354 1.8676927 1.740657 -0.7818525 0.1940373 1.7243248 0.3333526 0.79662716 -2.0432909 -4.2745566 1.3987132 2.9611256 1.0533546 0.67818666 -3.0169475 1.1621226 -0.0516156 -1.8871615 0.9224511 -0.59058756
C0751848 -1.5164698 1.0134346 -0.15388675 2.6030393 -3.2485914 1.8928976 -1.2666943 -3.5112095 -0.9237737 -2.9042635 -0.5383989 1.6907439 0.38820273 0.36206952 1.6686479 -1.2021867 -0.46953323 0.05334598 0.3464494 -3.3550172 1.9554542 5.4529943 -0.23901902 0.17257284 -0.113369435 0.9348315 -1.1478236 -2.2007334 0.37132376 -1.1357137 0.6200568 0.19339894 0.67985106 -0.48821163 1.3869925 -0.77012694 -0.17539838 2.3298903 -3.822417 0.44820285 0.6509192 1.9498001 0.35853106 -5.1910825 1.2962786 1.0772103 -1.0225487 -0.23375116 -1.0397905 0.47581154 0.8713385 0.8488957 -2.11735 2.1040423 -2.3313453 -0.6069032 2.7408993 -0.32981068 0.96102154 1.3309939 -1.7628348 -0.9803483 0.9437986 3.189624
C0006277 0.73866516 -1.2509648 -0.75509316 0.1739276 1.9885668 -0.27903226 0.32257438 -1.1438512 -2.7509084 -4.5700417 1.425727 3.3196714 1.9901949 0.12634672 1.2684869 1.5329123 1.4680725 0.05265895 0.05110547 0.18018629 -0.32885447 1.0512347 1.8340657 -3.6824746 -2.6295755 -0.07729653 0.6624404 -0.3994623 0.8008556 -3.8792078 -0.8178344 -1.6188979 -1.268283 0.76205444 -1.2828289 1.1332139 0.2929091 2.6173186 -3.1862395 0.8061974 2.5112283 0.7896382 0.6098269 -1.4645407 -0.1882261 0.89364 1.599844 -1.8777051 -1.1461909 0.7092255 -2.2925699 -0.21010377 -0.662158 1.2141308 -0.43689853 0.554984 2.9367151 -2.797225 2.445751 -0.7468775 1.4140301 1.3198509 0.29627085 4.6046214
C0011880 -0.31982568 -1.4364854 1.2358614 3.8830101 -1.2268155 1.5246406 -2.1308582 -4.763799 -1.0769337 -1.7756745 -2.7079217 1.0350714 2.745776 1.0007162 2.8346534 1.4342109 0.09799825 -1.2073708 2.3841496 -1.7933072 1.3766677 0.3578822 -0.7295543 0.86880314 -0.07603206 0.69796705 2.403137 -0.6150154 -1.916074 -1.2278658 1.5398656 -2.6004057 -1.5973383 -0.79399276 -1.8403683 1.0386028 0.77215886 3.6085074 -2.0266964 1.5614408 0.23725213 0.815008 -1.3505799 -0.42985207 -1.3690017 0.53101116 -0.844983 0.12704386 -0.013244006 -1.042204 -1.0219703 0.6282098 0.91344494 1.5744935 0.16522035 0.05884125 -0.46649763 -3.431506 1.5399901 -2.6612148 1.5472332 2.1289837 1.1467172 -1.3384978
C0948480 0.8869295 -1.6808524 0.98940665 2.3607209 -1.076913 -0.8154994 1.1423627 -4.2414517 -0.27752084 -1.5420517 -0.54289 0.04738408 -0.9761146 -0.092892565 2.123418 -0.5689963 -0.46978176 -1.421999 2.2017536 -0.6995202 3.6288893 4.69502 1.8625704 -1.1104057 -2.8924932 2.7119405 -0.60216033 2.063341 -0.2816112 -1.7617166 0.39448658 -2.014316 -1.4895965 -1.4861146 -1.7020727 -0.5587402 0.25223142 -1.198298 -0.12652288 1.208871 2.1204937 1.488055 -1.833355 -1.1017786 -0.006624473 1.7424842 -1.6067463 0.055385698 2.1282735 0.4168846 -0.32709938 -2.63122 2.9548562 1.1737556 -0.4654369 0.069147244 2.5767555 -3.1058245 -2.1080947 0.78492504 0.36315668 0.43244612 -0.06434347 2.8073027
C0152264 0.7174131 -0.69638085 -2.0917785 0.836313 -0.59882396 3.0302956 -0.8919504 -1.0603921 -0.8682071 -2.0702093 -1.9418395 -0.5687986 -0.11873499 -0.24273318 0.21383455 1.1770242 0.21147576 -1.1051478 1.6375045 -0.5733059 -2.2892973 0.6488195 -0.88073367 -0.59612554 -1.0451126 -4.6143217 -1.5304637 2.8379824 -0.5929758 -1.3887036 -1.7029159 -0.97000086 0.08883247 0.24839962 1.4050294 -2.4917197 -2.2346785 1.4205649 -1.4890839 0.27930608 4.0078163 0.41350347 0.33761567 2.208898 -0.48658985 2.393833 -0.4168299 -1.780202 1.0627433 0.5693437 0.7649183 -0.95762986 -1.5789083 0.2194018 -1.9475671 0.96873343 -0.20129684 0.8114943 -1.7133142 -0.041641235 1.9907953 0.716549 -1.6962061 0.6565253
387082 -0.1593986 -0.008592232 0.80587405 0.56732017 -0.25050482 1.1215723 2.4759598 0.24543928 0.96672964 -1.0235772 -1.6471915 -1.035345 -0.44587877 0.08008824 0.54040116 2.05828 1.103118 -1.2540891 -2.824037 -0.08131612 -2.618979 -1.253535 0.23058471 1.37815 -1.1210952 0.49205986 1.960198 1.1438879 -0.43125877 -0.75870544 0.99814785 1.217046 -0.7069122 0.23663849 1.1399434 -0.5552244 -0.37942523 2.6002672 0.63657355 0.14026105 0.3905283 -1.5825335 0.2763906 0.6260686 1.6711495 0.70494443 1.8721745 -0.65951604 -0.26146758 -0.008483331 1.2840903 2.0835812 -0.8625121 -0.10228656 2.7517776 0.11533308 -2.3383288 2.260041 0.36191636 0.73751676 0.7810682 -2.0790474 2.6453512 -0.7930292
C2674218 -0.45254263 1.0934166 -2.3750231 1.8665982 -1.7160205 1.6520547 0.27034867 -3.2230842 -2.117688 -0.252162 1.2812921 0.53556937 1.6734828 -0.43235606 0.9296778 0.1213054 0.82270813 1.3954391 0.095474906 -0.21251498 2.4154227 3.0287058 -0.5947681 -2.8929489 -0.6342439 -0.31497303 0.8248668 1.0861768 -0.114085905 0.05682801 0.6870288 -2.636278 0.18876043 1.1695999 -2.4407156 -2.1146522 0.08934266 -0.0059390445 -2.8791192 2.930634 -0.47664738 1.5312958 -0.20705928 1.2476515 -2.9710028 0.4541957 0.53408223 0.62130415 0.9521341 0.7555037 -1.7266783 0.0773199 3.2459083 0.51704854 -0.8134278 0.9306191 -1.9000062 0.14489876 0.26477993 1.2419019 1.814005 0.8023227 -0.37669262 1.4989433
23118 -0.100616 0.0794841 0.88789487 0.5766626 -0.3184115 1.165965 2.6186526 0.25814682 1.0889994 -1.0849386 -1.7218884 -1.0213788 -0.44106373 0.03226841 0.49697277 2.1500342 1.1837955 -1.2476639 -2.875201 -0.1433897 -2.7377124 -1.3212848 0.2605575 1.3535264 -1.1508026 0.47449288 2.0636897 1.1160301 -0.452047 -0.7317965 1.0414531 1.3923149 -0.7056816 0.28368598 1.1142051 -0.57671976 -0.47477803 2.6476817 0.6892036 0.103489965 0.35671312 -1.6622175 0.3088861 0.76285535 1.7219995 0.7282472 2.010789 -0.70218265 -0.3117702 0.009431607 1.3757867 2.2491503 -0.98252976 -0.07365668 2.8963575 0.10442306 -2.4409459 2.3854423 0.35840935 0.72728884 0.8336341 -2.1739647 2.77118 -0.8471975
C0265110 -1.7952429 -0.47406462 -3.4724374 -0.5269141 -0.056070287 -0.25769788 1.2491752 -0.44972548 -1.3818358 -1.495234 -0.41273546 -0.7673412 1.9079915 -0.13052976 0.14704116 -2.3626137 -0.1502205 0.36574614 -0.5832288 -2.6149323 0.6316558 2.6387627 1.5913192 -0.6874064 -1.0133346 2.0830257 3.08904 2.8265746 -0.053569887 0.5078608 0.5018506 -0.49217322 1.7219301 -2.3737156 0.4282131 0.09140192 -0.66741097 1.2625698 -2.9205585 1.4642302 0.003899079 2.4458327 -5.44506 -1.2463963 -2.3683915 1.6785551 -3.3013995 0.32069215 -2.9067492 -0.17792821 -0.72430027 -1.1004858 1.9349618 0.11958038 -1.0958372 0.09946937 -0.53827304 -2.7228322 0.79775155 1.0215802 1.6913271 -0.40052864 1.5653191 0.9010905
C0151814 -3.187398 -2.5674047 0.36479124 3.6630194 0.025495289 1.0239794 0.0021015217 -1.8889549 0.51765686 -1.4882264 0.40581197 0.80694586 0.07500429 -0.47374967 0.76008075 2.7391634 -2.3819208 -0.061226815 0.47534597 -1.6270828 2.2445917 1.6698558 0.21431704 0.08609917 -1.8196253 -0.08345193 -1.372471 -0.67921203 -0.14465939 -0.8125069 0.15615721 -1.2241753 0.82960856 -1.1598256 -0.8725487 0.9640413 -3.6718822 2.9336848 -1.725097 0.9993825 0.10304852 1.7899495 -2.3628356 -1.1383525 -1.467496 -1.8840237 -1.6393871 -2.0800948 -0.990615 -0.9537802 -1.6774298 -0.7586768 1.268924 -0.13201946 -3.7674937 0.63648814 1.3049271 -2.590346 -1.8661041 0.9816383 3.0749912 1.2357247 1.9214339 1.885209
11235 -1.9776145 -0.42478153 0.50900155 0.23161404 -2.4777782 0.29348406 2.8553212 1.2408131 0.032893736 -0.07584251 -1.2765465 -1.2036489 -0.6109848 -0.08534157 -0.13219137 0.21721631 0.23948269 -1.4391884 -1.0309936 -0.034453727 -0.51710016 0.6252899 0.18420133 -0.07253701 -0.46881732 0.023990056 0.10171628 -0.461643 -0.8056143 -0.15811394 0.641195 1.4944824 -0.37619266 0.39978087 1.8171536 -0.3501547 0.7387753 0.25106445 1.4800625 0.00090487616 -0.07744677 0.37466273 1.187957 1.012444 0.38232413 2.4443269 1.0133479 -0.36043942 1.1372406 1.3152955 -0.3115549 1.0445169 0.3615528 -2.9234958 1.2480985 0.76585704 0.3312086 2.6175222 -1.2013532 0.686729 0.8579965 0.030076021 0.9586593 -2.1706305
889 -1.9158858 -0.4531603 0.47020358 0.31928176 -2.431091 0.3538474 2.8140447 1.2324663 0.051204138 -0.08850484 -1.2215022 -1.181367 -0.5291883 -0.09392614 -0.12029135 0.22172624 0.22747956 -1.4654754 -0.89847755 -0.006650063 -0.51503056 0.71770394 0.12850021 -0.15647854 -0.39382595 0.0135557 0.0453223 -0.4121023 -0.76308805 -0.14573519 0.60688585 1.4395062 -0.3876479 0.30336693 1.7523818 -0.35389438 0.7484798 0.3153284 1.3951489 -0.006860052 -0.04073081 0.3879701 1.1178756 0.9522061 0.33825204 2.347481 0.9177201 -0.33144498 1.0851873 1.29314 -0.35209408 0.96209717 0.46809524 -2.8326886 1.1964587 0.76966757 0.35500434 2.5546687 -1.1322731 0.64319545 0.8228839 0.04200005 0.8562812 -2.062226
83605 -2.095995 -0.49063134 0.533512 0.14034839 -2.6074686 0.19801186 3.084333 1.2936863 0.08277848 -0.06966743 -1.3820546 -1.2529914 -0.7447139 -0.063397594 -0.14906806 0.30231842 0.29565543 -1.5665188 -1.1899543 0.0013584176 -0.51577383 0.501174 0.09937518 -0.04925628 -0.5619011 0.0035304634 0.12418432 -0.45145738 -0.89856684 -0.20952287 0.745392 1.5647902 -0.37818435 0.48257515 1.9106449 -0.48214146 0.8896052 0.18948036 1.6103005 0.02083712 -0.07770589 0.32755595 1.3221798 1.0770032 0.43830535 2.6247327 1.1629258 -0.3999482 1.2058702 1.4465044 -0.2613068 1.1844532 0.28630486 -3.1279752 1.36613 0.7360236 0.36033702 2.857528 -1.2244025 0.73636657 0.97584724 0.014078596 1.119266 -2.3146007
C0020479 -1.6902567 -0.26740357 -1.607033 1.0990653 -0.738663 2.6077635 1.0495481 0.23249136 -0.7272736 -0.148191 0.83789295 2.0256834 1.1841962 -1.0392761 0.99653 -0.15911984 0.17711033 1.2020562 -1.9973818 0.6454941 4.545148 1.1521215 -1.5648123 -0.8921764 0.30691788 0.04615708 1.5244144 2.3584661 -0.085385 -1.7520036 0.42115366 -1.8692267 -2.1577177 0.21339972 1.3176947 0.93575543 0.7074333 1.6819866 -0.04133267 1.9544656 1.7072935 -1.2231822 -0.95601207 1.6119714 -0.15403347 -0.1928409 -0.91368145 0.7394653 -2.440213 -2.4781687 0.3619692 -1.3168654 1.6368136 1.2160352 -1.6087373 1.2892218 0.7209724 -2.1879349 0.7773825 -1.8436975 1.0118716 -0.85372883 1.4792333 -0.7723461
C1135196 -2.1430538 -0.84295654 -0.41594326 1.1238306 0.16782434 0.35010785 -0.5239052 -3.21866 -0.5339034 0.091421865 0.49842167 0.67185867 -1.1169058 1.0641477 1.0871637 -0.8081104 0.22846037 -0.44767076 0.9697976 -0.071463 0.97046214 3.2291002 -0.19264357 -0.14790037 -1.9360977 1.246711 0.8827377 0.8798327 -1.1069984 1.7946993 1.1621386 -1.7268355 2.2640328 -1.2953465 -0.82057375 -1.5704353 -0.05388514 2.8471804 -0.93718237 1.1406821 1.4631083 2.3799775 -1.2467862 -2.4011786 -0.88808256 1.9034843 -0.27713332 -2.526064 2.2833362 -2.7070782 -0.7088885 -0.17946243 1.7525929 1.7953614 -0.95413756 3.8103778 0.39687702 -3.771285 -1.2554152 0.35037193 1.0014672 2.3426447 -0.37473366 3.4550333
C1266144 -3.1239417 -0.64507383 -0.7947648 -1.6034548 -0.5682537 1.1701993 -1.9918242 -0.18485776 -1.645288 -0.5374798 2.6633801 1.5809803 0.39361107 1.5268636 -0.6994639 1.7345482 -1.4937941 0.59400856 1.4785738 0.9055272 0.8144792 2.0798697 -1.5150828 -3.21335 -0.31184512 2.6880417 -0.28732285 1.1756202 -2.3085582 0.7961305 1.8183417 -0.20077875 0.16818713 0.40154767 0.1987572 1.8358339 -1.6712377 0.14496481 0.06807628 1.554195 1.0999686 1.8730646 -0.7695006 0.42828077 0.3426962 0.93985474 -0.51415217 1.4212334 -0.80105406 -0.4325395 -0.5392698 1.230317 -0.57005775 -1.3273454 0.06798571 0.9740827 1.5532815 0.31806597 0.16753887 0.3876824 1.5816432 2.2891204 -1.2875818 1.2205143
C0221018 0.42794847 0.9168345 -1.8392682 -0.9526518 -0.8279864 3.7285287 1.4945939 -2.0885365 0.17026898 -0.93196154 0.4446165 1.8596737 0.2542627 -1.9029956 1.1487181 -1.453067 -1.4000956 -0.14507863 -0.52347696 -0.2992298 0.020369561 0.89064467 2.3848653 -1.7485803 -1.2168757 0.07439648 -1.6705846 -1.6017866 0.19361466 0.038037866 1.2663441 -0.12618388 -0.6617878 -0.7270838 -0.9163601 1.7551835 -1.2709323 1.2092371 -1.1563647 2.0837288 1.28168 -0.6804653 0.0138567705 1.2206426 -0.08066745 1.782204 -1.5101608 0.09988949 -0.08008859 0.55565935 1.561821 -0.5706695 2.386036 -0.696872 -1.9874709 1.543039 0.49191284 1.044488 -0.867575 -0.79897726 3.0347416 -1.4886619 -0.2604677 4.8324184
C1833104 -0.2991399 -1.4520606 -0.2863688 0.937183 -0.3719933 0.9728709 -0.38238993 0.9113176 1.425534 -0.0026679116 -3.0783138 0.5969372 -0.9740953 1.1568635 3.1161473 1.0268661 0.6437166 -1.1328535 0.4704101 -2.0940034 -1.3432231 2.1136513 1.5703231 0.32895517 0.44774646 -0.75977695 1.0157424 -0.64629155 0.14251602 -0.35965168 -0.42521647 -1.8202854 -2.4824243 0.92667735 -1.1173693 2.8230705 0.9133557 1.5138217 -2.3897023 -1.3040255 0.2003271 -1.913659 -1.3118297 -0.92492646 -0.024355585 -0.58424455 -0.30419388 -0.48250872 0.004562876 -2.6253624 0.52220416 1.6296248 0.63854325 0.8211814 -0.73887295 2.3751428 -1.26155 -1.9749794 -1.2483766 -1.074508 0.43361872 -2.471842 0.30460772 1.2392845
C0034902 1.3653886 -0.22831178 -3.0259304 0.24878566 -2.180697 1.9364086 0.2666903 -1.7990367 0.2974329 -1.2353234 -0.1101037 0.87385756 -1.056571 0.65188193 -0.09782786 0.405112 0.81779647 -1.8336467 -0.36842942 0.42897305 -1.4370538 0.8836964 -0.42991364 -0.5123759 -0.2967585 -3.2091885 0.033410557 -1.0696176 0.2710474 -2.6751773 0.002913599 -3.0573971 0.8939034 0.21619204 -0.97527474 -1.5958933 -3.1800642 0.6686106 -3.7239368 1.152032 -1.0588413 -0.08008562 -3.081447 0.034804385 0.8910652 1.0608648 -0.29937991 0.5941537 -1.5688906 0.44572473 1.4666538 0.79508317 2.2296185 1.9019686 -0.8457554 1.9075401 0.653126 -0.5687123 -1.467185 -0.05062765 -1.2531933 0.7439026 1.0701337 1.7324
C0600228 -1.2392881 -0.3437744 0.8275207 2.2381783 -0.5008254 2.2018514 1.2668995 -1.5477095 -0.5281845 -0.29351234 -1.977385 0.41151497 0.0586164 -0.39023682 1.8103302 -1.6077104 2.7883215 -2.5004191 1.00218 -0.9517564 -0.28069842 1.2561222 -1.9374335 -0.2999316 -1.8604928 1.4091307 -0.7567731 -0.8274805 0.49878982 -2.3924956 -0.0062001054 -3.2983754 1.2863387 -0.59418267 -1.1679027 1.4984626 -1.5526316 -0.008416935 -2.945833 -1.394452 0.9577897 0.18314613 -0.46532258 0.21785492 0.20501092 0.38342306 -2.733241 -0.7171466 -0.45829472 -0.66283345 0.07295313 0.33457342 2.6716282 1.4582896 -1.0366489 -1.2685378 -2.4637675 -3.0674505 -0.9046355 0.92822766 1.2780646 1.2809778 -0.01744877 1.5024493
C0002876 -0.0149492975 1.1028763 -1.8592495 0.9483451 1.1441866 2.9060793 2.5576324 -0.32051188 2.1452997 -2.2854278 0.07475899 -0.7614778 1.1206701 -0.84576446 0.7957778 -1.3716439 0.19412835 -0.5779242 -0.6916312 0.43199447 2.2866845 0.83882743 3.9874716 1.2103484 -0.54864234 0.49489978 0.77317184 1.6665357 -1.5880181 -1.2262956 -1.6884016 -0.33465683 -0.31107986 -0.40664685 2.2653656 -0.30680704 0.6482608 1.2873422 -2.0925186 1.2930938 2.0621855 1.925315 0.79541916 1.9429173 -1.9204504 0.45820642 -0.093412474 0.8645601 0.5476982 1.0308348 -0.67070174 0.78634316 0.98828214 -0.6002291 -0.11261454 -0.22780691 0.07459656 -0.2318936 -0.8534423 -1.8797089 0.45760906 -1.0228994 -1.9089502 2.1039166
C1135191 -2.3296108 -0.635755 -0.47240496 2.1555235 -0.4898007 1.2241371 -0.44876465 -0.18317956 -0.3518708 0.986037 0.41832295 1.1207383 0.29988423 1.3484408 2.3865516 0.3782041 -1.1881623 1.2094855 1.6531893 0.43026513 0.47041935 3.3896186 -0.258832 -1.5629511 -4.6426773 2.197584 1.4144036 -0.6597931 0.22904961 -3.3549938 -3.263227 0.9573314 -0.6790574 -1.4562926 0.85495514 -0.88077754 -0.014479189 1.5338571 0.2669623 0.9899521 1.2349894 0.7254623 -1.1536053 -1.9218135 -0.09810082 1.0256006 -0.72166896 0.51079214 -0.7698322 -2.2077866 -1.0658399 -1.0136038 1.8598708 2.589746 -2.2294557 0.27178642 -1.9367409 0.69288665 2.2466917 1.2026775 -1.0639658 0.46596527 0.95232993 0.32216284
C0340293 -1.1167488 -0.335894 -0.4597988 1.1798674 0.15897223 1.6213375 0.7973171 -1.155509 -2.1483688 -2.6634474 1.884979 0.4304211 0.35010487 0.2513487 1.0464088 -1.2574862 -0.6578118 -1.8376048 1.4103789 -0.38489288 0.8013965 2.049648 -0.63299865 0.6196383 -0.88339716 0.6946282 -0.25295985 -0.8347359 -0.541164 -0.55527127 -1.4090242 0.11707807 -0.8493547 -1.1331459 -0.25141552 -0.43793854 0.13566056 1.4645926 -1.5525906 2.9444222 2.6745205 2.174971 0.500027 -0.87969035 -0.7815935 1.393331 -0.8801298 -2.4661698 1.8795054 -1.3212757 0.13428181 -0.6778295 4.4344273 3.444341 -0.32416633 0.83831805 0.5805649 -2.899372 0.87123597 0.047260933 0.7126726 0.93905073 1.034316 1.1824777
C0001818 -1.553831 1.0198135 -1.557585 3.1365297 1.4206042 0.57846606 -1.1285172 -1.1296587 -1.2489474 -0.49062917 0.34389272 1.8611108 -1.1887733 1.2954265 -0.6388499 0.7245909 0.6544967 0.4161472 1.0807806 -0.016863748 0.9683351 1.4307747 0.28731838 -0.08222288 -0.79950446 3.1969779 0.19644728 -2.806062 -2.3162262 1.4386613 1.3255775 0.49539873 1.4872628 0.7670688 -0.10270753 0.1557678 2.7207675 -0.83611023 -0.6624438 0.19076253 -0.04119546 -0.8621661 -1.5257773 -0.5259618 1.4774522 0.17133904 -1.4268492 -1.0419056 -0.26801166 0.32752717 -1.9700409 -2.794077 2.028255 0.6771318 -0.3237907 -0.036658064 -1.3399421 -0.91491306 -0.088953204 1.2851875 0.27869305 0.33165655 -0.4727939 1.8286148
C1863512 -3.7457595 2.1788185 1.4720384 -0.9016379 -2.201035 0.8218258 -0.46103582 1.5999528 0.2533939 0.916409 -0.065515675 -0.8551006 -1.5708838 -0.19884345 -1.2426229 -1.9370517 -1.5308267 -0.4372834 0.30959296 0.7855913 3.7657733 0.72943133 0.31152916 -1.3883997 -1.1055031 0.76639146 1.8035957 1.2241303 -1.8647999 -0.8057533 1.4208049 -1.0180684 1.2602284 -1.7874273 0.036334798 0.7023338 -2.458667 -0.14888054 0.1526996 -1.197233 -2.9338398 -1.5520225 0.23447631 2.4850075 1.3967988 0.053299744 0.24613863 0.3866115 -0.7108205 1.0286287 -0.6399624 -0.2633254 -0.09149284 -0.606491 -0.15364052 1.7113588 -0.18472782 -0.7111941 -2.0835357 -1.3088278 -1.5369744 -0.5029288 -0.24536332 -0.44606954
C0013415 -0.546718 0.98413515 -1.6997021 1.8888776 -0.20486598 3.801936 -1.469243 -2.1343606 -0.36845517 0.092220165 0.1837241 1.3887857 -2.8432646 -0.5086321 0.27135745 1.0296304 -0.57877344 1.4911863 0.45094025 0.17748867 -0.42080805 2.1056674 -0.061048813 -0.3112426 -0.95189947 1.4184794 2.1755273 -1.3585613 -0.59160036 -2.2855873 1.6265222 1.1418054 0.25517368 0.2938877 -2.2108917 0.63711023 0.07815078 1.5073271 0.8603724 0.35897735 0.21573818 -0.98464644 -1.600836 -0.024291411 -0.011147185 0.4612437 0.0046399347 -0.95055753 -2.4091935 1.4149619 1.6426495 -2.214506 1.4455076 0.68721664 -0.7987761 0.0122142425 1.2150937 -0.4325672 0.009644784 -0.4618896 0.5602132 0.47860003 0.6843329 2.4898047
C0014761 0.22299045 0.924264 -0.85500103 1.0522319 -2.382076 2.4672515 0.62131536 0.4529358 -0.27979082 -2.0069048 2.7981124 0.14338759 1.1255776 1.2749478 -0.7794512 0.7104596 -1.9148728 -0.5829299 -2.8171024 -0.4313476 -1.0245732 -0.9031619 2.147111 -1.57442 -0.8182604 0.81310123 -0.5723686 -2.7420545 -0.812597 -1.290874 -0.90316075 -0.39942014 -0.06323481 -2.0559921 -1.8515295 0.22288507 -0.85533935 -0.57317203 -1.0541579 1.2185744 2.5330436 -2.0485811 -2.2857392 0.9403163 0.4209686 0.0035446142 -0.3871507 -1.2053044 -2.719388 1.1594883 -0.68145937 1.4554025 -1.5778683 -0.64561415 -0.8208061 0.79457384 -0.92296374 -1.7251042 -2.1365557 -1.5032706 0.56627935 -0.1925742 0.21332096 0.19214909
C0022610 -0.9590079 0.08859824 0.34124446 1.5191177 0.48049328 0.16374522 -2.9325476 -0.8343615 -0.93743354 0.46351367 -1.8259752 -0.32002458 1.1043973 1.6318846 0.6681643 -0.84411395 1.0599903 0.9272061 -0.93961203 -2.1431649 0.6151566 -0.67645663 -1.0705278 0.6549601 -0.89775693 0.7852767 0.42658338 0.0737336 -0.19756919 -0.6917589 2.0048246 1.1488206 -2.9273105 -0.9771331 -0.27001652 -0.11975403 -0.9879361 -0.24010006 -1.3864312 0.5733886 3.0199022 -1.999126 -0.5067809 -0.8989346 -1.0829525 0.3774483 0.48608905 -1.9208423 0.38445333 0.5063854 -0.75078404 0.9554828 2.8614075 1.2601748 0.4836998 0.041753653 1.28979 0.9353092 -1.9360504 1.7734734 0.12401728 -0.46820584 -1.5840936 1.7414958
C0349231 -0.467844 1.2407887 0.9225367 -0.70182586 1.1601772 -1.7002064 -1.5511994 -1.1128502 -1.3796467 1.5478828 0.031306803 0.22353297 -1.3499814 1.5167143 -0.9028532 2.3187282 -0.38224784 -0.08756574 1.122524 -2.539609 -1.5645376 1.06363 -2.4161038 0.12422159 1.0402019 0.08130142 0.13133007 -0.66131717 -1.3706697 -2.424791 1.4745063 -0.023991462 0.2604819 0.6680722 -0.78867364 0.34377262 1.3666556 1.0882083 -0.8006794 0.6374696 1.5454917 0.8613841 -2.444378 -0.26304242 0.84082144 0.031159054 0.13731445 -1.6403745 0.06346143 0.4579523 -0.67708504 -1.6493019 2.9798975 0.84678555 0.51035243 1.0606675 1.8238828 1.2542304 0.033569448 0.6101933 0.7895447 -0.117231995 -2.3080509 1.455655
C0031190 -1.8401353 1.4696426 -2.3598773 -0.12541473 1.6907593 2.2350702 2.030819 -0.9234151 1.9129329 0.060771592 -0.7769083 4.2548466 0.48387748 0.45292684 0.67089784 0.56447834 -0.26085475 -0.68246555 -1.3967286 -0.60350996 -1.8854344 1.668719 1.2155693 0.6648066 0.9521326 0.28324497 -0.02175836 -0.12682003 -0.9781406 0.0835837 0.26315898 -0.9458027 0.8741633 -2.024886 2.4964087 1.2354066 -0.5119231 2.1901817 0.3473278 1.0382262 1.2112775 -0.9259059 -1.6791879 0.0412114 -0.45916224 0.15829325 0.84746057 2.7982807 1.3795309 -1.9204357 -0.288255 -1.6893997 3.267827 0.804117 0.70042217 -0.09178215 0.8146426 0.10775699 -0.16406505 -0.32275146 1.3889241 0.9840697 -0.7393396 -0.9821681
C0034091 -2.6724284 0.96689534 -1.7701347 1.6997833 0.8711886 1.855646 -0.07451292 -2.25347 -0.07602534 -0.8513827 -0.2967405 0.50350595 -0.77346903 -1.6717852 1.4355304 1.4314369 -1.0824796 -1.4502814 1.5229572 1.1405426 -1.2773995 1.4694052 -0.43004242 -1.7823278 -0.17325677 1.6270401 1.8131646 2.306285 -0.44156528 -0.020409387 0.04888758 0.7810309 0.45024994 2.8456526 -0.8973318 -1.4083467 1.3322053 -1.7075479 -0.4601516 -1.4898869 0.31766823 1.0597268 -0.6874449 -1.5720435 1.0252528 -0.25745127 0.48283458 -1.1935258 -0.2525964 0.22406907 -0.2314301 0.4347647 1.8502516 1.2484677 -0.18738352 -0.011236765 0.10787611 -2.202466 0.2760478 -0.30517423 -0.14684173 -2.6561072 -0.8686913 2.5973268
C0338495 -2.2100475 1.5151073 -1.2331979 0.8398356 -1.2747374 0.24355248 1.0189159 -2.0511293 0.45387095 0.5643591 -0.7174347 1.331438 0.63862956 0.52238196 2.137311 2.7662857 0.4580719 0.46541858 -0.3573059 -1.5167873 1.0511444 2.7360358 -1.1836154 -0.58873373 -0.7498414 -0.031753987 -1.8361795 -1.3976542 1.175499 0.4725345 1.8350174 0.100319006 -0.7559429 0.13487884 -0.6763526 -0.092467934 -0.23541 0.29027554 0.1885473 1.7795149 0.7797479 -0.21040945 -1.9777337 -2.2149417 0.28412092 0.7753883 -2.3176906 -0.6663229 1.9869827 -1.9310957 -2.2635386 -3.4488235 2.2046506 -0.56978047 -1.2447956 0.58736587 1.2757088 -0.054021742 0.92146075 1.1486018 -0.5827155 -0.9950069 -1.248663 1.9574745
C0206146 -0.78124624 -0.3017685 0.24462546 -0.3188499 0.3858395 0.24471085 1.2312291 -1.8401141 -1.9034523 -1.2599156 0.48185006 0.73962677 -0.9666639 0.5216824 1.9851661 -0.25130203 1.1503353 -1.0977092 0.19565247 -1.3475485 0.87448645 2.744572 -1.1527616 0.13457863 0.1275767 -0.56169087 -0.065327756 -1.5037205 -0.88830554 -1.0742357 1.1505334 -1.2281971 -0.08875592 -1.1186415 1.3735757 0.37805393 -0.10906225 2.7474372 0.016211605 -0.61125845 2.5636911 -1.0278423 -2.0579116 0.1188079 -0.7426648 -0.58632106 -1.4159995 -1.1014234 -0.70971847 -2.0835 -0.8465717 -0.8057615 3.537223 2.0143907 -3.1387548 1.1114192 -0.84279835 -0.10163479 -1.6084979 1.4703687 -1.9647374 1.1212015 1.0067005 1.8253556
C0025637 0.057380237 1.7860684 -0.98219895 1.4055957 -1.1783828 1.910739 -0.79732656 -1.8205554 0.2310184 -1.8166353 -0.5610015 -0.8487012 0.48627102 -0.039940167 1.6514261 0.3050567 0.3681232 -1.1824197 0.33988354 0.7384207 -0.32318333 -0.3119707 -1.6218071 1.0321704 0.09210246 -2.2566059 0.5157372 0.838765 1.3882537 0.2933027 -0.42070577 1.7570878 -0.5138845 -0.25779513 0.57775396 -2.5261862 1.386592 -0.22377019 0.022363644 -0.60852736 0.4516409 -1.695388 -0.9181148 1.3159276 0.60531545 0.094358884 -2.28705 -0.45960334 0.17261876 -0.11041418 -2.2091627 2.9709315 2.0066974 -1.5657054 -0.04026224 1.8075379 -0.33727312 -0.43375313 -1.667821 0.6680526 -1.5165601 -1.2083884 -0.5755109 0.45510536
C1838100 -1.0941383 0.7443733 0.29655936 1.2598189 -1.6547992 -0.6561892 -1.0075346 -1.3108119 0.42835757 -1.3722594 0.13958386 -0.36453843 0.18370911 1.5350168 1.6076437 -0.70244724 1.6438885 -2.2842166 1.699086 -1.7939203 -1.9016279 1.1999394 0.54731214 -1.8852866 -1.7804348 0.055331334 0.9763242 -0.2373158 0.778942 -0.6532611 2.047301 -0.061931886 -1.6266228 -0.42946565 -1.4022166 -0.3469449 -0.9163181 1.9987471 -2.8918834 -2.238347 0.8966818 -1.2754356 -1.6092356 -0.33645853 -0.26720452 -0.88133866 0.23576994 1.132975 1.3368636 -1.3279792 -0.971317 0.56892926 2.2144728 -0.35228136 -1.9793973 0.09311977 -0.19489792 -1.3826665 0.7106343 0.2324735 -0.7018253 -0.55998087 1.2320348 -0.329132
C0342277 -0.92756903 0.25590324 -0.15530118 2.2431047 -0.4362225 0.43152928 -0.69346184 -0.59197927 -0.14068072 -1.3298782 -1.1553696 0.34127346 0.46992373 0.8384975 2.8038046 1.2970607 -0.9172444 -0.35761538 2.0586464 -1.32765 -1.3425293 1.1731292 0.8908576 -1.7551458 0.80983895 0.46754652 1.8533778 -1.616092 -0.4352461 -1.8135902 0.4090267 -1.4815694 -1.6908838 0.5134089 -2.4637303 1.5873475 -0.13218911 1.7007381 -1.8283777 -1.4918638 0.42614785 -1.1738853 -0.6613043 0.12956233 -1.4742347 -0.5068641 -0.26095968 -0.40109307 0.5518529 -1.1348509 2.0539544 1.0949082 1.1272671 -0.54864705 -0.2355811 0.84033644 -0.067469396 -2.072121 -1.1886538 0.1635844 0.6646176 -0.7383406 1.3961759 0.33293116
C0038218 -0.43663827 -0.64834714 -0.9413427 0.7166903 -0.29735023 3.0679522 1.0304381 -1.6347461 -1.0990407 -1.950274 1.1998745 -0.2078223 -0.94151247 1.9645618 0.062085826 -1.2975184 -0.15310383 0.04729505 -2.2352517 0.1310647 -1.9249573 2.9968126 -0.65998465 -2.0956964 -0.32677862 -0.5719907 0.94054973 1.8312527 0.76929295 -1.198142 -1.4014558 0.422058 -0.48506385 0.49689186 -0.58797336 0.38420296 0.13885616 1.583385 -0.25284913 -0.94260025 0.3066281 0.9744418 -0.04661796 0.5358375 -0.508264 -0.64743716 1.881414 1.6046737 -0.6121033 0.6975981 0.677219 -0.54088557 0.4946167 1.299505 -0.053895928 -0.7653642 0.926173 -1.1638757 -0.45588696 1.5660897 1.0360943 1.7351447 0.45115158 0.33375135
C0020480 0.86233157 0.5612432 0.19598085 0.58940727 -0.9745955 1.2171359 -0.37306687 0.19960493 0.22310409 -0.11674145 3.30079 0.12931663 -0.21112527 0.96894336 -0.86644113 -0.6663442 0.15868671 -1.8693268 -1.6978606 -0.2798194 2.6954415 2.8869977 0.79061323 -1.3799899 -0.054783445 -0.056173008 -0.34277374 1.0291284 -0.3071295 -1.2299236 0.12725015 -0.32088953 -1.0906754 1.4987211 -0.55072606 0.0398363 0.69744766 1.0291276 -0.86193067 0.01941952 2.4090707 -0.8363811 -1.3016933 0.65117395 1.3521161 0.2375996 -0.036250178 -0.0040345183 -1.1214671 1.2255307 0.821852 -0.962117 0.61627126 0.4891416 -2.2607546 0.79175866 1.8075353 -1.8858294 -2.0205917 -2.0412478 -0.3610748 -1.1990621 1.1336749 -0.4971255
C0011859 -0.9644689 -0.44743687 -0.63686204 1.6783234 -0.10163308 0.792867 -1.1962965 0.26660624 1.1056861 -0.79269606 -1.0831612 0.44420046 0.048634984 -0.60749924 1.9035482 0.79815334 -0.3670329 -0.30640066 1.3495026 -0.092381954 -1.3466431 0.977836 0.13814811 0.11803446 0.1667158 0.053609222 2.4971101 0.1890835 0.21520579 -1.2516819 -0.21040063 -0.0787217 -0.8962655 0.9682588 0.8818862 0.4884725 -1.3128825 2.0932236 -0.98945355 -0.6468843 2.40295 -1.2378896 -1.715079 0.029877715 -0.58391744 1.8973641 -0.14403628 0.32430828 -1.1466213 -1.937489 1.0686575 1.1235789 0.99993 -2.264547 -0.34736288 -0.13905512 0.7454847 -0.6646154 0.63768333 0.42926204 -0.22423473 -1.1098995 -0.2742084 -0.6295742
7124 -1.6138593 0.2799511 2.0732448 1.1559975 0.13143116 0.7669334 0.23000917 -0.5703335 -0.037944667 -1.1294354 0.24477948 0.67049336 -0.19912638 0.3799505 1.0932791 0.32812276 0.044967875 -0.86314785 -0.12436927 -0.22612783 -0.32445982 0.8187547 0.0058459635 -0.52822024 -0.258977 -0.075290725 -0.426296 -0.1552398 -0.30851975 0.38374123 0.20143327 -0.3820696 0.3889591 0.072477475 1.0467597 1.1227895 0.043852948 0.5300803 -0.4504629 -0.36295113 1.3369325 0.07400194 0.051889587 1.1211573 0.8956474 0.6981018 -0.9217891 -0.31231022 -0.10130522 -0.9101072 -0.49553722 -0.057894222 1.5402114 1.4570047 -0.49243534 0.25215173 -0.046349455 -0.9454466 -1.2336276 0.57179326 -0.3600326 0.09505787 -0.47696224 0.60745126
C0431693 -0.89958495 0.09152527 0.906887 1.536294 0.66942406 0.37175456 -1.829922 0.4487905 0.8202 -1.2684302 -0.8254728 0.8548117 -0.06937662 -1.3159271 1.8316573 0.6001213 -0.62165946 -1.601292 1.8060179 -2.0261528 -1.5322839 0.52681184 0.14627078 -0.29046157 0.013089881 0.9691745 1.9316438 0.31073907 -0.43722644 -0.76346344 1.7580241 -0.30726352 1.0549121 0.13992248 0.9336655 -0.41691896 -0.6670145 1.5957907 -0.83121943 -1.1738083 1.8026221 -2.1381712 -0.68169636 0.14742488 -1.0361395 0.26469585 0.16758531 1.6257163 0.8336712 -0.65260184 0.6899951 1.3994792 0.8333615 -0.78238875 0.2396902 0.23545659 -0.5695995 -0.9387565 0.020224774 -0.7992839 0.49398845 -0.32088178 -0.16345002 -0.28166753
C1838261 -0.71044314 -0.3953901 0.19698673 1.4431726 -1.6067158 0.65901476 0.35836333 0.22019812 1.0845912 0.27554473 -0.7086317 0.3566703 0.3952408 -0.51104736 3.1478226 2.1282086 -0.57376885 -2.7461889 -0.0014058095 -1.2493036 -1.170235 -0.22124392 1.3659942 0.1857982 1.8429655 0.07905354 -1.0694423 -1.0420597 -1.1182164 -1.4455905 -0.43458116 0.57957685 2.78779 -0.0206681 -0.012859351 0.7190411 0.35396892 0.27333808 -1.7503326 0.14914614 1.0764909 -0.052356202 -0.81623214 -0.5832329 -0.14502408 0.38011885 -1.3528565 0.22388919 -0.5278462 1.1614391 0.7317638 0.66033316 0.35556126 0.69330376 -0.6704035 1.9684912 -1.3010619 -1.0710701 1.3499511 -1.1191554 -0.50383914 0.70484424 -0.35553902 -0.114592545
7157 -0.34213808 0.04923655 -0.0040846807 0.58703834 -0.56901336 0.36280718 -0.7483235 0.4063385 -0.53612864 0.089388564 -0.014059856 0.02752293 0.6643543 0.5877216 0.4416086 0.61388546 0.14095412 0.44631073 -0.43794507 0.13424069 -0.3239811 1.2974854 -0.13265824 -1.3201067 0.06239508 -0.16920732 -0.34081915 0.86471224 -0.42509547 -0.07237922 -0.16125657 0.0042800475 -0.60095036 -0.07822199 0.24653637 0.58064294 1.5255178 -0.12949935 0.13789271 0.4256562 0.58465266 -0.61382234 0.4723872 1.088775 -0.52475476 0.0930601 0.67275727 0.7029851 -0.35117352 0.240616 -0.27477548 -0.06241831 -0.30289745 -0.32018244 -0.35662743 0.6077338 0.0018964956 0.68942547 -0.24381876 1.5467527 0.4478942 -0.07429344 -0.94782144 0.20869456
3569 -1.0223047 0.31099543 0.5808508 0.12422497 -0.47597587 0.5330697 -0.17615429 -0.7416908 0.42433155 -0.38398466 0.5704194 -0.23315892 -0.59325266 0.49416056 0.2572142 0.1548471 1.4860246 -0.53157073 0.37333497 0.04898926 -0.68634784 1.0968789 0.5646151 -0.8976335 -0.28508574 -0.43766156 0.6005325 -0.16182052 -0.38992494 -0.53583235 0.6726149 0.4189633 0.18195328 -0.057410914 0.56283736 0.07971739 -0.046036694 0.95964056 -0.625839 0.42396718 0.2525833 -0.81117773 -0.043098316 0.6410239 0.9184524 0.60228235 -0.62060994 -0.3039742 -0.2429651 -0.2711189 -0.097287685 -0.096044615 0.57771415 1.0068235 -0.6788513 -0.5581461 0.36678427 -1.0501957 -0.77621406 0.75394994 0.110994466 -0.19674914 -0.99023795 -0.4645495
C0020481 -1.2628304 0.37736925 -1.1395524 0.23364235 -0.243764 1.0245622 0.81821406 -0.3479074 -0.38544196 -0.5415484 0.8430685 1.3110745 0.67195016 -0.5365182 0.15662903 0.863185 -0.13400167 0.55016595 -0.6105776 -0.5914471 2.3432236 1.7524492 -0.24504417 0.14201167 0.22179888 0.15652184 1.5366559 1.0404408 0.6198176 -1.4819916 0.37263304 0.051340606 0.66046524 0.04197339 0.5706421 0.8640464 0.030468576 0.87369573 -0.6905869 -0.50792474 1.0335522 -0.7734839 -1.3219713 -0.2948232 2.1817555 0.54883057 -0.8043868 1.2312648 -1.2499287 0.34816924 0.10952703 -0.31039935 1.3151654 0.15621555 -0.6036053 0.95225215 1.522486 -1.8199619 1.1222869 -1.9799769 0.7292242 -0.34551728 0.99255997 -1.4158167
6532 -0.92936844 0.50356656 0.053654905 0.6411852 0.09120464 1.2484776 -0.6852698 -0.1517322 0.7898911 -0.09798977 0.38742587 0.985199 -1.089981 -1.2164768 -0.3319308 1.0375438 0.43578836 -0.2264114 0.6800802 -0.13775603 -1.1020522 0.24911636 0.06064398 -0.435402 -0.6964541 1.1211553 0.3464506 0.35172847 -0.58987564 -0.042301375 0.3935218 0.6235716 0.37572977 0.6282218 -0.08638386 -0.3702344 1.3611044 -0.18101805 0.6208565 0.49159336 0.034848724 -0.09413584 -0.7846064 -0.8510145 1.3272465 -0.40234002 -0.27032912 -0.6716941 -0.10412686 0.7490232 0.1484844 -0.3242501 1.023948 0.047592636 0.4257136 0.03288614 0.08749648 -0.9262658 -0.43352506 -0.49156567 0.16037089 -1.084585 -0.7604081 0.14793953
1636 -1.4832302 0.77993256 0.43207017 1.6556253 -0.18085909 0.44837952 -0.07886572 0.22521691 -0.36770394 0.33536246 0.03183538 0.98365206 -0.004378854 0.79796135 0.0539574 0.8503679 0.7112425 0.25535446 -0.0055833887 0.63034046 -0.7383397 1.1238123 -0.19490321 -0.7884159 -0.1863067 0.23038144 -0.027539669 -0.38100323 0.55575097 1.0605845 -0.14956367 0.35858992 0.4562552 -1.2449274 0.63708925 0.15839744 0.8034144 -1.044489 1.1549178 0.32431427 0.7142558 -0.18488687 -0.5707612 0.07264128 0.9656324 1.1266516 -0.6491901 -0.06677801 0.30787864 -0.27765134 0.3135999 -0.3602023 1.1168914 1.2859787 0.067095816 0.35101143 -0.69040906 -0.24214534 -0.27086014 0.7822318 0.47661924 -0.42153567 -1.1146505 -0.55541354
C1852093 -1.2171721 0.79821986 0.05408045 1.630578 -0.03929801 -0.11940328 -0.84067106 0.49789375 0.75459564 -1.4140174 -0.5331947 -0.36371183 0.2948532 -0.337467 2.157558 0.6726752 0.26108947 -1.2028649 1.9632872 -1.8422114 -1.0258781 1.507584 0.7038995 -0.03367158 -0.23511659 0.36081383 1.3589548 0.0144161275 0.5520053 -0.9266937 1.5906442 0.14685221 0.21585931 0.22990821 0.83142906 0.032377314 -0.3339526 1.828592 -1.5500331 -1.1418742 1.5232788 -1.5095438 -0.8028183 -0.5717746 -1.4017862 0.41042802 0.2930131 0.98956543 0.9788681 -0.8183389 0.08158786 1.9269309 1.544194 -0.8062852 -0.845124 0.1713178 -1.2790582 -1.0107925 0.66560876 -1.325481 0.016764173 0.30974555 0.49850348 0.16778894
348 -0.5731138 0.4917952 -0.063231096 0.5002352 -0.0740865 0.28631714 0.42818865 0.6074074 -0.61592025 -0.30480596 0.011550305 -0.19087839 0.8905992 -0.39178786 -0.023130931 -0.36868086 0.2901196 0.36951074 -0.32450238 -0.38267872 0.094592795 0.9743557 -0.026174191 -0.08559176 0.44916847 -0.013904006 1.4851391 1.1747179 0.8033414 -0.4138405 0.74538 0.50343466 -0.092617 -1.1083174 0.5639606 0.6553955 0.34595102 -0.02551691 -0.24787153 -0.2833393 0.15290971 -0.6631881 -0.3843794 0.4936108 1.6285173 0.28154138 -0.38528532 0.8086983 -0.060135726 0.8144142 0.23127563 0.10729843 0.15332451 0.34489775 0.50413567 0.0994901 0.818296 -0.6985184 0.40646425 -0.70061934 0.73268235 -0.69164443 0.024855046 -0.8591783
627 -0.30017594 0.046473656 0.39193305 0.51340497 0.75988865 0.31146416 -0.20498739 -0.24214645 0.050428856 0.09999712 0.2764888 0.025130386 -0.6900252 -0.34341156 -0.90348417 0.94000095 0.42475036 -0.16207507 -0.12370293 -0.30959058 -1.0605075 0.5573209 -0.67785317 -0.2938591 0.42644593 -0.07338188 0.19420806 0.022649623 -0.55019313 -0.95538145 0.032182727 0.3573282 0.29089773 0.28198063 0.16038062 0.62873197 1.4024519 0.043358598 0.31728837 -0.23918651 0.1776748 0.24941716 -1.0662948 -0.37124467 1.3428686 0.32783166 0.43060094 -0.39254448 -0.6494912 0.6001865 -0.1770558 0.17900117 0.46223003 0.11673187 0.025596352 0.37603897 0.77778715 -0.019926582 -0.51883197 0.16585095 0.31227154 -0.723524 -1.0448331 -0.053201705
C0340968 0.16374555 0.38824373 0.840102 1.1885755 -1.9219382 1.1160017 0.41020912 -0.25145066 1.5757488 -1.794798 -0.4886632 -0.23994116 -0.027150216 -0.74869835 0.3977315 1.2065687 -0.38148314 -0.36323085 -0.14288044 0.5961458 -1.4507396 0.5251532 0.16848375 1.0461683 0.15706371 -2.7772672 -1.1495553 -0.2680453 -0.97362536 -0.9801031 0.18470809 -0.5577157 0.44080648 -0.58330566 -0.20093836 -2.1520715 0.42818633 -1.2663327 -0.83647996 0.6184729 1.6951245 0.58628774 -0.01650252 0.63166916 0.96557325 0.16727139 0.099855885 -0.029184327 0.29754966 -0.20571993 -1.03241 0.62670773 -1.0675855 -0.34495708 -1.1604893 0.47062206 -0.05469296 1.2128733 -0.5014674 -0.119554855 0.7801687 0.88256484 -1.4061387 1.6849791
4524 -0.9404982 0.84591335 -0.041373022 1.701498 -0.60690105 -0.12184463 -0.09781723 -0.24252175 0.24321787 0.6985509 0.093826145 -0.56002486 -0.14234541 -0.39968082 0.076936916 0.5471179 0.7931645 -0.16382155 0.048059024 0.5131726 -0.69524336 0.42973888 -0.32845464 -0.6185128 -0.0689118 1.0943078 -0.37387103 0.3420743 -0.26760802 0.14674966 1.1080025 -0.7406928 -0.53163457 -0.037335973 0.97623885 0.21932268 0.26187992 -0.5294934 1.029325 -0.56530184 0.7067828 -0.38965404 0.18168102 0.64200777 0.5908532 -0.17927995 -0.33412862 0.20651391 -0.30869505 -0.08644297 -0.9917254 -0.038769607 -0.42267156 0.35584643 -0.27539423 1.0219177 0.7494094 0.04816187 0.010022682 0.8752205 0.22445266 0.10670532 -0.47602153 -0.20686236
1437 -0.48225445 -1.1865011 -0.0018670296 -0.69671005 0.29828542 1.1406624 0.6396103 -0.5971549 -0.5580979 -0.3574556 -0.4906412 0.09627512 0.29838943 -0.32597303 -0.8256562 -0.5090388 -1.7238588 0.8719542 -0.2590794 0.3738006 -1.5619583 0.14690754 -0.10219989 -1.3874968 -0.26573625 0.08656496 0.28612342 0.3415152 0.30560935 -0.25291553 0.0663421 0.8444085 -0.079933874 -0.68131834 0.17033672 0.7743168 0.2762947 0.14797254 -0.8123159 0.3539911 -0.36547244 -0.75795656 -0.051352724 0.29566997 0.11254875 -0.18257524 0.38634813 0.09736576 -0.512012 0.67546666 -0.06484186 -0.13135506 0.08940929 0.24615063 0.85502267 0.35593998 0.11497762 0.06671622 -0.7001075 0.48114985 1.2793697 0.36096588 0.07275649 -1.0431719
3553 -0.18289079 0.5012839 0.39358038 -0.15577552 -1.3116944 0.8387726 0.020401632 -0.9091214 0.43329751 0.7208986 -0.45619652 0.12995297 0.40431425 -0.88779235 0.58816147 1.2547504 1.9080123 1.2233039 0.23687051 0.99898666 -0.12252559 1.0388144 0.8796481 -0.37506714 -0.075056165 0.5555975 0.78455 0.03616245 0.3623661 -0.19153802 -0.0496225 -0.36076537 0.116139635 -0.5788698 -0.40186623 -0.83962613 -0.026224548 0.3025506 -0.43415388 0.75346386 0.92075235 -0.21663475 0.7302428 -0.028598426 0.3079945 0.5375653 0.38241348 -0.3090996 0.59931093 0.191937 -1.4504173 0.24115552 1.0302062 0.0064201592 -0.6992642 0.78392047 0.10441426 0.80265975 0.5816736 -0.4375564 -0.7041584 -1.0661498 -0.55529124 -0.0840798
6927 -0.9030653 0.23153692 1.2863487 1.0791132 -0.5527747 0.11798466 -0.4066249 0.7689173 1.2785639 0.424475 -0.6300414 -0.06461964 -0.18777706 -0.33007684 0.65997005 0.74872094 0.8457678 -0.010164115 0.025841307 -1.0690585 -1.7254877 0.07287812 0.70701724 -0.21422726 -0.12787968 0.5985149 1.6172663 -0.34470958 0.11832809 0.031592004 0.71812624 0.10374918 -0.3708291 0.403901 0.35291195 0.14606433 -0.24448852 0.93408763 -0.3276109 -0.815877 0.5063282 -1.4481049 -0.120885395 0.27882114 -0.8986357 0.21627481 0.43138927 0.66925484 0.4747711 0.51074773 0.05949289 0.4035713 0.22319202 -0.37103537 0.23008916 -0.4478529 0.033448454 -0.17391239 0.02256284 -0.6625085 0.47759172 -0.7520651 -0.17547601 -0.031191872
C0751634 -1.045142 0.1560844 -0.5163529 0.3006202 -0.21151236 -0.105947256 0.7926982 -0.27782384 -0.887759 -0.9499229 0.2873298 0.70165175 1.5726488 -0.7330561 0.5045656 -0.43505895 0.81178975 0.6318335 -0.4085119 -0.7170276 0.7677211 0.82775635 0.0039469185 0.29083323 0.64854515 0.113556325 2.0348363 1.4817171 0.61599964 -0.82211787 0.35565904 -0.17069547 -0.400755 -1.5080688 0.89766663 1.0302885 -0.45982873 0.06466185 -0.42069992 0.21221851 0.33197838 -1.1709423 -0.93597627 -0.3652125 2.261185 0.36843535 0.053328596 0.31519622 0.22702175 0.7827097 0.96251804 -0.17666757 0.8438575 0.6168146 0.73399955 -0.058102354 1.3149464 -1.2299598 0.8155876 -0.9614264 0.40521464 -0.78132546 0.24511299 -1.3944373
C0236816 -1.0808637 0.5184822 -0.4883634 0.5875012 0.10524098 1.3940386 -0.45236102 -0.90031993 0.8409002 0.14493537 0.7157571 1.1548439 -1.1466608 -1.8454148 -0.14754984 1.7225951 -0.011639406 -0.38011768 0.9484145 -0.5592315 -1.2790574 0.19003512 -0.5129089 -0.14583084 -0.83550775 1.6454269 0.15204176 0.3979122 -0.5484781 -0.4298125 0.21758527 0.17975716 0.71616036 1.4328302 -0.54283625 -0.31965563 1.7642344 0.32535434 0.50956315 0.13775966 0.011376771 0.34686777 -1.0425962 -1.4485809 1.0911375 -0.2973372 -0.15228266 -0.91766405 0.059846353 0.27102095 0.050027013 -0.76315075 1.8070365 -0.21026109 0.23678084 0.6010921 0.5034845 -1.3587393 0.059431266 -0.84412086 0.6132909 -0.78651524 -0.56972885 0.7670108
C1306856 -1.3260254 0.19441499 2.9400735 -1.3583431 -0.16164564 1.7693729 -1.2394743 1.0462689 1.2791075 2.1685202 -0.25028086 -1.6323595 -2.2020295 -1.028901 -0.93298596 -1.5960172 0.47088552 0.18297957 -0.13203502 0.88519967 0.55541986 0.08707055 -1.1458673 0.847878 0.14437437 1.4835207 0.64382404 2.8953123 0.71668917 -0.7897319 1.1314379 1.1173398 0.5211801 -0.44338816 1.1718285 -0.77935636 1.5141858 0.70152354 0.6739807 -1.3332946 -0.5179088 -1.8805484 1.505543 1.0021213 0.19853123 0.7572387 2.312683 0.6646719 -1.2098986 -0.86663276 -0.7161653 1.4284627 -0.23617831 -1.8324975 0.809482 0.24721576 -0.26329744 0.7094053 -1.6671251 -1.279451 -0.5424221 -1.3231792 1.2792425 -1.5037823
C0730525 -1.0904523 0.13034754 -0.5956486 0.82173675 0.5281939 1.3722548 -1.0767307 -0.66628414 0.72251457 0.08039669 0.88239086 1.0852449 -1.288076 -1.8435338 -0.16412973 1.7263124 0.39387718 -0.40482816 0.8908547 -0.87764466 -0.69195765 0.55074036 -0.19915032 -0.44289473 -0.94738734 1.4904499 0.34333435 0.30534232 -0.86755115 -0.17335756 0.2613213 0.32697526 0.36719275 1.4449246 -0.6621689 -0.53843397 1.5942394 0.17095856 0.05594731 0.721391 0.17751071 0.045453366 -1.0723335 -1.3627355 1.1492021 -0.38457707 -0.030818736 -0.85281897 -0.32198766 0.9115321 0.36664802 -0.98652345 1.5996268 -0.23632702 0.1937634 0.21217579 0.283781 -1.5301275 0.09391829 -0.9633972 0.7116729 -1.1977191 -0.8775768 0.5884393
C1835817 -2.4010398 -0.12063145 -0.58706546 0.8973059 -1.5144397 1.6217393 -1.9770759 -0.9007242 -0.3526003 -0.8288285 0.41936168 0.20417042 -0.3870578 -0.7452086 0.216216 -0.41578937 0.4642812 0.034011032 0.16521573 -2.245012 0.6067851 0.057702377 1.7189753 0.02223862 -0.42557865 0.562799 0.62062955 -0.27518293 -0.07456283 -1.0715832 0.731653 0.34784725 -0.8098803 -0.12304881 1.5409433 0.99859667 0.23875031 0.55045825 1.040933 0.56123257 0.53200257 -0.0969736 -0.7556128 1.5680578 1.0682209 0.3157281 0.46952868 1.2308633 0.057400186 0.40602258 -0.93682176 0.95867896 0.107643686 -1.2123455 0.2745839 0.90668744 -1.5030034 0.3091192 -0.97088933 2.021398 -0.22035176 1.2400882 -0.8521307 -0.76345307
4852 -0.5344489 0.51849896 0.07320556 0.70460683 -0.21384297 0.6066529 -0.2844071 -0.034507036 0.24784079 0.50774276 0.56416893 -0.026063234 -0.7369535 -0.044514887 -0.1894225 1.4281933 0.034361605 -0.14779845 0.22793469 0.008167513 -0.6205871 1.1257232 -0.3460012 -0.52940017 -0.057923906 -0.37441382 0.3268186 0.39547065 0.17818132 -0.28270423 0.078980766 0.5067846 0.19393373 -0.3708845 0.2405543 0.13983357 0.5894127 -0.41236934 1.0732249 0.35369098 0.21687135 -0.17750388 -0.36138168 -0.10411508 1.0355309 0.8246137 0.23668589 0.025626577 0.53495896 0.4921438 0.4953989 0.26030478 0.24612685 0.23213679 -0.40673083 0.49321553 0.45207447 -0.18134464 -0.38793504 0.071077384 0.85937893 -0.8425125 -1.146311 -0.19705981
C1852092 -0.34439513 -0.16979052 0.19922502 0.62687176 -1.3958966 0.28087533 0.59453833 0.4158645 0.5401409 0.73815024 -1.6249536 -0.3845237 -0.8522839 -0.0532059 2.5187838 0.8470597 -0.32084367 -1.1993008 -0.3079401 -0.79807425 0.16592765 1.1770049 1.180738 0.61002755 0.7199131 0.536462 0.6176648 -0.8768216 -0.8879808 -2.219519 -0.06882539 -0.6365968 1.4207463 0.34786743 0.0601859 1.2742124 0.3281247 0.8872172 -1.4558458 -0.50596094 0.025461236 -0.5191263 -0.56935924 -1.0844464 -0.7880417 0.34363714 -1.632604 0.73949206 -0.06614459 1.109523 1.2330997 0.22374648 1.501376 1.5720276 -0.21211058 2.4533339 -1.1894803 -1.7266272 -0.036771584 -0.66847855 -0.34213313 -0.26477644 0.3112888 1.4714925
2056 -0.50057715 0.11380053 0.5363801 0.23695599 -0.9202988 1.6515743 -0.4024055 -0.66545916 0.0847214 -1.1034436 0.10531401 0.21909557 0.3475764 0.08686111 0.3587975 0.07184046 0.48641962 -1.1506547 -0.6401452 0.19683489 -1.4097235 0.60354733 0.5364907 -0.12689127 0.36861697 -1.763292 0.042584807 0.85431516 -0.07661777 -0.11331211 -0.49507377 -0.6416984 -0.39383343 -0.5649391 0.037518647 -0.67401433 -0.12794313 0.055290498 -1.3092154 0.32155615 0.96231306 -0.203799 0.030320814 0.8185231 0.78412247 0.47338146 -0.31561172 0.31419948 0.5463877 0.80893415 -1.2346382 -0.009596151 -0.73661405 0.31572694 -0.78340083 0.3618975 0.4893983 0.2420711 -1.1233417 0.27897117 -0.24136172 0.8561462 0.17868696 1.2359233
3630 -0.5596488 -0.46317303 0.3231889 0.5714532 -0.69806373 0.4778021 0.2474329 0.4446503 0.263308 0.5346137 -1.2672944 -0.11462085 -0.28113693 0.19555512 1.6985048 0.7178723 -0.2935049 -1.0621713 0.14584053 -0.23634964 -0.25657117 0.485146 0.85719067 -0.14517018 0.5695161 0.010889507 0.5760593 -0.24725431 -0.43348616 -1.1552821 0.39251027 -0.5420022 1.3069538 -0.040254284 0.355458 0.73457396 0.7156645 0.67430633 -1.1957599 -0.61394286 0.24360129 -0.4611713 -0.48896497 -0.49145362 -0.21100673 0.37490934 -0.84005743 0.6069026 0.0014909464 1.0928465 0.7394236 0.40773782 0.9584133 1.0959355 -0.035062145 1.498659 -0.873303 -0.94061625 0.09947007 -0.119754896 -0.103609696 0.053048477 -0.2874353 0.096635275
C0086666 -0.64654887 1.0060179 -0.8943033 0.6413783 -0.58640164 1.6681206 -0.24718319 -0.9623934 0.09074598 0.4373331 -0.20672414 -0.11411052 -0.59259593 -0.2537143 0.350411 -0.804389 1.6918441 1.1014159 -0.40263027 0.26971495 -0.18845728 -0.65423626 0.98232526 -1.6755853 -0.07821755 -0.3111104 0.7134037 -0.9361257 0.97415227 -0.19910403 0.85352963 -0.33991632 -0.24420424 -1.4871348 -1.9719508 -1.1276803 -0.23282273 1.1587497 -1.2955961 1.2257434 -0.77188283 0.8468567 -0.471771 -0.17677924 -0.4469524 -0.1355394 1.4026577 0.20772393 -2.4470518 0.079279825 0.051390383 0.5998016 -0.66590387 -1.364677 -0.25482324 0.20899431 1.5656396 0.2125678 -0.8540116 1.3390696 1.0313334 -1.4393529 0.48177987 -0.6941678
4846 -0.759256 0.84490335 0.065977216 0.42702496 0.9564324 0.421205 1.0572138 -0.2139118 0.5450554 -0.052907884 -0.57199746 1.2315372 0.9936905 1.1849788 0.84220546 0.21174355 -0.7299954 0.3555269 -0.53273565 0.52176785 -0.40833244 0.41439763 1.3678501 -0.39730865 0.2544291 0.67871535 0.8324118 0.48545095 0.4957319 0.91990674 -0.3193496 1.291763 0.34143642 -0.18409412 1.7408527 0.64730614 0.088774346 1.0869386 -0.048754945 0.060480036 0.15240042 0.12230271 -0.59766996 -0.29443118 0.5418758 0.70687217 -0.083310045 0.019981105 1.3562865 0.26148155 -0.600593 -0.2877198 1.335682 0.6739371 0.6125545 0.14643846 -0.55496573 -0.10650109 0.25115117 -0.28888547 -0.0025021432 -0.33641124 -0.05899646 -0.9564215
4023 -0.942268 0.45748037 -0.1944258 0.071368 -0.57464254 0.5376436 0.06436692 1.0055026 -0.11684623 -0.2828738 0.29365188 0.81781644 0.035478774 0.22240584 0.0073732864 -0.073389456 -0.11262182 -0.20743558 -0.23670731 0.5019294 0.8766043 1.41093 0.9465752 -0.59124374 0.8520041 0.014650433 1.3814348 0.5208421 -0.17526792 -0.7921767 0.6034621 0.13800651 0.66349006 -0.026331123 0.443396 0.41661352 -0.046105444 0.17473176 -0.55018723 -0.005112579 1.074139 -0.39907897 -0.9323829 0.8129938 1.3980393 0.61992043 -1.031529 0.12044508 -0.0818161 0.9696436 -0.023972174 0.47420788 1.0722952 -0.06040565 -0.47592482 -0.048097316 0.438206 -1.0191032 -0.32559615 -1.0354456 0.056886766 -0.4740451 -0.5773741 -0.7282912
1401 -0.44255936 0.71554285 0.41230056 -0.1648137 -0.5847947 0.86042726 -0.14696 -0.44414884 0.6305198 -0.13574725 -0.3264652 0.484205 -0.01248317 0.43773723 0.44779658 0.0049294108 -0.06357495 0.010508204 -0.43876886 -0.14206412 -0.6100231 0.3863407 0.5031953 -0.65121895 -0.15195009 -0.23745938 0.6879097 0.41686076 0.04814678 -0.5309835 0.24537535 0.36012363 -0.029736584 0.52383745 0.46466073 0.023806427 0.9021784 0.08041399 -0.28289947 0.25598043 0.43399963 -1.0634108 -0.058406096 0.35348713 -0.021974009 0.89901274 -0.15707155 -0.027267095 -0.27908155 0.17569043 -0.6770148 0.30932468 0.8285086 0.13073368 -0.6761422 0.100094736 0.13152558 0.0117507465 -0.7781093 0.2983916 0.20846161 0.35657316 -0.61145926 -0.09854879
5054 -0.71495795 0.1817654 0.81334424 0.591621 0.34314996 0.2989878 0.29870644 0.2369181 -0.09667842 -0.37789917 -0.08422048 0.94493926 -0.06395139 0.88203794 0.50904393 0.3040127 -0.032754757 0.47343752 -0.2228698 0.18281548 -0.20821072 0.6681383 0.5257017 -0.6087214 -0.28163758 -0.56555194 0.13989392 0.47629556 0.36061746 0.22500207 0.54950035 0.14028123 0.7918869 -0.85619766 1.0030956 0.6640767 -0.20026743 -0.15475467 0.4133633 -0.28125054 0.65402156 -0.26350468 -0.49262944 0.7162414 1.180707 0.7419484 -0.09319982 0.39138255 -0.2514168 -0.21950473 0.16839549 0.51942235 0.63427794 -0.18995838 -0.4171985 0.091974 -0.41393366 0.041997373 -0.6241756 0.56403226 0.21758938 -0.6490107 -0.64248765 -0.35371456
C0270639 -1.3460397 0.40328556 -0.682086 2.5103471 -0.24923882 -0.09292128 -0.42519665 -0.84263945 0.59787655 0.5555147 0.99625975 -0.581529 1.2552071 -0.43689805 0.10228167 0.3543869 1.055299 0.7920338 0.011866157 0.43542743 -0.18662515 0.36621752 -0.72754264 -0.5540925 -0.016684378 1.1312424 0.09565983 0.24408449 -0.18265356 -0.115072615 1.5305175 -1.3821964 -1.0079125 0.56035686 0.6492828 0.1495331 0.600918 -0.4371624 0.96853113 -0.20012154 0.27867967 0.32065848 -0.12109543 1.0329713 0.9232621 -0.34956315 0.0874442 -0.12825046 -0.33658215 -0.87035716 -0.98621535 -0.111439705 -0.6017345 0.3082679 -1.2593931 0.79906386 0.9192379 -0.32008153 0.2890245 1.7327286 1.2224305 0.31856674 -0.19840458 0.08498985
3458 -0.19018206 -0.13060614 1.397396 -0.35665223 -1.0167778 0.2904145 0.16754776 0.08390381 0.19620998 -0.36269754 0.03702852 -0.52836275 -0.2646741 0.39089411 0.7781282 -0.073665686 0.43999982 -0.7933047 -0.2784354 -0.27191785 -0.65205204 -0.15767016 0.6031579 -0.75527894 0.27201456 -0.32633945 0.45744267 0.4155371 -0.8485514 0.2703434 0.04328365 0.04204227 0.22274043 -0.42616993 0.97747236 0.5597662 0.34018162 0.4842019 0.10033322 -0.2913908 0.36711556 -0.43999422 0.52157193 1.0668358 0.25178707 0.417134 0.24253906 0.41673896 0.38477153 0.57752657 -0.07342377 0.33506393 -0.031847842 1.2104589 0.58657575 0.8097779 0.77208954 -1.4429908 -0.76597214 0.99099994 -0.21257378 0.118798 -0.2677208 0.17157824
7422 -0.53879136 0.1327547 0.067933016 -0.1486461 -0.7619838 1.1871825 0.9882882 -0.27753326 0.3051365 -0.028995767 0.053991396 -0.957346 -0.22279401 -0.5768461 -0.039967816 -0.60753244 0.11316521 -0.29492393 -0.28204578 0.3281055 -1.3300016 0.62647665 1.2370622 -1.2053543 0.57176125 0.26729447 0.64637876 0.0521423 -0.070915885 0.095209435 0.1760782 -0.02417526 -0.18035126 0.29989022 -0.73764026 -0.14744024 0.21405184 0.500966 -0.6963271 -0.74894756 0.26998052 -0.75577074 0.041284345 0.8022801 -0.052253403 0.27786413 0.03955152 -0.019328158 0.21059413 0.6934553 -0.2123845 -0.14517157 0.1067882 1.4107392 -0.64006704 0.4663236 1.1283762 -0.035828378 -0.46903214 0.21735027 0.23279843 -0.35352126 0.1775889 -0.83323735
3576 -0.39013705 1.1941074 0.02447313 0.4570191 -0.4255856 0.8075089 0.12524182 0.09411052 0.041151784 -0.3864146 -0.47248697 -0.08973487 -0.18318102 -0.27532527 0.09291633 -0.34759635 -0.14702395 0.82684946 -0.29789203 0.44454157 -0.9031305 -0.36407036 0.34715015 -1.2175816 0.41370606 -0.3053502 0.26779485 -0.122793436 0.39734796 -0.54456156 0.5534992 -0.017721355 -0.08503394 -0.9523061 -0.45041454 -0.09142737 0.004733225 0.1708117 -0.22624089 0.13402754 -0.07914075 -0.11268901 0.1556439 0.40616292 0.044549897 0.29186893 1.0095336 0.50788546 -1.1126786 0.33437082 0.016611831 0.81962055 -0.8831064 -0.18503857 0.19770256 0.30184168 0.86403984 0.6675993 -0.7649287 1.2220289 0.5134214 -1.0862999 0.24611367 -0.566993
C0008909 -0.8263143 -0.17963989 1.8054751 0.21688147 1.4095081 -0.61215585 -0.72165114 0.15794565 -0.8490748 1.0404274 -1.559002 -0.22865486 -0.12091258 0.09943002 -0.6373525 0.7802712 0.8154671 0.28692636 -0.5367451 -1.1466163 0.4008847 -0.2728818 -1.0451804 1.5693803 -0.1469597 -0.40733263 -0.61271363 -0.32801175 -0.93305224 -1.2906023 1.1463242 0.89026785 -0.2906915 -0.6704642 -0.2434772 -0.20402841 0.561628 0.39147744 0.32482135 -0.47317514 0.6500494 -0.40964177 -1.1735488 0.29512903 1.2909019 1.2094644 0.32831433 0.32460958 -1.0347016 -0.6546953 -0.2792467 0.5107593 2.4801328 0.69998586 0.71514314 0.13873148 0.91283166 0.03934027 -0.10229882 0.69369006 0.19625296 -0.9620571 -1.8860823 0.65529305
3479 -0.34440178 0.07104568 1.0971036 0.2532125 -1.000042 0.39739627 -1.0755471 -0.067155555 0.17427085 -0.2000718 -0.57899565 -0.15993482 -0.13218166 0.97270674 -0.47198594 -0.42978024 1.4704797 -0.61898845 -0.24575621 0.5546076 -1.4553623 0.64854175 0.4010778 -0.7892623 0.03090407 -0.85858756 0.9504023 0.24277706 -0.048386298 0.33750993 0.2901003 -0.5474074 -0.22344849 -0.85485536 0.41409603 -0.37446606 -0.8834434 0.81450033 -0.598304 -0.6146385 0.64234257 -0.41761097 0.6330006 0.042692788 0.57943374 0.07267958 0.22582735 0.60194457 0.5089418 1.0473466 -0.3425001 0.25705615 0.2502412 0.2488248 -0.5201962 0.55029887 0.96282536 -0.6794699 -0.06421965 0.78647745 0.5893751 -0.8766948 -0.44599172 0.00097343745
5468 -0.53405356 1.0039706 -0.16708486 1.1819532 -0.15685482 0.18324059 0.10587806 0.08347741 0.033536367 -0.07982078 0.1665676 0.5174734 -0.4560546 0.65987074 0.47881898 0.17646094 -0.6000776 0.21726936 0.68387437 0.6479539 -0.67811877 0.39213806 0.057062123 -0.013021274 0.2953916 -0.660249 0.63002264 0.789539 0.2525142 -0.44437265 0.78319293 0.28110117 -0.47953403 -0.65673274 0.5639773 0.14836985 0.3338733 0.0953635 -0.03152464 -0.22860606 0.24937858 -0.46684712 -0.13676207 0.76122034 0.3971136 0.758885 0.3767548 -0.17584838 -0.23959975 0.029142447 -0.06714626 1.2893672 0.40937757 -0.7747624 0.04160197 -0.04804108 -0.52095604 0.19775082 0.05029668 0.014298153 -0.26654685 -0.18939711 -0.11733726 -0.42992762
2944 -0.4501052 0.4796602 0.35218006 0.17936835 -0.46119085 0.39084113 0.024924044 -0.11058503 -0.027693156 -0.23622526 0.045702994 -0.17760849 0.2681332 0.060291138 0.47225407 0.1787336 0.32983947 0.34956303 -0.41570917 0.07635101 -0.67114234 -0.37568226 0.38683066 -0.30992782 -0.36533123 0.32626778 0.3194268 0.9059719 0.130775 0.017838527 0.29380158 0.079447426 -0.10349838 -0.7476544 0.794859 0.03338015 0.36728272 0.09302443 -0.1724123 0.17200303 -0.095238365 -0.53332293 0.20194276 0.59577954 -0.1719699 0.38770097 0.5628731 0.53199345 -0.52517414 0.5179093 -0.3485785 0.48641133 -0.25909427 0.18857752 0.7543139 0.16013983 0.26170284 0.086935796 -0.38407528 1.0690688 0.33579785 -0.13151668 -0.5539642 0.7082939
3172 -0.39144158 -0.25390956 0.13975994 1.6193235 -0.6871669 -0.13060398 -0.9337992 0.9186765 0.27500588 -0.81312615 -0.7554586 0.53964645 0.42524686 0.22296901 1.1800053 0.3768699 -0.20820771 -0.976103 1.5295988 -0.38801202 -1.3120538 1.4791737 -0.1902537 -0.4866023 0.22907798 -0.4574283 1.7480167 0.28856784 0.83394897 -0.79076827 0.89954174 -0.14953025 -0.98800987 -0.6535858 0.8953411 0.110684 -0.76952064 2.0452366 -1.280195 -1.2805997 0.51112723 -1.6253554 -0.10609084 0.2611413 -0.55302536 0.3554041 -0.7664524 0.5497786 -0.36916 -0.15936524 0.00057970226 1.4143659 0.33640426 -0.9291185 0.17093635 -0.06985433 -0.7381717 0.007894363 -0.044185635 -0.30534372 -0.041791666 -0.4322588 0.22227105 -0.064133294
6774 -0.50675863 -0.028648637 0.8337912 0.51056236 -1.0331174 0.48477417 -0.019554459 -0.19860293 0.18977043 0.3490561 0.23596513 -0.101966165 0.068140544 0.32439402 -0.19494091 1.4039805 0.55524796 0.2778735 -0.13403842 -0.05708079 -1.1951512 0.14705323 0.8490342 -0.2517784 -0.17941287 -1.3050925 0.29075527 -0.08612248 0.4704803 -0.47298458 0.11641806 0.7295682 0.5705198 -0.8421269 0.2845747 0.27350906 0.45405394 0.060199123 -0.77504545 1.3298446 0.03031609 -0.5207947 -0.64508986 0.15801826 0.17211121 0.94525534 0.24145238 -0.017432684 -0.26836014 0.29836616 -0.20923114 0.66363287 -0.02819444 -0.52915215 -0.6453067 0.044932507 -0.78262395 -0.2983874 0.16047235 0.0868342 0.28286657 1.3864049 -0.48882568 -0.027604008
C0206703 0.11429967 0.46598652 -0.5920952 0.9270443 -0.13423605 0.14053705 0.12070696 -0.79178727 0.8773701 -0.8656823 -0.5012665 -0.26826322 -0.24397026 0.6524637 0.8077042 -0.5626842 -0.23499583 -0.12465304 -0.41793585 1.447135 -1.3921345 -1.3870729 -0.23913899 -1.2711773 0.10461681 0.7132556 -0.41798168 1.4046949 -1.0816158 -0.92253083 1.3490064 -0.09517391 -0.83669996 -1.2405809 0.6794387 0.33934894 1.4107273 -0.8614581 0.72343314 -0.3206368 -0.49951816 -1.1742483 -0.816449 -0.041859955 0.70197594 1.080352 0.9077312 0.0646809 -1.4290656 1.217308 -1.1426272 1.5248169 0.47382253 0.4122758 -0.96820986 0.079502724 0.19883248 0.12855172 0.1556427 0.6351115 0.2346225 -0.26996106 0.16578294 -1.0319256
2908 -0.06244312 0.57729447 0.18690936 0.21946113 -0.45784235 0.043092284 -0.5189567 -0.13973369 0.73612624 0.46352053 0.27822915 -0.26107803 -0.42305875 -0.18560758 0.27156335 0.5724101 0.3413041 -0.16745932 -0.36638805 0.16342841 -0.7651023 0.06484635 -0.3018728 -0.56738955 0.23013294 0.41679206 0.7560619 0.16928294 -0.25257415 -0.18645103 0.47854525 0.44209585 -0.17134646 -0.34799013 1.1539184 0.3926684 0.33134428 -0.12986107 0.47458342 0.27192864 0.0064231097 -0.31429362 0.041380294 0.5435051 0.56200933 0.4313846 0.13349767 0.11301467 0.19211395 0.83072096 -0.69810945 0.45707613 -0.705851 0.06839666 0.013706912 0.28612787 0.44951412 0.19819707 -0.20968068 0.55641973 0.83515215 -0.61698943 -0.83192724 -0.16951893
2539 -1.0788622 0.4464549 -0.2415403 0.026665796 -0.8874224 -0.046436712 -0.9110949 -0.331353 -0.5522177 0.036529005 -0.79582644 -0.33383542 0.29456553 1.0751351 0.7219139 -0.023229614 -0.21855529 -0.48923054 -0.83078474 -0.18761297 -0.8117731 -0.173238 0.27301708 -0.14430146 0.60147744 0.08439996 0.51651424 0.34174958 0.083630845 -0.45761853 0.44173923 0.1057564 -0.9105625 -0.58405775 0.81946266 0.26015726 -0.112900354 -0.15798336 -0.52266085 0.120425604 0.583997 -1.3137656 -0.3495663 0.55440474 0.5867445 0.618549 -0.18450339 -0.59462297 0.15410912 0.14986683 -0.85142905 -0.2811676 0.47934067 0.0081474325 0.48008475 0.36770132 0.3460988 -0.06053998 -1.0541439 1.0175406 0.010566917 0.21640724 -0.55583537 0.22648326
929 0.07509381 -1.0754333 0.91222876 -0.9711836 0.49912784 0.12300246 0.38602248 0.10331709 -0.700314 0.28263828 -0.059140127 0.20086026 -0.41038513 0.7487653 -1.0041927 -0.5174667 -0.577778 -0.06552732 -0.12760282 0.6804107 -1.3196946 0.6133487 0.7400306 -1.2683933 0.38631782 -0.75513595 0.50165397 0.6704067 -0.13825813 1.0744526 -0.0028248671 0.15805855 0.017964602 -0.18932712 0.52554226 0.7017154 -0.27544746 0.63351196 -0.8235678 -0.5502393 0.33932644 -0.31120512 0.52541447 1.5456556 -0.15333296 0.7379306 0.4153999 0.012985928 0.13208279 1.4602314 -0.04384862 0.54837143 -0.019596294 0.42705512 0.059753653 0.35180333 0.4116328 0.035745353 0.29538506 1.0514678 0.09257786 -0.40215287 -0.051796403 -0.14568558
185 -1.1269947 -0.060858253 0.9690648 0.3859687 0.025217613 -0.18625316 0.38981596 0.23959218 0.1623099 0.42951283 -0.33500448 0.9767999 -0.5226367 0.6217563 0.4739038 0.28405255 0.916134 0.23921892 -0.08396317 0.28888744 -0.30306768 -0.053923894 0.52691936 -0.19812796 -0.4587458 0.104316086 0.74546 -0.05711321 1.2411023 0.52603304 0.18981263 -0.0017546411 0.7063158 -0.445748 0.73397464 0.030001055 0.6465583 0.47648162 0.8381581 0.19490647 -0.32382485 -0.0926159 0.62853605 0.87143415 0.78797716 0.32130805 0.10161577 -0.2661978 0.3591389 0.1806705 -0.51384336 0.1160813 -0.73559254 0.6987575 -0.27745873 0.0057739583 0.06962834 0.16046487 -0.2972236 0.89403886 0.03316667 -1.2156287 -1.1106589 -0.7398743
5444 -0.5679471 0.5588256 0.5361956 0.036727708 -0.1748707 -0.07623511 0.1544864 0.06773728 0.6422697 0.21504973 1.3839344 0.044377476 -0.4185074 -0.2796236 1.0613022 1.3647857 0.59440786 -0.22342098 0.20098238 -0.08128856 0.026433086 0.6187737 0.3206176 -0.44389498 0.44331807 0.68089116 0.37240708 -0.0007001692 -0.04307095 -0.068903744 0.9949565 0.73411494 0.28643933 0.4730848 1.2703723 0.10450618 0.2526921 1.4162378 0.33193964 -0.012234134 0.3189286 -0.16320936 -0.3786953 0.33417177 0.68734145 0.5199268 -0.28468066 -0.003966896 0.18041576 0.42038044 -0.31771812 0.44378155 0.13824864 0.11405631 0.31162527 -0.13128813 0.0654099 -0.45140335 -0.16718103 -0.33767635 0.57664627 -0.6420162 -0.9484939 -0.28987303
C2675866 -1.1286229 0.44444007 0.6442229 1.165428 -0.59577954 0.35008985 -0.5494099 0.6991252 0.991464 -0.22360887 -0.88484174 0.38331002 -0.44104388 -0.2419324 1.4724563 1.0204928 0.49363917 -0.34015217 -0.1580152 -1.5806493 -1.4115955 0.3117225 0.6806805 -0.108967975 -0.29895404 0.8920059 1.5766066 -0.0671082 -0.012967634 0.19134977 0.4579374 -0.4071222 -0.029845102 1.0947146 -0.025545927 -0.16701342 -0.34662658 1.1930631 -0.85298294 -0.66567117 1.1864036 -1.4379416 -0.39937738 -0.57677805 -1.6278387 0.122064404 0.068041846 0.6649712 0.80477166 0.16172415 0.46607068 0.20789488 0.5190899 -0.47477326 0.004046801 -0.090915754 -0.18416215 -0.67492384 0.028346965 -1.2659644 0.46202332 -0.3712737 0.1399716 0.3871025
7040 -0.8651294 0.8141538 0.11704649 0.93495196 0.31994358 1.1743683 0.5996548 -0.1874453 0.95639014 0.50680774 -0.31249627 0.12742588 -0.02458197 -0.7298132 1.1466922 0.5716931 0.20179678 0.50715756 0.010202988 0.41560006 -1.4702386 -0.15825537 0.83400583 -1.249556 0.19928281 0.71928114 0.87586135 0.15039112 0.7388871 -0.54002964 0.14362642 -0.21055312 -0.2917887 0.5608108 -0.6459646 0.33327317 0.02692276 0.69537807 -0.785565 -0.5523449 0.4591416 -0.65205437 -0.3394279 0.16049328 -0.1870766 0.40078533 -0.015354067 -0.13627054 -0.6574867 0.48774195 0.39297852 0.40576917 0.70053595 -0.19333848 -0.012183808 -0.2615849 0.100733556 0.7320778 -0.43871155 -0.44559646 0.10966158 -0.38765755 0.37442145 -0.935324
847 -0.31945583 0.0074400473 2.0719743 -0.04964373 0.9790862 -0.234907 -0.52351266 0.38636187 -0.4952398 0.57526976 -1.1159006 -0.3270639 0.17356797 0.11143288 -0.44735828 0.07628121 0.6070761 0.2790221 -0.33010525 -0.63240254 -0.74298877 -0.6066242 -0.59638005 0.36550412 0.36224204 -0.08134719 -0.19352166 -0.49302337 -0.39950043 -0.49349457 1.0430088 0.707722 -0.5672164 -0.5008001 0.050771598 -0.11288835 0.61420876 0.49938196 0.6066578 -0.6238649 0.6975035 -0.46317443 -0.44029513 0.6379229 0.5328896 0.4173582 0.640588 0.12474132 -0.5593784 -0.22261642 -0.922239 0.8983208 1.2515069 0.9125579 1.0196571 0.10310659 0.059380975 0.8751 -0.613162 0.8564424 -0.2689597 -0.61960286 -1.1193514 0.0012228489
2099 0.0068981056 -0.5813898 0.958103 0.41517615 0.35689983 0.7903685 -0.29299566 -0.11039543 -0.33983216 0.0737953 -0.07944512 0.17044827 -0.66214716 0.19830436 -0.84144205 0.05664547 0.29858217 0.3580447 -0.35881355 0.18438438 -0.9700423 0.029463328 -0.79621387 -0.484057 0.14974731 -0.101651825 0.69083315 -0.23575118 -0.2260956 -0.4742685 0.3706884 0.14789145 0.17340769 -0.1478167 0.05353002 0.29600218 0.84881943 -0.20071436 0.86108494 -0.2589944 0.65432835 -0.28592235 -0.7912549 0.7068855 0.7157175 0.39728624 0.4697914 -0.16590019 -1.0297152 0.10882494 -0.333165 0.6918471 0.31190482 0.028448507 -0.24072096 0.361066 -0.11422606 0.54906195 -0.23916546 0.19668947 -0.1563047 -0.67451924 -0.7267425 -0.44055745
183 -0.7937157 0.33196634 0.8260922 0.40759942 0.043670192 -0.6078839 0.32014933 -0.2352611 -0.010802986 -0.20456222 -0.6120186 1.1900916 -0.42541158 0.7992227 0.593606 0.32074893 0.815469 -0.087832086 -0.29550576 0.5473636 -0.72046286 0.6100728 0.22979128 -0.19446367 0.14235434 -0.039492015 0.24235041 -0.2651656 0.37128663 0.9881257 0.057589155 0.045296274 0.3891622 -1.1393464 0.5079265 0.33103627 0.6177463 -0.06130901 0.20468575 0.5986148 -0.24691588 0.031602237 -0.23735432 0.49848035 0.1386211 0.3282758 -0.117177844 0.03153216 0.22695023 0.6161727 -0.74262553 -0.20318115 0.24068838 0.6399122 0.9341291 -0.2700015 -0.11608795 0.15858416 0.036866095 0.9489394 -0.386829 -0.94007695 -0.9407926 -1.3405758
3767 -0.7941685 0.15763393 1.0503448 0.43467224 0.038402446 0.4969593 0.0920548 0.31218964 0.4590699 0.1263707 -0.7962415 0.13526142 -0.49700832 -0.27886564 1.5862981 0.86045855 0.28519297 -0.83032864 0.03209379 0.21846443 -1.2453525 0.11789318 0.75881636 -0.866364 0.17586322 1.0703547 0.7587997 -0.28340334 0.48316833 -1.2485092 -0.2672459 -0.88248813 0.70871985 -0.07858004 0.40517142 0.36866432 0.22413902 0.86408037 -0.9549332 -0.8635001 0.365982 -0.9851013 -0.17382178 0.28641027 -0.942995 0.7111186 -0.8214394 0.8217647 0.1564521 1.1563365 0.3050451 0.7376034 1.3340672 0.10744788 0.0059347725 0.16832523 -1.1293857 0.21925096 -0.08929047 -0.3400486 -0.13588236 -0.47828346 -0.12963898 0.50760615
9370 -2.0375245 0.7280497 0.18198223 1.197143 -0.1124064 0.7543518 -0.18927571 0.47377628 -0.7085059 0.013199745 0.71593297 0.70125663 -0.23624475 0.4894977 0.70434403 0.6262688 0.1775899 0.32541117 -0.37942648 0.60765487 0.17055814 1.5485389 0.2221455 -0.65572596 0.807096 0.33672896 0.38378897 0.06262982 -0.12194324 -0.4236789 0.99333704 -0.2546412 0.32819602 0.50145906 0.2914746 0.4070279 0.012371591 0.53779745 -0.81618404 -0.51173085 1.1476623 -1.0021064 -0.24569029 0.89553905 0.3004295 0.6795616 -1.0154607 -0.43233046 -0.015011685 -0.74796313 -0.45627823 0.0031466854 0.85641897 0.42488632 -0.98510295 0.5279281 -0.52796555 0.1366393 0.24019113 -0.031447988 0.16460511 0.20698734 -0.40396917 -0.5927943
C2930930 -0.94659305 -0.17359702 1.6136916 0.2624131 -0.77369535 0.49474877 1.0140982 0.23708034 -1.2273418 -1.0073647 1.0485345 0.8058902 -0.41397625 0.2183039 0.8014085 0.69560623 0.105480365 0.7101559 0.008588557 -0.7476742 0.59125406 -0.5385294 0.039800424 -0.27760485 -0.49973118 -1.2216015 0.02633961 -0.053512245 -0.029791648 -0.32417062 1.4989613 0.050216675 1.0630604 -1.4374619 0.08863237 0.3363755 0.46646872 -0.11239334 -0.012643716 -0.12728085 1.004964 -0.38120872 -0.23355457 1.1763085 0.5264079 0.33095416 0.32303858 0.18472414 -0.5955183 -0.5376364 0.5331894 1.9305366 0.30139717 -0.41103473 0.3905165 0.13125682 -0.20358548 0.25825608 -0.33516803 -0.44577473 0.8984488 -0.8250653 -1.5932232 -0.66654783
217 -0.3560221 0.040836003 0.5008107 -0.04574234 -0.4966753 0.3760358 -0.691451 -0.068552256 -0.23917675 -0.015068034 0.06999952 0.36463258 0.06977613 0.13056946 0.37749568 0.4923323 0.7414502 0.13820508 -0.31217885 -0.058857605 -0.76158524 -0.21100372 0.06534303 -0.37643674 0.17741609 -0.27006727 0.6739837 0.46948928 0.8022021 0.035465237 0.1521861 0.4392935 0.11017495 -0.55622005 0.8460197 0.37309918 0.20541362 -0.22069998 0.07241517 0.54735655 0.06857134 -0.4089309 0.16480224 0.91397035 0.7401501 0.53019226 0.61199087 -0.087412156 -0.090186454 0.66358024 -0.40630838 0.5962632 -0.101675496 0.1785493 0.20480956 0.16866353 0.15105906 0.19483636 -0.6034313 0.720475 -0.047072403 -0.17442009 -0.43547827 -0.3379406
C1836860 -1.6651591 -0.04063124 -0.16169204 0.46697742 -1.5624856 1.2247118 -1.5593278 -1.0957896 -0.6282146 -0.5182372 0.2902667 0.43192807 -0.30865687 -0.83263797 -0.071476735 0.10411052 0.8611094 -0.030240454 0.0028323927 -1.8199842 0.521021 0.022426521 1.6390828 0.21812323 -0.71249175 0.20560794 0.450505 -0.55689234 1.0440161 -0.6619002 0.39031076 0.26821035 0.10102437 0.07987969 1.9344461 0.20908044 0.8505505 0.06829591 0.6495422 0.9975136 0.59220773 -0.13082682 -0.58711284 0.70430577 0.6535398 0.74577 1.1399198 0.8727899 -0.22296372 0.60440135 -0.91692495 0.83689 0.70564336 -0.9992805 0.7271589 0.6249519 -0.8775061 -0.31390905 -0.98648465 2.14665 -0.53670114 0.8711168 -0.6324105 -0.50755686
2100 -0.02026903 -0.79632854 1.1503648 -0.083731666 0.3517135 0.4895292 -0.1643846 -0.020063572 -0.9710172 0.57870764 0.02559045 0.006215497 -0.88181686 0.16181292 -0.4689932 0.5309659 0.6685587 0.12783071 -0.27064654 -0.3113664 -0.8072545 -0.27195725 -0.734068 -0.22121084 0.36786446 0.20471965 0.75595605 -0.10021335 -0.17026308 -0.03974961 0.48465586 0.28275523 0.038001582 -0.7041029 0.7757171 0.18244904 0.50437045 0.10391875 0.73988247 -0.1841963 0.09209187 -0.86895394 -0.6681775 0.5682498 0.35371625 0.14712928 0.61508363 0.16613464 -0.92028725 0.795048 -0.22449559 0.10323296 -0.17496605 0.48395875 0.7694407 0.09593733 -0.18414538 0.4198749 0.070517756 0.07388431 -0.04373734 -0.75970876 -0.67610645 0.09712517
596 -0.35619998 0.38646445 0.50224817 0.31368044 -0.38871005 0.5207213 0.19180052 -0.45526475 0.8896707 -0.116499685 -0.21686587 -0.7505997 -0.095259555 0.523993 0.14263259 -0.63228405 0.30908692 -0.27693495 -0.023754915 0.9678854 -1.5687233 0.12375343 0.47437125 -0.56747824 0.24144487 -0.30548474 0.15867503 0.8771326 -0.5743937 0.08033943 0.40850645 -0.36482832 -0.73890114 0.15462983 -0.082998544 0.05413107 0.26423818 0.07449677 -0.6388494 -1.0483104 0.071428664 -0.17776024 0.35355264 0.56264883 1.035563 0.2958881 0.81968606 0.06458447 -0.029920274 0.46814257 0.022411168 0.41716003 -0.28910667 0.6493171 -0.06844569 0.2690808 0.7751155 0.06637804 -0.45352995 0.4935123 -0.24428612 -0.32479852 0.31124496 -0.29603234
134 -0.38150087 -0.04432409 0.4145172 0.3507642 -0.48443043 0.08557638 -0.6483643 0.40151218 -0.08563377 1.0201137 -0.07098318 -0.10306041 0.05751073 0.5037739 -0.21469544 -0.10778663 1.7769887 0.83625627 0.09871162 0.78204954 -0.54764235 0.08177292 0.4823082 -0.47505605 -0.1545825 -0.42275894 0.5493646 0.18286017 0.28993398 0.7166589 0.41571766 0.5441278 -0.21101567 -1.164592 -0.08639121 -0.4321261 -0.30849636 -0.32551408 0.21954429 0.8868654 0.5238856 0.15803564 0.29921812 0.052917987 1.0109103 0.2245786 0.728205 -0.14961487 -0.20244415 0.5553777 -0.12515832 0.5719715 0.92061347 -0.23118314 0.046859957 0.5463246 -0.44787526 0.40847546 -0.108800314 0.43392688 -0.154464 -0.55135113 -0.6087402 -1.2078139
57817 -0.21351843 0.49363855 0.5694954 0.86261004 -1.279022 1.0315822 -0.14944914 -0.48502186 0.7245802 -0.55762887 -0.35727608 -0.4798743 -0.01277132 -0.5618281 0.034308176 0.7624157 -0.34373784 -0.45494992 -0.855462 1.0390421 -0.39073142 0.6630887 0.17086242 0.7322219 0.18245253 -1.8504648 -0.10484579 -0.9397071 -0.38319948 -1.105856 0.48870757 -0.31631824 0.66588724 -0.41649798 -0.14219977 -1.3853574 0.6102617 -0.09619137 -1.2629428 0.42697018 1.3421928 -0.009886133 0.052065816 0.07332677 0.7571365 0.4067487 -0.099529326 0.077521294 0.016191605 0.24492341 -0.8348037 0.830787 -0.48551407 -0.15298799 -0.2519438 0.49132335 -0.6970244 0.9170416 -0.022303667 0.6475657 0.9688072 0.84880817 -0.6092447 0.9571952
3308 -0.21318354 -0.24675792 0.09604018 0.16580789 1.0131513 0.07792531 0.99352807 0.6693981 -0.39639157 0.06059541 -0.05604633 0.6107606 0.46834612 -0.38254339 0.10942401 -0.7557663 -0.43073714 0.5105218 -0.24827372 0.27053684 -1.1648664 -0.29680645 1.1980795 -0.87110585 -0.056959264 0.10959593 -0.5382927 -0.63328546 0.10927869 0.8264899 0.18068913 0.1486697 -0.2591723 -0.89017063 1.0004282 0.8339123 0.08733737 -0.17857127 0.29827595 1.1356663 0.83944494 -0.1416906 0.17807923 0.8457316 0.8070852 1.2309391 0.8083855 -0.18872406 0.31837958 0.39651987 -0.17079055 -0.19379601 0.37493694 -0.5549431 -0.39251179 0.48576656 -0.8155309 0.39353648 -0.37805843 0.67708063 1.2627707 -0.38973796 -0.40766096 0.22158897
335 -0.77801913 0.16404055 0.4816854 0.13731998 -0.26097587 0.12625137 0.44348025 0.89838076 0.2228046 -0.20389356 0.6337425 0.31918916 -0.23591664 0.118906915 -0.49288195 0.2551881 0.04172521 -0.17435834 -0.108561866 0.22597237 0.6193234 -0.08822278 0.50058836 -0.3532843 0.40438274 0.14412478 0.21525587 0.71499044 -0.24328798 0.33824435 1.0306166 -0.1528317 0.4688422 -0.96426296 0.5581085 0.6341073 -0.54542756 -0.47078902 -0.47362527 0.14600955 0.46115792 -0.40255323 -0.6323556 1.2804656 1.203124 0.10653283 -0.017276483 0.14270487 -0.34293956 1.3701525 0.06553638 0.56484 -0.43060783 -0.59278274 0.4923346 -0.52926785 0.13843946 -0.69861686 -0.2718798 -0.9256919 -0.07096925 -0.43124476 -0.19617926 -0.48507315
7048 -0.13070114 0.41531658 -0.016172089 0.24148373 0.069992214 0.48322025 0.27152646 -0.20750433 0.8466624 0.20972444 -0.8364184 -0.30122843 -0.20999278 0.35296884 0.3185699 -0.11604463 -0.28980237 0.16163921 -0.4757911 0.95549804 -0.98098725 -0.6510168 0.2594108 -0.56718946 -0.00627721 0.24484149 -0.15007587 0.58777696 -0.7533642 -0.38890317 0.56332874 0.10014901 -0.39709285 -0.064281665 0.56830484 0.22276795 0.59843785 -0.4699219 -0.063227266 -0.13757157 -0.01919436 -0.25761673 -0.019983433 0.41941229 0.70971066 0.57549685 0.293773 -0.02591169 -0.91984886 0.44167423 -0.27748796 0.7997701 -0.2535933 0.14049555 -0.3738859 0.353606 -0.03891057 0.45995784 0.3915871 0.5714671 0.32670632 -0.41438887 0.19538064 -0.792099
3586 -0.75329614 0.6391222 -0.28152782 0.5976895 -0.48440436 0.5344551 0.2966654 0.3742687 -0.34531578 0.88065416 -0.7067517 -0.36414906 0.2790104 -0.25407043 0.17921191 0.23521091 0.5446189 0.91466916 -0.1538534 0.23533753 -0.2876662 0.3309358 0.5773261 0.17906065 0.45916232 -0.040378746 0.5132744 0.38288498 0.1251966 0.11154395 0.01930595 0.3200969 -0.16765323 -0.53547126 -0.012271709 -0.18460868 0.88503164 -1.0919482 0.24643101 0.024288934 0.520394 -0.19099632 0.43525556 -0.31257573 1.1701518 1.0807018 0.7559704 -0.4234532 0.107140936 0.56941205 -0.40868342 0.34039155 0.6699821 1.1478465 -0.43971616 0.939046 0.0638594 0.6272187 0.26935273 -0.20526536 -0.045159344 -0.3358307 -0.19223836 -0.29330146
3077 -0.626935 1.0610533 -0.118415855 0.3143363 -0.7856207 2.0797625 1.1120814 -0.29516992 0.7416666 -0.27453306 0.46974677 0.29583266 -0.87872857 -0.24127741 1.2701246 0.15090348 0.3737549 -0.16827668 -0.77142715 0.8751679 -0.019842558 -0.39473552 0.81012917 0.08989802 0.60077864 0.4480851 0.32881707 -0.79488 -0.13034709 -0.60794055 0.24651462 -0.45546773 0.06595964 -0.06829257 1.2751848 -0.34284145 0.0605076 0.9977408 -0.73224735 0.8198895 1.0208044 -0.18889987 0.5019716 1.1302437 -0.46460715 0.9586927 -0.44739085 -0.025114909 0.62711906 0.18107434 -0.5710132 0.51189333 1.1500937 -0.49158064 -0.35904017 0.16941097 -0.80175114 0.44322318 -0.12367203 -0.27869177 -0.04244631 -0.5445937 -0.5217231 1.502996
5465 -0.33580217 -0.119752035 0.922797 0.1871979 -0.68625987 -0.16948418 0.5243793 0.7353154 -0.045533385 0.19032992 0.57728153 0.65846074 -0.20396501 0.43413797 0.17937602 -0.13089892 -0.29049855 0.14929056 -0.054416914 -0.23471962 -0.43431714 0.57399946 -0.10147273 -0.21200122 -0.17272244 -1.2337383 0.4771693 0.019086966 -0.179836 -0.48297378 0.9477772 -0.013929172 0.5735289 -0.13541543 0.6549437 -0.20711544 0.19346803 -0.05036816 0.2791626 -0.3692519 0.24989879 -0.1786599 0.08314316 0.8735733 1.0249476 0.92729217 0.11310972 0.06623057 -0.15788855 0.20013472 0.24044608 0.9545516 -0.2498734 -0.08257457 0.5444393 -0.28889295 -0.31027326 0.03773792 -0.2277038 -0.26560962 0.6373301 -0.38527292 -0.8473599 -0.14147943
367 -0.4900159 0.6098932 0.28374866 0.2575856 -0.19292784 0.66798043 0.18243912 -0.17138539 0.97479254 0.33764884 -0.15270218 0.0053401277 -0.25897175 -0.41685146 1.0050347 0.026056487 0.36149636 0.14481024 -0.3884734 0.31756935 -0.2324695 -0.39527062 0.61133987 -0.7138522 -0.411004 0.97501075 0.3253987 0.4485715 -0.50590086 -0.14100939 0.7887283 0.29504016 -0.06328042 0.695809 0.40242678 -0.22644696 0.786353 1.0516794 0.05006337 -0.32978225 0.43658876 -0.29653096 -0.3036935 -0.13615547 0.061771348 0.15864421 0.46124807 0.7643389 -0.83408123 -0.0026502365 -0.6212634 0.5301296 0.4507017 0.2931515 0.028631259 0.26648444 0.3646537 -0.0898305 0.078825615 0.44079864 0.21774879 -0.39030978 -0.39081696 -0.254554
1392 -0.20606156 0.6588785 0.31957838 0.73141 0.9022425 0.20868306 -0.6078091 0.58510655 0.18662098 0.56075686 0.14254786 -0.20828378 0.04846164 -0.11743986 -0.7414867 1.4583477 1.0933007 -0.89128727 0.22239153 -1.0693812 -0.52807224 0.09617432 -1.042424 -0.29761732 0.61798394 0.39996603 0.31758165 -0.048364952 -0.94186425 0.007995688 0.60533535 0.6668758 0.076224074 0.08732966 -0.27056286 0.581904 1.1990522 0.125884 0.6177064 -0.013639694 -0.250499 -0.1455316 -0.9427581 -0.52127576 1.100397 -0.17359579 0.5888036 -0.41190383 -0.44580865 0.502149 -0.16643517 -0.09324765 0.56821275 0.039540946 0.6429406 0.34789208 0.83331466 0.25005507 -0.27150136 0.53589654 0.473834 -0.6854898 -0.8472513 -0.13879685
23411 -0.2943161 0.1769126 0.7046692 0.39937136 -0.28850484 0.40237054 0.1232329 -0.15488717 -0.09803509 0.21525945 -0.10068186 0.22412083 -0.4143618 0.23010126 0.008520784 0.63232553 0.2969002 0.32714793 -0.30913725 0.28826866 -0.5633716 0.26283094 -0.08597503 -0.2439595 0.31530818 -0.59984666 0.6518539 0.57588893 0.38934103 -0.19258544 0.23005259 0.2747748 0.6423064 -0.055694394 0.5049175 0.3460297 0.63734734 -0.33916554 0.49424687 -0.20612316 0.33410317 -0.42968604 0.10686476 0.756486 0.74081635 0.7034025 0.3713268 0.19179258 -0.067434005 0.44229648 0.050829217 0.5314961 0.20789827 -0.019787928 -0.10960661 0.15772852 0.14511555 0.14098856 -0.07251819 0.480332 0.30262262 -0.6833754 -0.7628991 -0.68271756
