2996 64
C0004096 0.46908447 0.31653717 -2.4026272 1.0438994 0.43913493 -0.23576427 -0.94764525 -1.5238439 0.15861055 0.25659835 -0.50551605 2.5984929 0.070477165 0.0019092142 1.2522405 0.091713145 1.041726 -1.0929048 0.32284504 0.98173606 0.14223936 -1.6235529 1.8795189 0.26751345 -1.3329648 -0.9682216 -1.2984022 -1.1813788 -2.5198402 0.6896565 0.37760875 0.845882 -0.022560263 -0.04147336 1.0387703 0.55161625 -0.99096614 0.52409303 -1.5594239 2.2197857 1.5769393 -1.2364441 -1.5366867 -0.35821772 -0.9350085 -2.970423 0.7626449 0.49725193 -0.19107021 1.7239405 -0.67262 -0.4213767 -3.1133058 0.14164728 -0.47496563 0.30162087 1.5205599 0.28686908 -0.5842303 -0.21419318 2.1764371 -0.063209705 0.0320604 -1.4421427
C0027051 -1.3431801 2.8857903 -0.46730486 0.7718994 -0.5162448 -1.3967763 1.8198006 1.4299778 0.13198678 0.3516546 -0.22758488 -2.4580991 -0.48736894 2.0758634 1.0706253 0.49345222 2.2322683 -1.3808956 -0.01348468 0.85084593 0.86162627 0.3280311 0.92485636 0.14884308 -2.8359847 -0.201137 0.9757384 -0.5003364 -1.2095714 0.11281648 -0.16193315 -1.1788315 0.14303632 -0.2681816 -0.49691427 -1.9102873 2.0971653 -0.97554684 0.77826935 1.7999971 2.4855485 1.0044467 -0.34226373 -0.28888407 0.39809695 -0.81441885 1.3599591 2.4839413 3.3883243 -2.2722778 -1.6906132 1.0740434 5.2329335 -3.0058656 0.5204596 -0.3093118 0.23367392 1.1375058 0.22264199 -0.5427102 2.205735 -3.4654732 0.28027856 -0.8226038
C0003467 -0.1645855 4.2043204 1.7469616 -0.43817908 -2.3089302 2.166712 -0.73332113 -5.3037133 -1.9044633 -0.02460098 2.9845998 -2.499847 -3.777139 1.6073337 1.837312 -0.6083717 -1.2726479 -2.8836927 -5.265337 -4.7091694 -3.4107888 -0.28524283 2.0264676 0.2441301 5.2531524 2.0880535 -2.9279637 -0.75793153 -2.9561388 -1.3659885 3.4783707 0.7870799 -3.6272254 3.0401802 -2.4759703 2.6071367 0.40014315 5.256538 1.2135954 -1.1679246 -0.5993397 -1.2829283 0.3004567 1.6839654 0.5189593 2.895928 2.1857727 -1.5594329 -0.3522662 -2.7264442 -0.07246232 3.0564632 1.0649418 3.8801062 -1.4886854 2.4465244 3.1510348 0.11700755 -3.1727247 -1.2454926 -4.1741204 -1.8259342 -1.9517158 1.3314536
C0271650 -0.26251626 0.7552174 -2.7455652 -1.604954 0.044287834 2.0969408 0.663098 0.9160551 -3.1390085 -0.7613367 -1.3400288 -4.9135976 -2.9026265 -3.1013317 -0.13516374 3.1325352 -7.725196 0.7506255 1.7135476 0.8335457 -1.8157876 -2.4023352 -1.3759621 -2.5266209 -2.3650892 0.25831518 -5.7554364 2.3988268 -5.4220476 0.7121997 -0.942967 0.6386403 2.7272513 0.8800947 2.79888 -2.9078944 -0.5752063 -1.4058131 4.8864007 2.5281022 -0.34821576 3.696619 0.13128547 4.048772 2.3224726 -2.0881479 -3.8981183 -0.07463681 1.9076358 -3.3528874 -1.8444808 0.8485973 2.4910269 -2.7108905 -2.130741 2.8722842 0.0955883 -2.6716118 0.15653865 4.583348 -2.5677576 4.4022613 0.33597454 -2.7357647
C0007785 -3.9497893 -0.97168875 0.2492197 -5.1363525 3.4607716 4.575856 2.818215 3.1233292 2.299644 -1.8812596 -3.832405 -1.7597377 1.8019508 3.7781637 -4.4082975 -1.3137172 -2.5570686 -1.5331455 0.64195657 0.15033108 -0.2292873 -3.7664173 -4.412911 0.9817242 -1.9636816 7.692204 3.9606166 -3.3074439 0.73745924 -3.3804924 4.210014 1.2479475 -1.1121522 -2.8254592 2.075601 -0.09666825 -1.721877 -0.90431714 1.5430951 0.2570596 0.056491636 -0.6017662 -1.9373114 -1.1649969 3.917888 4.3461843 2.4057684 -1.5665431 -3.7873988 3.0212178 0.9116369 -2.006158 -1.3901528 2.4061458 -0.16107118 -0.12270984 -4.643402 -3.6580777 5.824708 -2.2807837 -1.7479703 -0.6224315 -6.0993953 1.4648324
C0262584 -0.8330531 -3.7650383 2.4602046 -1.7594973 -3.711 -0.5851473 -0.40608725 -1.6816456 -3.2764022 -5.0877266 2.344553 0.5578408 0.45788306 3.9416099 5.1613245 -4.8647337 0.53302103 -3.3968847 3.2992003 -3.20295 -0.95035255 -0.3426606 -3.179734 -2.8126552 -2.329638 -2.8101325 -1.5323062 -3.0291615 -0.2800248 -2.522598 3.27062 4.7482395 1.072445 4.331038 2.0666852 0.6122129 1.5940305 1.700782 1.8994606 3.887904 0.6159079 -6.6504793 0.677774 9.225898 -2.257999 -0.76652896 -0.08338604 -3.553749 -0.7310765 -0.7432541 -1.6419885 -4.646279 0.72476965 0.40925324 -0.009343001 -0.30067858 -0.3099172 1.5041598 0.0006570277 2.3398523 4.578178 -0.4292764 2.2223332 1.2986343
C0028756 2.3781 -0.84527546 -0.6544459 4.964109 -2.3416274 7.3496056 -1.2418466 0.3099575 -1.4668102 1.3522186 0.03035451 -0.9274952 -2.4281616 0.5035449 3.6568232 -1.6707641 -3.3379796 -1.728837 -6.042682 -2.4550178 0.69385487 -4.143506 3.8687708 -7.313376 -0.13874216 -1.9517382 -1.0439883 -2.1249588 -3.0507567 -0.017419046 -2.3759341 1.0793307 1.2983509 -0.22422263 5.4239345 -4.653821 1.3613616 -0.53525436 4.2149115 3.6660073 -1.6015838 5.684568 4.443276 -1.6728598 1.4328525 -2.3624096 -2.344809 1.6395277 -0.80554885 -0.35958752 0.77898836 2.790617 4.833697 4.3033876 4.2035193 2.321215 -2.0456882 -1.0168835 2.0479074 4.0673532 -5.163768 -4.347521 2.904477 3.8144526
C0030319 0.23209262 0.75505584 2.2089624 0.205836 -1.4955987 4.8070445 -2.297794 -3.7100158 3.0968044 2.7410216 -2.8256714 1.1811264 0.2869388 8.145599 2.3436596 3.6110983 0.67978543 -1.613731 -1.6484898 -5.012318 -0.88722986 5.1443706 2.1582425 0.6264343 5.096451 4.1219826 1.0508672 -2.926154 -0.45792624 1.287552 1.0041739 -0.8569025 1.3322508 0.67364615 2.5639222 3.8032422 3.5419848 5.890233 5.565793 1.7345086 -5.800873 0.11269079 -0.65325373 2.4259782 -0.9959009 -0.82962966 2.6762958 -1.6921568 -1.3538252 -4.738352 -3.8583164 3.471142 -2.6129017 1.1234995 -2.012612 5.628084 -1.2132108 0.052765645 -7.6206093 3.2994187 -3.8052096 1.0713015 1.4975802 0.61292213
C0032463 -0.40242818 -1.3256176 7.4781647 -2.654801 0.19430059 -5.5562005 0.64996254 3.7196121 -3.1397243 1.1116737 -0.46211457 -0.74661803 3.2618694 -0.44785172 1.0392896 0.32064453 -1.5576547 0.95810413 -0.25731727 0.22944942 -1.40715 4.308947 1.0292267 -1.0497271 11.49361 -0.7280186 0.35688734 -1.282038 1.1292624 -1.0422066 -3.7247915 -4.7259526 3.8333766 2.6342678 -0.6364058 -4.9329443 0.34667057 2.439047 -4.4173503 -7.69743 1.5375417 1.8326641 -1.0102926 -2.5773907 -3.9959073 1.7210715 -8.61505 3.0988142 -2.6486588 1.106875 0.05898991 -5.830845 -1.8106085 0.78035 7.6718445 -1.8927169 -4.899568 -0.6100963 -0.9334484 1.1793385 3.6267061 3.8154936 -3.0854332 -0.27214426
C0028768 0.27402502 0.18071319 -0.71052414 -1.0434405 2.2483678 -0.4646099 -7.0761194 -5.7966766 1.1267167 0.1412472 3.1297717 -2.5636268 0.6673449 2.9581578 2.4333415 -1.3052678 -3.7943492 -5.169159 -0.3728327 -5.5697803 -2.2617495 2.14225 1.8167619 3.7710352 -0.048121605 6.2364993 2.5561373 3.4065735 0.43278575 -1.4112486 -1.6690891 -2.6618738 0.7165678 1.4161316 -0.42751357 3.1322868 3.715533 2.9147964 4.312045 2.7394364 -0.58615065 -4.799424 2.9887533 -0.55603164 -2.8005576 -3.1217086 -0.13714188 0.64139485 0.5376227 0.5812392 -1.4673617 1.4173826 3.1915677 5.6711364 2.4193065 3.5634613 0.9598073 -2.1016815 -4.083052 -1.2614818 -6.7831697 -1.1631912 2.7002 2.174226
C0030312 -1.7996134 4.0145454 2.3371446 2.3272278 -2.1813715 -0.04099055 -3.424639 -3.2529478 -1.1851504 2.5485737 1.2596254 0.2755222 3.0796661 -2.7409241 3.364669 3.6446054 -1.4793231 -4.802887 0.24506867 0.98990697 -0.024704969 -8.190233 0.39815304 -2.9526882 -1.4488904 2.7219858 2.8895452 -2.3787305 3.4153576 -0.84818053 -2.351656 -1.9536471 -3.2999852 5.941142 -3.7107522 1.1246139 -4.3942466 -2.7314327 0.3086178 0.22700661 -0.62602234 3.0981185 -4.128235 0.9946462 -5.701039 -2.3765693 0.21236426 -0.08722616 -5.4453554 -0.7433836 2.9139233 1.0335354 1.2815307 -3.2282155 -3.3754222 -1.2634728 -3.5903792 -2.7536154 -1.5990627 3.783499 2.8274262 -1.4575334 3.9796085 -1.411058
C0085207 4.1862974 1.218141 2.6942973 1.5043161 3.7249017 0.12954059 4.3715024 -1.6496708 -3.9177687 6.73913 -0.62468827 -6.398617 -3.9063344 3.1250858 -2.8770008 8.053273 3.1165214 1.056836 3.344289 0.9511512 -6.1358085 -2.4609394 -2.4119196 -3.094327 -2.7284966 -0.4689998 0.16463646 -0.31553373 -4.1527863 5.948243 -0.9893562 -4.326371 2.5430298 3.4164233 1.2243967 -5.7249584 -1.0434055 1.8729988 6.821685 2.71582 -3.041947 -3.1343603 0.20720455 5.925222 -3.2366273 -2.6656733 -4.4797735 -0.77323496 -0.98591155 6.9051332 -0.87476504 4.1893487 -1.362771 1.0304887 -4.050887 -0.07975689 0.9177472 2.2898695 3.0843146 2.1896472 -2.0474267 -5.02319 1.6410521 6.1341534
C2931384 -0.50619125 4.9324303 0.6720166 -0.19934528 2.9777226 2.414054 0.88888913 2.576567 -4.0472317 0.5717426 -1.828535 2.6785157 -4.2964406 1.0425845 -3.1976635 0.9031183 -2.9204128 -2.3658986 0.24812648 -1.795594 -0.4189755 4.9391227 0.31967488 1.6579 -0.43487248 -2.8406756 -0.80970687 -2.6869402 -0.19513138 -2.1471035 -4.054167 4.5548224 1.13775 2.2927384 -2.2820466 2.4517686 1.8149383 1.3955231 4.4031773 2.0389435 -0.22339015 -0.62174886 -2.424224 -4.882205 -0.28503153 -1.3376199 1.0447208 -0.0049710413 0.42900357 -1.4091538 -0.90836984 3.0189228 -1.4232113 -2.333734 -3.0355885 -0.587416 1.8428009 2.72905 -1.641444 0.38071045 5.002186 -2.947759 2.927399 5.6807666
C0020474 -1.7228807 2.8499777 -0.65618604 -5.8966894 -0.50557745 3.3813946 0.2436504 -1.781973 -0.6571762 -3.7002382 -2.309629 -4.3011003 1.7132505 0.5838187 -1.7003578 3.4962964 1.0188583 -1.1262792 -6.022082 -2.5323288 -2.3130157 1.0929829 4.860156 -6.3835607 -5.046676 -2.5637188 -2.5316794 -2.0210278 -2.4345691 2.582307 -4.7004223 -0.31029695 1.1945792 1.1090738 -1.8225362 -0.94966394 3.2236745 1.4451263 0.74439144 0.8836473 0.2805997 -4.9079185 5.925977 0.7359077 7.1035056 9.124039 -5.3828344 5.3227873 -9.381776 9.212139 1.4631068 6.154555 5.2983975 -4.0999994 -0.080664024 5.7046695 -4.961549 1.2911946 -2.4603403 -0.07623668 1.1075791 5.475266 6.653385 -5.2154355
C0025193 0.5834961 -1.4156681 2.723636 3.7193532 1.5095978 3.8086963 -8.344392 -6.0947394 3.6954374 -0.17042407 0.15456551 -2.581088 1.2305115 6.651906 2.9588735 6.354416 -2.3644106 -2.706661 -3.8262336 2.0297532 -0.44993427 0.32063055 -1.76753 -2.3682518 -0.62041914 -1.7306088 -5.406721 1.0084709 -0.45283708 -4.2148895 2.7710693 -0.92219466 2.0260563 5.075153 0.25573146 -1.4170641 2.2008922 6.9737267 1.8405471 -2.602896 2.3090417 1.5728049 -1.9208071 -0.30569053 2.8382094 1.4167432 4.0763416 -5.867018 3.2901826 4.441498 -2.6870391 5.456314 0.81177515 -3.0442796 0.4434887 -2.057826 -0.5739772 -0.7980134 -1.2237165 2.8065152 1.198672 -3.5346968 2.6419666 2.6788661
C0740302 3.9399314 -0.80566627 -0.22381482 -2.905112 -2.6843908 -4.156124 2.7309694 -4.016724 0.7005422 -0.09647885 -3.4154432 0.12463878 3.3152587 1.1800352 2.329595 3.4297931 -1.0956745 -3.2741525 -2.687916 1.2409718 1.7886096 -3.351204 4.2459755 0.7531934 -3.0466607 -1.4799571 0.98865116 1.3870378 -0.29700938 -1.3655177 1.4629976 2.7113528 -1.5033951 2.6603253 -6.534337 0.06544249 -5.3100557 -6.4241076 1.0903047 4.659788 -0.22625224 0.13798793 0.32759947 -2.1831045 -2.1135554 0.049822237 -1.833709 -4.6608415 -0.036813628 -1.0173943 -2.957884 2.850304 0.25511506 3.5546408 3.5348277 -0.28824612 -1.1782147 3.5079694 -6.5628595 2.475188 -1.6036801 -0.4262644 -1.5031012 0.5656409
C0751848 2.2553558 1.0467921 -1.393596 3.8772235 0.29454166 2.0119805 3.0457456 -4.200795 0.49539313 1.2136567 -2.423819 -1.2109741 -0.37207222 -0.7575517 3.7686975 2.8234591 -1.2448703 1.0922484 4.305199 -0.7889495 -5.2645335 1.160744 3.4329455 -2.1836472 -2.0870972 -0.4102949 -2.116214 -5.195184 1.3154346 -9.300424 1.7756255 -1.4363918 -2.247915 -6.8763423 -4.5400734 -1.4096574 5.840185 1.139097 0.024147624 -1.3477187 -0.95725787 1.7885619 -3.5475638 5.3529706 1.7151674 -5.11153 -4.214582 2.9033756 0.5201031 0.9362111 2.727982 4.489181 -0.058148187 5.808856 -3.4558113 3.5741892 -2.2729003 -2.1095295 -3.7421963 -4.306662 6.762307 -6.0231457 0.74408185 0.05343567
C0162316 3.4749541 -1.1329169 2.1501672 2.6115956 -0.8143864 0.43666762 -1.3992683 0.049231034 0.10850127 6.814383 0.9915361 -4.830149 -1.4640621 -6.9680147 1.3410127 6.4113536 -0.097781636 1.7698497 -2.1747875 -0.6283617 0.30034187 1.1353418 -4.7074666 0.08196749 0.5738426 5.083558 -5.464912 -5.1765885 -1.9761684 -0.5338568 -2.0427184 6.2194834 0.58703566 -0.5215379 2.4980626 -0.85092926 2.4501312 -5.115383 2.6104782 -0.30308238 3.7202535 -3.7720585 4.0056148 -2.3169966 -1.6175709 -1.0440652 2.3511817 -2.811206 -2.1928108 0.9110251 2.837079 6.406737 4.2214527 -0.42185876 0.12683146 0.88316065 -3.2788846 -1.4047645 -4.247859 1.2982327 0.9477381 0.37642288 2.249619 0.6436347
C0152264 2.2348182 2.720424 -2.5492916 0.39063329 -1.8542622 -4.0652614 -3.469159 0.20106012 -2.0599165 0.51528996 -0.61973274 -0.3199525 4.27775 -6.135662 4.979458 1.772059 1.1488444 -3.4109433 -0.5927621 3.969273 6.1618667 0.032204397 0.05601036 -1.1926755 2.4635506 1.4746156 0.5696403 -2.668047 0.06533047 -1.7709049 -3.5900643 1.2091385 -0.12106926 2.0031118 3.8237834 -6.8899107 -1.0261728 -7.335985 2.9532413 -3.0696087 -3.065658 -2.0952652 1.2663475 1.8074294 3.5297167 0.37339836 1.5090001 -0.2482797 1.3223423 0.62400186 -2.219511 3.9652803 2.2487178 0.2515513 -3.5415707 2.4446292 -1.6325066 -2.6311245 -3.1802974 -1.6176727 1.8661797 1.4429532 -0.4815934 7.3425665
C0265110 2.5559573 1.8833395 -2.4614441 -1.5321226 6.1993904 -2.5310123 0.79757255 -3.517661 -1.0919636 -1.5415149 -1.7455511 8.952299 -3.188836 -0.06416053 3.3025467 0.7814594 -2.561294 -7.7319164 -0.19597906 2.5432959 -8.520509 -1.8172667 -2.080216 -5.5729356 -2.5260532 0.96442825 -0.9975671 1.0428815 7.0994387 1.5797073 -0.8729856 -3.1865933 1.0534768 3.0248518 -2.3516402 -2.1204052 3.326613 -3.911235 2.86285 0.37651443 6.1272035 -3.6987562 -1.30478 -3.4374368 -0.7044537 -1.904469 -0.6606692 -2.9635 -2.3379226 -6.3259435 -2.017274 0.3783705 0.13520838 0.7563171 -1.4340603 7.775992 -2.6805956 2.9137344 -1.981928 -0.10323493 0.5567414 -4.3686438 -0.6372066 -1.7695624
C0349231 3.4195046 2.9769523 0.5503508 2.720989 4.4279284 -0.44417706 -1.6277817 -4.2002296 3.0161262 -4.805817 -3.024899 2.8392427 0.44628754 4.655895 1.7830137 0.9147705 -0.9177831 -0.9475291 -3.1048105 -4.2406783 8.57726 3.0451584 0.4455904 -1.9180382 -1.321573 7.8262296 -3.5790048 -0.5978551 -5.3591228 -2.0450478 -2.5255961 -2.8110442 -2.2771983 4.4602113 4.139362 0.6280489 1.4106644 7.1979556 3.9561915 2.2152827 -0.67958045 2.4920182 -0.9325348 2.297506 -1.3173238 0.65179336 -3.6182923 -5.259843 1.2679703 -2.231934 2.5771666 3.910783 0.7283373 1.4846061 2.630115 1.2538234 6.608176 -5.348728 -2.956175 1.8932028 -0.98713243 -5.924156 1.066502 0.4358372
7124 6.1549387 6.5464916 -2.2276578 0.87846255 -0.38348043 2.4777305 -3.0478435 -2.505165 -1.7364985 3.731009 5.9873147 -1.7280847 -0.79537725 -4.228335 -3.66088 1.07033 1.1187328 -5.402431 4.011363 -2.894313 -3.5706046 -0.57461727 4.2203116 0.7346398 -3.8564768 0.24954939 0.6427922 -4.4448137 6.4643216 -5.1472206 -1.8260225 -1.6503282 0.43799692 3.1783621 6.311187 -2.6076543 -4.199096 1.7095605 -0.5069469 3.350925 -1.6496986 1.719775 5.040236 -1.1302624 0.2665347 1.5961219 -1.3347533 -4.0713973 2.6905184 -5.247655 -0.13897887 2.608885 -0.9020788 -0.75769234 1.4297284 -2.5829096 0.71548367 -4.6899323 -2.3111439 1.9556566 -2.0517647 -2.3690226 -0.31837207 -1.4569561
C0014761 5.471826 2.2347455 -0.6145012 2.810529 0.8550295 -3.3813953 -3.9268374 -0.8415691 -0.19487344 0.75743365 0.06016428 3.357715 3.1386793 -3.6650794 -1.1910374 -0.012126189 -2.6610298 1.1862091 0.64829755 -0.07508036 1.9918658 0.361421 0.24953337 1.0445673 2.910009 -1.2231246 -3.4859586 -1.5402743 2.7988307 -0.25015223 -4.5084596 -2.3885858 -0.21567231 -1.7834877 -1.8632025 5.2191706 3.295726 -0.95843786 0.43338436 4.142183 -1.9755534 -2.5122998 -0.4141327 5.1690445 -2.2579181 0.49781212 2.5755572 -0.24768393 -0.008984693 2.0903702 -2.084924 1.606597 -0.6192816 -2.5770593 6.3233 0.7454733 1.0016882 0.09976271 0.97976583 -0.83593714 -3.3191605 0.16981143 -3.5826225 3.4874537
C0948480 -1.2684717 4.786917 -4.9425406 1.4379001 -2.0210109 -1.1790998 -4.1540494 -2.8576303 -0.70407224 -1.0375035 -9.575198 -2.890001 -7.361774 6.1541305 -1.61389 0.9189876 0.3981222 -1.4896157 -5.873433 -7.3085628 4.898973 -4.351164 -2.6421607 1.338193 1.3787163 -0.75734365 -3.1725812 -2.7534413 0.31045488 -0.3787162 -2.9596012 2.0593023 2.401127 2.2224712 -0.9531859 -1.1867915 3.238947 -3.2010071 3.3160965 -1.4677837 1.3595058 0.55197465 4.875896 -0.28907406 -5.932572 -2.4814272 -1.7031912 3.6412847 1.6654317 1.8124332 -4.1242394 -2.4911819 -2.2600367 1.7002994 -8.048214 0.051404428 -4.5595746 2.0151157 -0.98686683 6.5814657 1.1401474 -1.647115 0.78669286 0.4838754
C1135191 -4.092546 1.9187737 -2.730487 2.933745 -3.503876 -1.2169514 -0.8349438 0.23710719 -0.49863422 -1.9508604 -0.7253384 0.3744356 2.0574734 1.1629865 -2.3494563 -4.694321 2.6779957 -3.207099 -1.3826698 6.413235 -4.403743 0.1161297 -2.9565659 -2.0342405 -2.8409917 5.791814 -4.6631594 -4.9068418 0.04965866 2.653059 2.3539991 -2.3613176 2.0388737 1.0437071 -0.6527206 5.764173 3.5560205 2.8773866 2.9110763 1.1023127 0.022585683 -3.700549 3.4749944 -1.9774591 0.72978264 -6.301878 -6.4578714 2.403684 3.099731 -0.81404173 -3.968983 3.4719098 2.0493944 2.0089989 -2.8204348 -1.4515967 1.1199071 -1.3112582 -8.09778 7.541566 -2.634849 -1.1855476 -3.9079068 4.054113
C1266144 -1.1168548 3.52573 -1.5727389 -2.4956083 -2.036251 1.3449472 1.3043222 -6.946619 1.3232005 1.7988778 0.7143999 -0.81159467 -0.93266594 0.8508781 -0.77280444 -0.06045017 -1.5067103 -0.5425409 2.0234332 -1.2625458 6.761909 -2.2782524 -1.4317456 0.118111186 -0.49744716 -4.097094 -5.551187 -0.7734463 4.195934 -1.9971917 3.8224292 -1.5180477 -1.5825475 2.8048882 -1.7146987 0.29997513 1.8101399 -0.7616293 -0.7303764 0.23237406 0.67842835 -1.1664649 2.3780398 0.7778078 -0.38154072 -2.105216 1.0986385 -1.7303499 0.5871937 -1.3065417 0.2793118 3.3605053 1.0172675 3.7156696 3.3668482 3.3084795 1.3006991 2.6257439 1.2918252 5.6783133 3.0455918 1.5404124 2.293159 1.685249
C0001818 2.2813268 3.9614117 2.1459806 7.0155897 4.982299 5.435 -3.3889108 -6.413728 0.80699104 -6.421766 -3.399703 0.6137527 -2.084673 6.243524 4.2333355 1.0266697 -2.8652222 0.51565355 -0.8309687 -1.2856839 4.817773 -1.5247744 -2.8186026 -2.24212 0.17853631 6.1321826 -1.8436251 -2.2071388 2.1182015 -1.0159706 2.8962896 0.06397568 4.363133 -0.43539375 0.34996805 -5.0409045 -0.82890934 8.765076 -0.7127922 1.2289883 0.026164304 -0.704415 0.40589884 1.3787768 -5.1665597 -2.1274812 -3.8843942 1.4309113 -0.6285534 -3.1661608 -5.426183 7.3702884 0.31672567 -1.4857149 -0.5343945 -1.4190848 4.057595 -0.22575614 -7.3060937 -4.1664467 -7.4167094 6.5495334 1.0615854 3.9199307
C0020479 -3.6056464 -3.0074213 -4.7430277 0.6697868 -3.6916268 0.43184274 -2.8278575 4.9706736 2.6890018 1.0251245 -0.5421697 0.4725066 -6.7003937 -1.0428786 -1.0984741 -0.41297117 -1.8202491 0.9016577 4.476751 -0.38058966 1.4165657 0.689456 -0.9074636 -1.2195029 -1.159809 -1.7463626 0.48988262 -4.111969 4.198698 2.6137834 -2.7203515 4.1941333 -1.5148034 4.4278045 -0.8695755 -4.436216 0.2885181 4.0028796 5.289872 -0.551576 -0.52127355 1.0269428 3.3943913 -0.15911955 0.018359557 0.7393103 -1.1083657 -1.3728558 -2.218355 3.5308273 -5.20943 0.49917966 5.524917 -2.4295642 -2.0939724 4.640966 -0.53983593 5.624252 -5.7230773 -1.9823309 -1.6299398 -1.7495394 -0.9385315 -5.815986
C1135196 -1.1754619 4.9709926 -2.1452706 1.117383 -1.5738268 -2.6251752 -0.73488843 0.16072793 -0.23570584 -3.4983897 -2.747406 -4.2590656 -2.020954 1.3830987 0.7195737 -2.01977 -0.4805795 6.502917 -5.6049604 4.385722 -3.5721872 -5.3988647 4.9772625 -0.3073833 4.0732975 4.6352296 -5.927316 0.70069826 2.2295 -1.4112539 1.8902066 1.4995584 2.23188 -1.7131536 2.0757453 2.0978487 -2.568356 1.7764829 2.622228 5.6474886 5.1431236 -2.0374427 -1.8824654 -0.009179238 -1.6140097 -2.621055 -1.6397569 0.477704 1.9749072 2.1811302 1.341553 2.6703367 0.6054228 0.37185112 -2.781916 -1.3690602 -8.694859 0.89072007 -6.276582 4.3558354 -1.27313 -4.6768417 7.2178655 3.8116436
C0013415 7.280364 -2.0557892 1.1007212 3.6481884 -0.47888035 0.52488244 -8.598232 -3.7894347 -0.6022367 -3.0553503 -2.9684973 -8.493791 -2.0650156 6.8196435 -0.21746202 -2.2498083 -2.8687434 -3.8963077 4.496593 0.09096714 2.9295866 3.6086404 -2.2276196 -1.842204 0.42529142 -0.03220094 1.1768221 -1.0473013 -5.4504976 1.3477037 -0.13329573 -3.0670369 -1.2345684 0.11258283 1.5540608 3.1685727 1.5253495 3.710124 2.2839708 2.0288606 -1.0724982 -2.5002944 -1.2623323 -0.30586225 -0.22006258 3.368091 1.1713128 -2.041112 -6.173778 -4.0712996 -1.0100183 2.9910564 1.2876376 2.6765761 1.6205323 -0.50842303 3.4171176 -0.8770194 -4.9305544 0.6436727 0.5992011 -2.8090148 -0.6732523 -0.6972016
1636 3.6000476 5.4255886 -0.6499788 -6.741602 -1.484231 2.8873048 -4.03321 -1.7289965 2.936159 4.11599 2.637298 -3.2085168 2.666132 -4.2698765 -2.6576498 -0.0510166 1.1457655 -3.6233082 -4.6355395 -4.20227 -2.3313923 6.152967 1.3366003 0.41202152 -1.7187884 -6.531251 2.7957711 0.5418563 -0.011513185 1.9760627 1.2856424 2.414037 -0.14597555 0.101323575 5.4804945 -1.3370478 1.4742454 3.1237657 2.1466572 5.7504888 2.0337718 7.3910317 0.88714063 1.9435247 0.3201377 -3.2511015 -1.0586982 -4.6917615 -1.0333433 -6.372773 -1.0515063 4.2973566 -2.9934502 -0.3417634 -0.13935879 0.69015145 -1.7403244 -4.032327 0.30893967 -2.241044 0.9269991 -2.0140703 -1.3551103 2.0014045
C0031190 -1.4977772 0.028558196 2.4932003 -1.822598 -0.35103256 -2.9112003 -1.9541001 0.57329077 -3.392439 2.9341972 -3.9884892 1.6913034 -1.0045073 1.9934131 2.0365033 0.96424735 -1.35482 -0.46471012 -2.5717878 1.2611325 -2.8111033 0.5904391 -0.33972436 -2.6926193 -0.26875466 0.47724324 -1.3355931 2.5783098 4.5374393 5.069027 1.66446 -0.8053025 -3.2634795 2.4598272 2.1890397 1.464565 1.9213278 3.3117127 3.6225963 2.401625 -1.6151897 -0.033691846 -0.6653929 0.0938888 -0.2532246 -2.174979 0.5572293 -1.6495432 3.5026748 -2.2958128 -0.16185175 6.564107 -1.6553328 4.880441 -1.6476102 1.0159799 2.2971895 0.057578463 -1.6941631 -0.54237354 -1.0278554 2.4276009 -0.43812427 -0.18650898
3569 3.5709968 3.0512056 -0.13955271 1.3147275 -0.2405459 0.8711421 0.7418958 1.0579633 1.7589824 6.6219034 2.5784643 2.825122 -1.0300618 0.9117274 -2.976473 -2.121743 -2.8361943 -2.7646022 4.170279 -2.2863815 -1.0988922 -1.5994557 0.874777 -5.2470875 0.070816204 -1.2104183 -3.2009063 -0.66148376 0.9307775 0.6638043 -1.6533859 -1.4872906 -0.46080354 4.057199 0.41560984 -2.485213 -3.2445087 -1.0043887 -4.3409357 2.3693023 1.5906363 3.7729392 3.1376743 1.8573394 -1.4919633 1.8640888 3.2999203 -0.33222553 1.3504043 -1.268661 -2.812807 3.4631789 2.2198436 0.14741698 -1.8659471 -2.1893034 0.7847708 -7.7954693 -2.2454212 2.6748784 -0.28747392 -2.7562249 -0.45658544 0.3757918
C0034902 0.38715056 5.9978733 -0.72679174 8.272211 -4.5882936 -1.0575632 -0.17773443 -0.048328362 -1.6135813 2.2227294 3.8297403 -2.7717192 1.1712716 -4.7328405 2.8814497 0.586015 -2.7430918 -3.4905634 4.457019 0.29847357 3.8445046 2.0799255 -0.37847915 -0.64343613 -1.4400668 1.9303856 -3.5256352 -1.0355433 -0.02224416 1.1268413 -2.0840416 -1.2592812 -0.44395936 0.06287055 0.39549705 6.046406 5.778613 -3.1578379 2.7163692 -2.4213538 -1.8638034 5.0764437 -2.7707665 1.3770468 -1.7154696 -3.9436333 4.9846106 -0.47767183 -6.363597 0.7937126 0.2101934 0.5491476 -0.20772938 3.122925 1.5905181 -1.5860491 -6.973025 -0.888448 1.6780072 0.31727555 -3.297756 2.2676992 3.0438473 2.056561
C0022610 -1.3633636 -1.9451355 -6.606378 -2.330807 -2.3822274 -5.498864 -1.3818911 -3.0598495 -4.4715724 -2.2477577 -1.8778021 4.1154513 1.0710434 -2.304849 -1.7704197 -0.688498 3.1004345 -1.377566 2.4553945 -1.0478132 0.2600125 -2.3444676 0.60464287 -2.4446168 0.7250535 3.3360155 -0.37680772 0.060523663 -3.308035 -0.62964433 2.7806513 1.1755933 -0.9397753 5.648621 -0.7440825 -1.6063786 3.297023 6.1973624 3.8203154 2.6321423 -1.4564947 0.99860924 -0.3046315 1.0093855 -1.7959322 -0.1799929 1.1578324 0.09370143 -3.2019126 -2.4978433 3.3236089 4.495351 2.0035248 -2.499353 3.9760642 -0.2992768 2.567588 1.1838099 1.2657189 3.524727 5.7655263 -3.731635 1.3709522 3.8689492
C0006277 -0.4956241 -5.706305 0.5458418 5.9828525 1.5396069 -9.065321 -2.144838 2.5062408 -3.887266 0.5154417 0.7767333 -3.025594 -6.076703 -2.617482 1.1874651 -0.859354 0.898714 -9.766852 -2.4949086 0.45620793 2.3424895 9.505701 5.732836 -0.2824853 -2.3401206 1.9563159 0.9739013 -7.615231 0.31387663 0.47422588 0.43971038 -5.234799 5.7640357 -0.31162062 -8.829079 -0.85170984 -3.2550557 -2.8685613 0.6705004 7.49666 5.5174303 4.110454 -0.5951219 6.5055203 4.8988204 -2.2483647 3.7164729 -5.233738 -8.003513 2.6903071 -1.7453111 -1.327869 -2.999663 2.1489966 -3.2208834 1.5483261 5.080043 2.3324218 1.5520898 5.832216 0.24058688 1.0486292 0.31302497 0.69764304
7157 1.2652509 3.6866286 2.803795 2.243195 -1.8216894 2.1723554 -2.743518 -5.038549 2.7130597 1.7338874 2.7245169 0.61201215 1.4915934 -0.79166216 0.5623324 -4.5396266 -0.2723091 -1.4794959 1.392473 2.5949726 0.7073715 -1.700241 0.108220555 -1.7743001 -0.2601806 -0.5424524 -0.49346706 -0.7407514 -0.583653 1.7203661 0.259851 3.3266485 -4.2668843 3.6113098 -1.5377249 -5.727323 1.5719723 -0.79489756 2.1217418 3.7873507 -2.2743928 1.4708947 0.67661244 1.7691627 0.9296607 -2.8821673 -3.1235573 -4.424617 -1.1175084 -2.4716325 5.166065 -1.603895 1.1159197 0.109135464 1.2414713 -1.5894495 -2.4927113 1.0732484 0.49182683 2.2203674 1.2150261 1.606257 -2.9058006 -0.771467
6532 -1.9947298 -2.4308088 2.3512042 -5.885741 1.0290204 -1.1556509 -2.5707307 -3.5363722 -5.104355 3.6046257 2.365421 -1.5239503 -0.67574143 2.3752117 -4.366237 3.9427638 -1.5948077 -1.4435757 -0.80290765 -1.6195964 2.4829721 -0.42689952 4.0104876 -4.229989 -0.0032807013 0.40177885 -0.11299867 1.5008562 -2.4636552 -2.0477283 -2.2812562 -0.99391073 -1.6186495 -0.2164432 -0.60856414 3.4751165 5.12143 5.5149713 -1.6801076 2.59578 -0.35570383 -1.2632278 2.7563186 1.3421557 -3.0551019 -4.2469726 6.102909 -1.2736663 5.2375574 -2.5282764 -4.279862 2.4077113 -2.6231563 2.492222 -1.3441027 3.480108 -4.701109 -2.1040592 -2.8405757 -0.3731596 -2.4079287 -5.254972 1.3613331 0.32164922
C0011880 1.8962319 4.089465 1.0008733 1.1706196 2.4422145 4.1394095 3.1044364 -5.39835 -6.8085394 -3.7904668 -3.0363455 1.608682 0.4806627 -0.31585717 4.157984 2.1624057 -5.4119573 0.3309431 -1.3709383 4.0357823 -3.175252 11.77677 3.9163043 -1.9427499 -3.3990242 7.970433 3.4467535 2.1403253 -1.3739256 4.4973445 -1.740647 -0.95395833 -1.3401204 4.9146147 2.5696993 2.379144 -1.5007336 -2.629419 -5.2705293 -1.2108309 0.48559737 -3.8149014 1.1545304 9.719007 4.0130258 -5.66062 0.8500038 6.2621446 -3.8170834 -4.121561 3.4436152 6.627243 0.0012997115 -4.967469 1.4642602 -3.4148705 -6.877218 7.7599573 0.898448 7.233713 2.3251526 1.402097 -4.376572 0.64148253
C0025637 -5.046361 1.2467653 0.28762108 0.3640115 -0.33013138 -2.0551283 -4.175375 -0.4996 -0.4756733 3.525743 4.2262726 3.1860082 0.4976228 -5.860992 -2.3112936 0.4028112 -2.7680604 2.32062 -0.29671925 0.9714591 -0.319877 -1.6015804 0.909213 -4.1918697 0.13623616 2.564549 -0.88710916 -1.0824361 -3.243131 -1.2745986 2.0074196 -3.1965423 -1.3987774 1.1320642 2.912896 -4.7222514 -3.953234 -3.2412064 4.307731 -0.15655437 -1.0034183 -0.29187894 0.4956879 0.063801594 -1.9656879 0.25611958 4.418841 -2.0815709 -3.717416 -4.958226 -0.81211764 3.7631447 3.415281 0.65373105 2.0285313 -0.35689676 0.8349757 -0.23931935 -1.8608303 -2.1846826 2.1640773 2.670874 2.4375033 5.082389
348 -6.523251 2.3087142 -0.5306294 -0.18428211 1.2847117 -0.7032091 -1.3532505 -0.042700022 -0.81701726 -1.2484543 -0.63239783 -1.9357587 1.5140378 1.4045428 6.48795 2.0958588 -3.8637147 2.5323768 2.4589808 -1.8041 -0.32306218 3.7841902 -0.6080261 1.1470793 0.963152 -2.5828338 -2.1459723 -1.6280568 -1.7819735 1.367142 -0.72973907 0.87503695 -2.474619 -3.5326195 0.41675237 3.8810463 0.10949641 1.0589669 3.0239215 2.498733 -0.9804993 1.7485551 0.31140438 -2.4264185 -2.466605 2.576293 -0.2917342 -1.4739872 0.5681458 -2.1531806 1.1018617 2.7303908 -1.364504 -1.3778328 -4.925356 4.5435925 4.172197 1.4873666 0.5445439 1.970323 -3.0524 -2.7651858 -0.76891625 4.1113033
C1864041 -4.666849 -3.4702678 -2.3238285 2.5602827 -2.3719234 5.000568 -0.21775107 -2.122557 2.8887758 0.80423594 4.4007745 1.3701215 0.8711403 0.48573434 -1.9317886 2.287231 -2.4119084 -2.4002512 0.9312603 -1.921664 5.7162347 0.01862185 1.8466271 4.1013594 -0.85610324 -4.0813856 3.1257849 3.6988354 0.81074935 3.954962 -5.8111916 3.6123013 -0.17745489 0.31132302 -3.7634537 -0.424204 1.0039835 -0.11157678 -1.8442274 -4.779131 0.3531752 0.8272956 2.2544086 -1.2361324 1.2978717 0.82251483 1.2944434 -2.787537 3.5063689 -3.8170047 -1.2682061 2.1917377 1.5203408 -1.7871997 -1.7043895 -0.60125077 3.8904684 -0.37496632 2.202275 1.839482 -4.681399 3.8013954 2.875596 3.5013354
627 -0.9525953 -2.787 1.3008721 -1.039495 1.3824586 2.1461039 -3.352896 -4.173624 -2.0699341 3.5205414 3.9273083 1.3251513 0.04763768 4.502817 -1.4025099 1.6758186 -2.3826616 1.9564161 -5.204974 -1.0831627 0.71056056 -0.04264895 2.092945 1.5498896 -1.410531 -0.13275371 1.4179012 -1.2394607 1.273225 1.0235152 -0.5372718 1.5581577 -1.3793861 -1.5117043 -1.3785766 3.069405 2.8184564 3.0070026 -0.6630947 0.40586376 0.6168791 -0.7173107 1.9632063 1.0576982 -0.70033646 -2.144613 1.9546566 2.6388552 1.5600065 -3.8855622 -6.32171 3.7620542 2.2132258 5.945642 2.1779428 2.1610632 -2.5739524 -3.220663 2.8555655 1.741003 -3.3029156 -3.164158 2.0863137 -0.46936765
C0151814 1.3396965 0.79015553 -0.92971677 0.07608002 -5.4331617 -2.3072212 -2.9010694 4.5462637 -5.754882 -0.2083301 1.544779 0.94476074 -1.375312 0.9683625 3.6631682 5.6462893 -3.9485807 0.57719004 -1.3344672 -1.1217179 -2.1816804 0.5087919 5.4080577 6.277302 -2.6345048 4.7583017 -3.7239761 -2.1721148 -3.484666 3.1421614 -0.6233474 -0.58853626 -1.1144242 -0.7949431 -2.5239873 -2.5182276 0.8061534 -2.3734171 5.131841 -1.834618 -0.89006215 -1.1932505 -0.075437926 3.364387 -3.0827498 0.19927485 -3.6837776 -5.6111298 -1.3405381 6.255023 1.9248741 1.7035458 0.71679944 2.4227083 -4.8213253 -3.6991363 -9.158108 -3.5618877 -0.8298599 -0.059039235 5.044484 -6.729437 0.9631229 -0.24479915
C0338495 -2.5943344 1.7597066 -6.30146 7.3237844 3.3894382 -2.6494713 3.4787598 0.52676225 0.395546 8.012703 -7.5165987 -0.6848077 -4.7633424 -1.6617087 5.6320953 1.1066754 -1.5621558 -0.40420645 -0.6460673 -1.5187329 -1.6644384 -2.2597642 0.21869758 -2.432385 1.2492701 0.4623467 -1.1652871 -0.035370883 -0.8024025 -8.225957 4.588314 4.7859507 5.2346916 2.0066686 -2.5076268 3.9404042 3.6612191 8.252698 3.7292142 4.3531666 -3.4256375 -1.3023155 2.7539623 0.048396222 1.8275915 0.61091113 -2.130865 3.6690311 -2.9715984 -1.5827373 -2.4790897 4.6096854 -0.056536205 -0.25651148 2.0709338 -6.4349084 -3.2883286 0.4052565 -2.746845 -0.07971513 1.1545157 -3.654763 2.4445815 -0.34329376
4524 -1.8089061 0.113145225 4.3643246 1.469994 2.1982462 0.6256298 -1.996556 -2.2010229 1.7186698 -3.2297409 1.4118345 -0.779186 1.3473603 0.695581 0.5506877 -2.6059628 -0.7410938 1.3433808 2.301713 -3.0471153 -0.017306667 4.4140496 -0.44764063 0.001750408 -2.306252 -4.344784 -2.1000211 -0.9674036 1.0752623 2.3929858 0.58053315 7.0599046 -0.33208966 4.38194 -4.276938 -2.3953805 -2.4437659 5.504901 1.3975706 0.050422434 -0.3369082 -4.4856977 0.3996069 -3.3379157 0.6157163 -0.8040642 2.3695405 0.3853572 2.4834573 -3.2311141 1.6170363 0.12553939 -1.0739683 2.1563885 -0.7092904 0.024421697 -1.3937101 -3.06593 0.12915434 0.14294438 4.2762656 -1.2761475 -3.6925042 1.0066158
3553 2.1720662 2.5293796 -0.7102832 -2.567617 -1.2152222 -1.5164618 3.585871 0.20990317 3.4590397 -2.2712696 2.4902608 2.088289 0.100951195 1.1468372 -4.0705066 0.65238816 -0.73535335 -6.7466655 1.6078588 1.2183521 -3.1011589 3.4726727 -1.3245995 0.6144707 2.0890946 -2.4512513 -5.126179 -1.7793272 -2.0596976 -2.7098992 -4.205362 3.2915697 1.4550134 -0.46341923 0.83699757 -1.3503227 -4.4090447 2.3776433 0.9027051 -0.9137716 -0.23831818 -0.9464165 3.702262 -2.0746875 -6.0242705 -3.7325685 5.4656 1.0118077 0.31206945 0.082430944 2.9087918 6.232531 0.22658165 -1.3289374 -5.5215726 0.65925556 0.45910636 1.2266942 1.0864207 -1.5474617 -1.7732396 -3.5957046 -2.0078807 1.0025445
4852 -2.0169406 -0.36953947 0.95809084 -1.7260855 1.0477574 1.8982975 -2.8397806 -1.0755042 -1.9132949 3.1597621 -0.2852607 0.05442834 -0.96355057 -0.0011204378 -1.6011444 2.1397278 0.36081883 -0.40526298 -1.8920699 -1.1469908 1.0231236 2.9852927 0.46766394 -2.3393326 0.8340084 -4.3113794 0.32255846 1.552739 -3.995795 3.2862997 2.9010758 1.8754758 -4.2456746 -0.54124403 1.6129973 1.6716675 1.944784 0.6952369 1.2834691 0.51683724 0.46108815 4.2480717 0.9006474 2.2860482 1.1349516 -1.2149446 2.4301906 0.1914411 1.209186 -1.9206306 -3.3881993 1.3005279 0.19745432 2.2667115 1.3337001 3.8167949 -4.0348644 -5.406351 -1.2228103 2.1075969 -2.9402807 -3.2170413 0.5874604 1.3476568
4846 3.2488666 3.758762 0.71125984 -7.7235646 -4.5046196 2.821019 -0.5867452 3.690677 -1.5630441 3.7299576 -6.0581403 -3.7748244 0.61247534 -3.8857605 3.8036509 3.5621142 -0.47399288 0.07452431 1.3274552 1.9520878 0.57324064 2.7494168 0.030589001 -2.5625174 -4.381338 -0.68495125 -2.1119628 2.403481 3.4913566 0.3087231 -2.6538887 -0.9177624 -1.3159466 -2.4064167 2.527761 -0.7840786 -1.5838033 2.9616501 1.4661981 3.5234694 -0.15980065 0.45045745 1.6451893 1.0066149 0.4797727 -0.63034505 -0.294237 -2.37848 1.6063405 -0.46911955 -0.079991326 -0.89202785 -2.940559 -0.8610326 -1.0280266 -4.6161118 4.8237762 -1.0826218 2.7546551 -4.303877 0.17292406 -0.26758862 3.5202425 0.4769787
1437 -0.7219404 4.255428 1.7826469 -2.5048008 -3.3867233 -0.8004107 -4.056309 -5.2301044 0.19475971 3.2899885 1.7764775 1.1346309 2.8138795 2.5491865 4.645008 -0.24179809 -1.4631016 2.2822778 3.5930903 4.012459 -0.8520077 -3.7114081 -0.982319 4.1874285 0.6377418 4.4532022 2.5473316 1.2093079 1.7349173 -3.0708492 -6.918051 0.6135787 -4.896296 -0.7969596 -2.7360172 0.055485252 -0.2927181 -0.034198273 -0.20722666 4.071125 -3.330769 2.0480027 2.4500437 -2.8811665 -0.39593792 -1.6961133 -1.0290242 -0.4658934 0.10135429 1.3601065 -0.8265957 -2.666604 1.023663 -0.06937322 2.8388968 -1.3152119 2.2877438 1.2814928 -1.722949 -0.8450984 -0.4624354 -0.70287234 3.00216 1.1613467
C0340293 -7.723869 2.5165448 -0.13004231 1.2447033 0.5247025 -3.3282547 1.6039212 -1.8257039 -3.0381386 0.6140805 -1.417477 -2.895868 -7.115884 4.385996 2.7773063 -1.949695 2.5152564 -2.7719486 -6.0600004 3.9162378 0.44164708 -1.2729015 -0.22649223 -4.3358045 -5.780973 6.9631834 -0.05059069 3.2437136 -1.5813239 3.0972908 4.5101433 2.4796107 5.127525 0.8223312 2.138978 -3.9873726 -0.03089772 -0.8377967 -1.6855254 0.49939302 -0.31547377 0.34067854 3.2475023 -6.4849286 -6.2671757 -1.4051478 -3.561215 -1.3465446 -1.616049 2.1299217 2.9618764 4.7110596 0.6850448 6.8066564 -6.745631 4.1898155 -2.905867 0.67854816 -6.0738945 3.694518 1.7509704 -0.24462242 1.2730829 -1.6091855
C1838260 1.04887 -0.857121 -0.13942894 -1.3491714 -2.9351463 -1.1204638 -3.1899931 -4.565437 -1.406953 1.083014 0.7741576 4.2292295 1.1926336 -2.0237024 -1.7778755 -1.5710082 1.3884151 5.2232065 -1.2228558 -4.0671344 -0.289935 1.1978773 -3.6337156 3.3014567 -2.8913312 -0.6231024 0.9279813 1.0439296 0.9916909 -0.5479055 -3.3729458 0.882774 -4.4498773 0.78168 -3.949773 -1.8578533 0.9572827 -3.0828662 3.2193203 -1.2268913 -0.3916055 0.41766343 -4.5871654 2.2058427 -3.422884 3.0093768 2.016902 1.5347016 3.2984035 -2.4174283 3.2166133 -0.40206793 -0.25097585 3.1381476 -0.18191466 2.768433 -3.601412 2.7273185 -1.0559124 -1.3686154 -0.415911 2.1951551 2.9697266 -1.2833788
C0038218 -1.551884 -0.68568105 -4.637177 -1.0545056 -2.2746494 1.3855034 3.147202 -1.5114754 -1.991125 -4.443887 3.4640553 1.751165 -2.9175248 0.4121114 4.2424965 3.5043342 -1.6083162 -7.494016 7.143146 -2.2789788 5.253254 -1.6035924 5.820278 0.31969237 -0.6785213 0.9432307 -2.8211944 3.1178107 1.804556 3.6250393 1.0261123 -0.48120567 2.5600162 -2.3884518 -6.120295 -5.387121 -0.30472594 -2.9170198 -0.9703012 1.9437033 1.3954327 -3.1307023 -1.0064855 -2.2864559 1.5700313 0.6838552 0.76434237 -5.243992 -1.8774163 -0.16374834 -4.9907 0.7000758 -2.532918 6.261437 4.029002 -2.6347868 -2.1357524 -1.3255743 -3.5280151 7.250018 -2.3158987 -2.4869404 1.4538091 0.29518318
2056 1.1376483 2.3188944 2.6154454 1.2276504 0.95072055 -3.2217245 -2.6719694 -1.9368622 1.0319363 2.8279567 0.8670689 0.9973073 -4.337576 -1.8813149 -0.25518683 -1.4744143 1.5548323 -0.90270686 3.9717755 3.291812 -3.6483927 -4.1399026 -4.126178 -0.2620531 -2.4807446 1.3297963 -2.9610567 -3.6236494 -0.112756565 -3.324855 -3.3425553 -0.728236 1.3931687 1.8007675 3.6451967 1.1656092 -5.6364837 -5.2114353 -1.5205382 -2.839946 -5.821186 5.8060904 0.9073511 0.8055645 -0.33234683 4.610808 -0.79897445 -0.4529067 0.16977909 -3.5484312 1.1347958 1.3176022 2.8327947 -2.8717997 0.13165194 -1.6650838 -3.1509798 -1.4477925 -2.033295 0.98204607 -1.1728842 -1.7421662 1.1194003 -2.2951295
C0600228 1.01081 -1.6669276 -1.1762874 5.906498 -3.4215271 1.3489442 -3.0047486 1.9859903 -5.2114673 0.5311723 -1.7932086 0.671515 2.7442691 1.6306201 0.63315374 2.5997324 0.53152424 -0.8176604 -3.4235222 -3.3859432 -4.9393015 0.75361514 1.3771803 0.00124629 -0.16102248 6.2894416 4.743645 4.0573406 -2.9069514 5.7564187 -3.283026 4.295271 -2.7189133 -3.6142247 2.6489515 -3.997648 -0.48922446 1.1869808 -3.0495305 3.3677769 1.2166688 -0.7464793 3.2292316 1.2226591 -4.6926403 -0.029551921 0.18082853 -2.7404656 0.17738545 2.1594186 2.302924 -0.20795257 2.7914438 -5.0127025 -6.658926 1.3785766 -3.4983218 -1.93837 -3.2070208 3.5760047 -0.41396075 -2.736218 -0.8430929 1.0894327
3458 0.9186858 4.0454407 1.4065981 2.7530885 0.08066363 -3.5188737 -1.994488 0.62729454 -2.5077481 2.8224957 1.9000673 1.2889374 -3.048124 0.015426222 -3.2356617 -0.21202403 -0.26730406 -1.7844837 1.2861116 -2.1960433 -1.8626695 -4.4248004 -1.8867484 0.34372512 -0.27118528 -0.2320791 -1.9042615 -0.3466374 2.8515568 -3.1100538 -0.33954707 -1.8298542 -2.9848194 0.7285771 1.7043332 -2.0351887 -4.277675 0.21451323 -3.1499257 0.58713996 -2.7216644 2.3974264 -1.5268437 0.59777164 3.1639206 2.379198 -0.7208538 0.24987236 0.6622181 -1.8851625 1.309887 0.7179225 0.75970536 -1.964416 1.43513 -0.90896535 1.630352 -1.5242426 -5.6317434 2.0540373 -0.8163865 1.6395388 -0.33232567 -2.4343429
5054 2.4878607 2.5564058 -2.145152 -0.018760817 -0.35656136 5.0323076 0.37975454 0.80512756 -1.0741729 1.4956301 -0.7909949 -2.4146361 -0.761652 -2.766355 -0.08384641 -0.31878442 -0.15905222 -1.2848687 -2.2932496 0.7603282 -0.99502337 1.8017839 2.8277278 1.2709614 0.069673456 -3.877945 1.4294629 0.24885409 1.7984897 -0.0892441 2.6014175 -0.5676928 -2.8529367 -1.0399257 2.8674796 -1.4827725 1.4541732 1.0859836 2.5041611 1.2785368 2.1083486 2.1606915 2.734309 1.650461 0.9484697 0.973503 -0.20447132 -2.2856739 -0.1831973 -2.6276839 -0.053566236 -0.055765394 1.2549556 1.3561 0.92082965 -2.3594608 3.2088754 -4.271783 0.43053854 0.86000514 -1.7600331 1.5062498 0.5868637 -0.06571717
3630 -1.1854568 2.4525478 0.13220702 2.2284894 -4.2448473 0.7424552 -0.52928275 1.526295 -3.9945076 3.156869 -2.1612632 0.6644034 0.9228402 3.2984009 -4.245809 6.6909423 1.3780465 -4.525583 2.6227229 -4.1181364 -0.17704873 1.3057748 -1.5933801 -1.2606895 -0.44728792 -0.019988427 -5.015628 1.8918595 -0.42678797 -2.9364014 0.6208606 -4.0300746 1.2641623 -2.36358 5.435216 -0.4486106 -1.6947844 1.2304943 2.9664748 2.838597 -2.5931165 0.36869565 -0.8130505 0.09124125 1.0181621 -0.6871141 -1.9915609 -3.665611 3.8389716 -3.3707457 -3.711417 3.3796635 0.9783598 -0.35651788 -0.29339874 4.0641956 -0.34001502 2.6322296 -2.5744505 -1.570006 -2.2378476 -1.3811996 3.1606345 -2.556904
847 2.1976764 -1.9941721 -3.1981049 -0.13712081 -2.7608025 -2.5000904 -1.0780251 -3.9449608 0.37388793 -0.7451922 6.73419 1.6546196 -0.9119531 -0.34541392 -0.53576887 6.482241 2.586919 0.25632766 -3.0293396 -2.9218972 -0.79368937 0.08714409 3.343641 0.49136436 -1.464817 1.8027319 -0.17740732 -3.8412812 3.292202 2.03322 3.71106 2.464978 0.8757281 -1.4277649 -0.670387 1.5921619 -1.131823 2.658563 1.9396664 -2.117072 2.235381 2.052892 1.192517 0.5796733 -0.60940546 4.330894 0.15580598 5.300333 0.39208952 -4.1281886 -4.304733 0.7192311 -0.3805049 0.9786407 0.37860677 0.3304259 1.0199823 0.32302904 2.2371109 -0.7815546 1.4971752 0.7331259 -0.4376977 2.1456876
2099 1.2222792 -1.1050165 -0.7238897 0.2800278 -0.9341837 0.23691565 -1.5479754 -3.568847 0.15390953 -0.61001086 4.59917 -0.45324492 -2.142398 0.89470315 -0.67681867 1.0435089 -2.061197 -0.7602554 -3.8077865 0.0030797517 -0.9501882 -0.18076837 2.2643232 1.9104097 0.7585307 1.8697305 3.3584676 -2.3756516 3.3061593 1.4491532 0.78966707 1.6012151 -2.650927 -0.76708835 1.19124 1.4840133 1.9247439 0.13226059 0.19407915 1.1130972 0.22917853 -0.551975 1.8320394 -0.5735795 0.35813007 -0.77102727 -0.6355624 4.105002 0.49435857 -0.9263427 -3.886066 2.758991 2.5445833 5.8873844 2.7167962 0.4369377 -0.314922 -0.43113807 4.1716957 0.03817636 -3.1169696 -0.6656964 1.8125001 -0.27010557
4023 0.3979228 0.36380926 0.7965605 2.894803 0.7103743 2.4321735 0.8297877 0.2637567 -2.0250082 0.22254457 -1.5677603 -2.047236 0.015428139 -3.9506469 1.2903581 0.5799114 -4.836886 1.6526214 2.8279307 -2.0621974 0.43139812 -0.77454513 0.3454617 -5.4225554 -0.9830163 -1.1809584 -2.4162793 -0.38624632 0.23969018 2.3032033 3.1134698 -5.7686768 -0.5008411 -2.0824745 3.4726388 1.341601 -0.56898856 -1.5455965 1.3146269 4.5484686 -0.2473949 2.648222 4.991637 -1.1209152 -2.2291665 1.3605464 -1.8205243 -1.3949076 3.9287565 0.25318 -0.7435431 2.2042584 4.084695 -0.9938667 -2.5130296 -0.028268913 0.09279643 0.4977891 4.083884 1.7844875 -2.0117388 -4.104502 -2.104168 0.74995434
C1306856 0.5041088 -0.84944534 -1.4026661 1.1430376 0.38573268 -0.21048424 0.5292151 -0.39148113 -2.7230403 1.8627143 -0.49544305 2.121052 0.16346599 2.4703796 -0.7390812 -0.4717953 2.202423 0.26540324 -0.49545115 0.22681871 -0.8723826 2.1960056 -0.5079786 -0.028722744 -4.8611827 1.8138337 -1.4684882 -0.6386065 -0.98231465 -1.1839709 1.0589634 1.4141792 -1.4023067 -1.9489895 -1.0977249 -1.5735329 0.7478518 -0.2344552 0.7166943 -0.626477 3.149391 0.9402807 -2.1833189 -1.1507908 -1.1636666 -2.223028 0.56818724 0.5545427 -0.93749195 -0.9817634 2.2093558 -1.1184882 0.83969796 -1.9985248 1.8360335 -3.8916163 1.3187342 1.3309736 -0.9973064 -0.5398886 -3.611246 1.946736 4.875348 0.70445234
1401 1.6384093 0.7745115 1.0713936 1.3780973 -0.9736796 1.4088588 -1.6371411 1.4449959 -1.2985158 3.6007106 0.5685338 0.5256083 -0.972401 -0.48265556 -0.8622785 1.5054444 -0.5179645 -0.73394233 2.0759919 1.5343906 1.7206881 -1.5155345 -0.07456569 -7.044129 2.1723652 1.1958152 -0.6503184 1.003876 1.5970842 -0.75033945 -1.0023105 -1.97365 -2.8975277 0.22649263 1.1915959 -1.5809677 -2.8084083 -2.9410422 -0.5698028 2.806638 -1.6987718 1.6782478 -0.2744639 -0.90950227 -0.32078278 -1.5071746 -2.4913502 0.77692586 0.55814916 0.34689504 -0.031867314 0.5984853 1.8388203 -0.36249125 -1.1910322 -3.0763679 -0.60829085 -1.8783574 2.749958 2.1962075 -1.521945 -0.61901563 0.40956876 -2.7531269
5468 -1.0734103 -3.5305738 -0.2338552 2.3133504 -1.7589458 4.388876 -0.34736043 0.5689505 -1.8199222 -2.463706 -0.64089 -1.1484222 0.49714962 -1.3868682 0.88972116 -3.7357628 -0.17809498 -0.94841176 1.6125555 -0.38321617 -0.6173137 -0.49879244 -0.154813 -1.4150869 -0.6306569 -3.5553904 0.52233475 -0.7074857 -1.1509814 1.733535 2.4750824 0.62359095 0.5268353 0.37096414 3.1560528 -2.197213 1.2731646 -2.7278945 3.9824934 2.80932 0.84246117 -0.48430252 0.06325777 2.0804262 -1.4037716 1.415044 -1.86645 0.08667292 3.2015934 0.17024341 -0.59808975 0.50759214 2.1964545 2.9201767 -0.7853818 -2.6976693 0.13878404 -0.6827006 2.9157884 1.6046984 1.8248068 0.8787671 2.4040215 -0.8102828
185 1.4250891 2.0742798 -2.73403 0.85548997 -1.0962259 0.18309681 0.14274228 0.4466259 3.1211848 1.55161 3.194734 -2.0057185 -0.39613834 -1.0138886 -1.3471043 -1.7436515 -1.8932284 -0.29921374 1.2254595 -0.5619247 0.88521427 0.15849537 0.10135569 1.9486064 3.1407878 -0.99547017 1.9429024 2.9107063 -1.135319 0.8185426 1.6056652 -0.14422601 1.1562595 0.07550277 0.4398243 -1.922616 -1.3467644 0.18796788 -0.1435251 0.43716452 3.717019 0.58773875 0.79565924 4.298827 1.461108 4.692458 -1.1737984 -1.5478836 0.27984932 -3.0202832 -1.2108841 2.013728 -1.7313766 -0.6759775 -1.3151591 5.415336 1.9387096 -2.271902 0.42310107 0.33434796 0.6527085 -0.9051856 -2.9659784 -0.5123354
C2674218 -3.893826 -2.882061 1.9057204 3.0472472 2.949298 1.0515662 4.0190578 1.9884348 -3.4103882 1.3557322 -4.777146 -4.6653347 -2.8091557 -4.1091595 2.4806314 -1.4519156 4.3356695 -3.9169796 -0.15396124 -3.9724443 8.368767 1.5421187 0.69839406 3.9418812 -0.97948766 -2.6063626 -4.822724 -0.10963463 1.5296566 -3.8256674 2.4418316 1.1074594 -3.2402403 3.401843 -3.0767965 4.154147 3.589002 -3.4472132 -1.0265163 2.9412653 3.6278064 0.024297826 3.0370026 3.8539429 1.4845698 -7.5895367 -3.142628 -0.14645994 -2.9388783 5.950276 1.4521649 0.23996408 -2.5369768 -4.9999723 -0.3735183 0.7070086 3.8535962 -0.6114107 -4.296855 3.970325 -4.8627844 -3.5123043 1.9901803 -0.3020393
3576 0.90880287 -2.6273625 3.1206007 0.37439948 -2.1549175 0.17293656 0.534803 -1.4969777 -0.18771335 -3.255818 1.1322387 0.1606366 -0.21648836 2.05601 0.8716981 -1.0190617 0.50343883 2.7853684 1.1636571 -2.6517322 -1.7020088 -2.5284746 -1.7669712 0.2544108 3.240415 -0.99064344 -0.8967189 2.4631033 1.0027981 -0.50003767 1.7302933 2.3397725 -1.6708517 1.461465 0.21788628 1.3093615 2.9361238 1.6278025 -0.20173128 0.6980732 2.3828435 -1.4381413 -0.053653143 -0.5963436 0.22509706 -1.5179707 2.4926195 -0.4376909 -0.9209104 -2.2809403 1.8451552 -2.0614126 2.4065487 2.1345732 0.34228897 -1.1485478 1.8481994 1.1035023 -0.86288315 -2.684264 3.0685806 1.7456661 -0.9233213 2.3139179
183 3.6127489 3.9314837 0.0045413906 -3.1806157 -2.2694743 1.850391 -0.6988905 1.5606703 3.6988742 3.1976857 3.1083956 -1.4918102 -0.4413359 -4.0962043 -0.954527 -2.1682613 -1.4483978 -0.29107904 -0.5781617 -3.543979 0.44727805 1.1988465 -0.6795925 0.6172245 -1.2884048 -0.51717275 1.4154096 4.1912518 -1.1422254 1.7852155 2.0546374 0.86347437 1.0712382 -0.17669344 0.38044164 -1.6189191 0.22874539 0.64665836 -0.24012639 1.2308311 3.8609397 1.9416196 -0.73296314 2.434776 2.086145 3.284411 -1.3517063 -0.5920292 -1.5722374 -2.356519 -2.968691 1.9369837 -3.3160152 -1.0037153 -1.5729169 1.0902756 2.3021884 -0.16676468 -0.1423654 -1.2843567 1.4392774 -0.49816975 -1.6546905 0.82243115
6774 0.4887195 1.8090651 -2.8035188 1.738728 -3.3972044 0.14347927 -1.6308154 1.7964027 3.1545935 1.5123638 -1.6870074 1.0349023 -2.4096093 0.8858671 0.98494214 -2.0400693 -0.16497168 -2.5991273 1.4830889 1.9937264 -4.9376354 -2.9766903 -1.3151894 -5.1552925 1.2889025 -0.26159617 -0.4731799 -1.5165687 -1.8181561 0.29485255 -4.0590553 0.39144662 -1.3854882 3.5298548 1.9787358 -1.3499879 -2.7275238 -7.927584 -0.5128521 2.5909 -0.4229938 6.4851594 -1.5568064 2.219111 -2.5688307 -1.2288076 0.13817137 1.145435 -1.0081239 1.4520526 0.9328374 6.1025767 3.2904048 0.082627386 2.839695 -1.55101 0.57031596 -3.5030608 0.6502935 1.556788 0.13033463 -0.240861 0.8067651 -2.5378616
6927 1.2447836 -1.1389724 -2.3951943 0.97661924 -1.7540374 -0.18022783 0.2576243 2.8331108 -0.62252176 3.8238893 -3.3346238 -1.7433612 -1.3576969 0.7214107 -3.078772 0.51782095 0.11019629 -2.6493733 2.873289 1.6816106 1.9444565 -1.0091573 2.3825645 -1.8436513 -2.4020967 0.023742078 -5.1815615 1.8800689 -1.0246718 -0.4115873 -0.33454484 -3.4066038 -0.3397977 2.2730396 0.6062428 -0.44567335 -3.5087821 1.4988159 1.8206937 1.8759574 2.0359688 -1.307848 1.398632 0.46120805 0.59819615 -1.6360359 -2.2506626 1.5001813 2.4118817 -2.8325567 0.9909352 -0.39117002 -0.31998572 -0.26235542 -2.5348613 0.10290042 -0.6444016 2.5900877 1.9185481 -3.3139155 -0.86822945 0.92373514 3.9459674 -0.37408817
2944 -0.8636317 0.941373 3.0115752 1.1469207 -2.1612034 -1.4688131 -2.6653068 -0.0054622986 -1.1264409 -0.27966166 2.2673888 -0.8625666 -0.39592102 -0.6551205 1.3466512 -2.3553548 0.7065638 -1.130608 2.3988783 -1.5992434 -0.1661165 -3.6305673 -1.5584587 -2.9314723 1.2288519 1.6942029 -1.6345133 1.2479161 0.49132955 -0.7193534 -0.34444705 1.7223094 -1.9205498 3.0220008 -1.4946406 -2.014092 -0.10723781 0.0768037 0.734118 1.365504 0.720321 -0.4301475 -3.9546273 3.2234592 -0.35548773 0.46797752 0.10361309 0.06967078 -0.8017037 -2.0834553 0.75561285 -1.4665316 0.5065287 0.41164324 -0.41661417 0.373819 1.8631045 -0.13785191 -1.5013801 2.6709957 2.733121 2.5645099 -0.46674225 -1.8827312
5444 2.340046 1.2629588 0.2999452 0.41611084 0.60306257 0.82487696 1.6264881 0.8538722 -3.1658854 3.5134957 -0.012825389 -1.3846848 0.27898785 0.56659895 -1.5858785 0.7612317 -2.3671057 0.14280492 2.0641398 0.24035983 1.303958 1.0853813 1.9479562 -4.497473 -1.3040946 -0.59237754 -4.074612 1.0003 -3.001945 0.5446575 1.9110558 -1.5552905 -1.890483 0.8765284 -1.8787494 -0.17747498 -1.2904551 4.062469 0.7818636 -1.0127637 2.9625556 -1.0825933 2.6892183 1.0497837 -1.1605448 0.010753338 4.640989 1.0940053 4.605946 0.4893641 -2.495497 -0.01927599 0.3826197 0.23659554 -3.877622 2.2600098 0.09586776 -3.0755243 -0.28490788 1.7583377 -1.8486114 -0.59914076 -0.15182273 -1.2764561
929 0.5545422 4.128855 0.6520477 -1.3962827 1.018322 -1.1771902 1.4358526 -3.3742738 1.0093179 4.7340283 -1.2582396 4.6391625 -0.60913485 1.759112 -2.0342672 -0.9865995 -3.0542676 0.40591732 3.3379452 3.6357617 -0.13546295 -2.609074 -0.89322805 3.5326939 -2.9324481 -0.16797906 -2.2125726 0.5742905 0.30308813 1.2660584 -0.40241644 1.3475741 1.0461228 -2.6344976 0.9037031 -1.0132521 -2.2475343 -2.240042 0.23796742 2.496456 -1.2471824 4.7639923 3.8073413 1.8962846 4.601847 1.4996096 -1.881027 -0.47851294 1.2958233 1.3168057 1.3796104 -4.688064 4.2875614 -2.6653104 1.2516809 -1.4541159 1.44761 1.1505188 -3.8295066 -0.24326855 0.012832879 1.0961953 0.21078129 1.2205275
1392 -1.7047791 -2.4831514 1.0115622 -2.03157 1.0481558 -0.31721917 -3.5190854 -4.55248 -2.7472448 5.0529757 3.9294288 3.1815171 1.0389937 5.534721 -1.3982363 3.5932899 -2.887955 2.177193 -5.5381026 -1.1012783 0.7172372 -0.43707693 0.9094789 -0.04009898 -1.3136096 -2.2529092 -0.9685948 -1.8764479 -0.43909556 2.0008023 -0.17350133 2.4679859 0.20068936 -1.9905822 -3.4584193 4.0550475 0.7517912 6.3937073 -2.2640815 -2.2626095 2.2000341 -2.176646 -1.3832613 2.2640026 -1.1094954 -1.2626591 4.2843623 1.7694613 0.55422026 -5.259954 -5.242858 2.2214072 -0.25530997 4.8206677 -1.2739366 2.9574802 -3.2219179 -1.571416 -0.8327963 2.2374156 -1.3922052 -1.4826691 2.177681 -0.22902703
C0020480 -3.8511646 0.33408403 -3.9763877 -2.3343427 -5.0109825 -1.0316135 -4.7882147 4.437318 1.4357022 2.7155337 1.9179974 0.3616765 -4.08883 0.303848 -3.5431967 2.0754917 -3.923727 2.6892617 -1.8872427 1.5426248 5.200475 -0.095951244 0.538644 0.069253884 -2.6267161 -4.5139704 -4.713682 0.7108992 4.654886 -0.4725182 -1.9474347 -1.0747359 0.6770786 3.5007644 -2.4113212 -2.4232721 5.0638413 0.5887391 2.1800392 2.7404633 -3.3814893 0.16489987 2.610052 4.253386 -1.6015325 3.9347186 0.40670913 -1.7553233 -0.6114128 6.478404 -2.4048245 5.193657 1.4229189 -2.1487632 3.5278916 3.5541246 -2.1161413 3.2957866 -0.6024665 -1.9061062 -1.7010696 0.97293544 -1.6928335 -1.5729647
7422 1.329098 1.4375286 2.6794543 0.6665657 2.6411743 -1.713779 0.81511235 1.4643348 0.36559382 2.0926518 0.73554075 3.2238936 -2.3040216 3.0930474 -2.651874 2.941132 -2.760542 -0.81881857 5.460498 -1.2860206 -0.8587297 -0.67112774 -1.0639163 0.119461834 0.073391326 -2.5508935 -4.655228 0.14329392 2.563068 0.42296135 -2.2361069 0.5533813 1.8042783 -1.4655856 2.098658 1.9556942 -3.0489058 -0.1165176 -1.7561594 2.4403229 -2.6365004 -1.9313917 3.8061159 -4.9420505 -0.24709296 0.13215397 -0.095163725 1.8589151 4.5772414 -0.50658476 2.0467153 -0.4471182 1.7729543 -1.5843035 -2.331793 -3.072963 -0.9586136 0.032555696 -0.16801988 -2.4435682 1.2649355 -1.355932 -1.8917457 3.492206
135 -1.1769961 -0.44306034 0.21790159 -4.14402 0.4958493 -2.6570246 -3.7602515 -4.761042 -1.4580168 3.5604088 2.5513854 1.1068214 0.35319766 1.7074621 -2.2644136 5.5960326 0.3479208 -0.43062666 -3.0687897 -1.8099824 0.6412531 2.578127 1.0985997 -1.30656 0.61157894 -4.241452 0.06564892 -1.3148414 -2.059476 4.28042 1.9044158 4.105176 -2.8062792 -0.44951534 -1.1852175 5.686894 0.47796297 5.5407243 -1.3215123 -1.8894836 1.8294356 0.9660186 -1.7504681 2.3440688 0.36851496 -0.61763793 5.079607 1.66976 1.8514568 -2.6820912 -5.049456 0.8388438 -0.13724105 5.075274 0.2012203 3.9804463 -5.434022 -3.6847458 -2.1015916 1.0835422 -1.4018605 -2.4770412 2.4961786 3.1721838
2908 0.51674783 -0.58598906 0.88321555 0.71275 0.7687872 -0.29118475 -0.6671459 0.43796903 -0.6994886 2.2705023 0.08224984 -0.42239854 -0.91941005 -0.0017008533 -0.7482502 -1.1867956 -1.5014393 2.1744077 -0.0020804785 0.7879179 1.1303676 1.5172228 -1.4910159 0.27608645 -0.12534992 -0.4101585 -1.7102584 3.241058 -2.099688 1.3337125 2.03212 1.1995834 -1.7010832 0.88608116 -2.7655597 -1.2112025 -1.5791804 2.8474402 -0.77091813 -3.1119802 1.0851094 0.5010087 0.14762479 1.1431104 0.6176697 1.208239 2.7600763 2.345579 1.6955664 -0.7116742 -2.9106686 -1.2112174 -0.26278052 0.61522615 -0.028166877 2.3540366 -0.46941063 -4.0261703 -1.0559281 2.2185905 -1.7009549 -0.32528317 -0.6789368 -0.2357101
3479 1.756697 0.22904651 0.13677536 -0.8806706 -0.9163257 -3.4386804 2.17017 2.00853 3.3975043 2.3433442 -1.492455 0.9249113 -3.2397144 3.013091 -2.4487388 -2.7135975 -3.1303275 -2.3006241 2.1432843 -2.2554584 -3.950049 -1.3680437 -1.6264812 2.3393776 -0.27401936 -0.40769252 -5.3035674 0.8531977 0.25551754 0.7160508 0.48089308 0.9876409 -0.05810381 1.3472856 1.1046841 -1.8412957 -1.0378478 0.74949735 -3.5952137 -2.7145538 -0.7417573 3.4164112 1.6560248 1.7156628 -0.3355381 2.4752312 0.8647265 1.2657684 -0.35086098 -3.1468167 1.4497935 2.0604887 3.9692664 0.061172158 -0.4458564 -1.3502746 3.118414 -2.7310264 -2.1646698 -1.0643373 -3.1262486 0.77774143 -0.10971352 2.600738
2100 1.7899994 0.579412 -1.6341385 -1.4135633 0.11835392 -3.6722007 -1.8596662 -2.556426 -0.8442628 0.16513148 3.8531091 -2.8361042 -2.0959697 -0.04479112 -0.45846945 1.9905142 -3.9195855 -1.3718284 -0.6745508 0.48160627 -1.9356514 -0.3241208 1.3338743 3.0650077 -1.1035748 3.098822 1.2179472 -0.20903292 0.118455514 1.1101582 0.08196945 2.9868593 -0.856081 -1.057785 0.041440114 1.9864643 0.607832 2.8640416 0.5601333 -0.62885165 1.2930534 -0.4926262 -0.8346027 1.534648 0.18717769 -0.03093372 -0.53887045 3.9786913 2.6122384 -1.6357982 -4.541514 1.7227857 2.4269133 3.223603 1.2124509 3.2222912 0.7068004 1.5908898 2.916306 0.84417486 -3.1600308 2.4837623 2.6359177 -1.0472155
C1863512 -4.542023 -3.8725162 0.9070063 -2.4234834 3.1970801 -3.6425698 -1.5600812 -2.78813 2.0905282 -5.708492 3.4061494 -0.9766882 -2.7521925 -2.5753028 -4.1030684 -0.45711803 0.99000895 -1.5435625 -0.87070096 3.3727477 -0.79073036 7.1936784 4.562338 -4.1617026 -4.2093906 -3.7680078 -1.3083583 1.2057958 3.9720082 3.1480265 -3.0809562 2.073815 -0.80585206 -3.1784415 1.6768345 -0.4106344 0.60888046 -1.5348216 4.8852525 -0.6783483 -1.4543895 2.545915 -4.8783402 5.085099 -0.25469464 2.5247138 2.486216 5.2115664 -2.0881755 3.5392623 2.908661 0.7165692 -1.2789578 -3.2723916 2.5905592 -3.6958468 2.5099285 2.2725382 -4.4357257 1.0044341 -4.3517733 -2.887449 -2.2002993 -9.986097
672 -1.0462716 3.3984046 3.617815 2.914458 -2.2442071 -4.1377883 -1.2055691 -1.3652749 1.1228902 -1.2478105 1.6701493 -1.732936 -0.012053999 -1.0735072 1.6553162 0.995858 2.0549316 -3.458747 0.16836628 -2.5634491 0.45601994 -6.306245 0.42851478 -1.346892 4.443833 1.2405013 2.2471664 1.2995722 0.9866337 0.5577705 -2.1937869 -0.84751284 -4.6527624 2.190153 -2.3339643 0.45093128 -1.5243131 2.3776944 0.9083508 -1.5262815 -0.9437621 -0.37626213 -0.03567793 -0.0516233 3.8416784 -1.3863642 1.4404895 -0.7676703 -2.5658212 -2.4857259 -0.8206699 4.1846476 1.5307575 0.84880203 -1.5743762 -0.9613102 -0.9567257 -1.3553243 -1.395636 0.88884467 0.95856583 -1.9444869 -0.17487697 -4.759121
2539 -1.1157024 -0.45374468 1.1678294 -0.8594453 -0.93753 0.48310027 -3.7585218 0.49458498 0.5412248 -0.47472522 0.55722016 0.86010134 0.012822389 -4.6571584 1.4030429 2.662393 3.735669 1.8366823 1.5481622 0.45113346 1.5174365 -1.4856108 -2.0361571 -3.0988991 0.5870921 4.545548 0.3012309 2.6350002 -1.2064375 -4.3139906 -0.94679904 -1.5128484 -1.2011026 -0.22466125 -3.4897783 -3.6152406 -2.5894427 -0.64786124 2.886575 -0.4941712 -2.2752848 3.1114562 -0.8991053 1.0207264 -1.778544 1.1528544 -1.6998088 -0.18824665 -1.7932692 -3.0307863 -1.6612952 0.90781194 2.0101209 -1.3124398 -1.8215559 -1.5610962 -1.926301 0.2093374 3.9621437 2.7267752 -0.0453001 1.9037596 0.31081176 -2.1592858
1312 -2.608606 0.16247948 1.8304504 -2.4965184 0.9006621 -0.051216017 -3.0702825 -0.91225076 -2.2416663 3.2475648 1.8801315 -1.3402352 -1.0972513 2.4955509 -0.73714685 1.0717512 -3.7937255 -1.0024637 -2.6114185 -2.5795336 -1.6047733 -2.1397886 1.83801 3.236188 -1.2707493 3.1583335 -0.5367545 2.4493315 -2.1445477 -2.4690301 -0.6286206 -0.22086304 0.3911455 -3.0910904 0.8053165 1.6219784 5.594709 3.7284539 1.3663812 0.14411147 -1.3398252 -0.05101284 -0.32955298 2.5578587 -1.3311168 -1.1040121 -0.79507643 -1.0721835 2.0404289 -5.865374 -3.3045018 3.5841866 1.6079541 0.4549033 -0.24348664 4.7462983 0.8794938 2.1532826 -0.5273174 2.0957325 -4.063082 -0.5287892 1.2577106 -2.478139
C0206146 3.719277 -0.43646395 -1.6556227 -6.1283484 3.657924 -3.2569695 -2.2601402 0.6432639 2.6667476 1.2541869 -4.4422765 -0.12986848 -2.153427 1.5959755 2.3747518 -1.5504308 1.5884129 6.3372383 -4.217993 -2.5267842 -1.1873991 -1.218441 3.171502 -0.21912903 0.6458519 5.569558 -0.8899512 1.6413509 -2.0088513 0.7504247 0.36954424 -1.4054015 -4.2836566 0.70773476 4.063722 0.17836057 0.059470147 -0.86346686 3.603108 1.7749009 2.7349315 -3.930594 3.1142008 -1.0394442 -5.0017424 0.09879441 1.8644419 3.6384254 -0.46790767 -0.69204766 7.9093866 3.0025976 2.0169773 -0.5235926 -1.7897028 -0.030629182 -2.4106581 -0.8421661 -1.2264977 9.677762 5.100936 -4.4538856 3.0467412 0.98336035
51738 1.4196913 -1.1396146 -0.2666639 0.546192 1.9089111 3.91631 -1.2931783 -0.057265628 -1.5763093 2.50857 0.5581888 0.99851847 1.6067505 -0.046375584 -1.5462161 -2.6406438 -0.56222963 -0.3851629 -5.0810103 2.8721871 0.40206912 3.9150646 -2.4257257 -2.0182347 -1.1220587 -3.748825 -1.6182142 0.8158365 -2.9144619 0.9918747 -1.1636535 1.4734795 -1.0563719 0.6254918 0.24954402 -3.457288 -2.8739665 -0.23491864 1.7759211 2.6219757 3.4867914 5.7737727 2.794233 2.3668854 -2.0738344 -3.81585 1.6221281 3.071863 2.443846 1.0768237 -3.01775 3.7610114 2.0242686 -0.79437685 0.5114824 2.9359322 -2.2283533 -4.7796736 3.1653802 2.0318713 -0.07390348 -0.7058713 -0.75143343 -1.628927
154 -0.3754329 1.5595317 -0.40563858 -0.18937561 -0.90456444 3.3575177 0.9835122 -1.9442589 -1.0390829 2.898263 1.3813174 0.8392047 -1.763552 -0.578399 0.4873337 -1.8459648 -3.6504617 -1.5890882 -2.4086099 1.5240731 -0.88989973 -0.6691261 -0.3280328 1.7065734 3.4772804 -1.2729101 -0.6463322 -0.37786117 -1.8752918 2.73644 1.9445322 0.11567222 -4.527757 -3.3167596 1.4226197 -3.163395 -0.7598808 0.3904579 3.7472563 3.2888768 0.63399523 3.219923 2.893151 1.7994343 2.6196587 -0.20048192 -1.1530205 2.0273812 0.19934039 0.8384213 -0.11840472 -0.6062478 3.6029592 -0.39982423 2.4201221 -0.075063005 1.6717494 0.65347445 -0.26625633 0.8127837 0.11663976 0.6288183 1.569951 -0.5166907
3586 -3.2870197 1.0194246 1.962996 -1.8173202 2.571976 -0.77548313 -1.3797504 -0.11997997 1.9531735 -1.7526892 1.5368481 3.8110266 2.4071503 4.7106175 -1.4698552 1.674078 2.5264947 -2.0027027 -1.4264908 -1.1356643 0.07141114 6.3840156 -1.9759055 2.860208 1.6545571 -3.0167096 -0.56594044 0.0162756 -1.1264614 -1.0555125 -1.6818744 1.9347699 2.3908508 -2.411387 0.54232347 2.1597133 -1.3542821 -0.13650046 2.1215348 3.854964 -1.4810925 2.3844953 -1.1263839 -1.8728281 -2.4443007 -3.1905777 1.79979 0.6124444 0.077087656 -2.1128051 1.5007275 5.3890505 -0.6963672 -0.7701622 -4.497884 3.3630269 -1.2028111 0.84442997 1.3855857 -2.0291047 -0.5558005 0.14336292 -2.3973298 1.5186093
9370 3.0908492 2.1816826 -0.16161779 1.8080734 0.3558588 2.4131925 0.05166857 0.440416 -0.5017476 2.670293 -0.3908767 -3.3626618 1.3006835 -2.2278528 -2.8481908 0.06751201 -2.1349542 -1.1073555 3.014568 0.105979934 -1.3018283 2.6091104 3.658336 -5.050118 -1.7329708 -1.7379847 -0.6123318 -2.755353 1.6422607 1.3608035 2.1666305 0.22186457 -1.2222143 0.5035819 3.5570626 -3.3735933 0.09812138 0.049415138 2.9709575 3.7974274 -1.4909412 1.14666 3.1965883 -2.498303 1.330586 -1.6063634 -2.3157058 -3.198227 4.1831512 -2.3655114 1.4506254 1.995272 2.7919123 -1.3998532 -1.7882156 -2.4015987 -0.84461856 -1.4469095 5.6318502 0.29552558 -2.8844173 0.1511767 -1.4143873 -1.551837
4760 1.2144798 -0.7567196 -1.0593944 4.5285163 1.2383167 4.3129673 0.13449009 0.8689914 1.9353522 2.8300667 1.8180193 -0.5372693 -2.5998251 0.40634897 1.6998065 -0.43318814 -5.7287903 -1.3479147 -2.4799867 1.2085351 0.48895982 1.648148 0.47844097 -3.5957463 -0.5895426 -2.2428973 0.26630956 -0.51387346 -3.6571858 1.8235314 -1.7346231 3.4233913 -0.99298614 -0.83587164 2.2489836 -2.9521942 0.30054194 -4.5317655 1.5424912 2.4129024 1.057983 0.80122983 -0.5006857 3.1045465 -2.0972416 -0.6544305 -4.5188656 0.27529454 1.2825695 0.16562493 -1.3606883 -0.1391088 -1.0712216 0.58367383 -0.1355838 -0.8666854 -1.5226187 -1.9066306 1.6911919 -0.035290726 -3.7315407 0.72935873 0.933951 -2.5869513
217 -1.3671057 3.2243764 0.94503015 0.7521279 -1.1150686 -1.59658 -2.294967 1.1269181 0.086978205 1.4786615 1.9869301 -0.20278966 -0.72135216 -1.1955689 0.10207263 0.41480523 -0.53217447 -0.577873 1.3700578 0.16735242 0.16752847 -2.9762957 -1.1630903 -1.6696112 0.9596603 1.7069032 1.4757497 1.1151054 -0.19815823 -2.0297456 0.46494746 0.13285032 -3.5284579 1.0185189 -1.6773647 -0.82844776 -1.9293932 -0.1730103 -0.09682426 -0.20824216 0.63772345 1.856459 -2.4805539 1.7182715 1.8229712 1.1480509 0.4525021 1.2090973 -1.599399 -0.90320957 1.5042408 1.5686871 -0.22890694 -0.5539823 -1.6889096 0.25973958 1.7545798 -0.8902599 -0.07789748 3.0409951 -2.0521154 1.7484813 -0.34999242 -2.2129586
23411 0.3053825 0.35320777 -0.8692832 1.9020579 -0.8435806 2.9200394 0.16322625 0.17426868 -0.087092526 0.81770253 0.81067115 -0.73922634 -2.0300436 -0.5963382 -0.69992197 -0.7574323 -2.2280388 -1.1179799 -2.2790282 0.95779645 -0.32038975 0.4211098 0.33200413 -0.38745788 1.8579464 -0.96945417 0.19447961 0.65713334 -1.1125935 1.5684955 2.9707348 1.0005814 -3.6292162 -0.72335804 1.7668325 -1.3881729 0.8617745 -0.9933873 2.1400578 0.64723283 0.8600424 1.506234 0.9597935 1.0805655 1.5028487 0.40560573 -0.9445615 1.7230955 -0.18489014 -0.540583 0.26317316 1.1528815 0.86925983 1.1751308 0.74833244 0.12269623 1.5511682 -1.5351462 1.7580636 1.37054 -2.638472 0.012886579 -0.5282151 -0.56204444
C1838261 0.013494945 2.5603426 -2.3329515 4.3274794 -4.7388215 0.09920944 1.5218467 -3.8518841 -5.042313 1.6506042 0.052522253 -0.071178116 0.7079633 0.3916789 -2.958846 2.380225 -0.48763046 -1.0267961 0.94960004 0.29279026 -0.34289962 3.0704625 -2.8662708 -2.2484481 -1.3957072 2.6144004 -0.8647224 1.9080448 -1.5406376 2.2008796 -1.0952672 -0.14009714 0.42924145 -1.8555266 2.105705 1.2944895 2.4714909 -1.2419853 -1.3296753 2.1553514 -1.5864713 2.725038 -0.39910737 2.9919622 -1.6375986 -0.44399604 -0.13977516 -4.8096952 0.42757466 -0.10653013 -3.0318098 1.9967883 -0.08741905 -1.2097974 -0.7905022 1.2125982 -2.163878 1.9273307 -0.47313622 -0.21323909 -1.3527902 0.84738344 2.4539163 -0.6726383
5465 2.0737271 0.39527026 -2.265313 3.1915236 2.4616766 2.0571494 -0.16061819 2.804752 -0.64514065 0.79685116 -0.28851396 1.8489997 -2.1481962 -1.0122216 0.5684449 -2.368645 -1.3115396 -0.20632192 -1.5536984 1.1763697 0.14490038 -0.91827184 0.68443024 -1.357593 -0.7921531 -4.281256 1.0421535 0.26261836 -1.8462751 1.4255832 1.4532951 -2.4494476 -3.3321462 -1.2301277 2.8752904 0.23951101 0.5205769 -2.2102044 3.2471454 -0.2167483 0.007373618 2.582646 2.234184 1.602746 1.0875949 -1.8147125 -2.0846257 1.2420146 -0.0012089063 1.346756 -2.2684946 1.0835248 5.1715417 0.58809745 -0.32342967 -0.93251795 1.3898431 -0.85152626 2.0902715 3.3506186 -0.24268134 2.4153297 0.6304712 -0.721903
6647 0.5353465 0.92651254 -1.0718558 1.159823 0.34591505 0.9370559 -0.243637 -2.904617 -0.5058118 0.25679156 2.1210895 0.68892664 0.16242747 1.1283064 -1.0466175 -1.9279447 1.445877 0.4598026 -0.1083322 1.8799224 0.78406364 1.5514805 -0.9209577 2.0180395 -0.8613862 -1.0329585 -0.8538131 -1.3734794 -2.2816703 -1.4511726 1.2488755 1.231982 -0.12436411 0.25792086 -1.7477784 -0.09676978 -3.224815 3.3885498 -0.35608256 -7.029735 1.1906116 -2.0899794 2.6308239 0.0717191 -0.56997055 0.82460374 6.514594 1.2103328 -0.36022446 -1.3241841 -1.7081953 0.23171511 -0.89368105 0.39347225 0.4765458 2.2374272 -1.6895815 -3.0096428 -1.4624659 1.4177787 -2.7915258 -4.138337 -0.59436953 -0.67832124
7133 2.4071622 0.31481957 -5.2722163 3.148607 0.89248616 3.7197063 0.3787555 -0.81890845 -1.9414207 0.13509735 1.4258277 -0.6259112 -1.3002253 -1.8738432 -0.05018667 -2.1006498 1.1849046 -0.7619118 0.6685345 3.250524 -0.7749168 -0.51407707 0.81206477 -0.6484332 -0.4996223 -3.2739382 -1.1173745 -3.8696578 -2.532393 -0.42727762 -0.37936056 0.45696163 0.13676472 -2.8920522 4.110936 -1.987781 -1.2835133 -2.7910223 2.3413217 -2.1408951 -0.43413466 1.3833209 3.2704809 0.010286072 -1.700304 -0.64500886 -1.6498481 -0.7475604 0.81478405 -1.1161759 -0.5471949 1.7051911 3.3063557 -2.273093 1.4312538 0.28240204 -0.33062324 -1.6418431 2.690891 3.47651 -2.0510874 -1.1780409 1.5905536 -2.2442687
C0002876 -4.2280383 0.53030264 0.72908527 -3.4178624 0.9736837 0.27327633 2.634149 1.8115276 2.0672803 6.1073503 3.915576 2.3492653 0.06605047 -2.5551012 5.2377353 3.4519143 1.5131367 1.9350413 1.106541 2.573194 2.055275 -0.7127345 3.5008817 0.10483048 0.60275584 -0.13084109 2.9831955 -0.35649177 2.7297118 2.6949565 -1.1259897 6.667633 -0.027861893 2.3076293 2.92624 3.710249 -3.0257704 -0.84560823 2.6650343 -1.8923763 2.9328837 -1.2715864 3.5524826 6.0971 -0.5476054 -5.0447407 -1.6950746 -5.9734006 4.6124697 4.8541894 -3.8331149 5.613061 4.3888884 3.3809965 1.1236322 -0.38834593 7.194174 0.59201574 -0.09253061 3.0556288 2.3679857 0.250004 -5.356428 -3.120811
3952 3.0401888 0.92342365 -2.0207686 2.1321812 -0.1891334 3.6719904 2.2465742 0.22937335 -2.4017448 3.406972 1.5347772 -1.1413378 -1.4010845 -1.5092568 -1.9402888 1.0834923 -3.593485 -3.0125747 0.17105483 0.03085601 0.11199174 0.124354795 3.5118186 -5.4161024 2.9773812 -1.4015889 -3.486826 -0.7313895 -1.0941173 1.0910202 2.3315241 -1.1166708 -3.84301 -0.24650069 3.530313 -0.26528886 0.31680012 1.3422376 2.7555008 3.1074076 0.8507484 0.07927628 2.999351 0.1728389 -1.4285856 0.17448777 -0.73136 0.038581844 2.3973873 0.91617805 -0.46403438 0.38273627 1.8150419 1.5809361 -2.981127 -0.8571352 2.0577495 -1.1185565 1.8628455 1.5683804 -3.2541106 0.5617874 0.14428471 -0.81429183
7040 2.1168942 -1.9224542 3.4670804 0.8776189 -3.7502713 0.77775675 0.7531514 0.2926879 -1.9033003 0.062694944 -1.9256518 0.8593258 2.4833717 1.2924505 -1.2063999 0.33877888 -0.35438687 -1.5654542 5.0871606 -1.5837824 0.3832493 -3.1820147 -0.716397 -2.7103424 -0.63924485 -0.6155317 -2.866633 0.71256995 0.8547869 -0.45170364 1.6627629 0.23083931 1.1000849 0.8958896 2.3609772 0.6183402 0.068659306 0.65864605 2.182868 2.3425658 2.4223204 -4.660979 2.7223468 0.016654912 -0.9468194 -0.9130034 1.415063 0.21356028 2.9831433 -1.2303339 1.6335145 -2.9494724 0.20545746 0.310752 -2.870459 -2.2685916 -1.4358107 3.1065018 1.8870499 -4.4998937 2.931093 -0.14067635 1.0219015 0.50473076
134 0.5460182 0.7296082 -0.49479598 -2.946669 -2.9202962 -2.7428558 2.8059113 0.17396656 3.297075 -1.8528279 0.7924653 2.795559 2.5092046 1.9231244 -2.8669305 -2.3542051 -1.2271532 -2.310019 -3.910386 -0.4668036 -3.5573275 2.7030296 -1.7684164 1.8282875 1.6038322 -1.2487077 -0.8806991 0.61473244 -1.2685691 -0.6243886 -0.9948385 1.4184008 -0.9050155 0.25718457 -0.12466908 -1.8995357 -0.8645607 0.624604 -1.5758115 0.009227659 2.3259165 3.2487485 0.91235536 1.5777024 -3.1791203 -1.9076481 5.383796 0.97956103 -1.9114981 0.46978456 1.2543794 5.098096 1.1546965 0.052874047 -3.0301476 0.9269363 3.2854466 -0.9952088 0.80033094 -3.1204588 -0.95782334 0.09003428 -1.970568 0.56786805
C1833104 -6.7053022 -1.9765391 1.3506945 4.9187107 -0.7888817 -0.7576143 0.96455467 -2.7871566 1.395463 3.534657 1.6391296 -3.462856 -1.9236134 -2.172786 -5.3451824 2.3928113 1.2464437 1.2309587 -4.0756574 1.806773 -2.470646 6.038591 2.3646696 -0.47461987 -3.4702234 4.80822 -3.010586 5.125085 3.6206565 5.1711974 -2.182131 2.749908 -2.8044555 0.21689972 2.008155 -1.8122188 -0.69170445 -3.1653442 -6.5513897 1.4825332 -5.343213 -4.4220204 1.4812238 10.445388 2.5210872 -4.938989 -1.4387116 3.5340457 0.079253845 1.0153803 -1.1305431 0.5737075 0.3480585 -4.0836935 -1.3650874 7.666407 0.7181212 1.3237406 3.7542095 3.974036 0.20317113 0.19036128 -1.8426585 1.6880574
3091 0.24803075 -3.9523902 0.8065074 0.9565379 1.5154794 2.3679616 1.4667561 -1.1848881 0.0022477333 1.2012935 -0.8572433 0.24236293 -1.9423536 -2.9874349 -0.43806845 -3.04164 -1.6365361 -0.24184309 -2.518752 3.2093062 0.33846095 -0.39086246 0.15122513 -0.016804928 -0.057719 -0.15513948 0.030201212 -1.1358085 -1.9881277 1.0548358 1.0425003 0.56726485 -1.527007 0.0645242 4.5543714 -0.923868 0.08649967 -4.3305645 1.3003892 0.8033581 -0.71247387 4.0328674 1.5533093 0.23129055 2.1088762 0.92760134 -2.997627 0.5770339 0.47150937 -1.4007701 -2.5511875 1.7244056 0.65415025 -0.35163593 -0.29959348 -1.2686446 -0.45586795 -0.081354484 2.4807775 1.1558675 -0.7226158 -1.5028018 3.2944572 -1.0532876
57817 3.920093 3.305703 -0.5287142 3.7188184 -1.4720395 2.7663224 -0.88743913 -2.660865 2.110706 -0.79253143 1.2587512 -1.506639 -2.9175622 -0.94960135 2.8263505 -1.6792877 4.8162436 -0.25826097 -1.3474816 1.6024802 -3.7022092 1.7822342 -2.303901 -2.294065 2.0250099 -2.7072437 -2.3134472 -3.8108425 -0.49013644 -0.08650985 -2.0446327 -1.784452 1.4950318 -0.699574 5.019937 -2.439827 -4.4646544 -6.28714 4.221361 -2.6224415 -3.8486433 3.0225534 2.9136612 -2.34178 -2.2954543 0.08744258 -1.1090031 1.93985 0.8881754 -0.49834216 -0.52273995 0.64681613 2.8771517 -0.19044136 5.512159 0.5030818 -3.2779052 -2.2650158 1.4477357 0.4243766 -0.9402801 -4.494202 0.6489305 0.03771423
367 1.95781 -1.6667157 3.3204129 0.3669594 -2.8573992 -0.45137945 2.407667 -0.37620455 -1.9735396 -0.35789123 1.2972952 -1.1079584 0.5088005 1.4886343 -1.3763767 -0.49072197 0.84571683 -1.9641058 1.5519125 -1.6393256 1.0949322 0.3249604 0.9962559 -3.7535186 2.0241566 0.36986303 -4.7652187 0.9884189 1.5533178 0.60600686 2.116398 -0.23907736 0.012991299 1.3608428 1.427278 -0.98161656 1.1483318 2.9442437 1.6175593 1.0298144 0.10822721 -4.5142527 0.4420653 0.91955656 -2.4112823 -0.3439981 2.0872257 -0.021849917 1.2799406 0.03445235 0.78525543 -3.285228 0.3308785 0.95572853 -2.0860615 -0.61208475 1.5005075 1.9267033 -0.09550905 -2.6627734 2.3318942 -0.28040394 -0.958602 -0.22941855
2247 0.28605616 1.3620372 3.3618422 0.0045496374 -0.3348005 0.17009425 -1.5235609 0.36721313 -2.0662425 4.0894685 0.52242476 1.7237059 1.6717995 1.3543808 -1.2088791 2.3284419 1.2989044 0.73101854 4.6807876 1.5910231 3.6062963 -0.9432592 -0.6296619 -7.1305404 -1.5136131 1.6339124 -0.3274543 0.90283054 1.2493382 -1.6771848 -1.7557731 -2.384386 -1.7853914 3.0235167 -3.301303 -0.3007725 -4.846892 0.18547603 -1.8847581 0.5048101 1.3463949 -0.6622137 1.0862035 -0.23994909 -0.15467417 -1.4525712 4.622408 1.534792 1.9951928 1.5900637 -1.5172031 0.5905585 -1.1104558 -0.20476536 -3.362291 -0.92946243 -3.5611935 -3.7401147 0.38228607 0.3429843 -0.17786993 -2.4972486 0.5822577 -2.6602762
213 0.96486485 1.3381366 2.5284188 1.6328326 2.000646 0.04793938 -1.9067792 -0.5518356 -0.28875065 1.276666 -2.4799843 -0.64681077 -0.07629087 -2.0312347 2.8022258 -2.4865797 -3.227087 2.4681869 2.6017482 0.04585887 1.3139759 0.65070045 -2.7959306 -1.9189974 -4.473572 -1.3619803 -3.1159523 0.35297754 -4.937891 4.3224163 2.5955567 -4.4977345 -0.4949382 -0.30223903 -4.5218487 -2.0655293 -0.49187875 2.5032094 -1.2120777 0.5739699 0.93835354 1.7035652 4.1354275 1.6574049 -0.5908768 2.0501742 3.3366036 -1.9736658 5.87394 -0.43312538 -1.4258637 3.0792975 2.047158 -1.4441946 0.48235568 4.084479 -5.01207 -2.6609006 0.6696051 5.251804 -0.35113218 -0.40101352 -0.15941472 -0.3952965
706 -1.2429078 1.153694 -0.513781 -0.6641487 0.75264513 -0.9602962 -2.1723773 -1.961619 -0.96051717 0.11559021 2.4244854 -0.806728 1.1192942 3.6901066 1.8494906 -0.43253028 1.6935114 -1.7853496 -1.0519675 -2.9019125 -0.24016646 1.5289538 3.0042586 4.1551037 0.70704955 2.9643238 0.90138614 1.7388659 0.5670967 -1.8996406 0.28941232 -1.3226976 -0.6925578 -0.3441513 1.6307248 2.8605988 3.5999272 1.9084076 0.17832687 0.5698861 -0.7081505 -0.76261663 -1.3703603 -0.9632964 -0.41442558 -1.1937983 1.741542 0.056983314 0.6059373 -1.5259115 -2.28071 2.8219883 -1.0055459 2.0180583 0.48433286 3.6129165 0.3056035 1.8533701 -1.9935015 -0.9649513 -3.929016 -0.64742994 0.20210572 -0.26993874
C1835817 -0.24049443 1.8391354 1.67959 4.4610457 -1.7881683 -1.1568546 -1.1043383 -1.8041347 0.060304668 1.8937632 1.7997208 -1.2333456 -1.9070395 -0.8821887 1.3293284 0.099274814 -0.37870657 -2.4748955 2.30549 -2.9734123 0.2936251 -2.7431302 1.522942 -1.0011541 2.6371686 0.6937465 2.1591055 2.0003843 2.220694 2.0898468 -0.20437159 2.623997 -5.166572 2.417736 -1.141585 1.609269 -1.0119427 2.3869026 0.30144736 -2.1857405 -0.74728227 -0.24645358 -0.69115925 0.22599375 0.37572372 -0.73212516 0.6292912 -4.5562034 -2.185717 -3.5921054 -1.0431607 3.5413675 1.137954 -0.3554085 -0.98569745 -0.21307383 -0.4917007 -1.2074322 -1.1913391 0.16716823 -0.3481245 -2.3398144 4.044059 -1.2333959
121278 -1.6638534 0.96659726 2.6526163 -4.3114724 0.9876602 -0.7026535 -5.8374395 -4.5134864 -1.8371234 2.1856496 1.833983 -1.2621629 -0.11061878 1.1276401 -0.66816413 1.8053565 0.6079013 -2.332288 -1.2637038 -3.8921545 -0.8464387 3.5326235 2.0026197 1.2451085 -1.2809725 -0.13830361 -0.06073994 2.1179535 -3.0685205 0.11185447 0.4374348 2.2040074 -4.33082 2.8795307 -0.6038721 4.9093003 4.0438614 5.609715 -0.17664643 0.32145193 -0.6121591 2.7034078 0.97046465 1.4727415 -1.5463911 -1.4805809 5.6885934 -1.2203455 2.734987 -1.6198736 -5.7007933 1.5471361 -0.75772744 4.1610985 1.98904 6.3441253 -5.500238 -4.0824175 -3.6505368 1.6572279 -4.094491 -4.799599 1.979156 3.401703
4128 -2.697451 0.40967128 2.8554192 -6.2158704 -0.5784238 -1.2985295 -4.6223497 -4.4259505 -1.6728116 2.2275412 3.5638807 -0.26838395 -1.0997967 1.2772545 -3.4781613 2.1865592 -2.6625206 -3.087924 -4.6681466 -4.2177553 -2.261074 -1.8381202 2.9469447 2.2930317 -1.0179092 -0.46651986 1.9105363 1.9141536 -2.195246 -1.5650133 -0.6274031 1.9210645 -2.5452654 -1.8626636 1.2341549 6.1585207 7.200776 5.244629 -0.3371249 1.9277114 -2.0798056 0.7161253 0.31779978 1.8010883 -3.7875342 -2.9715376 1.6378609 -3.252828 2.0348456 -4.9964204 -2.7127726 3.0721178 -0.8284173 3.3345306 0.47977957 4.447104 -2.4552953 0.3531006 -3.4783092 0.57976246 -2.8786623 -4.468794 2.190498 1.2910501
6347 2.0816274 0.75384915 -0.050117236 -1.4834491 -1.003071 -3.2356546 4.054112 2.0148132 1.5427204 3.554047 -2.693852 3.52962 -0.6483862 3.5913033 -4.832112 0.24347769 -2.7965536 -2.8849368 4.534363 -1.6618775 -1.7332933 -1.2593819 0.4823521 -2.0559137 -1.9118944 -0.351762 -4.438282 -0.24597405 3.1656613 0.96999276 -1.3385648 -1.9295609 2.9320583 -0.28376174 4.0620894 0.10062589 -2.080138 -1.4785058 -5.6656785 0.62137735 -0.76080906 0.108157136 3.390144 0.29529813 -0.610128 -0.13674803 3.7954514 0.8698103 1.5018448 2.4102447 1.5284812 1.5318587 2.903567 -1.053061 -2.0599089 -4.054315 2.8646991 -1.2278337 -0.9602811 -3.11184 -1.7266016 -1.3546842 0.010492497 0.99752474
7048 0.5900764 -3.4227538 2.4567177 -0.26235834 -0.39967164 -0.07606277 0.21211322 0.46937662 0.13402711 -2.3283122 -0.4175587 0.6438059 0.86197126 1.3320992 1.5805355 -3.8477106 1.3887208 0.048257645 1.561962 0.32201993 0.6188087 -1.5642451 0.04232374 -0.35559416 0.21095215 -0.50283647 0.42972827 1.8991083 2.7488148 2.1858802 0.07721895 2.7027113 4.15023 0.0008172476 -0.28952014 0.27494702 2.6362958 1.0723482 -0.5552976 -0.6221462 -1.2118639 -2.0817187 -1.3153749 1.1761824 -0.5557048 0.7435753 -0.21315351 0.567062 -0.2613248 0.18303686 1.6165504 -3.4942832 0.13907291 -0.5461757 -1.8082813 -0.8630166 0.017413955 -0.5640279 2.5708556 -0.17158654 3.1361053 -0.31503248 -0.9254342 0.7670814
5328 1.2144617 -2.085945 -1.4036264 -2.0005045 -0.79476535 -1.7296937 4.106076 1.17272 3.3135076 -2.4130497 -2.6571293 2.41587 -1.7941571 2.8600652 -1.5868309 0.2301848 1.5092783 1.2054427 2.5401728 -2.4634845 -2.9513674 -0.37669742 -0.08271181 -0.3432768 1.864402 0.5512039 0.79320747 2.4171777 0.44269308 1.101691 -0.93366694 1.783191 0.96813005 0.61254245 0.037821442 1.6986233 0.63784075 -1.6355168 -3.4221349 0.1218729 3.2562404 4.202637 0.021196498 -1.3194698 0.48404783 -3.698768 4.0439706 -1.3186157 -1.7503151 2.2734232 0.9304068 1.5146959 3.943859 0.7407286 -0.13421935 -2.3355184 2.3752685 -0.19123642 0.791055 -1.9677049 0.31705648 1.1306212 0.37836844 0.8765719
335 -0.48743692 0.4829594 -1.7178301 2.281603 1.8273603 -1.9579098 0.3951932 -0.30310592 -2.0730183 -0.99844843 -2.3914816 -0.8447899 1.7081537 -4.8848915 2.477507 -0.8446261 -3.8540437 4.3547287 2.041734 -1.9292706 -0.26860002 -1.5950707 -0.7457629 -0.9648091 -3.4791474 -2.0773935 -1.0945888 0.43933544 -1.2324317 2.2772872 2.7148373 -4.2062135 1.2628438 -2.792699 1.1485666 1.7976879 -0.7071039 -0.16990618 -1.4763731 1.8784592 1.4941288 3.514776 0.9170486 -0.17866968 -1.478784 1.592487 -0.24526837 -1.4225795 3.6575794 0.41155735 0.06357969 1.6356541 2.0500214 -2.6277173 -1.03382 1.7328433 0.94822365 2.0166104 1.3632966 2.9037027 1.1045625 -0.08778339 -1.4689289 0.03781728
387129 2.9390938 2.6249332 0.69073474 -4.39714 -0.80644923 1.5375098 -4.958437 -1.8365271 0.64891076 2.3738742 2.2331054 -0.5928298 0.8238394 -0.033149563 3.7750285 -0.71142143 -0.061056055 -1.4791523 -2.6624987 -6.336082 0.10650345 2.3422122 2.4897826 2.6640682 -0.5411807 2.2729554 0.6561468 3.6235065 0.78278303 -0.30668065 0.3405892 -0.30294314 -1.2653588 0.4453607 2.0755086 2.839044 4.076416 4.0954638 0.3159824 2.3341622 1.0381312 0.13407214 -4.304404 0.47213554 -0.31650338 -1.5360341 0.5052426 -1.3258165 -1.763525 -1.0753702 -4.6819196 3.6319125 -3.4358165 4.2904406 -0.1321099 1.8237023 1.1414115 3.2775185 -2.3634236 -2.870595 -3.6812022 -0.6519791 1.9689194 -0.078631364
4318 -2.7166283 0.0017087576 -3.0013807 -1.7140017 -6.0665674 -2.496963 2.7551932 3.099742 2.8836515 -0.11845819 -3.8236904 -0.32365668 1.907567 3.2673495 1.6899809 0.18501005 -0.37082422 0.7377234 2.6116908 0.671781 -1.3144239 -0.55691296 -2.3554006 1.4413097 -0.8770348 -1.0967884 -1.0108818 0.61095256 0.052860234 -0.6072508 -4.0759006 2.8277853 -1.3559611 -1.8939716 0.3758516 -0.15155798 -1.0730369 -1.3096255 -3.0817451 -1.3561457 1.2622824 1.4435819 0.8076983 -1.6859344 -1.8125122 0.0146443695 1.9913867 -0.21631119 -2.1443584 1.2403219 -0.59428424 2.0554218 -1.1265715 0.27752104 0.8347079 -0.91279185 6.3103228 -3.1162097 0.31819633 -1.8382711 -0.19290479 -2.569927 3.6729834 2.0890682
2488 -3.0110095 0.061376117 -1.6560105 -1.1659027 -1.9139557 -1.7238615 -1.2059827 2.3908489 3.741608 -0.7373243 0.99349046 1.489107 -2.430822 -1.8026886 -0.75068605 -0.709254 -0.10228652 -2.8376434 -0.07113359 -0.58804613 1.9873198 -0.82109237 1.6240932 -0.6759457 0.12094061 -0.75161713 -1.2148004 3.0262632 1.1546717 -1.0343305 -2.7150424 0.30158493 0.38217455 -3.8608742 0.07784426 3.1871443 -0.17561705 -0.2329498 -0.2573838 -0.9289933 -0.17905685 -0.8939608 1.4303068 -1.747232 -2.511454 1.6592889 -1.7949957 -4.1628466 -0.6524134 -3.5029957 0.2141345 0.46824867 -0.60159105 0.5430139 -1.0844324 -4.711921 1.3226883 -1.1027203 -1.3558213 0.32504117 -2.393682 0.81605995 2.5187583 2.1585562
C0043019 -3.4041955 0.44230425 -1.7781382 -1.247314 -1.8653345 -1.8150643 -1.4189125 2.7446475 3.8461592 -0.73110414 1.2920942 1.3129842 -2.6227536 -1.7131487 -0.7285713 -0.7244599 -0.095099345 -3.3524427 -0.18174884 -0.5863688 2.0980592 -0.79608583 1.8876624 -0.96736497 0.2140061 -0.8002514 -1.6011643 3.3027792 1.1195321 -0.9743681 -2.5112429 0.37951395 0.4992286 -3.9567842 0.19164722 3.3891761 0.07648492 -0.42619342 -0.28237176 -0.77565575 -0.19120891 -0.8777638 1.7888718 -1.5075709 -2.5101266 1.6072106 -1.8615813 -4.1318746 -0.77888185 -3.8190444 0.12992983 0.6087951 -0.43693838 0.6527272 -1.2407322 -5.0677137 1.6361113 -1.0631703 -1.4130391 0.46155322 -2.6960528 0.846545 2.8220348 2.0455513
5078 2.9746516 -1.0949439 -0.2491708 1.4042636 -1.9183112 0.77712816 -1.1839291 -1.3042359 2.7646356 0.7144519 -0.7366768 0.5171975 1.3666462 -2.6630962 -1.3146864 -0.3082918 0.5705611 1.0694916 -0.37076488 0.29170263 -0.3240618 2.2837522 -1.0425153 0.9676909 -1.0674897 -1.3355345 -0.4984642 -2.0084145 4.197957 -1.4774785 -1.855836 -1.0923795 2.4497294 1.8339018 1.1455235 2.6853817 -1.0365732 -2.7753952 -0.44666585 -0.5974411 0.5881676 -3.4823663 -0.62580276 -1.4277753 1.2233436 0.44193655 -0.2644985 -1.2178499 2.6799664 -0.9995029 0.39063582 -1.0039059 2.021541 -1.2645088 -0.57070714 -0.5526409 1.7374756 0.18616292 2.618833 -0.52286893 -1.4842597 1.4000429 2.0836866 2.5886412
C2677132 3.0682142 -0.9473894 -0.2688412 1.4251182 -2.005988 0.9512245 -1.2752303 -1.3965839 2.7969246 0.8123746 -0.7665667 0.27302876 1.424389 -2.5597904 -1.3949986 -0.28966236 0.6180483 1.017871 -0.4523478 0.26561308 -0.43727335 2.4287267 -0.83150864 0.918533 -1.0401269 -1.3534036 -0.6607959 -2.0980005 4.2419615 -1.6275488 -1.6695151 -1.0925541 2.5465398 2.0018966 1.358884 2.8550885 -0.94648874 -2.9373512 -0.42926154 -0.3435667 0.79671913 -3.7361076 -0.7323484 -1.3869842 1.4944084 0.47190896 -0.33166984 -1.0066736 2.7689986 -0.97836846 0.24507381 -0.9714957 2.271974 -1.3626611 -0.5211378 -0.36994675 2.0719836 0.2211441 2.8889997 -0.52347046 -1.6647764 1.5563742 2.1566958 2.4730942
C2675512 1.9582367 -0.9164308 -0.046879545 -1.2424076 -1.9438452 1.7261249 0.43551058 0.3263827 1.926457 -1.0995528 -2.0748615 2.8099353 0.72129846 -0.61164916 -1.6319818 -0.102300406 -0.8710022 3.5282063 1.8531108 -0.7922653 2.11753 0.8540538 -0.36496785 0.24548563 -0.085116856 -1.3579773 -0.6256709 2.1151047 0.5727774 1.6587814 -2.7964265 -2.1916873 -1.9247189 -0.5077884 -0.24479404 0.49683827 -0.78134936 0.17723514 -1.2427851 0.18570854 -2.692574 -0.22171663 -0.18931375 -1.7019621 -0.52743 2.0179617 -0.5740972 -3.3154728 0.3447176 -1.003866 0.5175659 0.32682672 -1.029663 -3.4307086 0.84751594 -5.05439 0.15261574 0.49430534 0.4607165 -0.33243093 -0.63298386 -0.2415445 -0.4342601 -0.22952598
6135 1.8829914 -0.8309121 0.039154597 -1.3472366 -1.9966105 1.8534592 0.548449 0.31872135 1.8317423 -0.97360843 -2.2292616 2.746859 0.7480485 -0.26926237 -1.7713541 -0.057911064 -0.8893432 3.5302436 2.0264285 -0.86930513 2.216092 0.8679023 -0.089856185 0.10915163 0.03198278 -1.292695 -0.6908187 2.3526404 0.34931186 1.6639539 -2.7220662 -2.3025475 -2.143082 -0.54131603 0.0646517 0.33225724 -0.6719856 0.105638854 -1.3042268 0.42878535 -2.619466 -0.34790394 -0.26881874 -1.7644646 -0.31488442 2.1244168 -0.6181107 -3.1812127 0.20235075 -0.87876016 0.48669097 0.37324932 -0.87586933 -3.6176102 0.98884565 -5.154389 0.2839385 0.40027654 0.6716273 -0.414479 -0.7688541 -0.25256652 -0.6404061 -0.481293
169792 -0.12443259 -0.45691088 0.17433731 1.499158 -1.1855785 -0.4556009 0.89522207 -0.1876347 -1.1766915 1.7451408 -0.32168832 2.6018324 -2.4430182 -5.1330533 0.0485239 -2.0809126 0.22839834 2.930808 2.3164172 0.7348467 1.1388786 1.8993685 0.34005722 -3.0930386 -0.4701167 1.1399386 1.1131411 -0.77571267 1.8748577 2.9192178 0.2236639 1.9914873 2.83005 -4.322662 -2.5336845 2.0209088 -2.2505133 1.6232207 0.60567427 0.27281904 -1.1652235 0.4326596 -1.5412577 0.9916303 -1.8738 0.06907073 2.5024405 0.106237255 2.782572 -3.2807353 3.3122792 -0.21717681 0.11539697 -2.2325954 0.79095715 -0.5635688 -1.940329 0.7112546 -0.22928293 -1.692339 0.49652097 -0.9166322 1.0218276 -0.6993932
C1857775 -0.24840121 -0.30585268 0.2395025 1.6233108 -1.4407277 -0.523266 0.9038587 -0.23606119 -1.3453307 2.2358642 -0.4287278 2.4913156 -2.6956747 -5.225647 0.025466772 -2.286212 0.34286514 3.0394206 2.5946658 0.81283945 1.167172 2.039396 0.5872246 -3.3679612 -0.33412433 1.181573 0.9792143 -0.5163316 1.6632345 2.978769 0.6824323 2.2229943 3.0712347 -4.4973345 -2.40637 1.8744831 -2.2246232 1.7756485 0.572734 0.64816505 -1.1470488 0.23757589 -1.7888262 0.90889025 -1.8054589 -0.05063295 2.6950607 0.4039661 2.7670379 -3.4333851 3.332997 -0.3390577 0.2687733 -2.4795108 0.68057793 -0.34463772 -1.9299071 0.48969895 0.07646454 -1.800455 0.311872 -1.0392857 0.85761315 -1.0085992
55215 2.3231976 -2.134713 2.818048 2.2707486 -1.3701899 -0.65839726 -0.80268097 -2.4784477 -0.49389648 -3.361188 -3.206551 3.2966142 -3.0509324 1.5413531 -1.2748649 -0.5740643 -0.3505762 0.39552486 1.6661088 -1.603196 2.069552 0.096833065 0.9621147 -0.647564 1.8226194 -1.3442914 -0.36143282 3.0071015 2.423335 3.2034435 -2.7139797 -0.8498496 0.022706473 -0.48161012 0.84681433 -0.47954926 -3.2818477 -3.4833267 -1.5003592 -1.6857245 -1.9217681 2.2526457 2.093508 2.7636464 -1.3424046 2.3518739 4.039321 -2.3695307 -0.13807042 -1.4612644 -0.64943534 -1.6370082 -0.7642369 -2.144681 -1.1931694 1.1092725 -1.4354397 2.2766228 1.8786961 -2.129287 1.4667448 0.11870792 0.20318042 2.078404
C1836861 2.188543 -2.358684 2.7500572 2.2740867 -1.5731645 -0.80238 -0.40048018 -2.2209852 -0.0696691 -2.994754 -3.0289202 3.296686 -2.7558668 1.1076866 -1.222218 -0.69843864 -0.2385726 0.6566696 1.6922137 -1.4075292 2.030078 0.15230027 0.4943973 -0.48698196 1.6256558 -1.3580658 -0.15283293 2.5782616 2.734128 2.809781 -2.791803 -1.0148368 -0.04698525 -0.467269 0.61464214 -0.22465153 -3.123471 -3.143408 -1.5783222 -1.9247882 -1.7968565 1.7989478 1.7289 2.2145724 -1.3541902 2.2198944 3.3887286 -2.5747736 -0.10035617 -1.3313564 -0.55091095 -1.6508932 -0.81134635 -2.0075333 -1.0794373 0.7524111 -1.7500576 1.9275854 1.67552 -1.8898 1.4514762 0.24107595 0.09732505 2.2448697
4635 3.425558 -3.5637555 0.53563124 3.6833122 -3.131283 1.0512743 2.0153415 0.090253405 2.8093424 -0.41177356 0.055376958 -2.2454407 1.0618488 -1.9626583 0.9800961 -1.3399838 0.1270453 0.7162562 1.6780488 0.74786884 -0.024893867 -0.05381363 0.5066226 -0.88493246 0.80247647 0.35544375 -0.33835563 3.8686125 2.05334 -3.0069697 -2.8536184 0.49390715 -1.0005822 2.4737782 -2.6168127 1.3196573 1.5124364 -1.706941 2.5358334 -1.3886253 -0.44551647 -1.7540799 -0.8887802 -0.6084129 0.999019 0.76243263 0.9756611 -0.23107256 0.72974646 -0.797556 1.4023364 -0.21577631 -2.2926145 -0.99202603 0.38373402 -2.58858 2.0869668 1.0216883 -0.74439013 0.5938016 -2.6694596 2.8931444 2.064537 3.4538267
C1843687 3.698672 -3.5764437 0.39013627 4.0773516 -2.9647229 1.2377584 1.9351958 0.25965902 2.882331 -0.40046528 0.31427738 -2.8386397 1.2953387 -1.8488517 0.9251814 -1.4460782 0.12531257 0.6616022 1.7292868 0.72031033 -0.19539493 -0.014572409 1.0409775 -1.3180615 0.98244834 0.6228801 -0.505745 4.1082644 1.9744884 -3.210264 -2.754578 0.68048835 -0.9606436 2.9012074 -2.7852097 1.4068235 1.9251412 -1.894127 2.7791321 -1.0137568 -0.42714128 -1.8052317 -0.904538 -0.39119342 1.4461806 0.7684234 1.1302334 0.10437342 0.7875305 -0.8740891 1.382404 0.12544525 -2.5713573 -1.0638952 0.4143524 -2.409202 2.4708273 1.1281759 -0.8304869 0.74332803 -3.00213 2.8750608 2.37264 3.4454255
C0272052 1.1709504 -1.3654817 -1.2318617 -0.7898608 -1.4927034 -1.0847095 -0.43741506 -1.2909458 3.2973368 0.5932977 1.9023182 0.11538483 -0.14668392 -2.557298 1.0693582 -1.0665034 -0.14351952 0.32580352 -1.0201895 -0.31539094 -1.8459156 2.0970757 -4.7863984 -0.059809126 -3.3160796 -0.10576136 -1.2000566 0.75491744 1.4568582 2.006491 -3.847241 -2.3652654 -2.3034456 -1.7901978 -1.0244095 0.7192482 -3.806227 1.1894776 -1.4337984 -3.0929601 1.482913 -0.33119702 1.927745 1.8656807 -3.405022 2.1284862 0.95844245 -0.51643777 -0.8544472 -0.24384105 -0.4879981 -0.26455134 2.299428 1.3991154 -1.8819604 -2.2815726 -0.26021272 0.92786056 -0.36449173 3.477789 -0.4003455 -0.11250209 -1.2998343 0.21614
6005 1.1447852 -1.0661739 -1.4070758 -0.8101916 -1.7268507 -1.2525464 -0.4196394 -1.4057685 3.655061 0.66615325 2.0219789 -0.46913487 -0.08577251 -2.4520993 1.2966979 -1.0041718 -0.16547143 0.056514427 -1.2510042 -0.35085768 -2.3483186 2.333299 -5.1771545 -0.2121721 -3.7112932 0.081340455 -1.5239971 0.82559234 1.3595136 2.4248338 -3.8894122 -2.500722 -2.751152 -1.9343337 -0.828463 0.596525 -4.103804 1.357939 -1.5520734 -2.87011 1.7330836 -0.42715728 2.2340872 2.3989425 -3.4978676 2.3426037 1.2576636 -0.18076089 -1.0020765 -0.38290843 -0.5398658 -0.22081962 2.573232 1.9648293 -2.1466277 -2.2253385 -0.066217944 1.1716149 -0.3900193 3.996138 -0.5488644 -0.33076823 -1.29251 -0.257194
1565 2.6782339 1.1762865 5.706771 -3.741748 -3.5380726 0.8180177 -3.496009 -1.6884525 0.6579878 -2.5161276 2.435492 -3.5432167 0.23322442 -0.84931153 3.9112668 -4.7412353 0.017464167 -2.695035 -0.5250486 -5.35886 -1.0033268 -0.71812445 0.9939501 1.7824692 -2.4572976 3.3912022 0.39574596 2.989707 1.5277886 -1.050295 1.5144484 1.814366 -0.73103374 3.1490753 0.018691476 -0.91071004 5.1752906 3.6478584 3.0301178 2.8384333 2.896723 -3.0178003 -1.460217 2.6646533 -1.0815313 -0.06770704 0.84433275 -0.57972604 0.009391561 -1.029728 -4.3359127 0.38522485 0.16593571 3.9098682 1.3342447 0.8649544 2.908203 3.2881472 0.46472546 -4.0856557 2.529229 -1.1396459 2.152782 -0.2396971
6285 -3.3100994 4.8717117 1.2258817 -0.05704891 -4.257089 -2.5968058 -1.913386 -0.44907358 -0.9926351 0.76662207 2.9015985 -2.1009617 0.83718085 2.011367 5.0899014 1.1605295 1.2548958 0.7196861 -0.23265962 1.5397555 0.22153169 -1.9468551 -0.95718133 -1.1993016 1.4249403 1.3901328 0.88670033 -1.3810091 0.9098698 -2.4250906 -4.2299194 0.6061455 -7.5854216 -0.061134957 -3.2623415 -0.17333975 -2.4043462 1.0588559 -1.4200145 0.6817467 0.2669887 1.129069 -1.3420295 -0.43071157 0.24127465 1.075518 1.6296667 0.7531075 -2.2585137 -1.2782236 2.2287621 1.5684589 -3.7944167 -0.53919554 -0.6561214 -1.011127 4.6353226 -2.415323 -0.97274524 0.46121484 -0.4128248 -0.72597146 1.5650101 -0.81652755
596 0.7815719 -2.09682 3.5064414 1.3065808 0.25729826 -1.9007798 -0.07475519 -0.45295322 -1.0176394 -0.44838566 -0.36095694 2.6857154 -0.7856864 2.186454 -0.7072406 -4.234357 1.4059474 0.108098015 3.6718612 -2.3812199 0.7584212 -2.1722305 -2.7607472 1.4147005 -1.933481 -1.527873 -3.5288048 -0.6171545 4.199979 1.5151794 0.52840626 1.868542 3.4556508 0.92901975 2.3654668 0.5130305 0.5631698 -1.2367524 -2.4892144 1.2046355 -1.3435389 -1.4381329 0.5801119 1.5344727 0.5450521 2.234059 0.16487405 -0.45124814 0.8851604 -0.76564676 1.4932326 -4.001466 2.0131917 -0.22461197 1.5900753 -2.4400156 1.120177 -1.4640707 -1.8894356 -1.8141502 2.211751 0.029072722 -1.0365485 0.67910284
10891 1.4201615 2.4633002 0.6325773 2.6992915 0.8899706 2.413895 -0.44135478 2.3477783 0.47554687 -0.07684672 0.9812651 -1.0020186 -4.103756 0.047824446 0.21080233 -1.850839 -3.1088698 -1.7036172 -3.3330395 -0.63497794 -1.1872914 -0.54779387 0.33498582 -0.83854127 1.8903042 -2.605249 -0.48113707 0.6339752 -2.7079945 0.757081 2.5664134 -2.1358376 -5.3358865 -0.6735532 2.6762946 -0.63542145 0.5222725 0.81199735 4.609782 -1.4521967 -0.621954 2.5678077 2.8223982 2.594441 2.0877614 -1.5155363 -1.8361738 2.0819037 -0.9317927 -1.7628688 -2.025783 2.1214902 4.9301176 1.1663711 0.2506813 0.8070679 2.1915264 -1.0629346 1.6897333 2.033555 -1.6822727 1.0385581 -0.9724197 0.27010632
28 2.1995237 2.2897508 -2.64682 1.4841378 -2.7678065 -0.8066216 -4.7017765 -0.25114286 1.7974304 -2.9415402 1.1142955 -2.1404338 -2.8062897 2.2739964 1.3655674 -0.35729432 1.7641629 0.10687413 0.41367894 -0.44581518 -4.5946984 1.3301597 0.66326034 1.9768522 -3.3059852 3.6002796 1.6742591 1.0525949 1.1170982 -3.2041156 -2.1127977 -2.1522756 0.6257573 2.5776033 -1.0524355 5.447152 1.19269 -1.2051526 -0.10014589 2.54955 -0.85814637 -0.11385653 1.3458449 -1.5095087 -4.6726465 -1.2844163 0.29402795 1.9775517 3.1454518 3.1142108 -0.40482435 0.8026447 -0.83929825 0.8520777 5.694524 3.7222204 -1.2611195 0.3606206 0.9099826 -2.601224 -1.672119 -0.763118 -0.86188585 -1.0024791
79068 0.25793555 0.7741897 -1.4679393 2.741051 0.01766834 2.584496 0.58800584 0.38903266 -0.46008724 1.3168833 1.8153071 -1.6059781 -2.5029874 -1.1227129 -0.11826441 -1.1886518 -2.4507227 -1.6230098 -3.1314511 0.25364035 -0.45370236 0.3244625 1.3874147 -1.0528944 2.1602771 -1.5135837 -0.5428521 0.4447617 -1.7192736 1.8008312 2.3793142 0.67280763 -3.8862267 -0.95385176 2.0923018 -1.8367205 0.71324235 -1.254577 2.3344548 1.1630828 1.377685 1.6512865 0.9999185 1.5446657 1.2752318 -0.010138963 -2.0341656 1.9368562 0.31355792 -0.58322287 -0.5103984 1.3028078 1.2780606 0.6487269 1.8353493 0.41346586 1.9431382 -1.3129467 1.1476176 1.9935886 -1.3710033 0.3181476 -0.5997306 -0.5753227
1029 1.5319945 -0.48992947 4.7416925 0.29931802 -5.206564 -0.3977497 2.3289921 1.055529 -1.5034426 -0.932658 2.5264275 -2.4043849 0.90962225 2.104279 -1.0458801 0.41661808 1.1438664 -3.3266416 3.3854825 -3.911484 0.11439417 -1.473316 -0.03785426 -4.410105 1.8071622 -0.44563246 -5.4945283 2.543301 1.1184382 -0.98829734 2.0003517 -0.32580796 0.01785123 1.8267373 2.1738307 -1.0209421 0.30586413 3.64191 3.0923433 -0.3507651 0.97129846 -4.7065187 1.0896783 -0.30277005 -3.3734913 0.9045729 0.91949326 0.3768073 1.36306 -1.072783 -0.48859653 -3.2191205 1.5952034 1.7887976 -1.8070538 1.3151748 2.295356 1.2352875 -1.3608934 -3.0387585 3.4660544 -2.253537 0.37970787 1.0584577
5443 -0.4559416 -2.89905 2.0333612 5.427684 -1.8975829 6.567381 -0.5052619 -3.3079245 -4.7525954 -0.22245088 1.6972604 -0.14645854 0.72415364 2.884384 0.4997464 -3.6557028 -0.092490256 -1.2245983 -2.9750836 -0.61997414 -0.9471493 0.048770297 0.307556 -4.555949 0.911483 -2.9643152 -2.6132872 -0.14244927 -1.5249553 1.9921983 1.3425736 4.746658 -3.2044346 7.9681506 0.20561922 -1.969934 0.6930681 2.5519161 4.192109 1.2627676 1.9945832 -2.3993306 2.6409144 4.748573 -0.004741726 -0.43837214 2.310025 -0.13107148 0.07304972 -1.6558167 -3.31382 -1.929867 2.8017452 4.8098 3.3514843 1.1228613 -1.6897844 -7.155411 -0.2339641 0.34872845 1.0936929 -3.4161859 0.34359717 1.1491714
1906 0.6315829 1.1772088 -1.2605112 -2.211408 -3.0189984 -3.2856483 3.212356 0.124233134 3.040614 -1.1165125 1.3674711 1.382352 2.3613563 2.726981 -2.0188117 -2.60317 -1.0728302 -3.1401007 -4.471613 -0.77486235 -3.8952556 2.1394997 -1.3448842 1.7529534 2.1811821 -1.8314325 -1.7387125 -0.31657395 -1.5880231 -0.2926981 -1.7754192 1.0870711 -0.3710531 0.6337835 -0.31520873 -1.7386979 -0.75700706 1.4848195 -1.9192897 0.42130014 2.8577302 3.1544507 0.2243161 1.8100584 -3.9030588 -3.0300555 5.9685163 1.5709951 -1.6303293 0.36788052 0.3566058 6.077817 1.1759534 -0.1043122 -2.5990016 0.9425058 3.5847588 -0.58197874 -0.58167106 -2.68757 -0.14675131 0.2732574 -1.966681 0.31710458
3308 2.1858623 4.0957813 -1.3152137 -1.9772232 -0.6011728 2.722835 -0.07997286 -1.8505163 0.95094985 1.701126 -2.3784153 0.56114334 1.0060755 -0.06258929 -1.7309209 1.6829197 3.3073275 0.5614956 -1.4491149 5.379949 1.8255023 1.03456 2.6534724 3.0166643 -3.0576541 -1.3720036 1.5560896 2.94272 2.646809 -3.189193 -1.5381457 0.31306124 1.1464847 -2.1610405 -0.33854997 -0.2401886 0.020723086 -0.12601891 2.073162 0.05341975 0.8338567 1.8950895 3.229498 1.0098666 1.3239423 -1.5380819 1.5978914 -4.090411 -1.7354181 -1.4094702 1.2088116 -5.7250953 0.33918923 0.2190132 1.3991611 -3.6573498 2.6221054 -1.4894419 -1.9365029 -1.8561066 2.2893007 1.0202063 -1.6891086 2.0380244
C1836860 -0.34593222 1.7150401 1.8241322 2.9675891 -2.656152 -1.2656456 0.4968522 -4.1189537 0.3403982 1.2795972 1.4125017 -1.982678 2.0056846 -1.8191781 0.32703602 -0.75541633 1.4154508 -3.512236 0.1472798 -1.4392136 -0.8823186 -1.4999626 -2.9196184 -1.1954163 2.756359 -0.57452726 1.5580577 2.7448661 0.83975315 2.3503752 -1.1946784 1.5990217 -3.545607 -0.36805585 -1.1301734 0.91946536 -0.76191515 1.9863892 2.3233197 -1.019143 -0.4976832 0.9550144 -0.1209496 -0.47065797 0.50762343 -1.0397339 0.4482092 -0.6154542 0.7482109 -1.4625705 -1.0080464 4.3425474 2.2962878 1.005492 -3.2753973 -0.98669904 -0.5782276 -0.6406352 -1.33498 1.2216278 1.5561858 -1.5081103 0.9983328 -4.38331
3123 -2.722835 2.5415046 -0.115925625 1.2331347 -3.0292099 -0.68863744 -6.3036313 -0.7028523 1.7043773 3.2434323 1.732908 2.7047946 1.4455693 4.5523653 3.8096092 3.939027 6.232464 -1.55738 2.8871143 -2.1343694 -1.0911207 -2.5189083 -2.5941257 -1.7908598 1.5562661 -0.44619554 0.0075879665 0.5014774 -0.3745216 -2.108483 -1.450608 -1.8205385 0.24833229 3.3150015 2.7972739 6.013189 -3.15478 -2.6946282 1.027322 1.8558329 -2.136215 3.7982876 -5.393333 -0.8248515 -3.8830273 0.94192696 0.12733267 -0.42460957 -1.8903072 -1.7008822 0.44221976 2.9797232 -2.5997462 1.9963096 -0.66907173 3.764997 -1.8459445 -1.0604013 -5.5166626 -0.79461414 -0.36113888 -0.00040949625 0.5625833 -1.0927154
4878 -3.109117 -2.209234 3.0377936 -0.23999469 -0.4322811 1.2576612 -1.9360873 -1.1908532 -0.8236003 -1.4789271 -1.5797436 1.9196455 2.6685417 4.898053 1.782612 -1.279976 4.15901 0.614512 2.070872 -3.1430898 1.5143397 0.5740833 -0.6317201 0.8847521 0.5004632 -0.7368142 -0.72497606 0.059301607 1.1695622 1.0618796 2.2930663 1.7163904 3.2669394 -0.053896204 2.4975672 1.416731 3.0863104 -0.63833636 2.121506 1.1726991 -0.36848468 -2.1235533 -2.8491824 2.536151 -0.54146403 -0.49518758 1.7277282 -1.8739984 -1.0780432 -2.9823256 -0.10653551 -0.8669402 0.07476594 0.8796726 -0.5341824 1.3677031 -0.610221 1.1262505 -0.6014064 -1.1215361 0.26443222 -0.527062 -0.1455426 -0.101966985
1958 0.43338192 4.3563147 -1.178087 1.7554117 -0.62858206 -0.5293861 2.952381 -3.1179106 1.1602895 0.7148264 2.2071278 1.1070405 1.6662966 2.1030347 -0.6749234 -1.2087076 0.18626386 0.7130353 -1.1825105 2.1145194 1.1019552 -0.90413016 4.18136 1.7257683 -0.008827138 -0.92936504 0.20022814 1.0814403 -1.5491384 -0.42973772 0.8820113 0.012167736 -3.279332 0.0855901 -2.5158281 0.17170838 2.6946168 0.8738096 2.0989811 -0.68760425 0.71433735 0.60440475 2.7505028 -0.7046785 0.1479643 1.2053328 0.7274787 -2.1269076 -0.5110795 0.24467625 0.524892 -3.0342753 1.659784 -0.2859413 -2.116087 0.29139262 2.6618433 1.4843358 -3.5647557 -0.29966474 -0.5383063 1.468746 -1.0948296 1.0829239
5743 -1.1640943 -0.13848954 1.1630028 1.2582161 0.3149093 0.66237724 0.2550589 -0.73859894 -0.88210434 1.1063274 0.9742502 0.8164869 -0.08592125 1.8601048 -0.90093917 -0.9020422 0.32691044 2.3091547 -0.89019066 0.115831845 1.026059 1.7194993 -0.6910689 0.62923634 -0.08737131 -0.5909076 0.1819004 1.0302538 -0.7989288 0.8197643 2.0837264 0.122524135 -2.3773897 1.2644604 -3.1455047 0.26844785 -0.8677547 2.6389167 -0.8720371 -2.6792037 2.3616128 -0.8448486 1.3838935 0.42012742 1.6550578 0.74617654 5.8399854 2.1349945 0.8263515 -0.09139987 -1.7842427 0.35631618 -1.4272217 1.6308248 -0.51282877 1.5782019 -0.8076264 -3.800222 -1.1404303 -0.064949304 -1.2899476 -1.9727916 -1.2315162 -0.14152858
947 -0.7483751 4.3153114 1.0251167 1.4899644 -0.70350236 -2.4536934 -1.0546091 -2.1585853 1.3698714 2.4732368 2.540952 2.4419007 1.3676276 2.0629363 0.053152375 -0.2655863 2.3728466 1.7696767 1.4241713 3.2461019 2.8460004 -2.768279 1.6937793 -1.9311374 0.6793996 1.8803902 1.7042739 1.6107012 0.6822709 -2.3775744 -3.781574 -0.43697667 -2.426149 1.21911 -4.1226425 -1.3587656 -1.5606824 -2.477706 -0.87606776 0.07685933 -1.2181236 2.999481 -1.0484136 -1.7631793 0.24294397 -1.8307172 -1.7781353 -1.6092705 -2.9929075 0.08141293 0.5511364 -3.7875519 0.9804863 -1.5850121 -1.1481844 -2.4073753 -0.6193576 0.7630495 -3.0224977 0.28198844 2.6665401 1.0374016 -0.58528835 -0.48179314
