2996 64
C0004096 1.5246594 -1.3680917 -0.39303976 1.2196567 -1.0210166 -1.2101825 1.3987993 -2.2216785 0.0066305553 0.3465488 1.3866487 0.6457722 -0.97446156 -0.3797775 0.5925023 -0.6342955 0.5352027 2.10015 -0.05147979 -1.013045 -0.40374762 -1.6529485 -0.6620473 -0.14872366 -1.8586222 0.34817818 -1.2756424 1.4735453 -2.053157 0.30710685 -1.7569853 -0.26490012 -2.8524263 -0.62894475 0.13783778 0.48923695 -0.16282777 1.191594 1.4169381 2.3716087 1.2611781 1.738561 -0.71079874 -0.21069834 2.4794383 0.052032787 2.403784 -1.1264782 -1.2380072 -0.51291025 0.10285371 -3.1092105 1.6028452 -1.8002137 -0.70127565 0.95412964 0.2552032 -0.59596884 -1.1022561 2.369061 -1.3482087 0.65213346 -0.85166186 -1.4095455
C0027051 -0.834251 1.4052459 -0.91436976 -2.641271 1.9163929 -0.822123 1.3477515 -1.875682 -0.27154762 3.219802 2.7000568 0.69859815 -0.10373735 -0.48637232 0.21868262 -0.06895804 0.68105906 -0.8998717 -1.4751846 3.2519293 1.5203999 0.84713316 -1.4386108 -1.1884614 2.5486844 1.9638633 0.005184151 -1.0498774 2.0742798 -0.34430927 0.2404755 0.32300887 1.0687802 -0.45134652 3.4521296 -0.0048934347 -1.4009238 -1.7969767 -1.524875 -2.587121 -0.6392101 0.75105315 1.4282328 3.372941 -2.8111236 -0.41488272 -1.1983675 1.1865814 0.6486595 -1.0679153 -1.8916731 -1.8669562 -2.4437459 -1.3189586 0.33481508 -0.5437415 -0.59855115 1.5737603 -0.8943697 -2.8789763 0.8970128 0.21173272 1.4574232 -0.45486358
C0003467 0.5863655 -3.1748605 -0.06496968 -1.9921887 -1.4556988 0.53564477 -0.3183153 6.9506783 -2.3442845 -2.8702378 -3.894199 -1.4753598 1.6328053 4.44471 -1.4352059 -1.4413596 -0.31515023 -3.7192917 2.846318 -3.746753 2.2126484 -1.6535984 3.9550495 1.9603579 -3.773492 0.275094 2.4429896 -1.4019874 -0.9912019 -1.6354368 -1.5425531 -1.0433545 -1.0134215 0.87336916 2.3976588 0.35967672 0.07314337 1.5077649 0.73033386 -4.720264 2.843973 -6.023145 2.1585224 1.625898 -1.5637861 1.3481779 -6.775624 4.143648 3.1134117 -0.5024386 0.973419 1.2286072 0.24013682 0.35343784 -2.114948 -7.151763 1.0719736 -1.1105705 7.110731 3.79357 0.51942843 0.79909986 3.9685986 0.40972638
C0271650 4.459739 -2.7096858 1.4697942 -0.3784523 -4.261977 1.6141572 -1.4005213 0.9730982 -4.8113112 -7.6203933 1.2205071 1.1626374 -1.9691268 1.3730782 -8.024524 -3.0808985 -0.54654473 -1.5227823 2.6422114 2.6670282 -5.31518 1.4094782 -1.3479705 -4.301634 4.028519 -0.95769805 1.2309045 1.4245564 0.8242319 -2.3932626 -1.1352172 1.1281496 -3.171461 -0.78881866 -0.88778317 3.2542965 2.321845 -6.006006 -1.3340043 -2.6855404 -4.5479927 0.96432644 0.70438594 -1.8725427 -3.5364094 1.6195093 1.354172 -0.8172485 -0.5686567 -0.80425674 -0.86832917 6.0792823 -0.9777043 5.617417 2.2086468 0.57163054 0.3838768 1.605122 -4.1620297 0.922523 -2.6652634 -3.9108632 0.22618552 3.543394
C0007785 1.0805157 -0.19803298 1.7604874 0.40997687 1.0495942 -6.2960763 -6.5559397 -3.5904303 2.5591848 2.0990076 1.7566876 1.2388085 4.5678663 -2.1531324 2.58951 -0.1251889 -0.3083973 -6.1412377 -0.82036906 -0.6195035 1.1638931 0.045867417 1.5917412 1.6240325 -1.4441357 -0.44674996 -4.8413625 0.5085171 1.8186989 1.8103578 2.617175 -0.3041028 0.26373187 1.490652 1.1420473 2.7210667 0.93265307 2.4650927 -2.9902732 -0.76551765 -4.3674927 -1.4703817 -1.9186885 -0.5567274 -0.15611747 4.9671507 -3.8812823 -5.815058 3.537154 4.1621475 1.8818829 -0.26587567 -1.5070511 7.99016 3.6357079 -0.8901024 2.3747683 1.3875505 -0.8126902 4.297689 2.869801 -8.349709 -1.874207 1.5935286
C0032463 5.3727827 -2.109876 3.0008335 -3.2186365 -3.3938787 -0.298707 1.8872857 -0.7035096 -0.21306634 0.32434282 1.3687502 -0.28599176 1.500445 -4.0009727 5.95464 2.1428473 -2.258717 -1.1045303 2.1702425 0.6049269 0.7175685 3.3837552 -2.099146 3.8984668 -2.6171904 -1.7043141 -3.4466631 -6.12778 -0.14435183 -2.0569901 3.9534469 -3.522617 1.9246421 -0.16485372 -1.6948903 -1.1599452 2.0112956 6.225994 3.788827 -5.617112 -0.2908779 5.193433 -1.2123628 -0.7776789 -8.025293 -3.9394753 6.875587 -1.2204251 -0.820827 -1.041583 4.1815705 6.1082354 1.0421926 0.21314788 -2.1998577 3.9521637 0.07087478 -5.3369904 1.3391316 -3.8733733 3.9660268 2.0432763 -0.48537016 2.2564063
C0262584 3.786836 -1.1883487 -2.061221 6.7626805 -2.461909 3.5571785 -7.5926175 -0.12426816 0.36544687 -0.5462537 1.8773937 -0.42785558 0.535462 0.12862788 0.014857661 -4.565411 0.8352884 -4.256711 2.8789399 -0.8201186 3.1343668 4.3921633 -3.7510176 2.855728 3.9764411 -3.3164234 1.1456702 0.13521987 2.1558788 -0.55480456 0.8741088 -1.3468722 4.4644895 1.8053987 4.145767 0.41969448 -0.45361966 0.8232038 5.5034695 2.181264 3.0862784 -2.5338535 -8.944021 -2.8362365 4.1652403 -6.7354054 0.86221427 2.3663917 -1.8023456 -0.40893713 -0.65869313 -6.765659 2.635281 5.911506 -1.0984116 0.01929219 1.1540325 0.6423244 5.042498 -4.368776 -0.3899599 1.1073023 2.9635942 6.403396
C0028756 5.8897276 -4.626664 -1.7546195 -0.11320626 0.42510337 -1.0147227 0.49387765 5.0421824 -0.42278764 4.394907 -4.8496213 -1.564253 -6.4323683 -1.2694732 -7.5009866 4.0732183 -5.480509 -4.1132326 6.2364445 3.9808686 -3.0784562 -0.1120594 5.2338777 1.5486821 -0.74273294 -6.757428 -1.066249 -0.1361384 1.5542251 9.730095 2.3224645 3.9392538 -0.08386839 1.0996933 -2.4164295 4.6709027 -1.171175 -6.2380004 -2.3542402 -0.5394642 -2.3556173 -1.177228 1.2184842 0.38233864 -3.921519 1.4908584 -0.02636402 1.0245246 -5.20387 6.3173156 -0.5306578 0.8343968 -3.2752395 1.2793084 2.1291432 2.1812518 1.8699378 2.3655698 3.0988858 -2.7026858 -0.03618576 0.22808777 2.8442593 -3.4802709
C0030319 3.4980507 2.023099 -2.1662703 -1.8501863 -0.76526266 -2.3933828 0.9072475 4.960113 -6.5809875 -5.1978087 -6.92779 2.9888709 1.568498 2.1809752 0.43385407 -1.3236009 -2.2833219 -2.7640421 0.19652988 -5.062422 1.4906507 -2.8699477 -4.2879386 3.614273 0.90569264 4.508361 0.7241483 -0.5629039 2.1971195 2.0000026 5.540096 2.6808882 -1.9759009 -1.9696317 -2.2480407 -6.5120616 -1.199247 6.7059755 -5.0245337 2.5184567 4.65015 -8.458573 -1.5199834 0.28706223 -0.11988092 2.7962296 -5.608439 5.215155 -4.612241 4.31021 3.2287533 1.1912447 -2.5692081 3.8239183 0.60244024 -3.5459557 3.2952518 3.2551641 -0.6965889 1.0463123 -1.0812612 4.378999 5.9410615 -4.093951
C0030312 0.031597532 7.815627 -8.416911 -1.5970534 2.978169 6.4799623 3.5651786 6.5416803 5.1050725 -2.2924821 1.9045532 1.8934473 4.055302 -2.7090342 2.5343277 2.7813506 -1.7206218 0.04753106 1.3033743 -2.4223833 -0.6572797 -2.3935552 -1.9936512 3.0473816 -2.674859 -6.2101297 -2.3284907 -2.1802275 5.4817767 -4.8339524 5.638695 -2.5718768 -5.627506 -1.8941008 -1.085962 1.0001069 1.936316 -4.579192 3.7023616 -1.5436155 -2.6715956 -1.4897358 -7.6512146 0.6794713 -4.185545 0.056582823 2.8961506 -2.7268095 -2.1789153 -3.1639106 -3.6225343 1.9511541 0.56356883 2.0058212 3.9829671 0.8641026 -0.6839943 -3.258855 0.29659396 0.41952124 -1.8608931 0.86853206 -0.19603248 -3.5989254
C0028768 0.9419059 -0.01856172 -2.1038456 -5.6113033 -4.92701 0.70970786 -1.0970762 5.150178 -5.346071 -1.0402172 -1.4309087 -3.2174637 -2.9450772 2.733915 5.9441824 1.818113 -2.7427585 1.6016153 -1.2200633 -5.056234 -2.3184876 -2.0906835 2.6505783 4.3688455 -1.551321 0.08209379 7.07178 -4.4349685 -0.92037874 0.42201146 4.1062083 -2.0176525 -0.094021656 0.15186277 -5.0679927 -0.39708978 -3.958047 0.09641993 0.16550225 0.9756407 1.8686577 0.2531888 -0.18244027 -6.158323 -2.2829328 0.36010972 -10.2169895 0.5565938 0.75878286 5.361764 0.30207127 -3.1499832 -2.0949187 1.9574496 4.395033 -6.621453 5.2425847 5.58795 3.352906 -0.8621048 -3.0428462 1.593902 -4.473093 2.848197
C0020474 2.3447793 6.196344 4.194159 -2.305924 0.08242 1.857473 0.76299936 0.16367687 -1.3671411 3.236369 -2.6905158 1.817892 -2.690305 -7.2637296 -5.5507646 5.5870123 -8.8198 -0.3122267 -2.8356974 1.6799328 -2.9059975 -3.180387 -1.4274328 6.471482 -0.5351807 -3.9391298 0.8653658 1.1673881 3.8910258 1.9089683 -13.469121 0.53015167 -3.054195 -4.1353745 2.1402228 0.18997413 4.143625 -3.1018813 -1.2522293 0.35282728 -1.5536937 0.059516817 2.260598 -2.2887714 -0.32768172 -0.85899216 -0.88445956 1.2459915 -3.517458 0.72580296 -4.43733 0.07477675 -2.5911043 7.6885734 -4.8003325 -4.7499924 1.746876 -2.0952313 -1.1919712 1.8614465 5.2479773 0.05658993 2.1337893 6.9265714
C0085207 2.8063798 0.5121382 -3.1626925 -3.5937102 -5.6912284 -5.086987 5.3836 4.954909 -0.6521872 3.8346298 -2.6014705 -0.3082058 -1.3317763 2.9538808 -5.294447 -5.0927415 -3.0883303 -11.591301 -5.0738215 4.7538652 -7.3516774 3.6800117 -1.2821342 -0.7521995 6.014435 -3.742682 -1.5959378 -3.5380063 1.9539326 -9.236863 -1.5596435 -1.6970084 -0.24451427 -0.2851114 -4.139567 4.4279537 7.9839277 -0.15921853 5.7219048 4.6539855 -2.346141 1.8813331 -0.69433033 -0.030892313 3.4536028 3.785742 -2.622955 0.46156886 -2.5984056 4.9272733 -2.3265095 0.15900189 3.24533 4.0360913 2.7961955 -0.1325492 1.6787665 1.4859213 -4.1699567 -0.6911205 12.181864 4.830568 1.0361487 -2.4746692
C2931384 -4.3406224 3.8587675 0.22302769 4.69569 -1.9852438 -4.3089633 3.1628876 0.3894407 -6.298532 6.9042163 -5.181967 0.679874 -1.1637006 -0.33490583 1.6158863 -2.2052388 2.2583086 -1.0817629 2.035279 0.51512194 2.829438 2.0362997 -4.586207 -1.7131459 -3.4471483 4.5401673 2.3406286 -2.3632414 -0.5381625 -2.248097 2.816718 -2.2495096 -4.5579762 -2.0078166 -0.98148847 0.9297861 -3.2559075 -2.0604668 -0.30511788 -0.12146101 -3.8214586 -3.9509676 -0.15447915 1.5469383 4.3742065 1.9702135 3.2826002 -4.306153 2.5518374 7.406064 4.0697803 2.6260817 -0.83363485 2.0884478 -0.5650177 -2.0083497 -4.0724196 -3.6120033 0.37818223 -3.2489977 2.061026 1.383343 2.577065 3.8507223
C0025193 3.6630673 2.0362008 -1.565905 -2.9607265 0.21405408 6.4608583 7.2532496 -1.7840521 -7.7646646 1.3627441 -0.07207926 2.1199875 0.9113136 0.072203696 3.9340558 1.3804847 -6.1008816 -7.015352 0.3591166 -4.631776 1.0426164 2.828993 2.7274547 1.6349394 -1.3672317 -4.078408 -3.772105 0.6412656 -1.6405296 0.828431 -0.5171138 -1.2110144 5.654839 -0.52795917 2.9943228 -3.6555822 4.8730907 -3.612942 -3.356455 1.7745061 -1.9359726 -2.4132407 2.1662657 3.1360214 2.3558707 2.3081264 3.5722377 3.4538765 4.5313067 3.5333972 5.640804 -1.197108 2.9484985 5.688447 6.8237443 -0.7236851 4.5460725 2.8262725 5.767908 5.596266 -5.4359717 7.7547398 3.4336457 2.2326658
C0740302 1.0305028 0.11203632 2.6057668 1.5336856 8.30162 2.4278255 -3.344687 -1.5828832 7.931325 2.9601617 0.3243709 3.0998497 -0.06062121 -2.1798077 2.8623052 3.6253848 -1.170136 -0.051890552 2.7095115 -3.9320762 -4.847934 -0.88119924 1.2838347 -2.7880511 -1.9215816 -2.4302197 3.921799 -4.758659 1.8241283 -7.2803864 6.513728 -1.8877136 -6.8249555 -3.9965644 0.013558692 1.8299534 3.2517145 1.4145797 2.0253599 0.5243749 2.9555748 3.5677333 4.9307137 -2.0085256 0.26720655 -4.9271393 -1.3558382 0.2040345 1.6571163 2.8588252 -0.7850844 5.095927 -2.1674967 2.0542605 -2.3997517 3.717583 3.9743905 6.5723658 0.6726594 4.4548373 -1.7090994 2.8501081 7.0760984 0.02505635
C0751848 0.16336691 9.221676 -2.8455667 -6.0766106 2.4859052 -4.001151 -3.290744 0.57042843 2.9574707 2.0495362 -0.89527893 -2.566955 -1.373167 -6.96287 -10.6618395 -7.8075237 1.3302726 -6.751954 5.1160784 -5.1136293 3.6589303 2.3783557 -1.2970532 -2.2508888 -1.127223 2.5823545 -1.155526 -2.5805597 0.7553449 -0.7752129 -4.0659595 -0.51967156 1.3257996 2.488138 -4.9886036 -0.09640618 -2.6185644 6.4435587 2.3852687 5.142229 -0.99175996 6.8419333 1.5891869 -0.9913544 -6.6791596 -3.294125 1.8217499 -3.853251 0.22394702 2.1468313 -2.1013675 -0.10900245 -1.5581585 1.6269695 5.673402 -3.8661425 -2.8578637 0.18793234 6.3811593 5.622107 -2.107581 3.3677895 3.4229038 -0.27950653
C0006277 -0.7184143 -1.5459466 0.8970202 7.953493 -0.5469938 -8.727435 8.50709 -4.1611986 0.30206013 -1.8202534 -1.7159034 6.3543262 0.6118312 1.0145152 -0.5779061 4.330663 3.4616513 1.7924962 -2.5317106 7.196585 -1.0497223 1.9794345 4.1532593 4.850404 -3.6162543 -7.466911 1.1387779 2.2584007 3.028123 -8.708145 4.71708 -6.5570865 1.4614106 7.424405 -4.412559 4.124092 -2.5524292 2.5867686 5.288985 1.705535 5.3448653 -3.43827 0.8512937 -1.5244342 -0.068314 -7.1389284 0.32927915 0.9404582 -1.0880815 0.41266233 0.16556506 -1.3826224 -8.71452 4.707761 8.258752 0.7659427 -3.3384392 -1.5685538 -1.8790932 4.452031 -2.9873765 0.89623916 5.0313377 5.3199296
C0152264 3.8722734 -5.5397506 -4.076109 -0.24307863 -0.8572455 4.2377586 1.9919126 0.0055671856 6.42001 3.223886 -4.592606 5.4038243 1.704951 -1.2742003 1.4509901 -1.9183298 -7.8618383 2.1086571 -1.9882222 0.46684837 2.356298 -3.8810618 -6.6943426 -3.9629912 1.8328414 -3.8273475 -2.898823 -5.824677 -1.4394573 -0.4970707 9.428175 2.5406454 4.364567 6.5710573 -2.0811625 -7.0062375 -5.8313956 -0.8574797 -1.8367711 -2.6871545 -5.334918 1.4165189 5.2096896 -4.6935387 0.7327792 -0.07516175 6.576087 -2.9084 -1.129467 -3.5572908 -5.112868 4.706028 -4.2171907 2.6609802 -0.702265 -1.0482208 -0.5177829 -0.64359415 -0.892959 3.2684336 6.1981544 -0.52 -2.3169184 1.7952931
C0162316 2.2923026 -1.6490343 -2.9910283 0.4354345 0.9073014 2.4307406 0.37868205 4.02097 2.7110543 5.62811 -9.577066 4.738869 5.258341 -1.7470511 -8.337258 -0.73201865 -9.086442 -1.4124223 -2.6280572 5.8045197 4.586378 -2.555088 2.9865537 -1.5879731 -3.7733815 2.104387 -5.1968236 -5.065408 -0.21776931 -2.710833 2.3069043 -4.3603435 -0.43814078 2.3021684 2.2323024 -0.87456614 2.6924443 -0.31706974 -0.93921727 0.20612639 -5.767296 2.1029253 -0.4455889 -3.0440552 -0.7050881 0.55323917 -1.5349389 -2.3276458 -0.3759117 0.7425401 -1.8465589 4.4705076 -0.06572877 -2.6289291 5.789272 -0.4266458 2.976737 0.52406305 -5.0803027 -2.241053 -3.5757709 4.0842233 -3.8315861 10.874884
C0265110 2.3677795 6.1792965 3.4897683 1.6997424 -5.6798096 1.0634952 -0.29827318 -6.7392097 8.28196 7.54382 -1.5820372 -0.14266147 4.4274125 -7.7005553 -0.92806804 -5.949467 -0.6747569 5.0770364 -0.6066381 1.1280997 -2.1785142 -2.4872258 -0.80381083 -0.50326765 0.100644775 -2.6199374 7.7238426 -6.716188 -5.2030907 -7.3569937 1.0911629 3.0076985 0.8012037 -1.5738951 -0.5462169 1.8272786 -1.8191726 -5.535928 2.180696 -2.5191383 3.3476949 -6.358943 -7.2938733 0.468888 -6.6203046 1.4393663 -2.0123773 -4.8182144 -2.9134817 6.540887 5.9966726 0.14350562 0.3358617 2.2298732 3.5475411 -6.121258 -4.626812 5.220035 1.5228823 4.2932143 -2.5891094 3.1483707 1.0699861 -4.7899704
C0011880 1.8110981 3.0914211 -7.654341 0.6171588 1.2312362 0.33503085 -0.23367772 0.76078707 -10.636693 2.3164587 -0.30989552 0.8297233 3.7404907 -3.8031032 -7.289583 -2.34254 3.3026404 2.1643896 2.2220767 1.2083656 0.37062404 1.3327347 -1.7149959 9.802214 4.5667696 -0.5725204 3.7326813 3.3095567 -0.6835778 -8.341064 6.2215743 -5.0958443 4.5939803 -1.140003 0.54214287 4.947547 -0.07030671 -1.9250069 -8.544997 1.8463999 1.725396 3.6033938 -2.743903 3.5929332 0.8078377 1.7092913 -3.9224672 -15.627515 -5.3792334 -2.2422638 -2.6162493 8.171473 5.5360537 3.8901613 -6.0052357 0.790824 4.3230453 2.7974713 0.05791109 4.4857063 5.875061 5.772444 2.168735 -0.45350522
C0020479 -2.6678302 3.0987592 -4.024768 1.8091955 -4.4594617 -1.3724486 1.977112 -3.413879 0.44701236 -2.378754 -5.6421204 -2.1450336 -5.670117 -4.02811 -6.016698 8.482793 -2.8172665 1.0096849 -7.832519 4.7750554 0.13848187 7.726755 -10.194808 -0.48102877 1.3443241 -5.771975 -2.216022 -3.9253306 0.034615245 -4.5392995 -4.6697893 1.8383734 -1.2464818 -1.6999755 2.753298 -3.2865705 -0.5084273 -0.090556234 -3.0719073 -1.7255685 -4.9705243 -3.9221232 -0.5458883 2.2888806 0.06921847 -6.969967 -2.506707 2.0481558 -1.2590699 1.7730026 -2.7687442 2.5094953 3.2291315 6.5687027 -5.463598 -4.0716643 0.48296276 5.448246 7.062543 1.7390001 -3.6351938 -7.529402 -3.0960312 1.287816
C1863512 4.385409 5.7588897 2.6610494 4.094877 -8.232613 -0.6160983 -2.621759 -3.2879865 2.627104 -1.7814722 0.07227222 3.9786685 0.06254537 -2.9878392 0.5541921 0.67143357 -1.0471169 -1.793591 -7.263221 4.6608195 0.047258932 1.1654445 -3.1789656 0.6779473 -2.1583984 -1.6704644 1.0276387 0.25587335 2.1129265 -0.8720104 1.8205973 6.68312 -4.711956 -1.0891207 0.70200014 -0.3528429 2.5437648 0.05373461 -5.0382333 -2.7278185 1.7747744 1.6543181 9.782703 -0.11072253 -1.6568958 -0.80834574 1.8192799 2.4867802 1.1242535 1.0978885 -5.682316 1.3441066 4.967832 -2.2644227 -0.433177 -0.7218082 0.78843653 -3.1514864 4.5314994 -1.5606748 0.035218112 0.08668554 0.6568806 1.7847649
C0002876 1.4772688 2.5512466 -1.5535647 1.9400408 -4.948589 -2.6602457 -4.684453 3.0091708 0.517849 1.7538058 -3.5258746 2.58055 -0.70787215 -9.296937 -0.44546354 1.6857924 -5.5143247 0.23225556 1.9204403 1.9712187 -7.317027 5.6862783 -0.58120453 -6.5751348 -1.7142724 -3.050554 0.2256704 1.5852737 2.2657087 -3.312916 2.93977 -4.9978967 1.0554128 -0.2492171 -1.081683 -1.9606588 -0.3439872 4.3931828 2.1411505 -1.2916727 2.4114118 -3.7600362 2.401222 2.3819132 4.9263396 -3.2435117 2.9743707 1.7102635 5.726134 0.8012567 0.68489414 1.4384817 4.1396384 -7.9419394 -3.5318081 4.294608 1.4523124 1.0524266 0.052005842 -0.345666 -1.5067898 2.0425196 -4.623211 2.2915566
C0014761 0.007827466 3.6354592 1.3645512 2.5043714 -3.0852115 1.6940187 -3.4859061 0.34294042 0.42131186 -0.0815909 6.844303 2.7286968 -6.6638384 1.1106403 0.7466331 3.9487967 -2.1482065 -3.3314614 -6.2081866 2.6731925 1.3433201 -0.036565404 6.5191164 1.3437074 -3.8813603 3.2342343 0.46220264 -3.3999188 1.7831113 -4.3442454 -0.89565575 1.0570904 0.090120845 3.6819928 -5.488991 -4.262732 -3.4245605 2.3146582 -1.5551728 7.3572173 6.8433228 -2.6282053 -1.7699387 -0.4761431 -4.6832614 -0.44326973 6.4560947 -0.5997022 -0.21297722 -4.2035713 2.2133427 4.974091 -1.5847048 -4.233623 -0.66684693 2.1038365 1.032142 0.17542887 3.3126173 3.354656 3.3511245 -0.85351974 -3.8731124 1.4824418
C2674218 -2.0481281 -4.9500823 0.6977008 2.5999682 0.0523071 3.3589935 -6.4201922 3.7855184 2.0543847 0.52064663 -0.6223289 1.8257155 2.549516 -2.8079295 -1.1515242 2.590775 2.953392 3.2564065 -0.04901178 2.0047078 -4.425095 5.6945825 -1.817652 3.623647 -4.1416893 11.1067705 0.11178301 -5.614216 3.5919366 -0.40640545 2.0661309 1.2397859 -1.9756167 2.5204456 -4.882718 5.6066084 -1.7595743 -0.7298512 1.1911458 0.86452913 -1.3268552 -3.0884564 1.6624109 1.7393669 0.45935202 -2.436579 2.2089102 0.03435946 -4.5244665 2.918966 -3.2237241 -5.0742073 0.43588963 2.044333 3.3941252 0.41464567 -0.53459823 0.64432585 -3.2863073 3.717188 -0.393328 9.606759 4.009683 3.9461284
7124 4.3899856 1.0378481 -3.3573031 6.4093633 4.7458873 2.9194846 0.24497381 -0.83349484 -6.5573363 0.12642582 2.042968 -3.404749 2.6655827 -1.8503523 -4.249755 7.655762 -2.4964185 -6.0897846 -2.0050051 -0.38628003 -0.48256877 -6.3675156 1.9469262 -4.3143063 4.294669 -0.5064431 3.9173262 -2.986135 4.1096277 1.1538498 -1.9536251 -0.8482312 -4.1473975 -1.5713495 -5.547075 3.1422126 -5.6261573 0.16972935 -2.6783166 -10.227735 -0.20372763 -0.74635065 -0.6288326 -6.791257 4.105699 -2.6144981 2.0762446 0.40153277 -1.8526697 0.11016612 3.693178 0.54239446 4.439339 -0.35995573 7.364683 -5.8714867 1.7026739 1.3638862 2.5000124 1.7912996 3.7977648 -1.4456173 -0.764775 -4.634312
C0948480 -1.8206452 -2.0750635 -10.669844 1.968345 -4.212182 2.0677614 5.8606296 4.100823 2.168047 5.121706 -0.86047196 1.3537668 1.7794968 -3.047578 -0.17316628 -3.44299 -0.16364926 -1.0269508 3.3865325 1.7119901 -5.635894 6.1155276 -4.856574 5.8409233 -10.439533 6.3471293 4.3797874 -5.0270286 1.0556746 2.9870064 -0.23051275 -2.715855 -0.56739044 -4.693464 5.6201754 1.3784012 1.4227679 0.34406114 -2.0601013 1.4478621 4.5514035 3.4602535 0.019001247 -0.21418948 2.0272748 1.683692 1.0977916 9.878189 -0.39900133 4.29074 -1.6236296 8.508683 -1.1509044 9.156812 0.6583997 3.8435965 -2.3062806 7.640641 -1.3642893 0.10598494 -0.933935 -5.3705974 -0.23636948 2.4639487
C1135191 4.0747967 3.2718494 5.683736 -0.33796573 -5.6988783 5.508319 6.341762 -1.2417874 -2.5452266 2.16746 7.032987 -6.560152 4.0519195 -0.06395857 -10.935436 -0.34155026 -1.3175899 5.091937 -1.5829209 -4.479217 -8.02728 0.08340466 -2.3651328 3.4603744 -0.12072558 4.017071 -0.48161384 -3.4105797 1.8461767 5.5296125 7.983911 -1.1443573 -1.6430224 7.201823 3.1997576 1.736946 -3.5366874 4.3208823 0.81582326 3.0675023 1.387306 -7.073778 -3.7161434 4.712741 1.5622557 -2.0026715 -7.43743 0.6942591 3.9229996 3.2530563 -0.82900983 2.092318 2.4555924 -2.322901 2.6553016 1.054153 0.71682817 5.074456 0.56486434 0.34726316 4.49824 -2.3861144 1.3619591 4.282409
C1833104 -1.307485 -0.76811355 -6.6472325 -4.2064724 1.6297456 -3.944074 -4.6932263 -0.32286692 -4.1991653 -5.1197925 -6.5430717 2.1581204 3.1441576 -0.16990858 -0.32651675 1.2788863 -2.36686 -6.6666036 3.468341 5.641993 0.75047415 3.7183614 0.31100473 1.3928167 3.3273456 -3.094012 7.1896625 3.4420319 -0.03965045 -7.957709 -1.0729271 3.0111449 -0.11697712 -7.945994 -6.2686443 -0.7490358 6.517259 -2.4192162 -0.67681307 0.8159169 -0.20276582 6.9460955 0.8032939 2.5775254 3.0827184 1.4578255 -2.335272 -4.9530306 -0.7988946 0.9899259 2.8927484 -0.33577895 2.026131 1.4587893 -2.0148861 0.33794963 -4.40914 4.574656 -3.496242 -2.4916162 -0.7163999 0.23797257 -1.1511391 -0.6032101
C0221018 1.8867134 2.5139627 -2.474359 -2.4349442 -1.3653347 0.87529063 -0.103405826 -3.2433276 2.4834244 1.4319301 -0.13960864 -0.18295752 -3.464466 -4.184674 -1.4389817 -0.26512942 -0.5861612 -0.33483264 -2.6773968 6.3136234 0.46076694 0.012479332 6.0667014 -6.921679 1.0884926 -5.153529 4.029695 0.5323155 1.818994 -2.7640421 0.7698443 -8.764534 -0.4666693 1.5905797 -1.5827343 -0.5059899 2.194116 2.3688622 1.8303454 2.2646866 2.2821152 -0.4628466 -1.7229265 -1.4222534 1.9045349 1.9765366 -2.5040834 -2.143365 3.0712552 -1.5040236 2.9025378 9.283624 -3.479802 -3.8568175 0.8987479 1.6533072 2.462647 0.4534992 1.4705752 -2.3821678 0.57712656 -3.3086255 1.5159854 3.6586316
C0349231 0.7194292 0.5454947 1.722627 0.252842 -4.04962 5.0929084 3.4777699 1.7834139 -4.81371 -4.5704417 -4.390462 -1.9301888 -3.1079428 -3.196207 -1.2390758 1.5534987 -6.246644 -7.1216464 0.44945517 -7.562962 3.7761834 1.618998 -0.065545835 1.9397278 -5.3882155 0.69525546 4.763056 4.6709924 5.1704063 -2.235888 5.9929113 4.6049514 2.308542 3.048993 0.67798054 5.8540277 -1.4857017 -1.5781882 -0.14558788 2.1754827 2.2955892 -0.99400365 3.5635252 1.0591544 -0.11997113 1.1537127 -4.6882653 -0.002483039 -0.6713173 1.2303579 9.278285 -2.3230085 -8.086914 1.5854875 -3.5878394 -1.5368681 5.3761134 1.3334519 -2.1272254 2.2166317 -4.583458 2.2076013 -7.5519214 -4.4398646
C1266144 -5.08696 -0.63371676 3.0399356 2.9584928 -3.2322886 3.5398083 -4.6354465 -0.40167472 0.13045812 3.106002 0.21035734 -4.446589 1.0689945 -3.5040658 4.095204 1.0014727 -3.4069622 -2.0282326 1.6292634 1.7032667 -1.1185095 5.07985 -0.030243848 -0.18585856 -1.6763079 2.391444 0.4950292 2.60236 1.4625047 3.2125094 1.9578532 -2.1928828 -1.1459522 -2.9728339 5.0373297 4.840784 0.58221924 -1.4121623 0.10790991 0.6913067 0.17024602 -3.2036622 1.571914 -4.693539 3.011629 1.4116242 0.42373738 2.855743 -4.165566 -6.2029915 -2.6964953 4.723932 -0.6521117 0.72838926 3.250635 -1.1914915 4.93739 1.9883431 4.9657884 3.7800896 0.8108815 3.029228 4.7181525 -1.0824335
C1135196 -2.253534 -0.24610037 1.7342808 -8.203701 -2.2790184 2.769264 2.6167252 7.1931505 0.18580122 6.069932 5.2125177 2.3285902 1.9804 -1.1015813 -5.2392426 5.36701 -3.1098819 -4.2895947 -3.070059 -4.1938043 -2.70809 4.0607777 2.487992 3.1965485 3.0255094 1.7490561 -6.048813 1.2809467 -5.6686378 -2.4155505 7.7648973 6.2573185 -6.6506987 0.5777366 2.3976934 0.86590844 0.59314215 -0.081264205 1.8512198 1.6893432 3.4895494 7.178934 -5.6527886 1.6709003 2.962614 3.0628147 -0.53270143 3.4975898 -3.656157 4.8704405 0.33892092 4.030082 -4.561916 1.1112176 -0.2217123 -3.4306967 -6.501754 1.7101446 3.6002183 2.0644963 -3.371886 -6.250108 4.778165 7.3847837
3569 2.7930002 0.8248574 -4.468106 1.586471 0.38733387 2.558753 1.0210127 -6.8251667 -1.4800092 -1.5134741 -2.8299654 -4.0466104 3.0039263 -0.7923407 0.72584504 3.1592178 -0.88533485 -8.398992 2.3273926 2.7681506 -3.2313159 -2.388439 -0.85487264 1.8141487 -3.442016 -0.12766258 0.5263839 0.9628013 2.6353488 1.7931948 -2.272823 -0.5710901 -3.3998723 1.2137486 -3.028836 0.46187022 -1.5884545 -3.3712027 1.6595993 -9.040472 -1.6161335 -0.59906805 -2.1063476 1.155319 -0.41206184 -0.86563224 4.8776913 -0.52881306 -1.8770446 0.013361203 -0.36641154 1.9129953 -0.031754155 -5.8240027 1.9328533 -5.536549 4.673549 2.6635747 -1.8334255 2.3081524 5.617162 -0.8056606 1.3695259 0.80136305
C0001818 3.873982 -1.8500577 2.379539 0.28489998 -4.101556 11.098032 -3.918037 0.62943923 -13.509768 -1.1959952 -5.56165 0.8774525 0.8790419 -3.7753892 -0.56276375 -3.9229872 -0.9476815 -3.3984222 -4.6747017 -9.482033 2.506139 0.91554844 -0.9686061 -0.8512206 -8.300042 -4.8678384 0.655906 3.4155905 -6.937907 0.9546999 1.4930695 -0.7502668 -2.3421886 -0.8079932 -2.7043076 -1.2977383 1.1671767 1.2810767 -0.9942589 -0.066726744 5.582939 -2.7214463 -1.2774945 3.6202762 0.6211235 2.4751937 -6.399332 4.729655 1.4898722 3.006101 -1.5700175 1.9394976 -11.423047 4.4051757 9.217847 3.0344713 -0.2284301 2.5508814 -2.9018538 -0.32999158 3.0502317 1.3379252 -0.058586642 -4.4843493
C0034902 6.505725 2.6913817 -6.7136188 2.668397 4.011862 2.606197 3.8383446 4.830206 0.20344354 -5.3654976 -0.5798756 6.423133 -4.42321 -2.1477327 -7.0721207 1.9326758 2.7531083 -2.2204573 -1.5859115 1.111652 0.5133464 -5.499321 2.501889 3.8938468 -4.644492 -3.2111871 -3.1610909 -6.7505836 -0.7492365 -0.86603534 4.89712 -5.7970796 2.8005366 0.09364758 -4.8624353 -7.992275 -4.2376328 1.7999411 -1.7477658 -1.6003743 -0.10618838 0.6098361 -3.8073268 0.18090703 -7.268443 -0.7761167 0.5728157 -7.628891 3.6324918 5.6361203 -0.039248105 -1.6069608 -0.39623058 -0.58981013 -3.059791 1.7950848 -4.1980534 4.5379663 -7.943325 0.79760593 -1.7615792 1.2264427 -1.6485913 3.490167
C0151814 2.2224255 6.073993 -2.512745 -4.4948215 -4.0490656 -6.3674483 3.7905726 5.4504538 3.2500284 -0.016854096 3.4440892 7.643332 -2.896202 -4.5155516 -4.3807216 -3.6423898 1.127197 -4.8100605 -0.27623627 -6.6766725 0.6765965 6.3827925 5.36552 4.0465865 -3.34099 -9.477518 -4.2225156 -5.421961 0.25934902 -4.1117806 1.9363493 -0.9072623 -0.25238112 -4.6040955 9.547754 -2.2946486 -1.9972211 0.088974155 2.2166286 -0.19994977 -6.0918736 2.1301877 3.5450435 -11.2063675 4.9669876 0.5355503 0.1403637 -1.2081422 0.5686304 2.0045207 -2.9725015 4.630117 -6.4754057 0.35777614 2.5385034 -4.0744643 -1.9973766 -2.7503464 -3.6648417 -1.9790032 0.5081906 3.4332638 1.5064954 3.7858214
7157 5.678461 -3.967713 -0.25859272 -3.3631785 1.8229239 1.4858512 -1.2525233 0.79167557 1.6832528 0.6997872 -0.6458125 -2.1704836 2.3248339 -0.54279804 -0.9380421 3.5824745 -4.321428 -2.1110158 -1.3467302 -1.620828 0.40699366 4.5993595 0.7312061 -0.615883 -1.0737107 -0.85934496 1.9449562 0.965547 -0.9092451 -4.5915165 0.5153575 1.9570237 -2.5825846 1.8349407 0.17540874 1.9007955 -2.2959576 0.113149606 1.0680377 -0.35532495 -3.5212524 -7.318757 -2.0876992 -3.5755343 0.6953972 -2.8754854 2.4109893 -7.2452655 1.8480062 -3.7991927 -0.2224899 -1.324396 -0.14498885 -0.7753895 3.6696272 3.161047 -0.32382143 -2.423842 5.1432323 -5.345652 -0.09863223 -2.7443209 3.4481509 -2.2791603
1636 3.5069482 -1.9258916 -3.3181183 1.0463371 5.466402 -0.74689597 -0.46062708 2.3969238 0.5925437 -1.9817766 -7.028508 0.8269827 -2.888806 0.27903756 0.71727794 2.3767211 2.8317955 -2.2762084 0.54710346 -0.36520636 -4.494652 -5.2308283 4.751355 -5.05706 5.4317555 2.023725 0.047409426 4.2298284 3.4141965 -0.39065987 -1.7427343 2.6094322 1.2369413 -4.917585 4.639455 1.767841 -4.267034 2.2869627 -5.936184 -1.291362 2.1821663 -3.9859211 1.3517736 -1.9630872 -1.3928393 -4.5412016 1.6493903 -3.337299 -2.1661155 0.04571108 9.744912 3.017716 1.8753668 1.1337819 8.068678 -7.5381393 3.5984387 -2.8709602 1.7585688 -4.521598 3.3552818 -0.317885 -1.6991718 0.1798513
C0025637 -1.3093762 -4.215142 -0.17231196 -0.4690978 4.8908334 4.7000356 2.6219423 2.2836163 3.3976634 1.8085732 -3.1398628 -0.7440328 2.7531822 4.8487425 4.634653 -4.697037 -1.0587354 -5.8457756 -1.6954529 4.748296 5.1650047 -4.1301756 -0.6279872 6.615209 -0.4445338 -4.26627 1.7766873 -2.245335 -2.2692022 -2.9274583 -3.0479474 4.114957 0.8140258 2.6437714 -0.18856958 1.4868541 -2.8292022 2.348797 -6.3350716 -3.6325796 0.025542643 2.683918 -2.796349 -4.457905 -4.1632175 6.575931 6.427606 -2.3480964 -4.183942 -2.164003 -5.180952 4.567225 -1.3445135 5.2110496 4.1399055 0.21551466 0.08834339 -2.5635972 1.626574 0.13293877 -3.5787613 -3.0953565 -0.13449582 -2.043968
C0013415 -3.0011518 -0.48149627 -0.08725097 -1.8910077 -2.350231 1.6611828 4.6375794 1.0899197 -5.6019173 -2.7721276 -1.062583 0.15293531 -3.5932276 -0.61436355 7.2110934 -1.0652075 6.305 -5.8471904 2.9165678 -7.50511 -7.7817483 2.8739197 -3.3064332 5.092965 1.3428807 -4.96122 1.4072876 3.3917577 1.4703591 -0.7294552 1.1106195 8.062607 2.9571435 2.0887024 -4.118148 0.3353297 -3.227136 -0.3110985 -0.27293494 -2.6969485 3.934626 -4.089088 3.3340197 -4.4796677 0.27517337 -1.3677756 -2.3438492 0.14300783 4.337465 0.02869529 3.5687995 -7.638699 -6.4342556 6.8579354 -0.4295344 0.9481004 0.049278364 5.319881 6.890901 2.5371745 3.397455 2.3929281 2.680056 -2.8191338
6532 -4.0940404 1.1975768 -2.7950056 1.8356552 -4.4186063 -0.81790775 -0.6924923 1.4798267 -4.008242 -1.3712198 -7.486974 1.5572158 -1.7872636 3.8999538 2.5926614 4.2197556 -2.303673 -3.5127587 -0.39909777 -2.1085083 -4.9354978 -4.664988 4.5333905 1.1284362 5.9743533 3.6295948 4.6442623 -4.2910175 3.0526657 -0.9849549 -0.123090416 -1.0515629 2.2083972 3.254287 6.804118 -2.304774 -3.556014 1.5206736 2.755285 3.932651 0.8329262 1.2423263 -4.7577443 0.7949172 -0.5332478 0.671694 0.10332029 1.5466543 1.9690722 7.772926 -3.1939883 3.2823224 0.35338596 -2.2578814 -1.0882056 -3.0996563 4.66796 -4.177223 1.2374201 3.131356 -3.7699223 0.6583808 2.358467 -3.3741221
348 -5.4201264 -0.2052819 -1.1630759 4.6151443 0.5893855 -0.8347798 -1.1647985 2.6543517 -6.1711626 -0.84232616 -0.91734093 -1.9474674 2.3129473 -1.3505454 -0.1564812 -4.8585114 -2.3481698 -4.1360264 -0.10522299 0.75644404 -6.596695 -1.3730632 -0.24949263 -0.5353535 -0.62884104 -1.5002285 0.24872263 -0.27730155 2.904267 5.8953886 2.7729466 -1.3129184 -3.5732417 -3.8580103 0.24424547 -5.569378 1.0881375 -1.6983007 -3.7357621 2.9167223 0.4249516 -0.15431564 3.9384322 -0.40848675 -3.2237184 3.1790512 -5.6356053 0.50444126 -0.7455324 -4.105541 4.367675 -2.3069615 -2.3856914 1.1644675 -1.7842777 -0.41877633 -1.6440179 -7.7768807 -0.37407738 4.83035 0.5102964 0.2266441 1.8084089 6.280839
C0031190 1.2516633 -1.5749785 0.50952905 1.8194089 -2.1339037 -1.1775106 -1.4428062 -0.8355264 0.60703087 -2.2843082 -5.0634894 -0.7024241 4.0959687 -5.1497755 -3.483448 -3.1257904 -1.6982569 1.861098 -0.5968782 -2.4046462 -6.0522566 2.3317482 1.7308757 0.29298165 2.5379949 1.6601197 -2.352057 -2.3056114 3.770116 -1.8281866 -1.1508056 0.20382151 3.5904255 2.651247 -2.096099 -4.2127233 -1.446281 0.036222097 3.9729273 -1.4014342 2.7786043 -4.7670527 0.7492159 -0.5197744 5.9811997 2.6503453 -5.678232 0.40589842 1.344834 2.0248532 5.913031 4.0001755 -1.6056639 -4.010692 -0.3387087 -2.9279263 -0.05411627 1.6637793 -0.6506574 -0.119555525 0.9324482 0.65293044 0.183961 -1.3007008
C0022610 2.2472475 3.4741006 6.599233 7.1714487 2.4422412 4.8589096 -2.3549788 3.3833268 -3.9250894 -0.861854 -0.76934385 1.635203 3.9799988 0.40748423 0.32514536 -1.4952956 -1.9461622 -7.222428 6.210167 3.2139544 -1.2217784 2.661146 -0.48351255 7.751927 -1.1080177 -1.7499816 -4.3783326 -0.7807723 -1.8800281 -4.503106 0.47748253 9.671018 2.2508426 1.9527568 5.018984 -0.5089491 -7.6255684 2.1269739 0.919053 0.23742148 -0.8029903 0.35498142 -1.59094 1.7401874 -2.6297138 -1.0381658 -3.7828486 -0.53751945 0.044959545 -1.5576576 -2.3450134 -0.13339965 0.6040447 -0.27712533 -0.6519379 0.28636017 -3.3410444 0.2301316 0.5645205 -1.4119338 -3.3213818 2.1660256 -5.2554035 -2.7716854
4524 0.30096337 -2.1930985 5.36771 -1.4791505 -0.9488406 -0.7921716 0.45425695 -1.6478963 3.4152462 -4.3034897 -1.716551 -0.78909487 -3.5089195 -1.2093073 2.67298 1.4602159 -1.8787436 -6.7599 0.31146285 1.0837054 2.6772697 -0.7353277 -0.17354882 -0.7939957 -1.0760496 3.757055 3.0050588 -1.5764138 -1.8920684 0.29944143 3.0189517 1.2318834 -0.44544455 -0.27511308 2.7827108 -3.0189998 -1.3596451 2.020939 -2.1647441 -3.1341941 0.556467 -1.8498929 -8.654971 2.4129243 2.846014 -2.9091413 -0.30541605 -5.2239256 3.6169078 -1.8340409 0.88282114 -3.8894823 0.18243939 1.7857594 1.5474163 2.0673316 -0.29956633 -5.3698206 4.03307 0.26344982 3.086894 4.2591066 2.1312351 2.9535758
C1838100 4.0822344 -0.039537575 1.0442634 0.904525 -2.443214 -0.8835973 3.8287477 -0.53876877 -4.6280217 -5.300946 4.616871 1.2543715 4.259322 -0.12293749 -5.907195 -3.5991402 -7.0498986 -5.3287196 11.050448 2.5464485 5.177513 3.5089192 3.7039952 1.8511435 3.3193395 -6.3690305 3.5759788 -0.40068424 -3.1542928 -1.8271438 -0.8982523 4.210581 3.2209344 -7.3471346 0.92478245 -3.66681 -5.319984 0.5649075 2.3283913 4.482484 8.099305 3.720873 5.4444222 -0.51621187 2.7681081 -0.28798813 -1.3566539 -9.463179 3.9517298 -1.9476364 -3.4658763 5.334709 1.8272372 3.785934 -4.4860134 -2.622979 -3.9044373 -0.18102653 -1.374506 -4.117816 6.814074 -2.6487885 1.6638677 -0.21403596
C0034091 0.22971182 -1.1138611 -0.39025515 1.2743183 0.40465334 4.892412 -2.3717582 -1.2703612 -2.9472024 -0.33494627 -4.7214904 1.9698435 -3.5874498 0.0643559 3.9441028 -5.8603396 -1.803088 -5.0892096 -6.882205 -1.4488021 -4.2382135 -1.144656 -0.25467008 0.5944796 -0.27941847 0.021180792 -0.70695037 -1.3950738 3.0651586 3.2747114 2.9405677 4.2713614 5.6224422 -2.1889324 -1.0713102 2.0807838 4.3992877 2.824398 -2.4502773 -1.8858999 3.263867 3.557058 -6.448611 -0.65769094 3.481564 -5.7263603 -2.5846171 -2.1170712 4.7588778 0.90492326 -1.3803192 -1.8485523 -0.5997319 -2.1066325 0.48264605 -4.6427712 -1.2222527 3.2209303 0.21810567 4.074756 0.3510643 -0.06911605 3.5140283 -0.12010512
C0338495 4.4965215 3.6035995 -6.645611 -1.8971653 2.2558134 3.119419 2.563081 -4.2898607 -8.438867 0.49859178 -3.7702527 1.1013588 2.8226109 -3.298867 -0.6856274 -1.8089564 -2.0180109 -2.5105596 1.7738405 5.439268 -1.8884279 6.397663 1.7648078 -8.626589 -6.5829086 6.389014 -5.500316 -1.0325613 -2.1805675 -1.9311603 -2.0727332 4.735352 -4.2738757 8.140869 -6.3411474 4.4784884 -7.5073733 4.799388 0.034027148 1.9679167 -2.0246832 1.8119278 -0.28183427 4.3694763 0.025695054 7.331926 -7.7870674 3.9273052 -0.8478461 5.5959244 -3.63489 1.6522213 2.2552874 4.2539773 -2.1532836 1.786569 -4.311259 -2.9313235 6.9747615 -1.0547762 -3.5157337 3.7362428 2.4662204 3.733453
1437 0.038821686 2.7497468 1.1459289 -2.326414 -1.4429235 3.171157 -0.54664683 8.330672 -2.0920165 5.281201 2.2891526 -1.5199851 1.826953 -4.564369 8.75863 1.0641906 -2.4889536 -1.432193 -0.6320874 -1.2468822 -1.0567334 1.2674234 -1.0271013 0.3907724 -1.8952183 -0.9448687 0.0026759552 -2.3989449 0.7562783 -0.14976169 1.1622007 -4.853858 -3.9425192 6.321013 -4.7449465 -5.275286 -0.11478428 1.8625292 0.5069555 -0.025758728 1.2577115 2.369637 3.2370107 -0.09880454 0.7831269 -0.48615223 -0.98238623 -7.911507 0.82819885 -4.0293813 -2.1445236 -1.798982 3.8756864 0.60857445 0.7199265 0.5243872 4.8246336 -0.30092087 -1.4630508 -4.2633557 -4.781466 -8.483956 2.7889462 -3.5212014
3553 -2.05354 -3.6402638 2.1371157 2.687416 -2.8513455 2.8123858 0.18543664 0.7760536 2.662821 -0.9485776 -2.1201074 -2.9512458 5.7196426 2.36103 -1.1206242 0.46794307 2.2745407 -2.4939 -0.14764367 -0.50172645 -1.1752715 2.4474094 1.8367281 0.07598526 -0.81990194 -2.2577815 3.5047657 1.7448868 5.1306553 -1.6481285 1.0872605 -5.1022654 -2.6896822 -3.05986 1.0483073 -0.27284178 -3.5107932 0.2947718 -6.907829 3.9175491 -5.8439817 4.033451 -3.6245356 2.8531463 1.9744904 0.0041223783 4.5475893 1.4824538 6.4384727 2.2311625 2.4595568 -2.0552793 -4.0575075 0.08216952 0.82546806 -10.780019 -1.2185577 -0.12474156 1.7128739 0.5649472 7.204602 -0.11460246 -0.5961471 -3.1544683
627 -0.55132294 1.4673271 -1.5465032 0.94006443 -5.0818343 -2.0476773 -2.20906 -1.1733578 0.38652715 -1.7198027 -4.713861 -0.6835803 -2.0672433 6.2291718 1.6169666 6.547135 -1.5943311 -2.0426152 0.91958576 -3.4467402 -0.50876385 -1.7402827 1.7728682 -1.3167163 -0.9540446 2.5078309 -0.86179185 -2.058102 1.7866522 5.3609567 0.04902043 -0.98933774 3.8158114 1.3828181 2.8511815 -2.3908148 -1.2823355 -2.8194985 -2.137557 1.5691124 4.7599764 0.9753767 -1.1757048 -0.9910455 -1.8603694 2.6791825 -5.799342 -2.297744 -0.7143629 4.1606 -3.752037 2.4962509 2.1940684 -0.30212438 4.8168383 -3.201577 1.149235 -0.35981017 -0.09304054 -0.7099106 -1.9182576 -0.34029883 6.793487 -1.5218005
6927 -0.78853685 5.2559857 0.3959657 3.4926643 1.3644876 4.4137316 1.2066647 -1.3390937 -2.8011434 1.4472163 -0.54309136 3.6454911 -1.9536622 0.9362182 -5.1601176 0.7925476 2.447526 3.222173 -0.6520875 3.6166694 -2.0544784 4.1912436 2.829754 -0.54265565 2.193585 5.5721264 2.5637016 2.4876816 -4.095058 -0.4111563 2.9574738 2.3473945 5.054915 1.0466906 -2.5982873 -1.1770046 4.7249684 0.30534616 8.012432 -5.7303233 -9.598978 3.9369779 0.035844818 -4.701199 1.4951191 1.1380341 -1.2546015 4.063011 -1.195527 2.1457298 0.699932 -0.82321864 -1.8138225 2.6581137 0.44121975 0.5776337 3.6358044 -3.1501796 -1.0737371 2.8174412 0.32594168 -0.29824284 3.3267624 -3.3754714
C0600228 1.4122515 1.6206303 0.0064193746 -3.8607948 -1.7035459 -4.6075087 3.7922704 4.5988355 -1.0813606 -4.198935 -7.67601 1.1376132 4.457742 -9.023426 -1.5377336 -0.4725122 2.7421033 -5.83836 0.7681688 1.9465023 -5.34493 4.9777412 0.14367436 8.398185 -2.6026282 -1.3715221 0.9423899 3.9089527 -0.33374107 -0.8338843 3.564612 -2.6461604 -1.8193011 -5.183001 7.0770607 3.919731 5.8702645 0.2558725 -3.5414429 -1.8997198 -3.864993 3.0781097 -3.0538607 -5.1422276 1.5889466 2.9480634 -7.047397 -2.0603187 -2.2603116 2.853538 -3.15366 -3.0012777 2.6782367 -4.227114 3.6701326 0.5260073 -6.061675 3.632403 -1.388814 -5.308873 -5.4324665 0.080398485 -1.6760955 -1.8338871
C0340293 0.75843596 -7.144639 -4.5080323 -9.869613 -6.7042775 6.275381 3.7570634 -5.635691 6.8791056 1.7549669 -3.163661 2.409558 5.2812133 -11.485287 -5.2777305 -1.6250924 4.9869447 0.7187056 1.9433004 1.5620109 0.17385766 -0.69805026 -1.2971288 4.737885 4.0033226 -2.5829642 3.2617934 -5.251383 1.4868495 4.5320826 1.958482 2.6962628 -6.7042294 0.30423474 -0.76501745 5.2482576 1.0615135 -0.6341487 5.3955474 2.3606417 1.2931161 2.4195094 -0.15347295 4.2220974 7.1756525 7.782176 -12.36307 4.449476 1.0168202 4.2176685 0.0004420261 2.5553315 -8.647685 -0.25125128 0.60848194 2.6804998 3.1595783 -1.0001549 0.5129333 -1.5724947 -0.12053162 -1.4054904 1.8518866 4.6165404
C0020480 -5.1214256 5.2638187 -1.1669691 0.4854605 -5.392747 3.9885056 -0.16640006 -5.787272 -0.79092175 -3.3390546 -0.2675458 -3.2190788 -10.809291 -2.2975876 -1.852538 7.0159364 -3.169002 0.13929233 -7.850972 4.5869617 1.3822331 8.454871 5.0547705 2.2054577 1.1755112 -5.5280204 -5.932924 -3.2974746 1.2394186 -1.554613 -6.188161 1.3909504 -4.555612 -4.803181 3.9685426 -2.6483994 -3.8789191 1.4683105 -2.1621296 -0.9649967 -6.388246 -3.6439362 2.835576 -3.4786768 1.279564 -0.6832748 -1.9070094 -0.87144154 -1.4134022 -1.9000332 -1.2015239 5.827007 -1.3757232 5.786031 -4.599663 1.0332611 3.1520417 7.279635 5.1231413 1.7019491 1.0942204 2.6052506 -1.375546 0.74925125
4846 -1.111892 -0.5311281 -0.55984926 4.8975515 1.9045589 -1.4192995 -0.6952501 4.56467 -5.2057176 -2.337635 -1.3704256 -2.5642736 3.0105205 -3.9803464 0.7786525 -4.4300094 1.7917721 -0.60337144 -2.6402133 3.3972387 -3.6427858 -3.426882 5.2263007 -4.6935053 3.759565 1.9671007 -7.1075163 2.0670848 5.2523074 -4.699859 -1.9415432 1.2237252 2.3264823 -2.5672283 -0.28365433 -2.0995266 -1.5921822 -1.3789202 -0.012133554 -2.3169239 -4.19026 6.2208447 2.9178102 -0.44332385 3.644263 -2.6679964 3.0863376 -1.3313802 -3.3359113 1.210858 4.164522 -0.04312488 -0.8517313 2.933974 1.9512908 -0.36524937 5.1653633 0.8433207 0.3733441 -1.2865716 0.33341086 -5.35654 1.1086863 -0.886215
3630 4.244589 0.14441876 -0.78033656 1.9463958 5.8655744 2.394566 -0.44642085 -0.93911093 -5.9777327 -4.119814 1.5574708 -0.89213884 -0.18866095 3.4538372 -4.623182 0.7204463 0.66558945 -3.395462 -3.7505248 4.3877897 -1.3161587 2.602569 1.448268 3.3683383 5.873216 3.9011273 4.852588 -3.3622956 1.6999313 3.8116984 -0.57601094 -1.5427047 -0.42218035 -3.2767398 -0.63357633 -4.207695 -1.294569 3.7289972 8.038747 3.652998 -5.3482976 -1.1724153 -0.1144959 -2.2267184 0.8006535 6.2892838 0.87761176 5.6763234 -0.17101163 2.0035026 5.4253554 5.6890354 -4.3787117 3.4761915 2.5206122 -5.2437634 0.81027216 -1.463969 -1.8690263 -0.0031353515 -3.1741142 0.21177329 1.0824505 -5.7316566
2056 -2.0560422 3.4959557 0.09446119 -2.6712468 -0.45359412 3.3123205 -1.367492 -6.75018 -0.0067271963 2.2376285 -0.7194854 0.056524966 4.6322284 -1.02038 -2.7918208 0.65348715 -1.0354989 -5.310229 -0.09729675 -0.32029775 -1.6981301 0.34340373 2.8183892 1.7944787 -0.25759825 -1.7524773 -2.622756 -3.9805746 5.3752737 0.4334096 3.051918 -1.4933215 -4.613053 2.95923 -8.219387 6.604186 -1.7604779 -0.45094106 -0.10501719 -8.3028965 1.1691412 -0.4576694 -3.547007 -0.52756387 0.17735024 0.722667 5.9700346 2.3985813 4.1662126 -7.7356734 2.0628088 2.1789517 5.0381536 5.2481484 -2.92869 -0.86271006 0.88536084 -0.89449495 -4.1939096 -2.3988347 -0.8218044 -2.9955773 0.024398912 -4.391896
C0342277 4.8074665 -0.9622439 -1.4268135 -0.86024296 -1.0102016 -6.2674465 2.6177235 -1.8393358 -5.040551 -3.951409 -2.5659869 -1.9062978 6.9355564 2.4550593 -4.267215 -0.86956763 -6.474209 -7.1313877 1.8562948 9.060272 -0.09102635 -2.478742 -1.0609748 3.956743 3.1144154 -4.0037985 3.2089915 4.0016465 -1.7593808 -9.16242 6.091823 0.8981845 1.6132816 -5.6621785 -3.1294537 1.6304438 2.1981442 -1.9190801 -0.66105574 7.226053 5.894442 5.462231 2.901686 2.7157717 2.8501318 -5.6843534 -3.43454 -5.5869193 -1.4825529 -4.395999 -4.0988827 1.1113625 4.5640187 5.8235598 -0.3534709 -0.92188597 -7.5371103 7.92453 -3.290228 -2.5104463 7.461533 -2.1968002 0.9449051 0.6341975
4023 -1.715138 2.1980395 -1.989028 3.440645 2.5991325 -4.7562995 -4.469769 1.0045432 -5.143624 -1.0128498 0.8063133 1.8098316 8.044416 -1.101171 -4.6389318 -1.6748639 -5.4410005 -5.4325595 -2.435618 1.6749519 -7.9934025 -0.5333797 1.4470516 -1.6365457 -1.3912511 -3.1846893 2.809569 -0.84945434 0.2527766 5.9877257 0.031946834 1.7030902 1.0613142 -0.42138925 0.5958059 2.6412568 0.74918836 -7.380827 0.83388376 1.0920954 -1.8404496 1.6324654 2.1092434 -1.5948379 -5.690282 3.521721 0.8376651 0.84928644 -2.9356341 0.61976796 3.1070561 -1.9685855 -2.8248723 -1.8352135 1.6375726 1.3973056 2.1963933 -3.0580714 -0.8053965 1.7209512 4.7803206 -1.3996654 0.5627311 3.5494442
4852 -0.4117143 0.19105616 -3.7333283 -5.169449 -1.5208229 -1.5547782 -2.9164245 -3.0125747 -0.037662234 -2.3454483 -6.069564 0.76766586 -3.282796 6.298264 -0.9836908 1.8279829 -0.62103295 -2.7553492 2.6929648 2.5166438 -4.172701 -1.8689132 3.3309884 0.74509466 1.3022889 1.8907546 0.021848071 0.5319322 3.1885407 3.0091736 0.64528596 2.2888007 1.3846043 0.40455508 5.766374 -2.2477407 -1.9324987 -1.0136402 -1.1196948 0.6339371 2.0603747 -3.2991514 0.3123142 1.6156505 -1.3008747 0.73706126 -0.9362716 -2.929857 -2.0079765 3.1393204 2.8069649 2.295489 1.281426 -0.52479947 2.0526342 -1.5426544 1.8664051 -1.5559963 -0.29103193 0.23836087 -1.1930295 -1.9328749 2.150375 0.3320563
C0038218 -6.4631457 -1.9169617 9.424214 4.5203013 -1.1167389 -4.815187 -1.8678658 -0.58766055 1.6997079 0.2806483 2.2806525 -2.079453 -1.4073735 3.7491477 -3.4941967 -1.1465925 0.9560057 -1.692707 2.6921208 -2.1883392 2.3311386 -4.572291 4.0087495 8.718545 1.1186528 -6.834342 2.1983852 -5.44954 0.42936447 -0.6859103 7.2376175 -0.2734332 -2.5168247 -13.924963 2.1671333 3.9332948 0.22463939 -0.47107658 7.335295 -2.1273887 2.1998508 -3.9039755 2.524625 -2.6251554 -1.0714115 -6.617712 4.765554 -2.474598 -1.4859955 -1.3080509 2.8688195 0.23828776 -4.329041 -2.2181 6.6105843 5.462762 6.443317 7.5908084 -3.9150367 3.6749337 -2.854139 4.9633317 3.2826447 1.9615103
3576 1.575433 -0.6215093 1.5865389 -1.875719 -3.4457147 0.9247294 -2.6353788 4.154538 1.1840887 0.82224506 0.4404926 1.9264367 2.5533934 -0.6325156 5.842527 -2.0933223 0.4859547 -2.8074355 -0.87726593 -3.0423048 3.1636994 0.060388576 -0.88927746 -0.47219437 -0.22348149 -1.206479 1.5910621 -1.0347788 -1.9228258 5.1240644 -1.83436 -0.3576688 1.9798511 1.300001 0.54829305 2.3751884 0.847289 6.0394063 1.4069053 -2.4589505 -1.4721309 -2.676069 -0.6411372 3.409599 1.1110108 -2.218035 3.0305693 -5.4668217 -0.26006258 0.7661686 0.21712428 -1.0621403 1.6583269 -0.12123898 -5.2551775 0.12076517 -1.7737056 5.733126 1.615927 -2.9728465 -1.0964013 -0.92334497 2.1218684 3.277689
3458 4.6772976 -0.8993008 -4.111554 0.42603743 1.0922534 4.35448 0.95289785 -2.9936647 -2.597576 -0.453912 3.0435483 -2.8807569 3.2494228 1.0067338 1.0589148 1.2642317 -1.6624184 -3.184416 1.5498708 0.53956324 1.0541117 -1.2597429 1.3751715 3.6343522 2.6723797 2.0560613 1.185022 -5.1243906 -0.5879425 1.2288777 -0.4564256 -1.8905199 -4.9767146 2.2058794 -7.3418627 0.19576702 1.3661038 0.7909274 0.36372557 -6.9801326 -1.9118333 -3.3320587 -1.2586712 -1.0797893 1.0214304 -3.0260682 2.461728 1.0756807 -0.32080588 -4.914875 0.15420261 3.871462 1.8074285 -3.1839375 -1.7876215 -0.15854849 -3.6097884 -1.2494026 -1.7163525 3.5175483 -1.6038656 -1.2831792 0.7144779 -3.3009017
7422 -0.6960579 4.1201277 1.4120104 2.4048054 -4.0498066 1.8934242 0.32176244 0.91572434 -0.21786323 2.5531147 0.7268055 -0.40651882 4.6478333 -1.3953832 3.1512284 0.48623687 0.7247209 -7.006307 -0.06072848 5.315216 -0.16244616 0.29319665 -2.0411615 -0.7728292 1.3590924 1.0893849 2.981323 -5.3239927 -2.7122276 4.680515 -0.74243295 -0.08225462 -5.370002 2.9557793 -3.817701 0.33635998 -0.1332772 2.9487302 -3.3518069 -1.6628842 -6.3215585 6.892351 -5.010884 3.0912359 1.3441018 -2.6567993 3.0199432 -1.6109056 2.3832147 -2.9906015 6.0391855 -0.75959224 -1.2535635 -0.9361958 -3.0856433 -0.036183223 4.210083 1.1674819 -2.9427235 1.6150037 4.2382326 -0.7287276 2.2006001 -2.2893972
1401 3.5552185 0.8830278 -2.5957513 -0.7408592 0.42052016 1.056162 -0.8512285 0.12957624 -1.8827629 -1.4216427 0.022218334 -0.8585766 2.1528885 -1.5361601 -0.76792675 1.0450143 -1.3248938 -0.69151974 -0.6546201 4.19066 0.36892593 2.2760584 -1.1531335 0.7204654 -1.5428882 -2.0131278 -3.187048 -2.0578015 2.302095 0.86404145 0.53247386 1.8077979 -1.3102968 -0.02247855 -3.037863 3.7903738 1.6703271 -2.6875753 3.1015196 -2.516651 -0.53463787 0.93560266 -1.7288418 -1.662074 -1.1487685 1.1773225 4.677661 -3.4413164 1.5938369 1.8851342 0.77176386 2.4120831 -1.2864547 -3.6952982 1.4568155 2.5956972 3.1850486 -0.53096545 -0.42255634 -0.08385943 2.6790652 -4.48369 2.0944629 -4.505386
5468 2.660623 0.6379942 1.7591754 0.05033581 4.3554993 -2.740627 -1.811252 -1.9868097 -0.63436824 0.9902397 0.035341453 3.0732236 -1.1366938 2.2155585 -3.7029364 -1.9027259 -3.8795776 -0.75923353 -0.54348737 1.3699485 -2.6854384 0.87845546 -5.6169624 -2.027099 -0.8250273 -4.8081274 -0.027394406 3.668885 0.4996055 3.747184 -1.4434862 1.0889074 3.193258 -1.9937897 0.0863092 4.1577826 -0.60045195 -3.1518629 1.324549 -4.6330743 -0.50300455 0.3039762 -4.139924 -3.1836433 1.8400239 1.3543246 -0.7046073 -1.0146846 -2.0674334 1.6292243 0.89703035 -3.2210228 -0.67060405 0.12512994 -0.8635538 1.7278583 0.6801645 3.1287556 3.2945225 -2.1826248 -1.1906 -0.8831173 2.3737907 5.508457
5054 4.086606 1.6544361 0.15945399 1.8534452 2.5572248 -1.3707621 -1.8031905 2.2369673 -1.9159154 0.12789546 -1.3004224 -1.0864456 -1.4440347 2.2585206 -3.5539632 1.0278614 -0.5517092 -2.0942454 -0.773272 -1.0540855 -2.234928 -3.9031005 1.0973337 -1.7108814 -0.934092 -1.4588741 -1.8617097 1.6124429 3.2625427 -1.1992977 -3.4604337 2.0325177 3.4285023 -3.8547273 -0.21871783 1.1970017 -2.7235847 -1.6732595 -4.928537 -4.769017 -2.150303 -0.87289286 2.136267 -0.11874977 1.013625 -0.18318056 -0.9768853 0.6607314 -5.375724 0.11377585 3.2132475 0.34910834 1.1810172 -1.1781926 2.888934 1.2076899 -0.1201637 0.67811793 3.8892465 1.0573136 1.8298057 -4.7174 -0.11506085 2.7390175
3479 1.2620682 1.0436543 -0.5758381 1.0317487 -1.8861582 2.3710387 -0.35978195 -5.2042246 3.2344818 0.019065488 -1.0433695 2.1851778 1.0523183 1.8171178 2.2033985 -1.1900657 -1.5515336 -4.2010603 3.920172 0.24956928 -2.0119734 4.0006185 2.5022645 4.228264 2.4395244 4.2043314 0.5005158 3.6708095 -2.1994805 1.4147305 1.9148965 -2.49763 -2.0009882 2.259228 -7.8094106 0.81860304 1.0320286 1.8134444 -1.6357285 -9.591858 -6.000022 -0.6165755 -1.5528024 4.0291405 -3.1649408 -2.6871433 -0.75530493 4.1811824 -0.15958242 -2.2200077 1.1444386 1.3846859 -0.096299104 -1.8314677 -0.1940972 -4.605724 2.8960645 0.46002585 -1.6861794 2.62243 2.7152617 -1.7096552 0.011337897 1.5747148
3172 -0.3745612 5.3525624 3.7514234 0.41691142 6.358629 3.39249 0.2370498 -0.605888 -1.7764003 1.9816242 -2.8398914 6.40366 -4.8501115 0.86485624 -6.7043023 -0.1380495 -3.7169955 1.3674331 -0.38630462 3.2817624 -5.9392724 1.7696004 -4.7242365 0.0007380105 0.18642075 -2.2342792 5.6177616 5.148728 -1.8831387 3.549897 2.506896 1.7004144 2.6966386 0.44146225 -3.364462 -1.4397368 4.439673 -0.13920413 10.629042 -11.582664 -9.993678 2.3850133 1.617319 -2.0868402 2.1212296 2.8332334 -2.1733437 5.2380886 -2.2478433 0.90920776 2.7477422 0.020033188 0.774891 4.560155 1.8613082 -2.813573 0.416947 -1.9327579 1.3551347 2.1211922 -1.681686 -0.94190913 2.0462282 2.8382735
C1306856 0.40277857 4.489321 -0.91650933 1.1102998 -4.0630555 1.0628929 0.84715515 -0.58388233 2.6354609 -3.3200371 -0.4388716 0.08538283 2.013164 -3.1280985 -0.90515774 1.3588493 0.79147846 2.409861 -3.9259741 -0.05414054 1.0019923 2.8107853 0.18483344 -2.0429256 -1.6207154 2.2131534 1.125855 2.6089954 1.1854931 0.7513656 0.7396737 0.16291271 -0.7009938 -2.0825992 -2.3978586 -3.4309964 1.5009658 -0.70725167 -1.9313428 -1.9574177 2.3742034 -0.40809223 4.739861 -1.2858396 0.62549925 2.453052 0.7898799 -2.1408327 1.142142 -0.8250919 0.83295256 -3.238146 -0.5399681 -1.826384 2.016053 2.3467658 -0.1022632 3.5003774 1.205183 -2.296996 2.9992237 1.0048052 0.7476769 2.967787
2099 -1.4066433 -0.78079474 0.25617817 1.8331844 -1.032375 -1.6735895 -1.140824 1.356201 1.4361924 0.15511608 -0.48801345 1.2122121 -2.8010242 5.838724 1.415388 2.3629966 -2.7220595 0.05897099 -0.106102414 -1.9490718 1.223655 -0.14089097 1.7267163 -1.0084882 -2.9147227 0.61538917 -1.9738377 -1.8386995 0.49605036 4.5855417 -0.920897 -0.39889574 2.0825787 1.0440809 0.19514267 0.19466794 -1.5097078 -2.8084056 -2.2869148 -0.70674384 1.868094 2.2707336 1.7911235 -2.1410246 -2.3231544 0.7258976 -7.305694 -2.0469902 -0.87292325 3.5551426 -2.1899443 0.08988236 3.1436255 -0.77084434 5.5308723 -3.484725 -1.2180098 2.7345643 2.3160632 -2.5381768 1.0893723 -2.8581724 3.768145 -2.1193454
2944 3.0575202 -0.93355125 -1.1361618 -0.88853383 0.27282196 4.311885 0.21924247 1.709271 -0.5171913 -3.0268948 1.2040647 -0.47686908 -0.36106348 -1.4539138 2.6065161 -2.2541869 -0.85915625 -0.31738278 1.8309096 0.017268278 2.6308618 1.3316149 -0.4495687 1.7283098 -0.0026265043 -0.683185 -0.8453009 -0.5024812 1.2827309 -2.0235665 1.170046 0.8221185 -0.78772825 1.197886 -1.5072627 1.2826778 2.5738194 -0.026806168 3.855657 -3.1273816 1.2721742 -5.292278 -2.83855 -2.399762 -0.2775781 -0.6184828 2.858559 -1.8342478 2.0019116 -2.1374075 -2.7569528 0.67091423 1.3941216 -1.5449026 -3.2563655 1.9779 -2.6226707 0.69592506 1.3811916 -1.0702337 -0.68841887 0.11515283 1.2789168 1.6158113
847 -3.3063598 1.8996644 -2.2115557 6.6932383 0.5436678 1.8394679 3.0901873 2.3977323 2.2745967 -0.80092084 4.011645 -0.41515988 -0.5452974 5.4941564 4.7136655 0.92233765 -1.4701399 2.4424424 1.537653 -2.003473 3.3499756 -0.32544744 -0.7967253 -3.5287046 3.339724 1.0775613 0.37043357 0.19573876 1.0002271 4.9595633 -4.7414207 0.9219164 -0.8934085 3.880483 3.0239067 -0.4829228 2.3854613 2.4442906 -0.7141783 -3.586201 2.657709 -1.2596049 4.6854157 -0.17596759 0.15194958 -1.606084 -4.687461 -2.1256738 -2.5503986 4.5730324 -0.25093678 5.7668724 1.6055382 -0.897774 5.6241074 -3.4060805 -3.6386573 1.6635833 1.731807 0.9588175 2.3167229 4.9060273 3.9889789 -0.12993939
185 0.09705306 -1.1464647 -2.1933174 0.92938113 1.5565641 1.8610375 -3.9181333 -1.1766917 -0.54626864 -2.3688538 0.007149122 -2.1688523 -1.6116809 -0.49813005 2.3687775 -0.7889079 4.805945 -4.135819 1.2223971 3.964354 0.43974647 -3.436684 -2.9041018 -3.347287 -1.0492215 1.1928353 -2.9240968 2.1089725 -2.6141002 -0.22788587 -1.7925147 -3.7491496 1.8473403 -0.36026135 -0.47298738 3.1215231 -0.7466318 -2.3224275 -1.5199047 -3.0674422 1.0042489 -3.7311544 3.9753463 -1.9984599 -1.4972014 -0.99703956 -2.319174 0.4015432 -0.3597305 0.6965064 2.3111618 1.2201539 0.4331391 -1.8004545 0.08302816 -5.401583 0.8959459 0.8060029 -2.9834898 3.5227184 1.577311 -1.3223888 -1.9601266 0.6128835
C0206146 -4.3675895 1.2292495 0.88593715 -2.8750052 -4.170911 2.7493446 -0.16560388 6.500669 0.2797489 3.1603541 -4.6571984 2.9461594 -0.3703882 -0.23489998 -6.55014 3.255079 3.258801 -4.428253 -2.0745418 0.41308606 -0.7274571 8.516051 0.07320275 8.002593 -0.24062423 3.4961355 -5.1480427 0.6542706 1.3344809 -3.002451 4.1031313 0.88889337 -1.7249542 -0.4430428 3.5081415 0.17572773 -1.5850941 -1.7148705 1.4270551 -4.3563976 9.135116 8.631221 -4.752912 -1.451951 1.8024511 10.634255 -6.1133256 -5.2534738 -5.927223 -3.3874137 -0.34663302 -1.5409397 -7.098148 0.83611065 -0.49959618 0.20349225 -0.38926458 0.552669 1.0026389 3.0981007 -2.0349016 0.615476 -7.643247 6.264243
929 1.0966281 3.4635897 -0.90125513 -1.7212567 -0.085816205 1.2700123 -1.8476456 -1.932434 1.0038182 3.606859 0.58491856 -1.5912338 3.3252792 0.730643 1.0112522 -0.6202459 -2.835115 -3.2542305 2.6617453 2.8529608 -5.5366197 2.779617 -0.42466184 -0.5452973 1.7684385 1.9848182 1.0057735 3.365195 -4.7577906 -2.393389 -2.4501207 -3.7180412 -4.747988 8.038839 -2.8236783 -0.96291375 -3.725949 -0.0025046524 -7.014666 -3.9542842 -2.0070446 -1.1710335 0.8176235 -1.3859805 1.2682221 -2.0302722 0.49208635 -0.8274383 -1.8581061 -2.5964942 1.9081693 -3.52801 1.6301808 0.19196743 -0.5148535 2.1585746 3.1167471 0.8937351 -6.1179137 0.8697872 -2.2496789 -7.2886252 1.7731017 -1.8547796
2908 -0.6331533 -1.5845295 2.3053694 -5.3706856 -3.6096132 -0.19592682 -2.4255722 -2.9077597 1.3725374 -6.0253553 -0.65558535 0.023560133 -0.37817812 -0.48659658 2.641819 0.48999876 -0.6854109 -3.9249504 2.16221 1.7956877 -0.5884885 -1.7320471 -0.021671267 0.66360426 -2.0895734 2.8717382 -0.43460643 -1.4720162 0.24979687 0.3354614 -0.042021193 -0.9958643 1.8873383 2.4523478 1.7104093 -1.9394693 0.40033615 -0.95232385 0.117013864 -3.2908046 0.54161584 -0.6737956 -0.1214176 3.07333 0.5906424 -0.12661746 0.91946524 -1.7136248 0.69843364 0.7128584 -0.0035481227 3.046591 1.3084326 -1.0232617 0.99847686 1.4745808 -0.29643074 -1.2733569 -1.2742816 2.2737613 0.8710574 -0.909493 0.9880276 1.14797
6774 2.3118403 0.6730205 -1.2424802 -0.6800385 4.095247 2.3168495 2.178372 -4.0948896 0.23928164 1.7547743 -3.4224906 -1.0399126 -0.9984121 2.9162853 -3.4921052 -1.2552769 1.4151073 1.4818553 2.6764314 -1.0268047 -1.5506258 5.4339967 1.3170853 1.4582902 -2.8579295 -3.7022648 -4.060382 -0.14315525 4.0847635 0.8065802 1.7781551 2.9147844 -3.7283795 -2.1034536 -6.333723 2.819689 0.870969 -6.6631627 1.6031654 -0.91478246 0.4330894 -2.7285745 -1.3138951 1.7338165 -0.058798462 2.4275725 5.1296253 -0.1101584 -1.8258351 -3.8065047 -5.1886244 1.9341143 -0.13332763 -1.2441883 1.6682826 -4.867637 5.2273736 1.0479565 -0.5934005 -2.944222 -0.088821806 -3.3428905 -2.5246012 -1.3618103
7040 2.3108559 4.9289165 2.6940203 3.5457263 -1.0021788 2.9303133 -4.2376294 5.213625 0.9451221 2.4518812 2.3715134 3.7160678 2.691505 -1.2133677 0.8786222 0.008029668 4.023514 -3.0688527 -3.5448637 4.4798007 -0.40526992 3.3677835 0.12457273 -5.2765913 -0.09582721 1.1752406 3.3433204 1.1529276 -2.547136 5.003594 0.3233026 1.1591178 5.570882 1.2853527 0.908179 0.007906573 3.7055743 2.780244 4.8648233 -0.3706105 -5.725317 2.5913591 -5.071742 -1.1280829 4.1920066 1.2938621 2.3014772 -1.745454 1.2094487 1.5192903 -0.33182165 -4.623276 -2.072204 2.5280652 -3.5405445 -2.2800927 5.120287 2.1512978 1.4079444 -0.56803066 -0.03326582 -0.31939867 2.0513399 -2.2252007
2539 0.14594184 0.13615695 -2.5560658 -0.31155595 0.49805728 2.9232497 0.5763009 -2.0358994 0.8921543 -3.1264014 3.7682421 0.6406614 3.4774265 0.2729589 2.5222433 0.7560013 -1.9061285 -0.7713542 -0.8123639 0.5385177 2.258507 0.1016149 -5.0222197 2.1017678 3.324392 -0.23687759 -5.2859654 -1.3169165 3.3551877 1.3052912 0.69606245 1.8013856 -2.8120751 -0.5390952 -4.9042664 5.000716 3.6690948 -2.0532289 5.5548167 -2.1725688 -1.8009933 -1.323658 2.2043931 1.0046852 -2.5491135 -1.7272005 -1.1246574 -7.765502 3.9131386 0.8110046 0.35791036 7.1749754 -2.6600153 1.5892075 0.69635916 2.8817692 -1.1254797 -1.620001 0.2943249 -1.4765607 -0.47308102 0.56700414 0.23524183 0.9201297
183 -1.1247694 -2.3112335 -2.743909 -0.016631797 2.8881705 0.89509135 -2.1490262 0.69968736 -0.20533095 -5.1489058 -1.773363 -0.85568345 -1.5462003 -4.7962227 3.67703 -2.3454306 4.587998 -2.2710469 -0.12879023 3.1515968 -0.43833452 -4.8717446 1.8647667 -3.0447385 -0.6235372 2.2196212 -3.5576742 3.2827797 -2.9576278 -1.2487454 -2.2463653 -0.4973204 1.336094 -1.9759803 1.2874734 3.9127882 -2.038404 -1.9620559 -0.49504322 -2.986783 -0.08359713 -2.6473637 4.9738703 -2.331889 -0.5987904 -2.7348452 -0.84852594 -0.43546546 -0.5139405 -0.92747855 3.3108575 1.1376703 1.8663557 1.8974383 2.9817405 -5.3176136 1.9944555 0.4650952 -1.8219404 0.13399383 2.0155659 -0.5457962 -0.07894669 1.4976478
9370 3.3802464 -0.7281929 1.9499048 0.6393561 3.527236 -2.2365887 -0.1469587 -0.565821 -3.40324 -0.6950496 -0.38930818 1.9597523 1.1287268 -1.0738095 -7.3834286 4.0195336 -4.4557405 -4.676797 -4.5960565 3.674675 -3.5548105 0.24535272 -0.49856985 -3.840605 1.5613012 -0.97080714 3.345347 0.3028456 2.4145892 1.2381854 -1.6854764 4.26171 1.0906934 -4.4043117 -0.02958714 3.7385144 -2.4229715 -1.4669094 -1.3368542 -3.0763674 -3.6772013 0.054993503 -1.7275503 -2.796312 -1.5316937 2.002476 2.137458 -3.8233404 0.36640838 0.54351276 1.7619092 -3.1368995 -2.1609123 -2.5239167 4.998292 0.9472544 4.960622 -2.0364234 3.4942594 1.5181427 4.79725 -3.8962543 1.3947173 1.5718544
3767 2.953231 2.7785912 2.2893786 2.5457985 3.722422 4.4144487 -1.197097 2.4119081 -0.6443513 -2.262274 4.313348 1.8256454 -1.9118332 -0.8044549 -4.9542794 -0.0048065097 1.563116 -0.54108024 -5.5539365 6.0751233 -3.2645078 4.300819 1.7393492 -1.1748616 0.77198493 3.161298 6.114309 0.64384407 0.043808553 1.5959487 1.6163887 -0.12600814 3.6227572 2.8778992 0.32191044 -4.601466 3.8855855 -1.2939004 7.4511704 -2.4673584 -8.921739 1.793887 2.1698565 -1.9091859 1.0354364 3.589389 2.606739 4.348813 0.16123998 5.872617 1.7435272 1.6905487 -4.999304 3.8357449 0.5149835 -4.671677 -0.32971668 -4.6061254 -0.45263928 0.5370179 -1.1566498 -1.4713123 -1.220539 -5.198963
5444 -0.82453966 1.3529215 1.5263947 -1.644105 -2.3758733 0.980013 0.27079165 -1.0668515 -4.283504 -5.160102 -2.4609933 -1.557078 0.88719606 0.7062079 -2.5609708 1.6991014 -0.7813893 -4.3495407 0.4078928 3.9463239 -3.520629 -4.6790624 -0.8968609 -0.819591 -1.241106 0.9114912 4.5029755 0.18508017 2.548155 -1.8950771 -3.7469692 1.412813 2.2172797 0.46868604 3.8536515 -3.0432696 -1.1089034 -2.9526694 2.84295 -1.5147781 -1.9525601 0.7726438 -0.25483388 0.498473 1.4826314 3.4639463 2.2401137 2.3747795 -1.2262272 1.8052554 -2.7196486 -0.7609151 -1.4352543 -3.9148026 0.064295314 -0.6021174 1.783836 0.48145798 1.1679592 5.515183 3.0075223 0.24957044 1.8025537 2.9343092
C1864041 -3.3423748 -2.3388069 -4.4961333 4.9913735 3.1635003 -1.9541245 0.9780646 5.72854 0.96140707 1.7758249 -0.10835146 0.20413192 -0.77756107 -0.82419664 0.8892332 2.505719 -5.5026026 2.1414762 -3.3883286 -1.090554 0.04978532 -2.1019695 -3.046355 -6.5121226 -4.9056025 1.2860105 -1.1354531 7.0478363 -0.8106576 0.61257625 -2.184213 -0.9866698 5.196975 2.1333766 -4.761747 -3.483947 2.6616104 1.4941528 -0.94147736 0.24833058 0.2359019 0.42403248 -1.0130149 1.8349661 -2.1278749 1.5980581 2.8322363 -2.72102 5.141929 -1.418521 0.90803605 2.7316473 -0.63522047 -0.31681508 -3.160456 0.05010984 2.39767 1.0969006 -3.3275592 -4.244813 2.8220599 -2.6339397 6.5357842 -0.77811915
3308 1.162815 5.666647 2.9152231 2.06927 2.217095 -3.1380298 -0.23720507 1.8191702 2.830078 3.7894576 0.631062 -3.8495965 3.559231 2.0561657 0.11900767 2.8840165 1.6944644 -1.4490148 0.97842103 -0.47635543 0.46385336 -2.585192 -0.82689875 -5.3302445 1.5108825 -0.7850249 -2.8142772 3.0579286 -1.4531914 -4.8874154 -0.842961 -4.8863273 0.38986325 -1.0111014 0.19390309 -3.199658 -5.1435437 2.4535573 -3.2012224 -3.0623238 0.33420205 -0.47935745 1.9198983 1.4124589 3.705333 -0.34209374 -0.32317948 -0.06206233 -4.4043446 1.9428604 2.7960255 0.44745412 -1.3275744 2.7332964 2.484104 5.1484175 3.1651168 1.5390738 2.5545993 -3.3880253 -2.4159799 -5.4302893 -4.112029 -1.5401129
3077 -3.7392504 1.3173562 3.6563194 -0.81942743 -2.3704605 0.9903176 0.5113111 -1.2767004 -5.279554 -0.8471546 -0.30359867 0.21591231 3.8201394 0.23566097 -7.871704 3.0633361 -0.27782023 -2.974202 1.2262061 3.1867766 0.35262665 0.2720272 1.2734488 -7.8209558 6.514838 -1.9826763 1.9284493 -1.9003344 5.532911 -1.643874 2.4592447 -5.863832 1.264413 -1.6232184 -2.2172809 -0.93216723 1.8590477 -2.9954796 0.66916376 -0.4792959 -1.0238696 2.0025551 -3.2874463 -2.8082597 0.71068865 1.3479222 4.909539 5.6777673 0.6532479 2.0343294 2.1123085 1.1052837 -5.103608 3.0241082 -1.6953909 -0.6319329 1.1991911 4.6443386 1.6820093 0.7748189 3.4881303 -1.1387326 -2.7120667 -5.119005
57817 0.8383289 -1.7740518 4.52051 -3.030216 2.596466 1.5511454 -1.6128297 -3.0666354 0.8864818 2.0019383 -5.860719 -0.29527357 -1.5964079 -1.8334733 -4.3731236 4.1782556 -2.213107 -0.7876677 1.0082644 -2.5816333 1.7256843 4.716196 1.4408376 0.012148179 -1.8148447 -3.738019 -2.3155172 -6.7670135 3.48445 2.2796214 5.055156 0.8735385 1.9866674 0.5383122 -3.3985105 3.2798817 -1.3564208 -4.041677 -1.9989928 -2.1847298 4.4405823 3.6560335 -0.4926365 0.81326437 -2.5807734 3.5698867 6.4598885 5.628589 -1.1549441 -2.0138633 2.3274999 -0.076788016 5.945922 1.84843 -1.4637431 -1.0217835 1.5228701 -1.4792669 0.9777853 -5.8864875 5.696205 -2.4782536 1.5098441 -3.720831
217 0.33885744 1.7202696 -2.198776 -2.3172836 1.1694691 2.9689283 -1.1580151 1.2808925 -0.29006612 -1.8148468 0.71661156 -1.2655182 1.3947865 1.2313504 1.0485852 -0.9295856 0.31589442 -0.23464452 1.1084472 0.9776617 0.5166624 -1.6839828 0.104343936 0.2543918 -1.014758 -0.046633795 -3.1100237 -0.18391931 2.0558088 -0.9429353 0.15858252 0.60638213 -1.6587065 -1.7045687 -2.4073093 2.2443702 0.9607197 -1.307196 1.4052777 -2.9655504 -0.3885295 -5.478903 0.73030967 -0.6152773 1.3768975 1.4462298 -0.9917354 -2.9278188 3.020616 -1.3131304 -2.9866385 0.9997472 0.17042647 -0.44153556 0.49205384 -0.28587317 -1.6169175 -0.586943 -0.5276608 3.9514227 -0.34465605 -3.85037 -0.8491908 -1.5436119
2100 -3.5762873 -0.77190566 1.8923155 0.8577782 -2.6228998 1.7285736 1.635771 1.1607674 -1.6977246 -3.1765919 1.587029 1.7719656 -3.2926786 5.0005302 1.4779493 0.15923773 -1.117137 1.0577533 1.6142794 -1.1160886 0.6656566 -1.2699099 0.81341475 -2.2777288 0.4486239 2.689499 0.7468021 -1.0638887 0.7595645 -0.56429195 -1.359721 -1.5094923 0.81482494 2.0790868 -0.3420083 -1.2783501 0.8821401 -2.6566703 -0.718904 -0.11822643 1.5092218 0.29948953 2.6189594 -4.565242 -3.107214 0.53971106 -6.3995066 0.2192442 -0.27739298 1.7842723 -4.6836853 2.0596678 4.6245937 0.09326604 4.070299 -4.023707 -2.7144833 2.0099342 0.5863781 -2.0236065 -0.68939507 -2.1468902 2.1693187 -0.96057075
C0011859 4.4166813 1.3288208 1.3505616 1.2885101 0.75266623 5.087339 1.4325411 -2.285197 0.41726297 -1.5249414 0.16278632 -8.628413 -4.2555575 1.2166427 2.3557281 -5.379448 -4.1425724 -4.726462 2.9618344 4.9304857 2.7404406 -4.2539725 4.7978334 1.7322961 2.1789665 -6.3587914 4.390715 1.6540748 -3.6264865 2.016451 3.5297487 1.5814025 0.8840597 -0.59589577 2.7622883 7.0004215 -1.4419224 0.7079138 -4.2745047 7.877795 -1.7700249 0.83523375 -1.3014822 0.006682901 -1.8729706 2.4419882 -0.48651534 0.10083718 -7.5826197 1.9399142 -6.939465 2.2475407 2.5775774 3.8805733 -3.4295 -3.206625 3.3674586 -6.437797 -4.91262 1.4209028 3.2816117 -5.788905 6.859986 0.17050782
23411 2.044272 -1.0365305 -0.24959417 -1.8395003 1.0237797 -0.6845645 -2.6635244 0.5856276 0.3673805 -1.7986643 -1.3933928 0.44066525 -1.2380992 3.5179243 -2.6493692 -0.5777799 -0.07358351 -0.42307127 0.107808396 1.2950741 -0.45864812 0.9377349 1.5112202 -0.69512874 -1.5624284 0.18298128 -2.4454417 0.4561518 -0.47912598 3.1094856 -1.0767567 0.66101056 1.2692704 -0.5213348 -0.31026512 3.4928145 -0.2022189 -3.6054835 -2.9752338 -1.3854815 -0.0430014 -2.3355312 1.8841747 0.12805523 0.12742132 0.15570167 -2.3312626 -1.2097789 -0.79822546 0.8415922 1.7536359 0.08529693 -0.8778327 -1.422629 1.3641256 0.019460516 -0.23701407 0.7305668 1.7279462 1.3858008 1.0862519 -3.812917 1.2063173 -0.61524314
6647 -3.9414544 -0.21674699 2.3751626 -5.8049774 -2.8583114 -0.3267383 -3.2759457 -3.9399378 0.6784011 -3.813821 -2.0127842 -3.0457177 1.7177498 1.6935407 0.2180776 3.1382108 1.311066 -2.721476 0.5871821 -1.0761807 0.53300345 -3.1121821 3.374496 -2.3840058 -3.3397682 0.35388765 0.66795874 -1.5253615 3.3435562 1.8327278 1.5942575 -3.3974097 1.5731 0.5714878 2.9961376 -1.349791 -2.8517962 0.28772387 -2.503339 -3.4641726 2.7407956 -0.31351212 -0.90496635 3.0653682 5.100577 2.2174482 1.6308938 1.3410549 0.5339717 1.7774837 -1.2204992 -2.5369198 2.061419 2.652239 0.1643242 -2.337615 -2.9784954 0.22039531 0.22257482 3.4772708 1.700004 0.16751185 1.0197973 -2.3093894
1029 2.2735958 -1.3587755 2.7578433 0.74387425 0.6541369 2.771998 -1.7701955 4.504208 1.1240019 -5.374774 0.7429491 0.5431664 -0.8814236 -1.7959701 1.983612 -4.0995793 -3.9854958 -3.5996234 -3.4358995 4.98036 2.8159068 4.498379 1.1716172 1.5858126 0.70739156 -0.015002487 4.3264275 -1.5294033 0.18550014 0.10238848 0.66988117 -0.7145016 -0.48003212 2.3210042 2.6861928 -1.356161 -0.1462698 4.4055533 10.424365 -3.4134777 -1.4487135 -1.3137767 -2.3939397 1.5475181 0.019282928 1.0538377 5.5221796 4.0117097 2.4106221 3.395402 2.3616893 -1.3714273 -1.0487792 -0.5376557 -3.5961678 -1.982589 -0.19401239 1.4603014 4.1934023 -2.1880026 2.7442145 1.3981769 1.3739798 -0.29709253
5465 1.7665582 -0.62886965 -1.6601671 0.40964296 2.753407 -1.1742197 -0.92968315 -3.6119828 -1.7072179 0.118411504 0.25790507 -2.9177656 -3.5046427 0.25021353 -7.2418957 0.052660525 -5.122413 1.8909572 -0.64896405 0.7578318 -2.292485 -0.8861872 -2.195639 1.7174288 -0.6978551 -1.8544185 -0.046903268 3.437928 2.5978587 -1.6874219 -1.939442 2.5006342 0.49669808 -2.019063 0.09341885 0.4799391 -1.1233952 -6.27641 -2.8622985 -1.7223172 -0.14985116 0.5390219 1.561216 -3.4034665 -1.7257369 3.0543966 0.10350759 2.6878996 -2.6245143 2.573902 0.09289962 0.8648267 -0.5843589 -4.5243864 1.4488256 3.1709929 -1.2142506 -2.0288348 1.6364746 0.1346913 2.535399 -1.1787119 0.56994325 2.3636096
7133 -0.13467953 -0.45494696 2.1821578 -1.7012732 1.153357 0.8939987 -1.4328935 -3.5250404 -2.7054505 0.71100175 0.046765644 -0.08951645 -1.766224 0.45581478 -8.225194 2.9760711 -1.5443304 1.8869588 -1.2327255 0.09272547 -2.36109 -0.042597376 -0.45979476 -2.4302077 -1.996715 -5.1876087 2.1644244 -0.0058167246 5.819929 2.3580651 -0.6851639 0.19244559 0.6602831 -2.5066676 -1.7062095 2.6173015 -1.6310447 -4.1535354 -4.8083396 -1.7227741 0.18779522 2.4676356 1.0358975 -2.897228 0.6172823 3.2957003 3.4363222 3.613277 -4.451858 -0.30032465 0.3286217 -1.4666238 1.6147296 -1.2548982 -0.431352 -0.1990617 -2.9466205 0.72342503 0.73861426 -0.6707358 2.159364 -2.529593 1.719025 0.54657125
2247 -0.75323576 5.115496 -3.5003502 -1.4239728 -0.64271986 0.5215628 -0.97625005 -1.3223994 -1.3855206 -2.644379 -0.9646636 -3.8634543 4.156761 -0.3775073 2.183396 3.0722287 0.40314907 -3.533078 -0.758878 3.8546793 -1.2420119 -2.6294382 -0.18850063 -0.47579545 -2.303266 0.16579312 -1.6297594 -1.187852 3.5596232 -0.7545104 0.63057005 1.8293608 -0.20233384 1.0553952 2.0983503 -1.8036774 -0.31088004 -2.2586074 6.020767 -1.9743067 0.015867239 1.3129368 -4.0956573 1.7409688 4.5375 2.9694016 4.7408895 -4.2995157 4.141043 3.1688297 -4.3228326 -0.40277743 -1.4519395 -0.3665562 3.161957 -0.016520472 3.7078931 0.17848776 -2.0257745 4.170741 1.3265648 -0.57717544 0.9658466 -4.432186
51738 3.7648618 -2.226017 1.8500592 -4.6088586 0.20295605 -0.9545135 -1.3781204 -1.3653009 2.0029354 -3.7759638 -3.0436635 -0.44450524 -2.055577 2.8525355 -1.9838831 1.946864 0.74249834 -1.1200217 3.2009962 1.0312773 -5.173926 -1.1514008 -0.6015655 -1.0122055 -0.30817488 -1.5100987 2.4223154 0.9469102 4.1390147 2.768367 -1.3168427 1.639921 1.9173125 2.4260094 3.8298798 -0.5736173 0.9713045 -8.384283 -4.722106 2.3905184 3.0496507 1.0246966 -1.5784601 2.3763945 2.6383083 -1.1178733 4.8217506 -2.642087 -0.35234317 1.7042702 0.28890723 3.1939552 -2.3849757 -2.7613833 5.5093827 -2.7345462 0.23356819 -1.239283 -0.7837156 -2.0942714 0.64663106 1.4228746 -2.282457 -0.16934602
596 1.4761882 -0.28147796 -1.6173681 2.4859517 -1.843639 -0.72335047 -1.5948921 -4.4870067 2.707833 1.576029 2.7755754 -0.33647126 2.4643025 -2.3998811 4.8806515 -1.6211324 -2.662335 -5.4817057 0.4240557 1.578201 1.6122743 1.4416949 0.2215199 1.7676783 1.5970849 1.7349079 -0.42997816 0.078122035 -2.1227078 2.1301107 -0.13214381 0.036728445 -0.9599042 3.912465 -3.9091842 1.7885 -1.7691439 4.276133 -1.6284608 -5.875823 -0.025426429 0.26510218 -7.1171103 -0.20835282 0.40058005 -3.6973531 2.7171812 -0.18417487 0.4743519 -2.7582216 1.4017087 -3.6419759 1.3983786 -0.013885115 -3.7442234 2.51278 0.996605 2.0635262 -2.1565626 -1.5445491 -0.18581888 0.7461652 2.3729389 1.8222164
3091 1.1552862 0.95887375 0.6715314 -1.2525654 0.41740134 -1.4026617 -2.8210752 -1.8326316 1.945877 1.3180274 -1.7497166 0.59168327 -0.8361854 3.209428 -5.453363 -1.6104856 0.6491312 -1.657557 -3.1668158 0.9506139 -4.316199 -0.2619074 2.5747437 0.6112855 -1.8916556 0.56760615 -3.6686924 2.283562 1.0906594 3.7743607 -1.2191088 -0.28096592 0.6979625 0.18785763 -1.0631454 5.532706 0.32030767 -5.598134 -1.9777492 -1.4120859 0.8146507 1.1678994 0.785672 -0.7066813 -0.21499234 0.6623426 0.6848254 -1.7606515 1.4966472 -0.17627463 3.063029 1.2274479 -0.9292789 0.71927166 0.060665358 3.1090205 0.26093018 -0.48100284 0.9010567 -3.950437 -2.2968957 -2.7519474 0.5611517 -2.3238904
3651 3.8545215 2.2847848 3.5450404 3.695322 1.525271 4.2638683 0.93346566 2.4931238 -1.5400847 1.447079 2.5017483 1.9212686 -0.10329857 -0.6454594 -5.752764 0.97780263 5.123861 -1.787297 -1.7397848 4.5510807 -1.3493477 1.1579059 1.1205173 -0.27299076 2.0490277 5.1358767 4.7842693 0.7976603 -0.29953283 -1.6686164 0.74161667 1.3524315 6.436014 1.7413619 -1.1033696 -2.4253652 5.265168 -2.268368 3.9936173 -1.1026921 -5.946885 1.5263782 -0.87951624 -2.9626842 0.42874083 3.5671022 2.3993132 3.131954 1.1359886 4.106418 -0.14955881 1.7378287 -5.032459 0.8812352 1.0220759 -1.9291472 3.2888553 -2.5311587 -1.8804709 0.906319 0.74662703 -2.694134 2.4029343 -4.7826943
7048 0.4953515 -1.6210648 1.682336 0.65486574 -0.99726844 -2.5150752 -4.271063 -0.7959624 3.0532458 0.6504064 2.8207836 2.3115602 1.737245 -2.7219632 3.2307997 -1.6237061 -0.68868226 0.2600707 -1.5518659 1.1534772 1.8517694 2.1533267 0.16243225 1.301465 1.9147656 -1.3415065 -2.5876904 -0.87322956 -1.7696301 1.5936106 -0.36310387 -0.83543694 1.5304754 -0.32193363 -1.5823063 -1.0910445 -0.097703435 4.3833294 0.38540784 -2.4963589 0.7682218 -0.22894411 -5.6046805 0.50733835 0.34133974 -0.3033653 3.1659453 -1.6222309 2.6498392 0.3376802 -1.3861562 -1.2869598 1.7363688 1.3578343 -1.1331135 4.551062 -1.0214605 0.7492097 2.1033487 -3.22822 0.2699657 1.0179471 3.0362403 3.2358167
3586 0.057370562 0.42022604 0.637136 0.9202259 0.5825792 -2.0718675 -1.309914 2.2338932 3.2066944 0.38823462 -2.7829332 -1.3145885 1.0478486 2.1116667 2.5170753 -1.1291188 1.6009207 0.24931253 0.8303441 -0.04124864 -1.2787888 -1.104473 -4.3901753 0.97157013 2.4075599 -0.61737627 0.9136386 2.7935789 3.2650337 2.9407198 2.0296602 -1.4292573 -1.2733754 -3.4567354 1.8158816 -2.1365488 -1.7762623 2.4078832 -8.391153 6.3102555 1.5662541 0.6200196 -2.8712444 1.925377 1.4318465 1.4068437 -1.1935773 -1.0121765 5.7214894 0.0065696766 7.346748 1.133011 -4.3762217 1.4649962 3.389414 -5.9257584 -1.0112154 -4.4183226 -2.7674096 0.030987468 0.4793386 2.4695156 -0.68125474 -0.93124497
367 1.6259143 -1.5163198 1.1320431 2.2233748 -2.0686774 1.0925925 0.09925799 3.3416128 0.0545262 -3.7157903 -0.2586466 -0.017482357 1.7605306 -1.7623501 2.1155205 -1.5530666 -1.7578264 -2.6181023 -1.240715 2.0671985 3.4375606 2.2423735 1.0825919 0.5170898 1.0587008 1.0156687 1.7261208 -0.5691024 -1.3475864 -1.6051921 -1.151676 -0.9579739 1.454821 1.7091604 2.0012965 0.52945316 0.3453171 3.0286653 4.441542 -1.2936697 0.13380176 0.43031162 -4.6604486 -1.2880408 -0.5347223 -0.24084644 4.0898523 1.5625353 1.277264 1.9613323 0.25639656 -2.4240232 -1.1025305 -3.433461 -4.7316113 0.97231483 1.3029348 2.6305573 3.567241 -0.58119446 3.810847 1.6322955 2.81395 0.13573723
335 -4.123119 1.6985791 0.28122663 2.2847137 2.531092 -3.3646035 -1.1330329 -1.5004637 -3.6937468 -1.0270989 3.4823368 2.6185734 4.9302473 -2.5046296 -3.1849992 -1.6851096 -2.9768653 -2.0844173 -0.37821087 -2.528793 -6.337977 -2.9747484 -0.34031665 -1.6104704 -0.62159175 -1.2356762 4.531198 1.230765 -1.3824978 2.742098 -1.7622744 1.8983133 0.14466833 0.49204427 -0.6338562 0.2402122 1.1301851 -5.5452614 0.5056732 1.7676376 -0.28605595 -1.4887815 3.0347393 -1.6328369 -3.4490013 2.8682756 1.4298084 2.8745797 -3.9571407 -2.8783348 -1.7261808 -0.2813074 0.10459209 -2.0518572 -0.06495974 2.7522945 -1.7382091 -3.0248277 -2.2749195 -0.6037104 1.7990608 1.0963113 -2.7740545 5.7747626
5328 -1.3677559 -2.691826 -1.2334583 0.50509334 -1.0319333 -1.3658702 0.33803388 -1.7320062 3.062776 3.3079998 -1.2188109 -0.11175164 4.04049 2.1528878 1.8122256 -2.7886178 0.7627809 0.7479683 -0.61472076 -6.27576 -1.2340279 2.2791448 -1.1944383 1.904087 1.2371038 -1.7273905 -0.0757513 3.4407964 0.22652002 2.5916038 -0.42104092 -0.002044213 0.024823839 -2.5418673 -1.7848356 1.3189983 -0.6710742 3.622751 -0.2759752 -3.7316062 -3.518799 -0.032045305 2.1835463 6.841897 0.7389507 -0.36223358 4.0564427 -4.7077785 -0.42438307 5.833662 -3.7571325 -2.1851208 -0.48169383 -2.590135 -1.2945111 -4.696668 1.1905226 3.7134452 -3.3913512 -1.8849918 -1.2065731 -2.8702874 -1.8343871 2.5249774
3952 2.9854834 -0.4915441 0.12080833 1.3925198 0.11085558 0.97164637 0.19445683 2.554607 -4.284396 -2.705256 -3.1864266 0.52436745 0.23347396 3.0047293 -5.690741 1.1918609 -2.2040558 -1.4230064 -0.34779692 2.5674899 -2.9547806 -1.8883654 -0.30572096 0.0023878322 -2.4517832 -2.8149998 2.3510916 0.5227356 1.7676591 0.2862062 -4.162647 2.141656 0.6204748 -1.5068519 0.705412 1.7917333 -0.31979614 -3.489531 1.3679739 -0.36752984 -2.8031301 0.38962805 1.1725861 -2.9698665 -1.0842113 3.416833 0.89980614 1.8836281 -2.6787283 2.0319781 1.7364883 -0.4031857 -1.0328608 -5.3156056 -0.5190165 -0.4899261 2.1501346 1.704907 4.4955134 3.5698154 4.852745 -3.0310228 3.0144126 1.4158758
338 -4.5213776 2.1777775 -2.0768373 0.72631156 0.6758789 -1.4423983 -0.7772865 -0.5372246 -4.142505 0.927996 2.8636491 0.4137315 5.144347 -2.6489675 -5.574773 0.22051202 -2.3649986 -4.466053 -0.46886033 -2.1168032 -4.4617047 -4.2346044 1.0455092 0.11794453 1.7595316 -1.7140026 7.0780997 1.1352023 -2.2360396 3.165326 1.1279997 1.4331257 0.11386745 -0.03817101 -1.1553841 0.34951526 2.911861 -5.5856256 0.75255233 0.7465991 -1.805326 -2.5982563 4.5932903 -1.214598 -7.190495 2.7130506 2.991519 3.2870896 -3.8403554 -2.846692 -1.1877669 -0.60623723 -0.12559679 1.5939331 1.1734488 3.4899166 -0.80712456 -4.1486087 -2.2387412 -1.0348717 2.589859 0.12872535 -3.1558466 9.173401
4318 -3.2787194 -3.309703 1.656719 2.7318819 3.5196378 0.37378356 0.15390176 -1.3932008 2.2300918 0.90586823 3.1878676 -1.4907366 -1.2195296 0.27390605 1.3545345 -5.440081 -0.7864501 -0.8839716 -3.0229485 1.9875216 -1.1593577 4.2507615 3.771123 1.3829852 -2.1544394 -0.39251646 -2.5615304 4.0747204 4.335643 4.080464 2.3678665 -3.4406364 -4.13419 -2.5010843 -2.4574337 -6.901334 0.0039624367 2.9886012 3.3110847 -1.4474797 -3.2085185 1.8678689 4.127657 6.8490562 3.2214816 1.1194265 1.5350432 -1.045361 -1.759567 1.3732121 -0.9826741 -2.8654208 -1.7714299 0.91395986 1.2336996 -5.666575 1.6836387 -1.1893362 -0.2733853 -1.5708635 -2.2452748 -4.599006 -3.5832257 0.65215456
3039 -3.1094422 -1.5187023 4.5963244 -4.1527257 -3.3207715 2.7993436 -2.7238572 -6.1845374 0.1479265 -3.750866 0.69612086 2.009792 4.436762 0.14984867 -4.6334596 0.5809852 -1.2180947 -3.8309813 -3.2048938 -1.6963991 -1.0414866 -0.7397664 0.7032361 0.18446636 0.74207044 -1.0738956 -3.8329055 -0.2457868 4.731771 1.9000735 2.2452662 -6.150016 -1.9973252 0.31665155 -3.9257572 7.572468 0.44256482 0.30214903 0.40234947 -3.9420002 -0.77031153 2.6442542 1.4900078 -2.082592 -2.605837 0.30235028 3.3207772 -1.9813919 4.3872066 2.2096217 5.6047306 3.4149742 2.361148 6.1957245 -3.134607 2.3060272 -3.9050124 -1.3373371 0.45413193 -4.6759815 0.47770876 -0.0016309741 1.7190416 -1.8414925
154 3.4515047 1.6764534 0.21409397 -2.9951098 0.57651746 0.95505315 -1.8562226 5.297637 -1.3507147 0.33788046 -3.8704956 -0.70845264 -3.950348 2.7571025 -0.849256 -2.584817 -1.8450037 2.1268756 2.1660407 0.9814836 -2.5558445 4.1703544 2.2053616 -0.4977529 -1.6855764 0.08918687 0.95136607 1.219452 -1.5427103 0.09306792 -1.6467881 -0.06482916 -0.4828982 6.091615 0.77512115 0.12462384 0.7106952 -3.9068062 -5.899056 -1.1527449 1.355369 -1.8300407 2.7907574 -0.77831 -0.8377222 -0.11918088 -0.32752883 0.6168056 -2.5954945 -0.72978723 0.96238685 -1.6724837 1.2525529 -3.209804 -0.033781875 -0.08642891 -0.8781697 0.8610143 0.0680891 0.69909406 0.8876548 -6.1323147 2.9399693 -1.5277526
213 -2.2728243 2.8998475 1.2621182 -4.9105997 -1.5397137 -4.5272026 -2.4626224 -4.945674 -4.9472346 -1.8059686 -0.32004428 0.4199079 4.702269 -0.6264275 -2.1878073 0.8453824 -7.0733256 -4.3282824 0.3083538 -1.231607 -6.6968026 -3.205902 -1.4220359 0.49315575 -1.2590926 0.40129006 7.4934373 0.9271782 2.667733 -0.71753234 -3.0406785 4.197824 1.6602209 2.837556 2.3348968 -2.008066 0.29295057 -6.768605 0.93264735 0.060131613 -3.7501101 -2.6344671 1.3277017 1.9845357 -0.27556694 0.6305845 3.3440254 3.087889 -4.591672 -3.5934522 -3.1431074 2.2008448 -0.93944365 1.0971749 4.1815443 3.017349 -2.1599474 -1.1380314 -0.36482286 -0.42779404 0.41603827 1.6815085 0.588792 5.47995
1392 -2.3489377 1.9214371 -1.4447535 0.9091858 -6.5969553 0.41959047 0.36800015 -1.6965925 1.0411228 -3.1882918 -6.3183837 -2.4634526 0.13146438 7.3891277 1.906286 5.935924 0.950138 -1.4636214 3.1121316 -4.4411726 -1.0910277 -2.749969 1.2105143 -2.4513235 -1.4241649 4.2495813 0.06070378 -0.78378123 0.40532842 2.439093 -1.2359536 -1.9488603 2.7905838 1.3397726 5.264935 -4.974945 1.4293404 1.2548647 -1.0747771 2.5041065 4.0218506 -0.8189147 -2.632922 -0.8382467 -1.3905742 2.3945577 -4.1683893 -1.028032 -2.1276255 2.4414337 -4.5900116 3.389667 3.152663 -0.5314057 1.8369224 -3.4604769 -1.380132 -2.556816 -1.5154214 1.6693543 -2.1021285 3.6598136 8.098006 -0.2154213
134 0.8619297 -3.0440307 2.395972 0.4484435 0.77246344 0.01271788 0.037408523 0.5262585 6.209369 -1.1026319 -0.7752767 0.5742753 3.8236058 3.296425 3.2447293 -1.7368151 1.6377366 -0.3709548 2.0389762 -3.1526654 -1.5686512 -0.28639543 1.3277447 1.514428 0.0010537109 -0.31033054 0.30270207 5.027402 2.4196532 1.2019695 -1.003989 -4.475899 0.3130054 -3.1720364 -0.031029517 0.042113177 -1.4019425 0.5007076 -4.6250114 0.79527074 -0.019411255 -1.1463203 -0.85110074 5.5283427 0.6634392 -0.8357967 0.52742666 -1.1233827 2.304922 0.9620449 0.19212936 -0.00015082637 -3.8178794 -1.8352195 1.4835263 -9.440398 -0.35615307 1.0999812 1.0086102 0.30610058 3.1130474 -1.2318767 -4.533219 0.96598834
1312 0.60509586 0.41017643 -0.8423 0.7938362 -5.549787 0.88312453 -0.34006315 1.3988005 -3.503935 -2.6109536 -3.6542325 1.8782799 -0.8369245 2.3630543 -0.07347708 2.3665605 -1.3869708 -0.5897317 0.66657585 -2.8228023 -0.2519007 -1.655563 1.4162456 -0.6081189 5.5245256 3.9798994 2.3119514 -2.7919276 0.7157936 0.49977124 0.008816351 -3.2139215 2.2251594 -1.1183741 -1.2843326 0.4126315 -1.5021693 -1.6124084 -2.4847357 3.3373888 3.5147614 -2.9285045 0.6789319 -2.3769836 -4.7516127 2.1392825 -4.921665 2.4134312 2.8787198 0.74404395 -2.9780233 3.6781492 0.19322926 -0.8863278 0.39066365 -3.2981699 1.8741025 -1.817981 -0.940388 0.14272295 -5.882757 -2.1719854 2.7706683 -0.073615536
6347 -0.34350568 2.106363 -2.1640494 4.735435 -1.9849111 -0.04847924 1.5507164 -5.3537374 0.85268587 1.515652 -0.30259418 -1.3859831 6.507044 2.0436053 1.1169398 -1.1903104 -0.52718824 -4.9294386 0.02186708 2.9846032 -2.2851236 1.9283595 2.5500565 1.9267409 2.1810853 2.7440214 0.17439127 2.6481712 -0.74099666 1.6785624 -1.4478731 -1.40799 -4.604775 0.4855973 -4.4973693 1.0158464 -2.6162384 1.4272592 -1.1740308 -4.5765224 -4.480304 3.5421991 -3.854161 2.9404557 1.0310482 -0.72661227 4.1792192 0.96189404 0.39721528 1.4113675 -1.0739572 -3.1209502 -2.9131072 -2.6600075 -1.494643 -4.581136 6.4875464 4.6073065 -2.7494504 2.6582446 2.9087756 -2.5957763 -0.6636658 -2.2234833
135 -4.927392 1.6625211 -3.3160348 -1.8995372 -3.6162019 0.43017945 1.0933259 -2.309069 0.9129822 -2.1758168 -5.461767 0.5757041 -2.3277464 7.8688087 1.6835761 3.4321833 -0.032837115 -1.8891938 4.165204 -0.7433454 -3.256415 -3.4998007 3.4828777 -0.3815419 -0.022206217 3.0347097 0.7139097 0.69376546 3.2381332 0.8727044 -0.5019903 1.7438333 0.23034258 2.0604298 8.185676 -7.238996 0.45541996 3.871357 1.4483716 1.6804659 2.4127657 -2.0208836 -0.0045199073 -0.61303246 -1.6888801 0.5821715 -2.7590668 -1.8879704 -2.7721145 3.8804376 0.30186328 3.1546962 6.3210945 1.0035728 2.363069 -4.334697 -2.1516733 -0.67623276 0.5916911 -0.7452922 -0.24375407 2.4119072 4.8119583 0.38513288
6833 6.0982156 0.5897307 0.5429037 4.048825 1.7342392 2.9504187 -4.981341 -1.6172163 -0.05444599 0.14744715 7.329001 1.4021075 1.6275687 0.6376074 -4.772379 2.4553204 2.0550268 -2.6264138 -3.8472064 2.5594108 -3.2455385 1.7072177 1.5840508 -1.5855343 1.1818376 4.238597 1.7906373 0.063138835 -2.185008 5.3437896 0.9174515 -2.7347255 4.78504 1.1520437 -4.0678186 -2.3733146 4.041068 -0.61094743 1.9315416 -3.797128 -9.460496 -0.7447153 -0.098286405 -4.7378793 2.2385752 1.0479946 -1.2131768 -0.11267279 -0.19773263 3.862744 1.255461 3.8049107 -3.9337962 6.620996 1.8022112 -3.7171614 -0.9805082 -6.1383777 -0.5044255 4.1107216 -3.2745893 -2.9701684 0.097012125 -4.7945323
C1838261 0.04761074 -1.048927 -0.98085964 1.3373092 3.5860035 1.0950787 1.2705419 0.4045839 -1.4195201 -5.771981 -4.13741 3.80775 -1.2690153 -2.3937683 -1.1557871 -1.255062 0.26959544 -4.16957 1.0128647 1.5185491 -4.900878 2.228949 0.68973935 0.20768294 1.2225534 1.260874 1.0252659 -2.3057427 0.24651895 -1.793181 -0.62396383 -3.264321 3.04548 -2.6603506 -2.3129215 -2.5669887 -1.5203363 -0.41840962 0.044967163 0.67171067 -2.6844206 0.35863906 -5.166195 -0.64587104 1.2379698 5.179605 -4.194003 -4.142201 -2.4651697 -1.520763 1.4406686 1.2918093 1.9264154 -1.6384017 -0.44745004 0.6857282 0.22921328 5.849345 -4.6755323 -0.9377655 -0.48818183 2.8825338 1.2475863 -2.5435736
672 -4.3318677 2.9172037 -4.1591973 -3.5004659 4.4258995 3.7275944 3.8528924 5.317749 -2.254532 0.19021694 -2.1779974 -5.382176 0.67139083 0.8086748 1.0753235 -0.40165457 -3.8372543 2.181858 4.0053596 -0.6324414 3.352529 0.06665136 2.3411334 1.908104 0.25084162 0.22307801 -1.9265484 -1.4689677 1.2759745 -1.7384629 -0.8928019 -1.2102435 0.5859271 0.047246676 -1.2672758 0.7738711 -0.6696048 -0.29893133 3.9536943 -3.5235808 2.5623002 -5.9930925 -3.8575504 1.1770973 -1.2449466 1.0670885 -1.3413786 -0.64342666 2.1770055 -2.8627396 -1.1515363 0.2910805 -1.3761241 1.4534456 1.5085732 0.0018399871 -2.4042609 0.05625761 -0.13937142 1.9149173 2.9527514 -0.9925865 -0.61089224 -1.3932147
4760 3.972857 -5.9868703 -2.5688722 -1.427288 0.88686305 3.447463 -1.2953218 -0.6855907 1.9447894 -3.2583714 1.6298208 0.9149703 -1.0949355 2.0075667 -4.4435334 1.2702639 -2.6438537 2.7835596 -1.3832054 2.7738528 -5.7023244 2.8253415 3.067435 2.1793704 1.0907214 -5.072695 -0.5701135 2.0396843 -0.012946155 3.0780082 -0.12657477 3.2015939 0.32563826 1.4219892 0.47954544 0.33838958 4.5587173 -4.3254323 -3.7923942 -0.12822506 2.1594925 0.5607824 -0.14088365 -2.7041767 -1.5402731 -1.1911072 -0.906004 -0.6574114 -3.2216053 -1.9655383 2.4234796 0.2897809 0.39025655 -2.3315983 1.5436112 0.62742394 3.2870624 2.4358883 -0.93332624 0.59187806 0.10235391 -2.0901914 -0.5630012 -1.5454885
4790 0.0011715177 -1.8358734 2.1024525 -1.5858912 -1.874594 -0.3178014 -1.2477663 -2.4831896 1.4753859 -2.0764446 2.8634965 2.618476 -0.1683191 -2.6705468 0.9328568 -1.2619878 -0.8569504 -0.87492746 0.009726334 2.4970458 0.18278246 1.6193814 -1.4567666 0.31450468 -0.086691126 1.0532873 -2.4323 -0.17062414 -0.24155359 0.2740965 -0.24246015 -0.43240803 1.3166528 -0.083601095 -1.7745111 1.7648742 1.1074253 0.98881835 -0.929414 -1.8707871 -1.7794902 0.45805457 0.20985033 0.3204118 -2.0838294 -0.32105297 1.4617476 -1.1807579 0.81922776 0.18742521 1.822293 2.8346403 0.583679 -0.6027703 -0.053137917 3.0327945 -0.08963112 -1.9999466 -2.1246896 -0.40059608 0.016003551 -3.348534 -0.5507731 0.18987983
3717 0.74692696 2.6085029 5.2574773 -1.3257095 0.9525263 -0.2690527 1.3932781 0.16971955 4.637329 1.6580822 -0.859457 -1.0735987 3.3820446 -3.2164106 -1.9100448 1.9579196 -1.6024625 -3.7613049 -4.523414 -3.4121249 -1.9690312 2.2139714 -1.700494 2.2568944 0.28749636 0.9893108 -0.8938521 0.69779146 -2.957742 -3.4137986 -0.50404525 -7.2377934 -1.2017219 4.766033 0.94907063 0.26267081 -2.5854194 0.7937986 2.5102339 -4.38987 3.5723925 1.5033674 3.367043 1.6598068 -2.991988 0.13258623 2.9637506 0.1918509 2.6709328 -2.8953748 3.7495077 3.5824344 -1.1547903 2.1615374 -1.6939089 6.4035406 1.8584701 -1.6893175 0.4664873 -8.361656 -2.8136554 2.2433393 2.3591926 -3.061872
3565 -2.621833 3.5605896 3.7596617 -2.5378473 0.9281823 -0.57971925 -2.5579436 0.14579092 1.8456953 4.169562 -0.36335424 2.4110537 2.5158038 0.41613054 1.6762573 -0.36735728 4.678017 -1.8698294 -1.0571703 -0.15519711 0.27421853 1.3864862 -0.9524196 -3.8024538 -2.8343208 -1.8733482 -1.2195363 -4.5684495 -1.098947 4.48514 -0.02050551 2.836129 1.4752052 -0.22673565 -1.8033444 2.9752383 -0.72342825 1.687869 -0.53933585 2.413643 -0.68831056 1.0077832 -0.6498563 4.1961694 2.642902 2.7084844 0.18862154 -1.9179379 0.0832558 -6.304007 0.10627396 -0.66933084 2.9388146 3.4726472 -1.5711135 -3.486499 5.8300056 2.0884953 -2.4072318 -1.6272533 -1.4495597 -3.8540552 -1.6978934 -0.8467825
4513 -1.036153 0.56843734 -0.27888805 1.0384457 -1.0237042 -0.8050559 -1.3022876 3.0942347 -0.50172263 -3.0719676 -0.85355586 -0.3594306 4.3578577 1.0690773 0.18493798 -0.45187783 -0.039237805 -2.1269374 -1.9280319 3.0317445 1.1792448 -0.76921564 2.0850177 -0.9517791 0.06541452 1.4998361 -0.29009306 -0.38042757 -1.1010804 -0.15509972 -1.6055083 -1.3109494 1.4724225 -1.4836043 1.9985138 1.3702778 -1.3890194 1.6138732 1.9014871 -0.36617234 -1.6773793 1.2987632 -0.13099547 1.0924091 1.211241 1.8851163 -0.37392935 0.54608846 1.8932388 3.8869874 0.024194798 -2.3427696 -2.39084 -2.2540185 -0.85170203 -1.4462337 2.9412258 1.71876 1.7443099 4.845907 4.3252645 -3.086992 1.1001732 -2.8555753
C0206703 0.39033213 0.14349502 -1.1408445 0.67427206 3.152348 -1.1197263 -6.304577 -1.1360478 1.3859341 1.3833029 1.2455987 2.4707355 1.7786258 0.6466072 2.1350355 -1.1407107 2.2244353 2.9075062 -0.24556878 4.0402417 -2.939868 2.6131341 0.6793571 1.7689501 5.6872444 -2.9820943 -1.0708557 -2.8216238 -2.8228793 1.7361295 -0.42474106 -3.3268907 -0.07262173 0.10538106 -0.0829973 -4.332392 -1.5631411 0.62216204 -0.562662 -0.15709229 0.6994063 -1.6038039 -3.3495417 -0.6809815 1.0798397 -0.4489421 3.2337005 -0.77294815 2.6731024 0.6635431 -3.7144377 -0.4886917 3.6481504 0.87124634 2.39786 1.2326024 -1.7463552 -0.069438316 5.3132606 -1.6749136 2.9316118 -0.94289047 4.818953 5.2434144
5293 0.88193923 -1.1795636 0.8153278 -0.049347073 -0.5612159 0.16411118 -4.0091624 -1.3584776 1.3947039 -1.4063723 3.8816047 1.0296264 -0.64950436 -0.28859413 -0.6608131 -4.080256 -0.3540306 -1.6865623 -0.20487997 2.5045903 -0.22440854 2.1813955 -0.8368266 -2.2896974 1.5145429 0.53472465 -1.3200728 3.137306 -0.14227839 -0.19492581 -0.26438153 0.7719585 2.1812966 -0.09367182 0.43329552 2.038223 -0.1133457 -0.55382115 -0.6032968 -0.10074457 -0.38640684 -2.5422688 -3.625819 -2.5017042 2.0503054 -0.68575233 0.9981511 -2.206057 1.368194 0.61213356 -1.5590813 -2.9911795 -0.79654485 2.241379 -1.7064978 2.0690925 0.104022846 1.8632964 -0.76150805 -1.300917 -2.2623146 -0.44244415 -0.16308992 3.2672293
947 1.9592975 1.8321677 -0.6511549 -2.3405654 2.5820665 2.6019654 2.9727361 0.27527478 1.9562201 2.493985 1.0548213 -2.9929028 3.0970018 -3.8414836 3.3528416 4.1145463 -0.9835208 0.7268525 1.6899847 -0.97753537 1.2751012 2.3428724 -3.3481083 2.4198544 -0.6388478 -1.415317 -1.5357841 -0.7979835 -2.0702796 -5.143015 0.55872643 -2.8924608 -3.492936 3.269103 -1.6692315 -2.3874462 -1.1331347 0.62793136 4.5019155 -1.7103992 1.0817851 -2.379948 1.2712106 -0.5898744 -0.2265799 0.36936003 3.7534127 -3.229724 0.9117817 -2.359348 -2.7754128 1.7148025 0.36824432 -2.373388 0.24048138 4.7960753 0.99848336 -3.2327542 -1.4682872 -4.123106 -1.7212648 -1.9044334 0.5719438 -2.9642212
6285 -1.3042626 -0.6332853 -3.306824 0.75039303 2.248298 4.41525 3.0155258 5.3552756 -2.7166455 0.19994195 0.0423696 -5.165033 0.77970606 -0.33816895 3.6738482 -1.5854552 0.8180285 0.8659183 0.21202543 0.06902007 2.1808023 -0.9398947 3.7370276 0.6024006 -1.3937395 0.4478467 -4.3575377 -2.014074 5.731042 -0.85968906 1.0899038 -0.8175269 -4.1879983 -1.2900181 -1.5966613 -4.199236 2.1862767 0.34270215 2.6447277 -2.0818644 1.7155509 -2.1074283 3.5873818 2.150423 2.7895303 0.30039296 -1.400699 -3.0257642 0.0046140226 -3.998664 -4.2879763 -1.5212225 -0.1832505 -1.5182287 -1.5452975 0.3859481 -1.1904309 -3.1303294 2.2613218 1.962662 -1.1475663 -2.9449666 1.0668503 -1.5724648
28 -3.3352716 0.6437454 1.0463588 0.39060903 -1.0737517 -1.9065346 0.25726014 -1.1819952 -1.7708596 2.3936162 1.9743491 1.6740538 -0.93796337 0.55594534 1.7992089 1.296376 0.5141983 4.0914807 0.7169426 -2.279791 2.4458663 -0.8499079 1.826189 0.5119662 -1.6396269 -2.482989 1.7055933 -4.3882427 0.4654448 -1.1541328 0.15051074 0.3499071 -0.051234104 1.223408 -5.9850793 0.61459273 -4.618087 -3.7761645 2.365098 2.9278584 3.1037931 1.6723825 1.1582029 1.2890462 1.4407442 3.5001385 -2.8880517 4.818299 1.9713145 -2.5583894 -2.0748441 0.33500057 3.7191684 4.085126 1.028788 -4.789785 7.2078385 2.2227361 -2.6897314 -6.4167433 -1.3751979 1.2945706 -1.6819087 -1.8181303
C0431693 3.6692047 0.085690185 -4.983666 -3.1373003 -1.8864964 -0.579648 2.2122023 -2.0488143 -3.392039 -4.9584374 -1.1742483 -3.839228 -1.3544415 2.1325326 -2.0720525 -4.4120154 -6.9074125 -4.5257134 -0.92450106 1.244587 0.6354776 -4.63448 2.2653756 0.376091 -2.4722936 2.1634905 4.597789 -0.39812046 -3.635767 -2.4424312 1.1743027 1.684596 2.0607738 -8.143391 -1.3870536 1.3812363 -1.165418 -3.2091818 3.559789 5.4757543 -1.9137377 -0.33700454 0.30433446 2.4821303 0.41308376 -3.8262515 -3.3463006 -3.8656619 -0.2791355 -3.8407311 -0.051727496 4.3619294 -0.67892325 -0.758444 -8.008115 -2.7862923 0.30513424 0.6171965 -1.975616 -1.0643675 2.7824585 -4.5181494 3.3923745 1.3067281
5291 0.8164137 -0.9925111 1.1225756 0.14143384 -0.87471426 -0.2064828 -3.8841026 -1.6856661 1.1553777 -1.4380854 4.177489 1.1847422 -0.24140243 0.30477744 -0.5655551 -3.7657845 -0.24372801 -1.2147831 -0.5358364 2.2968469 -0.21293311 2.0486932 -0.7649119 -1.7824776 1.3586689 0.3614151 -1.4129008 2.3984902 0.28585455 0.4672052 -0.2569512 0.8472853 2.507289 -0.4302163 0.21604727 2.4196408 0.028375868 -0.4172097 -0.18934707 -0.7000706 -0.23864129 -2.5064902 -3.1854515 -2.40207 2.0145288 -0.9769863 0.85605043 -2.2260013 0.9057869 1.07845 -1.408056 -2.854036 -0.3554111 2.8252904 -1.8017602 1.6664168 0.15086071 1.8046112 -0.29294446 -1.1108346 -2.3308225 -0.6950134 -0.015223718 3.069781
948 4.393976 -1.4249145 1.9152433 -1.292483 0.6604254 -0.10756825 0.50150615 -2.0384896 -1.9025548 0.6015386 -0.120642245 1.2467858 -2.8544307 -2.2414486 -3.0992012 2.1697843 -5.212111 -1.2961521 -0.8166622 1.0558401 -2.2668772 1.3833754 -3.716761 1.7579676 -1.4166253 -3.6310053 0.9765845 -1.2091242 3.13907 1.8592799 -2.1823564 1.5232545 1.9511515 -0.5607369 -2.1474066 2.2548735 0.46577474 -3.5994701 -1.3340945 -3.162108 -1.7165242 1.6144885 1.527663 -0.35013413 -4.846716 1.3426677 2.0943255 1.4843855 -3.3187187 -1.4606373 2.313112 3.4855778 -0.099418834 -4.620615 -0.051800758 3.5260854 -0.7661076 -1.2459619 0.78127515 -2.6412868 2.33938 -2.8126667 3.2906327 4.043934
3557 -1.0453542 3.8331301 1.5141946 0.15716292 -4.828124 0.6655622 -2.6319487 1.283804 1.5636386 4.1739607 0.17339666 2.237233 3.923367 1.6087439 3.3292875 4.2292714 3.4409618 -1.8344512 -0.81396776 -3.1170657 0.098344505 -1.1825393 0.6327699 -5.9097133 0.50538266 1.6603547 -0.15450716 -3.2791443 -1.6294025 5.75395 -2.3013783 -0.5551906 4.046998 -0.99053055 0.15678887 2.4708219 1.0572566 1.3582922 -3.5137534 3.7842896 -1.632489 1.7562791 -1.7849874 2.844458 0.7915057 0.26404086 -1.7891703 -4.9947157 -0.60252506 -1.1402841 -2.8696392 0.17592995 0.1663568 0.20366234 -3.0918844 -0.86652863 2.9278264 -0.6772311 -2.4306786 -0.20292951 -3.3710227 -3.7348435 2.0321825 -1.4332396
133 -1.657223 -1.0785973 2.8881638 -1.8505117 2.5998461 0.20525864 -3.7188194 -1.1170276 2.5399473 -2.5664608 4.11122 2.076977 -2.9994843 0.29203296 -0.9521029 -3.5042262 -0.89449424 -0.08869532 -2.4360516 5.105709 -1.716177 1.5364054 -0.8169742 -0.8837286 -0.59180856 -0.7194258 0.19763996 2.074096 0.3831138 2.1923444 0.9417083 0.4838324 -1.798635 -0.46969 -0.020193344 -0.18307559 -0.90772897 1.0194988 3.2221026 -1.2458417 -3.0164557 -1.6920063 2.760914 1.8922521 2.412625 1.8925092 0.97029644 1.0000719 1.0522553 1.7345386 1.7982303 0.25469318 0.15073393 2.1791484 3.1358523 -1.6634616 -1.532599 -1.111611 -2.2891102 -0.17068826 -2.7414074 -3.7797847 -4.503819 -0.73969316
C1838260 -4.421115 -0.5770906 2.7050943 0.63113534 0.1352616 4.979353 -0.0655061 1.407041 -0.20759352 -4.4020524 0.9001065 -5.4630995 4.4881473 2.3079352 5.472854 -1.5985414 -2.5563822 -1.645771 3.5931602 0.37660944 -3.2152221 -2.600324 0.43094322 0.15466408 0.034258958 1.4455607 0.098629296 1.9398698 0.6230397 2.0031745 -0.57306105 2.1387038 1.9753854 -1.696456 -3.6535888 -3.1515586 -1.8184633 2.7906682 0.37059823 -0.7744501 -5.1111746 -2.614957 2.004803 -3.3003938 4.005269 -1.7837712 3.9470139 4.4597354 2.4826078 1.7447683 -0.6358559 0.14590305 -2.1427615 -3.1286516 1.8842744 2.749825 -3.3818853 -0.64536864 -3.1366467 -5.1790404 2.991612 -2.3594875 0.82671016 2.0761502
5294 0.97312284 -0.9399959 1.1387002 0.017466137 -1.0383362 0.4563668 -3.7624593 -1.7272717 0.669916 -1.2288703 3.6740856 1.2052244 -0.44218805 -0.04071953 -0.5726069 -3.4871445 -0.03770249 -1.4028723 -0.5374893 2.508631 -0.21389869 1.9971787 -0.7969134 -1.8928957 1.5583472 0.50110924 -1.6907161 2.913894 -0.07161643 -0.0036901643 -0.37341294 0.68823165 2.0704863 0.30163762 0.28867367 2.7111115 -0.01478083 -0.6656258 -0.7970212 -0.420283 0.30171692 -3.07301 -3.6385958 -2.328098 2.073488 -0.75876015 0.38694733 -2.235719 1.4167056 1.0492749 -0.9447544 -2.7434654 -0.9157314 2.6586761 -2.3134787 1.9358324 0.35351872 1.5850698 -0.48211384 -1.05042 -2.2473898 -0.4896181 -0.16822866 3.1863432
4878 0.8361012 0.7411554 -2.179638 1.1607784 -1.010389 -1.177283 -4.211625 -0.7110764 1.1068703 0.7572737 -1.2756664 -1.27594 0.6732951 0.44806078 2.1077197 -2.4243877 -0.20165156 -0.75350904 -1.5787541 0.6717605 0.80320525 2.0913188 -1.9415289 0.1324699 2.492856 0.61311555 -1.3929253 3.9478407 0.7402167 3.0599368 1.7906842 1.0202159 2.1557617 -2.218335 2.48701 -1.1471953 -1.2568643 5.5539136 -0.5250842 2.135878 3.1030238 -4.029822 -3.8285053 -2.047317 0.26635718 2.6062613 -0.8342161 -0.9328446 2.099375 0.0695316 1.4897429 -3.1557586 -0.87958986 2.7479634 -1.6477231 -0.67795175 0.85640514 1.5049607 -0.92875475 -1.4397404 -3.7821963 2.1137643 2.8012395 1.495029
387129 -1.962848 -1.4361267 -3.2589366 1.487016 -1.4277922 -1.4305867 -0.5372814 5.6281676 -2.5066311 -4.573374 -7.085573 0.70654666 -3.2840936 -2.731962 5.947704 -1.3270198 0.9432946 2.6316602 -1.576457 -2.5751781 1.225876 -5.8392296 3.7211607 2.4184177 0.6358566 2.3180356 -0.013609108 2.6568677 -1.9953511 0.1974697 0.49782243 1.311264 -0.41530403 -2.4625835 -0.39406967 -1.3390611 -3.5145197 1.6120417 1.166739 3.579144 2.8958356 0.08911891 2.1063924 -3.0647068 -1.7039104 1.5328658 -3.1262476 2.3005075 1.9021181 -1.1628835 2.6636684 0.68993855 2.9864905 1.6332759 2.9248142 -7.0240474 2.409483 1.3808769 2.473551 -2.196919 -2.5851061 1.3436201 3.2849422 -0.9371498
706 -0.9414178 -0.2265087 -0.987116 0.2799383 -1.4842886 -0.6010244 0.17384334 2.8740945 -1.835792 -0.47531325 -3.1464827 -0.31076995 -2.167723 1.0066624 2.3281107 0.6247087 -0.900306 1.159162 -0.7534123 -2.4841104 1.6836926 -2.7893407 -0.06826409 2.031009 2.2016518 2.5626614 2.4439752 -0.44192582 0.01752261 1.4295715 0.75211006 -1.5030811 0.16517828 -0.79183537 -0.4008271 -2.1450622 -3.0537477 2.1395228 -0.4809844 2.9794476 3.9901416 -1.1964132 2.035613 -1.7705762 -1.337705 3.2412984 -4.61599 3.1418173 3.364768 -0.38336867 -0.37935993 0.1334096 1.4173977 -1.5400792 1.1656305 -4.284259 0.113956876 1.8094482 1.3159509 -0.297544 -3.3776355 0.14124149 0.83719337 -1.8294826
958 0.27883142 1.2513508 -2.4230258 -1.4751638 0.6521861 1.0019089 -0.4737862 -0.9606845 1.7943465 1.1061225 2.5564046 -1.3739176 2.4855244 -3.7284904 3.9581401 1.3876966 -0.8734141 0.1091117 -0.49229166 0.4833125 2.6593022 0.24067268 -1.2392445 2.150253 -2.361387 -1.6969965 -4.4077334 -1.6481459 1.9004287 -0.17675725 2.3352792 0.23134702 -0.37020305 -0.38172826 -3.2044706 1.636162 1.0731747 1.8519629 2.8350918 -3.4268215 0.605036 -0.85522056 -1.6920307 0.6717974 -0.051754016 0.5928043 2.3334754 -4.4594965 3.36909 -1.3365421 -1.2394443 2.1784196 0.90946656 -1.2432097 1.0249903 2.772569 -0.65077084 -1.8231055 -2.1765788 0.13985138 -0.051358983 -2.661109 0.06959074 -2.6232753
3480 2.6806152 -0.96160984 1.7164488 1.4688079 -2.8550034 2.1175127 -0.64107764 0.7369925 -1.6545322 -3.8574083 2.0832841 1.5017475 0.72578263 -3.3893895 -0.31719363 -3.3435442 -2.5543866 -3.6782577 -0.9809897 4.6705894 1.017999 4.354616 -1.713926 -0.8268952 3.8654299 0.67511237 1.4409693 -0.36299896 0.48070866 -1.7758261 -0.15352108 0.22051492 2.359543 2.351939 0.9321036 1.3478063 1.0409201 0.31888625 4.0155554 -1.7696718 -1.5471263 1.2539531 -5.517695 -2.475965 -2.1294584 -0.84240305 6.706784 0.72503597 2.308534 2.5218294 -0.10850316 -0.70084554 -1.9994184 -1.5012854 -4.10933 3.4350522 2.7536967 2.2424302 1.0717503 -3.0410542 2.0167518 0.67885524 2.8306425 2.0832407
3383 -0.5108842 -1.6163352 1.2584337 0.5676853 -0.735142 -0.02431267 0.17753057 -5.028268 2.218136 -0.86329347 1.2374641 0.99063975 1.2323892 2.3319268 -1.274918 -3.7946455 0.8091645 -0.44596764 1.0152657 0.50955176 -2.3736763 3.274182 0.5951954 0.19516185 0.115951866 1.0024788 -2.9284463 5.0462174 0.78305644 0.5079136 0.6145997 -1.764716 -0.6061292 -3.3704472 -3.2982733 0.6536159 0.07007468 -1.4733627 -2.0307064 -1.4310644 -3.4961927 -0.5233858 -0.2263392 2.6183286 -0.45278838 0.369249 1.4762933 -1.3608378 -0.10309536 1.2472897 -3.135975 0.31458983 -2.0783021 -0.6532758 0.88802016 -4.397314 1.6777545 2.0890822 -2.1884375 0.11044368 -0.31082585 -3.3714175 -3.2690778 1.1992829
